/*
 * Copyright (c) 2019, Alliance for Open Media. All rights reserved
 *
 * This source code is subject to the terms of the BSD 2 Clause License and
 * the Alliance for Open Media Patent License 1.0. If the BSD 2 Clause License
 * was not distributed with this source code in the LICENSE file, you can
 * obtain it at www.aomedia.org/license/software. If the Alliance for Open
 * Media Patent License 1.0 was not distributed with this source code in the
 * PATENTS file, you can obtain it at www.aomedia.org/license/patent.
 */

#ifndef AOM_AV1_ENCODER_MISC_MODEL_WEIGHTS_H_
#define AOM_AV1_ENCODER_MISC_MODEL_WEIGHTS_H_

#ifdef __cplusplus
extern "C" {
#endif

#include "av1/encoder/ml.h"

#define MV_PREC_FEATURE_SIZE 18

#define NUM_DNN_LAYERS_ 1
#define NUM_DNN_FEATURES_ MV_PREC_FEATURE_SIZE
#define MV_PREC_LAYER_SIZE_0 32
#define NUM_LOGITS_ 1

const float av1_mv_prec_mean[MV_PREC_FEATURE_SIZE] = {
  108.74589347934295f, 106.78707181320422f, 0.43710122629983256f,
  464.92673876646f,    64.2471831304584f,   468.30306801212726f,
  0.8092221367482691f, 61.466695325580346f, 36.98572333589755f,
  115.78098556495769f, 110.88920313136342f, 219.12518666002987f,
  814293.5761799177f,  814293.5761799177f,  813333.4698855152f,
  680786.2811891941f,  758258.1642834517f,  13819001.92682927f
};

const float av1_mv_prec_std[MV_PREC_FEATURE_SIZE] = {
  62.250643460100726f, 63.4034872674593f,   13.624691375008691f,
  348.4563146528063f,  195.27111459001864f, 339.63601306707415f,
  2.4610792747020036f, 70.17151362800614f,  42.171187653297345f,
  135.76981308579616f, 189.3300502357006f,  275.7494688844871f,
  880950.7793083034f,  880950.7793083034f,  840059.6336464616f,
  415916.73640611727f, 520836.7710337011f,  16981276.1102879f
};

const float av1_mv_prec_nn_weights_layer_0[] = {
  -0.621983015248945f,     0.37002838476922745f,   0.034706609793057695f,
  -0.06370152193415088f,   0.20438076978245953f,   0.42822586784668054f,
  -0.1720274531397955f,    -0.09077356231741983f,  -0.25060436641315903f,
  0.22548877871874146f,    0.03564349107316187f,   0.02355097730253789f,
  -0.1510567231132157f,    -0.01307010032864518f,  -0.11119989623320153f,
  -1.1783822908224435f,    0.7263496368456218f,    0.5380549237140967f,
  -0.2795402306639758f,    -0.768553309450304f,    -0.04386684957989067f,
  0.1439058199432118f,     -0.11772353794275903f,  -0.19536039851896714f,
  -0.07070399551255765f,   -0.1358950180355623f,   0.03264712165572573f,
  0.06544742568517924f,    -0.19544374720962307f,  -0.0763510220439553f,
  0.3196117592518182f,     0.14991366409580492f,   -0.619626295967705f,
  0.9611970722831862f,     -0.49380047252497206f,  -0.5109796243127638f,
  -0.3737977792190284f,    -0.5735582442464231f,   -0.5390863517507879f,
  -0.5000335040892436f,    -0.054912118355362936f, 0.4195257374946097f,
  0.12707639593075198f,    -0.010010997354193418f, 0.22253244777411108f,
  -0.09942570790350658f,   0.156829141489256f,     -0.07922732310276459f,
  -0.28682368671227243f,   -0.6743898011145777f,   0.2030523703668332f,
  0.4397098635433075f,     -0.30506106384741377f,  0.2686607405345846f,
  0.6123433572706021f,     -0.1362078604941854f,   -0.6259470680629726f,
  0.8006982428610583f,     -0.017445661000220696f, 0.7965548805464616f,
  0.24088177563427457f,    0.28635506544280726f,   -0.09638754933740795f,
  -0.1085256186526636f,    0.07032596329927646f,   -0.21634213120135673f,
  -0.07550204873526299f,   0.005477795982558148f,  -0.5385982113557861f,
  -0.46464726939094597f,   -0.33806822204504255f,  -0.02149532701755095f,
  -0.16957146459340203f,   -0.48189270389635697f,  -0.10422779135007688f,
  0.6382190540124899f,     -1.1537294397100701f,   0.2780837989498297f,
  -0.12459537316351844f,   0.11689009659384114f,   0.28012946689039986f,
  0.07113270613647106f,    -0.05404922743166528f,  0.0787729720201711f,
  0.07864694951496543f,    -0.46184080830773505f,  0.22232736953690976f,
  0.41873378808817036f,    -0.24297489794549598f,  -0.4325695790598467f,
  0.20443476197113034f,    -0.1512559155893163f,   -0.4543939748458709f,
  -0.040929828730036914f,  0.40814302355081283f,   0.12837428408206145f,
  0.14303450965626602f,    0.20726291006017883f,   0.0029278070609580218f,
  0.013763307140365036f,   0.106035226761226f,     -0.24278203511876736f,
  -0.33386203818890586f,   -0.5708806323218372f,   -0.22279791134552773f,
  0.390727218281742f,      -0.8319843899667979f,   0.1062474432637856f,
  -0.12013470292378836f,   0.5260737810445447f,    0.37329967509413375f,
  -0.026686664548579746f,  0.33514202974427704f,   -0.20609571464650625f,
  -0.7140008774371275f,    -0.09540219358962541f,  -0.28528350662560875f,
  0.3986154309910244f,     0.5147448783737097f,    0.301147232012953f,
  0.24826139505267483f,    0.1949357759516078f,    0.0442596064504911f,
  0.11686569023815026f,    0.002621196750091248f,  -0.016908215770037278f,
  0.23477622155297276f,    0.46807407738301493f,   -0.005178401523946609f,
  -0.43120584684485475f,   -0.29848804100524184f,  0.40761999296843354f,
  0.28868728915049985f,    -0.41987217564341023f,  0.22238174582322934f,
  0.5752486751672289f,     0.3765734290741218f,    0.2908117669250766f,
  -0.31124441068632946f,   0.2932103408629351f,    0.20070571510348778f,
  -0.591147152638226f,     0.31524979563395505f,   0.2577941366526938f,
  0.0675576468135084f,     -0.36278299600709135f,  -0.5585404317843088f,
  0.21051347276804147f,    -0.0329800715004481f,   -0.39088688103708474f,
  -0.4420176951249307f,    0.2686131972105527f,    0.05524113146473266f,
  -0.035738914602763426f,  0.15822400817980398f,   -0.05411806538946957f,
  -0.11252930691802511f,   -0.1288698696524706f,   -0.4837403906375345f,
  -0.11749929116755863f,   0.3892095027513565f,    -0.11439402467647868f,
  -0.07228122372543667f,   -0.20947276926150996f,  0.05803362646730925f,
  0.38814481680347424f,    -0.04573778592639583f,  -0.4559610822260978f,
  -0.050262049468580136f,  0.36403090570257f,      -0.13976778436214518f,
  -0.6920834853723985f,    -0.0814593462974115f,   -0.11398827074808969f,
  -0.3125983510362361f,    -0.6785878080819363f,   0.2608199012405413f,
  -0.3981864819249284f,    0.41559302796913195f,   -1.189674621336978f,
  0.12187847243290655f,    -0.05337313549972134f,  0.23723848620963708f,
  -0.3606367849315023f,    -0.6567214312355469f,   0.9746561246862718f,
  -0.5759102973386792f,    0.10213976274198193f,   -0.04159926015670335f,
  -0.3402568427814525f,    -0.3191489487172478f,   -0.05295414060936092f,
  0.30998925311476816f,    0.7139964741254727f,    0.11194524802753902f,
  0.48746998143011455f,    -0.5382420239349364f,   -0.48003575520392705f,
  0.9256067385306974f,     -0.19406613802828598f,  -0.06302198467669712f,
  -0.0009148661438273423f, -0.3286821005829989f,   -0.08994979157627116f,
  -0.27226368344357915f,   -0.3336860477258429f,   0.019539741816004878f,
  -0.1024139675311408f,    0.038626848195269826f,  0.18605543837646177f,
  -0.3229626807553787f,    0.020479107851618442f,  -0.16788444193709737f,
  0.4150319881449829f,     -0.25921961044845065f,  -0.6719397648392508f,
  -0.06105292840760146f,   -0.2713360894743719f,   -0.28522337095344114f,
  0.12882728050069564f,    -0.15614403164425716f,  0.9846199739413298f,
  -0.4362064071546033f,    0.28647714529818347f,   -0.22486226128380896f,
  0.15575540974267943f,    -0.901140368341807f,    -0.015445535090621298f,
  -0.3211470681058433f,    -0.49233784481021114f,  -0.1291134356604856f,
  -0.1460875271133236f,    0.07128312927718009f,   0.022770664006461785f,
  -1.3215801512617777f,    0.4499925715617406f,    -0.14830900101081704f,
  -0.16459030417551596f,   0.13216793476721725f,   0.20365202947501093f,
  0.09558018548535586f,    0.2255487366834187f,    0.16299972194426476f,
  0.12705494523364186f,    -0.20269660689502472f,  0.2924800320100804f,
  -0.025849146609455562f,  0.22228224095312904f,   -0.3336801755803277f,
  0.7089126246897866f,     -0.3162079674824963f,   0.5317707159771634f,
  0.24335169596943174f,    -0.26049592256067583f,  0.12292446687274798f,
  0.043604295254740924f,   -0.35380133491201776f,  0.06037419989308322f,
  0.2207944090383745f,     0.6521780091961378f,    0.3762990831564708f,
  -0.13476724927969747f,   -0.31780938606611936f,  0.3858476114957833f,
  -0.7496431195770074f,    -0.8851944785361728f,   -0.17452156731360435f,
  0.8156034793755004f,     -0.33577476518108157f,  0.03202449746184766f,
  -0.016503535752542178f,  -0.3545025653421489f,   0.5266856160272643f,
  0.08419735711217301f,    0.4905408271397406f,    -0.5070928163379228f,
  -0.584125619089404f,     0.14303315039562828f,   -0.3996675407245051f,
  0.3673435697707267f,     0.1424526511538679f,    0.07562800790016956f,
  0.05069655422579471f,    0.15822437377442083f,   0.6384291375926403f,
  -0.12986146533134962f,   0.7901626701073237f,    0.10668812317007058f,
  0.23706154742356006f,    0.10509100502043647f,   -0.03158713581556901f,
  -0.11420380480359678f,   -0.3174699906628737f,   0.021732711527873077f,
  0.09982306777401376f,    -0.08826377712704228f,  0.11222371478373336f,
  0.21722199352573082f,    -0.08518872162904578f,  0.016272979225844433f,
  0.27293095268524453f,    -0.2858199856806085f,   0.20897669149520945f,
  0.390529949382549f,      1.0850540033477523f,    -0.24492489440467757f,
  1.014882693430808f,      0.5407135846910693f,    0.16409274693496398f,
  0.2868542136874428f,     -0.014632352937138805f, 0.1311308563684706f,
  0.2260050101549357f,     0.043885411850780605f,  0.38859748732484867f,
  -0.22805806202322945f,   0.30192345335233567f,   0.05765337718109343f,
  -0.016113094712308977f,  -0.2674830337853214f,   0.06818289540194115f,
  0.1477263466325952f,     -0.2575194571786722f,   -0.0636883492966696f,
  -0.020784219881724974f,  -0.257207090317212f,    0.11451016692433692f,
  0.11995744676843165f,    -0.02048104725275139f,  0.2752069907899621f,
  0.17969378323184143f,    -0.18181927587095306f,  0.38565536307178355f,
  0.17484755996832232f,    0.9391673517440966f,    0.03767338671045288f,
  0.36886767308049123f,    0.1290897502655314f,    0.024188941345853286f,
  0.4573669046306354f,     0.11921635137859977f,   -0.06263535274731817f,
  0.15018257931861997f,    -0.2700669874622083f,   0.004953664779053938f,
  -0.16740346596286773f,   0.05144482364419109f,   -0.706840325589336f,
  -0.03245359187627209f,   0.5153073327705257f,    0.11756183165712528f,
  -0.1658523813386739f,    -0.050032600345569375f, -0.12453064578314262f,
  -0.4062572144047552f,    -0.3734260723633589f,   0.031636173972502346f,
  -0.5783954089226194f,    0.5720050827119134f,    -0.032463850534430204f,
  0.16374015314261411f,    -0.5836475127725006f,   -0.1252890126047746f,
  0.09286636776536858f,    -0.3022290528607409f,   0.004421087886956225f,
  0.13188907347755377f,    0.18767684209287194f,   0.21673679323316783f,
  -0.732125641464145f,     -0.6352146281102394f,   -0.6304460102972091f,
  -0.09792591607325973f,   -0.1711902416729519f,   -0.45347062947604067f,
  0.4550395304778462f,     -0.20056581770230325f,  0.315234843089922f,
  0.3720399526303029f,     -0.06287412928773689f,  0.34176487384866155f,
  -0.12794686780125858f,   -0.16221159861951298f,  0.16222420159878786f,
  -0.02658457212481423f,   0.08475728686304669f,   0.20245136700121114f,
  0.17268288046436436f,    -0.7056247519523053f,   0.2743363442471242f,
  -0.2463525466041342f,    -0.28196465225660006f,  -0.07885170765904272f,
  0.5586647592734234f,     0.700272666555557f,     -0.027792972829950465f,
  0.5923518718754537f,     -0.8091741280076705f,   -1.1390755587227626f,
  0.5507088492722064f,     0.03555851139475585f,   0.05926299608044667f,
  0.11452675336638136f,    -0.41022366026778867f,  -0.3254734063982316f,
  -0.27672941121240535f,   -0.1839882397308407f,   0.06593990152450184f,
  -0.26783390709810145f,   0.15723331899804832f,   -0.3422083846588779f,
  -0.06356661131914652f,   0.3717763582013695f,    -0.13845149394465056f,
  0.08561124821343075f,    -0.5196085341613149f,   0.07234696570329538f,
  -0.010928148824585456f,  -0.791124511284634f,    -0.13408692659897162f,
  -0.08805902641790665f,   0.30308370238897187f,   0.3452466949385718f,
  0.16142227285736485f,    0.19345850489907213f,   0.15317852368452461f,
  -0.4392077029023986f,    -1.0440575835300223f,   -0.062123644308359975f,
  0.9057061812311195f,     -0.8015261328631961f,   0.1603207672794758f,
  -0.3506424985572577f,    0.1678021897293473f,    -0.20028489090744184f,
  -0.7380067168406874f,    0.6679724883619785f,    -0.4251214014415649f,
  -0.06332022881512119f,   -0.30010274238400647f,  -0.3117231929406675f,
  0.21535819808544565f,    0.3934218877110871f,    0.19960171945916413f,
  0.30633576572991394f,    -0.04133083200953168f,  0.2038884777822256f,
  -0.24487384126801634f,   0.030103128854647093f,  -0.5971403045455053f,
  0.02215787620464531f,    -0.15328737833448536f,  0.03788470041325846f,
  0.3481317281939171f,     -0.15566406134604077f,  -0.473978874930389f,
  0.01766596251560351f,    0.06316306901392142f,   -0.3378579558535457f,
  0.013131512178109218f,   -0.6356964761975755f,   -0.05148388753657383f,
  0.3296452121976753f,     -0.20031874596875113f,  0.0038657787889870643f,
  -0.028685113782333706f,  0.8236744653657407f,    0.7515216789852928f,
  0.39151464364818667f,    -0.6215522612946455f,   0.02885675790580886f,
  0.20115296734906088f,    0.215301695358377f,     -0.1837026344660974f,
  0.1410981882490414f,     -0.21457538816814464f,  -0.19923455652393163f,
  -0.38200528081270174f,   -0.27648818750534065f,  -0.4141719683597481f,
  0.3080911223973247f,     0.776106969439921f,     -0.4726041376028955f,
  0.8025602634409347f,     -0.3578501443814663f,   -0.28534748867471055f,
  -0.05259248319748923f,   -0.09380342654628816f,  -0.89059111296332f,
  0.6606889570679711f,     0.0778986369626014f,    0.2604049596700133f,
  0.2799541409516928f,     -0.24899200633942806f,  -0.06613820410115016f,
  -0.018215076870936358f,  -0.18110339567684164f,  -0.14348072925934124f,
  -0.15369573573967765f,   0.013999253716936298f,  -0.005264440417134847f,
  0.14353487761378994f,    0.06728688673845146f,   0.0470983333324108f,
  0.19533175908117076f,    -0.26281253558709794f,  0.09585601704689664f,
  -0.26848175463243945f,   0.8921864043629243f,    0.22195766034879255f,
  0.06392483580055955f,    0.0874991394601793f,    -0.018156218748287083f,
  0.02037019994082424f,    0.037175470381964386f,  -0.18325737259507005f,
  -0.37856147541418894f,   -0.3769135200480396f,   0.18083955938373278f,
  0.560432705576732f,      -0.2858485318033358f,   -0.14573801941464407f,
  0.027451880048783454f,   -0.22108486727955626f,  -0.05587802380379733f,
  0.7492604172526625f,     -0.04807748050037177f,  0.5236071238866811f,
  0.24333105615553366f,    0.1300451867572244f,    0.025757484541248675f,
  0.1965244476629096f,     0.11482554050056838f,   0.0005337571939818514f,
  0.1585031801243828f,     -0.17019925456555804f,  0.29082974353488183f,
  -0.043910986177268f,     -0.018138881288753097f, -0.5888424592449648f,
  -0.006371255969213026f,  -0.13092481279759133f,  -0.21390965381011087f,
  0.29447085273757306f,    -0.5786427228301176f,   -0.7956888010406604f,
  -0.0013517272526342118f, -0.034868982889200546f, -0.5122878222023262f,
  -0.1903258472127231f,    0.031158052087528632f,  -0.36235803397737454f,
  0.02962499897136332f,    0.15606240024596968f,   -0.06397205774337975f,
  -0.36536880409876915f,   0.11041475211347232f,   0.0026375850113318413f,
  -0.22892440006198153f,   0.26524430891522194f,   -0.09188065398366407f,
  0.3624229334422518f,     -0.061162589631177385f, 0.7101972212174313f,
  0.15056328219058393f,    -0.4846319535886649f,   -0.38059532768551274f,
  -0.2957477718688923f,    -0.3996899484656659f,   -0.24972476904698196f,
  0.17873240990572348f,    -0.25079052239534083f,  0.5251755234039991f,
  -0.0457271120876471f,    0.9116797433725661f,    -0.7115316384522719f
};

const float av1_mv_prec_nn_bias_layer_0[] = {
  -0.06328451605963605f, -0.2798640999369772f,  0.06873418155690658f,
  -0.36265979467245685f, 0.7231541414498204f,   -0.42544873761829993f,
  -0.3391113356019061f,  -1.0351873165645704f,  0.467020333618254f,
  0.2190955472095855f,   0.3831524933000946f,   -0.0465188667161171f,
  -0.2617712308412221f,  -0.4345392454591832f,  -0.13788245269033272f,
  0.6113309657995704f,   0.4155410845373443f,   -0.3266214345118939f,
  -0.0799587535906897f,  -1.364514539000251f,   0.17988761125517994f,
  0.03518972149616883f,  -0.4274879137123379f,  -0.09178878365671765f,
  -0.7233010044280141f,  0.6251192274602481f,   0.22630748440606357f,
  0.8065402241792642f,   0.028521136222407973f, 0.20700280508820498f,
  0.4234178912034992f,   0.06363638451369874f
};

const float av1_mv_prec_nn_weights_layer_1[] = {
  -1.1054190097334258f,  -1.1027267629799398f, 0.8203569122891885f,
  -0.9652750335022124f,  0.5899786907332697f,  0.513333595549311f,
  -0.40371863116942813f, -1.0324571681447863f, 0.44122250208792674f,
  0.4140714340826433f,   -0.8599927017324052f, -0.4379550108993984f,
  0.682364923758836f,    -0.7437511020694347f, 0.5042243644795473f,
  0.5786702105972631f,   0.5565893769335333f,  -0.7035334141920487f,
  0.4164572799375372f,   -2.2408557530707216f, -0.6686231036478567f,
  0.3642526974941559f,   -1.2258034307498673f, 1.3433494832153017f,
  -0.6409895616473551f,  -0.5630764219480905f, -0.9606208018661522f,
  0.6855637721475094f,   0.7714431070413093f,  0.35897627471465937f,
  0.5076800113247735f,   1.0690395820229692f
};

const float av1_mv_prec_nn_bias_layer_1[] = { -0.21651396751606225f };

static const NN_CONFIG av1_mv_prec_dnn_config_ = {
  NUM_DNN_FEATURES_,
  NUM_LOGITS_,
  NUM_DNN_LAYERS_,
  { MV_PREC_LAYER_SIZE_0 },
  {
      av1_mv_prec_nn_weights_layer_0,
      av1_mv_prec_nn_weights_layer_1,
  },
  {
      av1_mv_prec_nn_bias_layer_0,
      av1_mv_prec_nn_bias_layer_1,
  },
};

#undef NUM_DNN_LAYERS_
#undef NUM_DNN_FEATURES_
#undef NUM_LAYER_0_UNITS_
#undef NUM_LOGITS_

#ifdef __cplusplus
}  // extern "C"
#endif

#endif  // AOM_AV1_ENCODER_MISC_MODEL_WEIGHTS_H_
