/*
 * Copyright (c) 2019, Alliance for Open Media. All rights reserved
 *
 * This source code is subject to the terms of the BSD 2 Clause License and
 * the Alliance for Open Media Patent License 1.0. If the BSD 2 Clause License
 * was not distributed with this source code in the LICENSE file, you can
 * obtain it at www.aomedia.org/license/software. If the Alliance for Open
 * Media Patent License 1.0 was not distributed with this source code in the
 * PATENTS file, you can obtain it at www.aomedia.org/license/patent.
 */

#ifndef AOM_AV1_ENCODER_MISC_MODEL_WEIGHTS_H_
#define AOM_AV1_ENCODER_MISC_MODEL_WEIGHTS_H_

#ifdef __cplusplus
extern "C" {
#endif

#include "av1/encoder/ml.h"

#define MV_PREC_FEATURE_SIZE 18

#define NUM_DNN_LAYERS 1
#define NUM_DNN_FEATURES MV_PREC_FEATURE_SIZE
#define MV_PREC_LAYER_SIZE_0 32
#define NUM_LOGITS 1

const float av1_mv_prec_mean_lowres[MV_PREC_FEATURE_SIZE] = {
  108.74589347934295f, 106.78707181320422f, 0.43710122629983256f,
  464.92673876646f,    64.2471831304584f,   468.30306801212726f,
  0.8092221367482691f, 61.466695325580346f, 36.98572333589755f,
  115.78098556495769f, 110.88920313136342f, 219.12518666002987f,
  814293.5761799177f,  814293.5761799177f,  813333.4698855152f,
  680786.2811891941f,  758258.1642834517f,  13819001.92682927f
};

const float av1_mv_prec_std_lowres[MV_PREC_FEATURE_SIZE] = {
  62.250643460100726f, 63.4034872674593f,   13.624691375008691f,
  348.4563146528063f,  195.27111459001864f, 339.63601306707415f,
  2.4610792747020036f, 70.17151362800614f,  42.171187653297345f,
  135.76981308579616f, 189.3300502357006f,  275.7494688844871f,
  880950.7793083034f,  880950.7793083034f,  840059.6336464616f,
  415916.73640611727f, 520836.7710337011f,  16981276.1102879f
};

const float av1_mv_prec_nn_weights_layer_0_lowres[] = {
  -0.621983015248945f,     0.37002838476922745f,   0.034706609793057695f,
  -0.06370152193415088f,   0.20438076978245953f,   0.42822586784668054f,
  -0.1720274531397955f,    -0.09077356231741983f,  -0.25060436641315903f,
  0.22548877871874146f,    0.03564349107316187f,   0.02355097730253789f,
  -0.1510567231132157f,    -0.01307010032864518f,  -0.11119989623320153f,
  -1.1783822908224435f,    0.7263496368456218f,    0.5380549237140967f,
  -0.2795402306639758f,    -0.768553309450304f,    -0.04386684957989067f,
  0.1439058199432118f,     -0.11772353794275903f,  -0.19536039851896714f,
  -0.07070399551255765f,   -0.1358950180355623f,   0.03264712165572573f,
  0.06544742568517924f,    -0.19544374720962307f,  -0.0763510220439553f,
  0.3196117592518182f,     0.14991366409580492f,   -0.619626295967705f,
  0.9611970722831862f,     -0.49380047252497206f,  -0.5109796243127638f,
  -0.3737977792190284f,    -0.5735582442464231f,   -0.5390863517507879f,
  -0.5000335040892436f,    -0.054912118355362936f, 0.4195257374946097f,
  0.12707639593075198f,    -0.010010997354193418f, 0.22253244777411108f,
  -0.09942570790350658f,   0.156829141489256f,     -0.07922732310276459f,
  -0.28682368671227243f,   -0.6743898011145777f,   0.2030523703668332f,
  0.4397098635433075f,     -0.30506106384741377f,  0.2686607405345846f,
  0.6123433572706021f,     -0.1362078604941854f,   -0.6259470680629726f,
  0.8006982428610583f,     -0.017445661000220696f, 0.7965548805464616f,
  0.24088177563427457f,    0.28635506544280726f,   -0.09638754933740795f,
  -0.1085256186526636f,    0.07032596329927646f,   -0.21634213120135673f,
  -0.07550204873526299f,   0.005477795982558148f,  -0.5385982113557861f,
  -0.46464726939094597f,   -0.33806822204504255f,  -0.02149532701755095f,
  -0.16957146459340203f,   -0.48189270389635697f,  -0.10422779135007688f,
  0.6382190540124899f,     -1.1537294397100701f,   0.2780837989498297f,
  -0.12459537316351844f,   0.11689009659384114f,   0.28012946689039986f,
  0.07113270613647106f,    -0.05404922743166528f,  0.0787729720201711f,
  0.07864694951496543f,    -0.46184080830773505f,  0.22232736953690976f,
  0.41873378808817036f,    -0.24297489794549598f,  -0.4325695790598467f,
  0.20443476197113034f,    -0.1512559155893163f,   -0.4543939748458709f,
  -0.040929828730036914f,  0.40814302355081283f,   0.12837428408206145f,
  0.14303450965626602f,    0.20726291006017883f,   0.0029278070609580218f,
  0.013763307140365036f,   0.106035226761226f,     -0.24278203511876736f,
  -0.33386203818890586f,   -0.5708806323218372f,   -0.22279791134552773f,
  0.390727218281742f,      -0.8319843899667979f,   0.1062474432637856f,
  -0.12013470292378836f,   0.5260737810445447f,    0.37329967509413375f,
  -0.026686664548579746f,  0.33514202974427704f,   -0.20609571464650625f,
  -0.7140008774371275f,    -0.09540219358962541f,  -0.28528350662560875f,
  0.3986154309910244f,     0.5147448783737097f,    0.301147232012953f,
  0.24826139505267483f,    0.1949357759516078f,    0.0442596064504911f,
  0.11686569023815026f,    0.002621196750091248f,  -0.016908215770037278f,
  0.23477622155297276f,    0.46807407738301493f,   -0.005178401523946609f,
  -0.43120584684485475f,   -0.29848804100524184f,  0.40761999296843354f,
  0.28868728915049985f,    -0.41987217564341023f,  0.22238174582322934f,
  0.5752486751672289f,     0.3765734290741218f,    0.2908117669250766f,
  -0.31124441068632946f,   0.2932103408629351f,    0.20070571510348778f,
  -0.591147152638226f,     0.31524979563395505f,   0.2577941366526938f,
  0.0675576468135084f,     -0.36278299600709135f,  -0.5585404317843088f,
  0.21051347276804147f,    -0.0329800715004481f,   -0.39088688103708474f,
  -0.4420176951249307f,    0.2686131972105527f,    0.05524113146473266f,
  -0.035738914602763426f,  0.15822400817980398f,   -0.05411806538946957f,
  -0.11252930691802511f,   -0.1288698696524706f,   -0.4837403906375345f,
  -0.11749929116755863f,   0.3892095027513565f,    -0.11439402467647868f,
  -0.07228122372543667f,   -0.20947276926150996f,  0.05803362646730925f,
  0.38814481680347424f,    -0.04573778592639583f,  -0.4559610822260978f,
  -0.050262049468580136f,  0.36403090570257f,      -0.13976778436214518f,
  -0.6920834853723985f,    -0.0814593462974115f,   -0.11398827074808969f,
  -0.3125983510362361f,    -0.6785878080819363f,   0.2608199012405413f,
  -0.3981864819249284f,    0.41559302796913195f,   -1.189674621336978f,
  0.12187847243290655f,    -0.05337313549972134f,  0.23723848620963708f,
  -0.3606367849315023f,    -0.6567214312355469f,   0.9746561246862718f,
  -0.5759102973386792f,    0.10213976274198193f,   -0.04159926015670335f,
  -0.3402568427814525f,    -0.3191489487172478f,   -0.05295414060936092f,
  0.30998925311476816f,    0.7139964741254727f,    0.11194524802753902f,
  0.48746998143011455f,    -0.5382420239349364f,   -0.48003575520392705f,
  0.9256067385306974f,     -0.19406613802828598f,  -0.06302198467669712f,
  -0.0009148661438273423f, -0.3286821005829989f,   -0.08994979157627116f,
  -0.27226368344357915f,   -0.3336860477258429f,   0.019539741816004878f,
  -0.1024139675311408f,    0.038626848195269826f,  0.18605543837646177f,
  -0.3229626807553787f,    0.020479107851618442f,  -0.16788444193709737f,
  0.4150319881449829f,     -0.25921961044845065f,  -0.6719397648392508f,
  -0.06105292840760146f,   -0.2713360894743719f,   -0.28522337095344114f,
  0.12882728050069564f,    -0.15614403164425716f,  0.9846199739413298f,
  -0.4362064071546033f,    0.28647714529818347f,   -0.22486226128380896f,
  0.15575540974267943f,    -0.901140368341807f,    -0.015445535090621298f,
  -0.3211470681058433f,    -0.49233784481021114f,  -0.1291134356604856f,
  -0.1460875271133236f,    0.07128312927718009f,   0.022770664006461785f,
  -1.3215801512617777f,    0.4499925715617406f,    -0.14830900101081704f,
  -0.16459030417551596f,   0.13216793476721725f,   0.20365202947501093f,
  0.09558018548535586f,    0.2255487366834187f,    0.16299972194426476f,
  0.12705494523364186f,    -0.20269660689502472f,  0.2924800320100804f,
  -0.025849146609455562f,  0.22228224095312904f,   -0.3336801755803277f,
  0.7089126246897866f,     -0.3162079674824963f,   0.5317707159771634f,
  0.24335169596943174f,    -0.26049592256067583f,  0.12292446687274798f,
  0.043604295254740924f,   -0.35380133491201776f,  0.06037419989308322f,
  0.2207944090383745f,     0.6521780091961378f,    0.3762990831564708f,
  -0.13476724927969747f,   -0.31780938606611936f,  0.3858476114957833f,
  -0.7496431195770074f,    -0.8851944785361728f,   -0.17452156731360435f,
  0.8156034793755004f,     -0.33577476518108157f,  0.03202449746184766f,
  -0.016503535752542178f,  -0.3545025653421489f,   0.5266856160272643f,
  0.08419735711217301f,    0.4905408271397406f,    -0.5070928163379228f,
  -0.584125619089404f,     0.14303315039562828f,   -0.3996675407245051f,
  0.3673435697707267f,     0.1424526511538679f,    0.07562800790016956f,
  0.05069655422579471f,    0.15822437377442083f,   0.6384291375926403f,
  -0.12986146533134962f,   0.7901626701073237f,    0.10668812317007058f,
  0.23706154742356006f,    0.10509100502043647f,   -0.03158713581556901f,
  -0.11420380480359678f,   -0.3174699906628737f,   0.021732711527873077f,
  0.09982306777401376f,    -0.08826377712704228f,  0.11222371478373336f,
  0.21722199352573082f,    -0.08518872162904578f,  0.016272979225844433f,
  0.27293095268524453f,    -0.2858199856806085f,   0.20897669149520945f,
  0.390529949382549f,      1.0850540033477523f,    -0.24492489440467757f,
  1.014882693430808f,      0.5407135846910693f,    0.16409274693496398f,
  0.2868542136874428f,     -0.014632352937138805f, 0.1311308563684706f,
  0.2260050101549357f,     0.043885411850780605f,  0.38859748732484867f,
  -0.22805806202322945f,   0.30192345335233567f,   0.05765337718109343f,
  -0.016113094712308977f,  -0.2674830337853214f,   0.06818289540194115f,
  0.1477263466325952f,     -0.2575194571786722f,   -0.0636883492966696f,
  -0.020784219881724974f,  -0.257207090317212f,    0.11451016692433692f,
  0.11995744676843165f,    -0.02048104725275139f,  0.2752069907899621f,
  0.17969378323184143f,    -0.18181927587095306f,  0.38565536307178355f,
  0.17484755996832232f,    0.9391673517440966f,    0.03767338671045288f,
  0.36886767308049123f,    0.1290897502655314f,    0.024188941345853286f,
  0.4573669046306354f,     0.11921635137859977f,   -0.06263535274731817f,
  0.15018257931861997f,    -0.2700669874622083f,   0.004953664779053938f,
  -0.16740346596286773f,   0.05144482364419109f,   -0.706840325589336f,
  -0.03245359187627209f,   0.5153073327705257f,    0.11756183165712528f,
  -0.1658523813386739f,    -0.050032600345569375f, -0.12453064578314262f,
  -0.4062572144047552f,    -0.3734260723633589f,   0.031636173972502346f,
  -0.5783954089226194f,    0.5720050827119134f,    -0.032463850534430204f,
  0.16374015314261411f,    -0.5836475127725006f,   -0.1252890126047746f,
  0.09286636776536858f,    -0.3022290528607409f,   0.004421087886956225f,
  0.13188907347755377f,    0.18767684209287194f,   0.21673679323316783f,
  -0.732125641464145f,     -0.6352146281102394f,   -0.6304460102972091f,
  -0.09792591607325973f,   -0.1711902416729519f,   -0.45347062947604067f,
  0.4550395304778462f,     -0.20056581770230325f,  0.315234843089922f,
  0.3720399526303029f,     -0.06287412928773689f,  0.34176487384866155f,
  -0.12794686780125858f,   -0.16221159861951298f,  0.16222420159878786f,
  -0.02658457212481423f,   0.08475728686304669f,   0.20245136700121114f,
  0.17268288046436436f,    -0.7056247519523053f,   0.2743363442471242f,
  -0.2463525466041342f,    -0.28196465225660006f,  -0.07885170765904272f,
  0.5586647592734234f,     0.700272666555557f,     -0.027792972829950465f,
  0.5923518718754537f,     -0.8091741280076705f,   -1.1390755587227626f,
  0.5507088492722064f,     0.03555851139475585f,   0.05926299608044667f,
  0.11452675336638136f,    -0.41022366026778867f,  -0.3254734063982316f,
  -0.27672941121240535f,   -0.1839882397308407f,   0.06593990152450184f,
  -0.26783390709810145f,   0.15723331899804832f,   -0.3422083846588779f,
  -0.06356661131914652f,   0.3717763582013695f,    -0.13845149394465056f,
  0.08561124821343075f,    -0.5196085341613149f,   0.07234696570329538f,
  -0.010928148824585456f,  -0.791124511284634f,    -0.13408692659897162f,
  -0.08805902641790665f,   0.30308370238897187f,   0.3452466949385718f,
  0.16142227285736485f,    0.19345850489907213f,   0.15317852368452461f,
  -0.4392077029023986f,    -1.0440575835300223f,   -0.062123644308359975f,
  0.9057061812311195f,     -0.8015261328631961f,   0.1603207672794758f,
  -0.3506424985572577f,    0.1678021897293473f,    -0.20028489090744184f,
  -0.7380067168406874f,    0.6679724883619785f,    -0.4251214014415649f,
  -0.06332022881512119f,   -0.30010274238400647f,  -0.3117231929406675f,
  0.21535819808544565f,    0.3934218877110871f,    0.19960171945916413f,
  0.30633576572991394f,    -0.04133083200953168f,  0.2038884777822256f,
  -0.24487384126801634f,   0.030103128854647093f,  -0.5971403045455053f,
  0.02215787620464531f,    -0.15328737833448536f,  0.03788470041325846f,
  0.3481317281939171f,     -0.15566406134604077f,  -0.473978874930389f,
  0.01766596251560351f,    0.06316306901392142f,   -0.3378579558535457f,
  0.013131512178109218f,   -0.6356964761975755f,   -0.05148388753657383f,
  0.3296452121976753f,     -0.20031874596875113f,  0.0038657787889870643f,
  -0.028685113782333706f,  0.8236744653657407f,    0.7515216789852928f,
  0.39151464364818667f,    -0.6215522612946455f,   0.02885675790580886f,
  0.20115296734906088f,    0.215301695358377f,     -0.1837026344660974f,
  0.1410981882490414f,     -0.21457538816814464f,  -0.19923455652393163f,
  -0.38200528081270174f,   -0.27648818750534065f,  -0.4141719683597481f,
  0.3080911223973247f,     0.776106969439921f,     -0.4726041376028955f,
  0.8025602634409347f,     -0.3578501443814663f,   -0.28534748867471055f,
  -0.05259248319748923f,   -0.09380342654628816f,  -0.89059111296332f,
  0.6606889570679711f,     0.0778986369626014f,    0.2604049596700133f,
  0.2799541409516928f,     -0.24899200633942806f,  -0.06613820410115016f,
  -0.018215076870936358f,  -0.18110339567684164f,  -0.14348072925934124f,
  -0.15369573573967765f,   0.013999253716936298f,  -0.005264440417134847f,
  0.14353487761378994f,    0.06728688673845146f,   0.0470983333324108f,
  0.19533175908117076f,    -0.26281253558709794f,  0.09585601704689664f,
  -0.26848175463243945f,   0.8921864043629243f,    0.22195766034879255f,
  0.06392483580055955f,    0.0874991394601793f,    -0.018156218748287083f,
  0.02037019994082424f,    0.037175470381964386f,  -0.18325737259507005f,
  -0.37856147541418894f,   -0.3769135200480396f,   0.18083955938373278f,
  0.560432705576732f,      -0.2858485318033358f,   -0.14573801941464407f,
  0.027451880048783454f,   -0.22108486727955626f,  -0.05587802380379733f,
  0.7492604172526625f,     -0.04807748050037177f,  0.5236071238866811f,
  0.24333105615553366f,    0.1300451867572244f,    0.025757484541248675f,
  0.1965244476629096f,     0.11482554050056838f,   0.0005337571939818514f,
  0.1585031801243828f,     -0.17019925456555804f,  0.29082974353488183f,
  -0.043910986177268f,     -0.018138881288753097f, -0.5888424592449648f,
  -0.006371255969213026f,  -0.13092481279759133f,  -0.21390965381011087f,
  0.29447085273757306f,    -0.5786427228301176f,   -0.7956888010406604f,
  -0.0013517272526342118f, -0.034868982889200546f, -0.5122878222023262f,
  -0.1903258472127231f,    0.031158052087528632f,  -0.36235803397737454f,
  0.02962499897136332f,    0.15606240024596968f,   -0.06397205774337975f,
  -0.36536880409876915f,   0.11041475211347232f,   0.0026375850113318413f,
  -0.22892440006198153f,   0.26524430891522194f,   -0.09188065398366407f,
  0.3624229334422518f,     -0.061162589631177385f, 0.7101972212174313f,
  0.15056328219058393f,    -0.4846319535886649f,   -0.38059532768551274f,
  -0.2957477718688923f,    -0.3996899484656659f,   -0.24972476904698196f,
  0.17873240990572348f,    -0.25079052239534083f,  0.5251755234039991f,
  -0.0457271120876471f,    0.9116797433725661f,    -0.7115316384522719f
};

const float av1_mv_prec_nn_bias_layer_0_lowres[] = {
  -0.06328451605963605f, -0.2798640999369772f,  0.06873418155690658f,
  -0.36265979467245685f, 0.7231541414498204f,   -0.42544873761829993f,
  -0.3391113356019061f,  -1.0351873165645704f,  0.467020333618254f,
  0.2190955472095855f,   0.3831524933000946f,   -0.0465188667161171f,
  -0.2617712308412221f,  -0.4345392454591832f,  -0.13788245269033272f,
  0.6113309657995704f,   0.4155410845373443f,   -0.3266214345118939f,
  -0.0799587535906897f,  -1.364514539000251f,   0.17988761125517994f,
  0.03518972149616883f,  -0.4274879137123379f,  -0.09178878365671765f,
  -0.7233010044280141f,  0.6251192274602481f,   0.22630748440606357f,
  0.8065402241792642f,   0.028521136222407973f, 0.20700280508820498f,
  0.4234178912034992f,   0.06363638451369874f
};

const float av1_mv_prec_nn_weights_layer_1_lowres[] = {
  -1.1054190097334258f,  -1.1027267629799398f, 0.8203569122891885f,
  -0.9652750335022124f,  0.5899786907332697f,  0.513333595549311f,
  -0.40371863116942813f, -1.0324571681447863f, 0.44122250208792674f,
  0.4140714340826433f,   -0.8599927017324052f, -0.4379550108993984f,
  0.682364923758836f,    -0.7437511020694347f, 0.5042243644795473f,
  0.5786702105972631f,   0.5565893769335333f,  -0.7035334141920487f,
  0.4164572799375372f,   -2.2408557530707216f, -0.6686231036478567f,
  0.3642526974941559f,   -1.2258034307498673f, 1.3433494832153017f,
  -0.6409895616473551f,  -0.5630764219480905f, -0.9606208018661522f,
  0.6855637721475094f,   0.7714431070413093f,  0.35897627471465937f,
  0.5076800113247735f,   1.0690395820229692f
};

const float av1_mv_prec_nn_bias_layer_1_lowres[] = { -0.21651396751606225f };

static const NN_CONFIG av1_mv_prec_dnn_config_lowres = {
  NUM_DNN_FEATURES,
  NUM_LOGITS,
  NUM_DNN_LAYERS,
  { MV_PREC_LAYER_SIZE_0 },
  {
      av1_mv_prec_nn_weights_layer_0_lowres,
      av1_mv_prec_nn_weights_layer_1_lowres,
  },
  {
      av1_mv_prec_nn_bias_layer_0_lowres,
      av1_mv_prec_nn_bias_layer_1_lowres,
  },
};

#undef NUM_DNN_LAYERS
#undef NUM_DNN_FEATURES
#undef NUM_LAYER_0_UNITS
#undef NUM_LOGITS

#define NUM_DNN_LAYERS 1
#define NUM_DNN_FEATURES MV_PREC_FEATURE_SIZE
#define MV_PREC_LAYER_SIZE_0 32
#define NUM_LOGITS 1

const float av1_mv_prec_mean_midres[MV_PREC_FEATURE_SIZE] = {
  157.3876317677576f,  155.87336497599205f, 0.23282189966333683f,
  964.2685302720901f,  223.75774049340473f, 990.954357304487f,
  1.0333075776808875f, 96.04751917876263f,  62.21229096528506f,
  247.53303162426184f, 205.075086925327f,   448.2507864672443f,
  1666225.537198521f,  1666225.537198521f,  1665554.2826314918f,
  2039200.8355593577f, 2222478.0682432805f, 31223202.88790772f
};

const float av1_mv_prec_std_midres[MV_PREC_FEATURE_SIZE] = {
  71.52654187678624f,  72.87430498279483f,  13.941504463606991f,
  1011.3018014548401f, 635.6973041760272f,  1010.8879016772105f,
  5.104463129674133f,  142.44732040578356f, 94.96879381575314f,
  380.0253744480515f,  481.82945725780735f, 712.978827766294f,
  2256186.5856161625f, 2256186.5856161625f, 2232680.2686814545f,
  1249201.1882780325f, 1360190.4911846952f, 32409545.651345838f
};

const float av1_mv_prec_nn_weights_layer_0_midres[] = {
  -1.4182178957871763f,     -1.7507858951679947f,     0.997787169106056f,
  0.38239082527163504f,     -0.9164243720040177f,     0.5726817979877123f,
  0.16998516330734773f,     0.5247686798939234f,      -0.2851177674120276f,
  0.19674237305631645f,     -0.025294223641955244f,   0.02579875220995563f,
  -0.062292704837527746f,   0.104096294850587f,       0.3149512261828148f,
  0.09971048974947097f,     -0.11562803240502549f,    1.0545894237396936f,
  0.36726439484375145f,     -1.7364901253518465f,     -0.11336377132724065f,
  0.3838795191367575f,      -1.371769807893611f,      0.7732459350873013f,
  -0.16377576239521854f,    -0.23591429918651854f,    0.8617354345564832f,
  0.06294433309509444f,     0.1864646501032026f,      -0.5002852312832458f,
  0.14815104303885476f,     0.32386859492588366f,     0.06226025632151329f,
  -0.5038200428356279f,     0.1152215189702825f,      0.8152080180920939f,
  -1.804677910627883f,      1.2776238640947364f,      0.6962794131369926f,
  1.1569226603340894f,      -1.2691882157708347f,     1.2698731433906472f,
  -0.15146937354892764f,    -0.1324794602695553f,     -1.0472953026248137f,
  -1.6447357675510537f,     -0.9940388730670657f,     -0.8811556191491672f,
  0.36277021248299185f,     0.3197946257975331f,      0.0053389542426543575f,
  -0.10932455706913471f,    -0.4221232392462589f,     1.0608423775671816f,
  0.9510883901668439f,      -1.8719276898446304f,     0.0035922111562687016f,
  -0.7407831685386904f,     -0.22263582949704136f,    0.5496336385647145f,
  0.004394831861643503f,    -3.195751288045384f,      -0.3946121800579581f,
  -0.17992295663736785f,    -0.23168384223745356f,    -0.5456443625844455f,
  0.05132981981746515f,     0.04236294899570391f,     -0.7407901669678288f,
  0.5874613964966124f,      0.038485495630930906f,    -0.11779343570674511f,
  -1.5222940519311008f,     -0.1510533740561168f,     0.6027610615291116f,
  0.19486742952166508f,     -0.7804790674536022f,     -0.3537068737979111f,
  -1.4912986304846583f,     0.15483073400724312f,     -0.6392652752189062f,
  -0.3542188127762729f,     -0.16959524620205227f,    -0.5419550985902737f,
  0.6381944646649009f,      0.5796108628891488f,      0.7604155965859237f,
  -0.8690102474801948f,     0.2904772249832378f,      0.4289903078213475f,
  0.7930709909710403f,      1.7684887302096954f,      0.11037511740492477f,
  -0.4270640315804206f,     -0.21752261501874265f,    0.5413475944668658f,
  -0.3513695662301537f,     0.2750457737206958f,      1.080607402299176f,
  -0.16611054855017776f,    0.41514165020640154f,     -0.1897941639050626f,
  -1.0023868164670493f,     -0.7251725719420354f,     -0.70435771715812f,
  -1.4904732652174402f,     -0.2963493035730886f,     0.7838315354012096f,
  -0.0702230624960789f,     0.8368760340302492f,      -1.2587340464701653f,
  0.5363751868704889f,      -0.8287390892847637f,     0.5347133445257359f,
  -0.846790407767332f,      -0.12446488403930388f,    -0.03184240756240921f,
  0.14024760452389806f,     -0.06417771691275137f,    -0.1345206226834158f,
  -0.4773386634490038f,     -0.26858426706205946f,    -0.29840893715564293f,
  2.2171211521631973f,      -0.7335623008194072f,     -2.195699385456303f,
  -0.71871507941413f,       -0.2869293084376422f,     0.006161503154358815f,
  0.44273046265912525f,     -1.7258894499357023f,     1.8397082877142805f,
  -0.39010613191608373f,    -0.026971463392890593f,   -2.465822430116223f,
  -0.25550653934890283f,    -0.5562447909670397f,     -0.4590439884669669f,
  -0.24080795797884777f,    -0.034973799562220846f,   -0.5360771080968233f,
  0.37148355748271117f,     -0.552515814310052f,      -0.7372576498030953f,
  -0.7648184987548055f,     -0.17239588811954523f,    -0.031814032779848164f,
  0.3464487275953696f,      -0.8815926856649208f,     -0.002427587980143607f,
  -0.03855072973759137f,    0.5039751567197504f,      0.29094410364864115f,
  -1.196441200968212f,      -0.7763561456495208f,     -0.6220405601085552f,
  0.4600869784595583f,      0.3438448565641049f,      0.48724182731659554f,
  -1.906265225275625f,      -0.2640543252912181f,     -0.4938795140615356f,
  -0.000764975829726466f,   -0.0015505448949971544f,  0.00016785778375228485f,
  0.0001807826927871817f,   -0.0002474518778993645f,  -0.0018541218423781113f,
  -0.00011308719302573631f, 0.0013110520383098105f,   -6.022045253485102e-05f,
  -0.0003123636176340611f,  -0.00023799534119364095f, -0.0014840487229655524f,
  -0.002544478359266679f,   3.5043960644672896e-05f,  0.002194128359688202f,
  0.003976470522081044f,    0.0030540910125374855f,   -0.0039067678488640106f,
  -0.275276496109316f,      0.3617269218978742f,      -0.0061556045994817146f,
  0.014002526391751764f,    -0.35892448663024473f,    0.05116796489400111f,
  -0.04003801875046082f,    0.09468283321872169f,     0.045741576537013925f,
  -0.015581712149273192f,   -0.06873705713902914f,    -0.15922381491120116f,
  0.0374654894296648f,      -0.020311868393726357f,   0.0314797498957211f,
  0.10137593606842596f,     -0.11591703501287377f,    -0.04257275898601664f,
  0.3053021149540194f,      -0.14069430945192304f,    -0.03796260240811406f,
  0.515653547853446f,       -0.0811680898227733f,     1.039306508057578f,
  -0.3506082379075672f,     -0.9555693429224835f,     -0.47925334243338213f,
  0.8541702919627924f,      0.10034999574368576f,     0.18653377799886287f,
  -1.3859972194315773f,     -1.3223478632924774f,     -0.8889589198318965f,
  0.7699367839295478f,      -0.19247427847450616f,    -2.799747981400558f,
  -0.3251967832763525f,     0.43266646601389774f,     -0.011764840098855795f,
  0.2166816716782945f,      -0.3393303182974521f,     -0.09059701382053133f,
  -0.13997635613513199f,    -0.9231797515662217f,     -0.0029517027215437397f,
  -0.43620193024255444f,    0.11024843029360186f,     -0.6493611721243933f,
  0.42783705757005464f,     0.24489941220769268f,     -0.36533996349854914f,
  -0.5077153635481687f,     -1.3439457265076875f,     -2.3776571143598506f,
  0.6506099985326436f,      -0.6490106146541709f,     -1.1131183378953085f,
  -0.44561563725254916f,    0.1373210300155654f,      -0.31422059352237014f,
  -0.1127981406667254f,     1.5600479247043677f,      0.01325248590454035f,
  1.0949289930619757f,      1.2232844032494454f,      1.2329142947047527f,
  -1.239834004969859f,      -1.2960207427048078f,     -0.5709335231454132f,
  0.6749460808261926f,      -1.1239535430992968f,     -0.11406522671993936f,
  1.6436723937531f,         -0.10733206175454034f,    -0.012654040142189876f,
  0.25930886098275463f,     -0.07240596759445748f,    0.5409921012492456f,
  0.6594050416011308f,      -0.6821555547838417f,     -0.13644699900063806f,
  0.22409656458792496f,     0.6211937954672361f,      -0.39756311077153067f,
  0.10928351293677481f,     0.3397970913913757f,      -0.1113998330865832f,
  -0.4566780706015697f,     -0.32833870036045976f,    0.6550076163142239f,
  -1.4028324129153835f,     0.722226676444257f,       -0.0229527278972155f,
  0.14549723832335476f,     -0.11483018756949445f,    -1.1489512222235363f,
  -0.486846587900215f,      -0.062213220816354026f,   -0.8833642838467632f,
  -0.27749654267863505f,    0.32536987882011764f,     -0.38384865648568234f,
  -0.1333181778004676f,     0.029958949139854762f,    0.49857270315238433f,
  0.4557583727566044f,      -0.20225717872813143f,    0.3440029260015127f,
  -0.8711907593564515f,     2.053671315533646f,       0.04526278020148962f,
  0.4313379222203295f,      -1.185241105463759f,      1.1509591104208519f,
  0.026492567258377717f,    1.6358076587053256f,      0.08962662714760564f,
  -0.0680462867130461f,     0.2567086418576023f,      -0.3613192748904706f,
  -0.7141453082043161f,     -0.4918180106753798f,     0.17959856479441436f,
  -0.5170888397525324f,     1.2188183200947968f,      -1.0360231469117396f,
  0.27506976234396335f,     -1.0527558925588918f,     -1.8669390917205344f,
  -0.19864303722238025f,    -0.180149289557452f,      0.5994833786034006f,
  -0.02309226780894291f,    0.6030810278397919f,      -0.5791417923168598f,
  -0.09194599539944025f,    0.046291845808985974f,    -0.124405314636266f,
  -1.0176065148030737f,     -0.5989061812909525f,     0.2976368136535698f,
  1.3537177425478835f,      0.7118150989557118f,      -1.2428408531446955f,
  2.042378721294776f,       -1.3968673933079994f,     0.18703040241717692f,
  0.09006967273108096f,     -0.8534303576774227f,     1.0615028039084171f,
  -0.10419378193508905f,    -0.03846192947325385f,    0.8288766474065665f,
  0.5078148577627621f,      0.5602684387154031f,      0.5630085417160461f,
  -0.5584441906914108f,     -0.25314020819987687f,    -0.20306082962994823f,
  -2.6804756421341134f,     0.47679283054771565f,     -0.31540546371003925f,
  -1.0406582153538129f,     1.5202523162656347f,      2.762994668461079f,
  0.06628968215922959f,     -1.16647997305572f,       -0.00681453608213335f,
  -0.5036872074154172f,     0.28650095397571107f,     1.1379606615759472f,
  0.08593202639320054f,     0.45772298602000033f,     0.05187517701766324f,
  0.051549516026141f,       -0.2361786384511239f,     -0.44817002685429597f,
  -0.2457297321726497f,     0.05549997535759638f,     -0.26935816012900704f,
  -2.3799692368514243f,     -0.23688668093948628f,    -0.013492537562217412f,
  -1.0319113820668093f,     -1.545488912392516f,      0.1878316351714007f,
  0.2736433408856876f,      0.9694456091377033f,      -0.662683174477221f,
  -0.8583735646068283f,     -0.1915866929763843f,     -0.38368507021531345f,
  0.280575780471462f,       0.02624679985554003f,     0.15552040217073984f,
  -0.32035302655471165f,    0.4585222310698017f,      0.2268814958301093f,
  -1.1999078131384253f,     0.19394833893256155f,     1.2320603973992008f,
  -0.19294645105249963f,    -1.1974588109144153f,     -2.4339295382924315f,
  -0.3364588487201731f,     1.3549211995521113f,      0.8898232579201043f,
  0.1365343620793809f,      0.9517782486640433f,      -0.051064983462377596f,
  -0.8254237289823252f,     -0.3093591386131261f,     -0.8156384266061971f,
  0.04305243702380436f,     0.26925295875090005f,     -0.6685340782930783f,
  -6.406533980840655e-19f,  1.1516906254706669e-17f,  1.0611346380837027e-12f,
  -1.2909114922513073e-20f, -9.05499065919722e-31f,   3.6271571311784065e-25f,
  -1.1999660434533978e-13f, 2.725546614450973e-20f,   8.211996691418784e-26f,
  -7.424950276422484e-22f,  2.1471715504836154e-27f,  2.5534149303946424e-19f,
  -2.1492415908035357e-20f, -4.3746632010623004e-21f, 4.1594516728531574e-21f,
  -3.568299015129032e-18f,  -4.65115553603339e-19f,   2.355148438101908e-16f,
  -0.9505412571488089f,     -1.3087377087701264f,     0.11512503419737569f,
  -0.10413839824219509f,    -0.4349874634151817f,     -1.3842187030514814f,
  -0.2731212340390658f,     -1.7122055010673691f,     0.6511676856818329f,
  0.37636770120170876f,     -0.29918875433916714f,    0.27427038000551834f,
  0.21999738808893973f,     0.3336847723962144f,      -0.4736958003829721f,
  1.7816881590830014f,      0.1284091121209256f,      -1.022405014157752f,
  2.3479457559005117f,      0.44434141241475494f,     -1.2631784956640075f,
  0.23010527416715984f,     0.20391516967343154f,     -1.3228788714049953f,
  0.47139430154573697f,     0.9591057078870109f,      0.5921587591206305f,
  -0.018060679049710385f,   0.3036960609466895f,      0.1437824758715344f,
  0.05047637894328155f,     -0.1899451553155548f,     -0.18140685065046472f,
  0.35046828265955937f,     -1.3539061337364515f,     0.8403433430942175f,
  -0.8675414413661516f,     1.1971035146816225f,      -0.012711422330426245f,
  0.09928395204955646f,     0.2210334665409162f,      -0.05783468604020313f,
  -1.1541861822788533f,     0.7590182776271666f,      -0.22405445951856737f,
  0.7970093009460971f,      0.7006945424784382f,      0.6672774365158483f,
  0.3145858573643879f,      -0.1743176196251901f,     -0.049701806987776175f,
  -0.7311257492855807f,     1.0300125091124799f,      -2.0940484427895596f,
  -1.1840570869803964f,     -0.17927334946892778f,    -0.01338428365558059f,
  0.039480179286212745f,    -1.6309481830946253f,     0.08202813398341113f,
  0.21115893218442308f,     -0.14098533203493346f,    -0.18782389764128174f,
  -0.25114629702037944f,    -0.03952550974791253f,    0.1406254479333983f,
  -0.37786675393873176f,    0.10953999032506104f,     0.02806739340726204f,
  1.0689772660019352f,      0.7748034155943379f,      1.9694950037654253f,
  -0.211476491732902f,      1.9560934211261285f,      -0.0075780549516771f,
  -0.6669632974664784f,     0.8013894639356063f,      -0.5851740297826119f,
  -0.032788382920587444f,   0.5006185890584961f,      0.22787772681260038f,
  0.10854432299830997f,     0.48122063235798473f,     -0.31166417501650795f,
  0.37837104898903756f,     0.23798607727290053f,     0.46969918654336945f,
  -0.025485646933602023f,   1.2444248094227972f,      -0.8924329120587855f,
  -1.1776848115887462f,     -2.0963995356386675f,     -0.1990339041398665f,
  0.03696212215223836f,     0.24140172710742788f,     0.4704453763479894f,
  -0.7956895735656903f,     -0.28415616171881786f,    -0.5964471517675011f,
  -0.28914316429366255f,    -0.7823396798647617f,     -0.07037335570755943f,
  0.10615931562059329f,     0.23594622178231867f,     -0.1792267306811077f,
  0.11816287700099895f,     0.17943369322172775f,     0.13062946464802075f,
  1.0393166240778013f,      -1.7189820570257512f,     0.4655458010865871f,
  0.017127840138469238f,    0.5662437183951189f,      -0.034937115553857805f,
  -0.30713534466495146f,    -0.34696971227220436f,    0.529062106746229f,
  0.5459313323344464f,      0.24175971716471994f,     0.24479000465265696f,
  -0.14606536961992014f,    0.07122589579872174f,     -0.5133246564395437f,
  0.9063050717617639f,      1.049200666916138f,       1.5936437118461093f,
  -0.333240455846888f,      -0.5883713134553141f,     0.7508705059547417f,
  -0.8985835025729099f,     0.21635646502404826f,     -1.0212331823412255f,
  0.5529426395387435f,      2.0097631125225726f,      1.3549862315942185f,
  -0.2822668009616808f,     1.0029796582064114f,      0.3950325305138647f,
  -0.24320383143075736f,    -0.4138633324421777f,     -0.741222386944131f,
  0.909471504760328f,       0.5960812299914775f,      -0.3429461938385444f,
  -1.2179746668134193f,     0.3964341335148908f,      -0.06077355803480581f,
  0.8450826746860087f,      -0.8940416553685538f,     -0.6205710571223687f,
  -0.20630301456686848f,    0.38817881370805907f,     -0.4409719048284037f,
  -0.5125143777176532f,     -0.1102479954951149f,     -0.1671212365223931f,
  0.3129203473638231f,      0.7286140038086191f,      0.013893645498936374f,
  0.86640053486305f,        -0.664650340831106f,      -3.341611432749623f
};

const float av1_mv_prec_nn_bias_layer_0_midres[] = {
  0.9426723037955705f,   0.2164507885051614f,  -1.4952521612329979f,
  -2.57838612748202f,    1.1036833235322883f,  -2.417722721171114f,
  0.014112566069167365f, -1.0730310350988352f, -2.826943901025242f,
  -0.31276631600511f,    -1.18669639324168f,   -0.8130895607053034f,
  -1.2378150196518058f,  -0.1772545668017005f, 0.3777595441793968f,
  0.15648670357560243f,  0.3344408432734111f,  1.1454503105793905f,
  -3.2511743124297987f,  0.08787011321798226f, 0.7168961897635284f,
  -1.3757994822572273f,  -1.0693566438472641f, -2.1646309484112485f,
  -0.8602608012403448f,  0.22923615470202607f, -1.3151751197432797f,
  -1.409668328362424f,   -1.4186586855554626f, -2.6426383150715522f,
  0.44690459880879985f,  -1.554633394579552f
};

const float av1_mv_prec_nn_weights_layer_1_midres[] = {
  0.2926139628868361f,    0.17686965688497808f,    0.40124760846553137f,
  -0.8538960815866787f,   0.25684532341258165f,    0.4751647010801704f,
  -0.4573443918863116f,   -0.3554700648700016f,    -0.5419739624872116f,
  0.0018603295963861202f, -0.08306240728870146f,   0.48378845376870544f,
  -0.370329124977719f,    0.3386526280858544f,     -0.16822916561852388f,
  0.10527355310860913f,   -0.36510954479918684f,   0.4029543871290798f,
  0.701071838599748f,     -0.4285456416682469f,    0.2899347165865264f,
  0.4205245548288891f,    0.00023515783884771254f, -0.3960990225657729f,
  -0.35419593295694585f,  -0.22205275303957855f,   -0.39850829719685327f,
  -0.21071591410007934f,  -0.23229319579477672f,   0.3636006006220548f,
  0.23049291424177695f,   -0.5772516767133903f
};

const float av1_mv_prec_nn_bias_layer_1_midres[] = { 0.2942235743367928f };

static const NN_CONFIG av1_mv_prec_dnn_config_midres = {
  NUM_DNN_FEATURES,
  NUM_LOGITS,
  NUM_DNN_LAYERS,
  { MV_PREC_LAYER_SIZE_0 },
  {
      av1_mv_prec_nn_weights_layer_0_midres,
      av1_mv_prec_nn_weights_layer_1_midres,
  },
  {
      av1_mv_prec_nn_bias_layer_0_midres,
      av1_mv_prec_nn_bias_layer_1_midres,
  },
};

#undef NUM_DNN_LAYERS
#undef NUM_DNN_FEATURES
#undef NUM_LAYER_0_UNITS
#undef NUM_LOGITS

#define NUM_DNN_LAYERS 1
#define NUM_DNN_FEATURES MV_PREC_FEATURE_SIZE
#define MV_PREC_LAYER_SIZE_0 32
#define NUM_LOGITS 1

const float av1_mv_prec_mean_hdres[MV_PREC_FEATURE_SIZE] = {
  170.0191216014341f,  168.45888108754107f, 0.33742904093217807f,
  1678.6703764565282f, 267.2255751419181f,  1756.55706602928f,
  1.1657827905587093f, 170.1209665371975f,  123.20458619659397f,
  412.4927547057066f,  317.07652375261426f, 801.2345383925904f,
  2874843.1885270393f, 2874843.1885270393f, 2844001.113011652f,
  5667997.7798775025f, 6324936.8256647745f, 65830110.905811176f
};

const float av1_mv_prec_std_hdres[MV_PREC_FEATURE_SIZE] = {
  63.08057925385076f,  64.59999611733446f, 14.466212358219325f,
  1827.6648461464442f, 922.0338454025169f, 1852.667795872073f,
  6.970999002377844f,  268.567764639333f,  237.62626644294974f,
  675.8267321087382f,  786.9475318243548f, 1379.8800017149188f,
  4380678.115147566f,  4380678.115147566f, 4252060.142420559f,
  3955078.3404604527f, 4361469.557382927f, 76956069.25744995f
};

const float av1_mv_prec_nn_weights_layer_0_hdres[] = {
  0.2964353188176909f,     0.6055626951917003f,    -0.46368200954421646f,
  -0.41802120823600136f,   -0.30502859799361043f,  0.3056734200859178f,
  0.1302438344414458f,     0.050556986827730764f,  -0.04102530430596977f,
  0.7597884247924223f,     0.4478959840824436f,    0.2584249517869792f,
  -0.5770189858590627f,    -0.6498400857884985f,   0.42328778116680077f,
  0.8885522410925754f,     0.22197063431565f,      -0.0823812593648002f,
  0.16490602108167485f,    -0.49674330482868045f,  -0.23513078868867215f,
  0.6222712610676084f,     -2.545271764849609f,    0.12810797537574087f,
  -0.6573649439045823f,    -0.09805889162977006f,  0.23097143001941306f,
  -0.848770867676248f,     -0.30331034810146734f,  -0.49010632827555317f,
  0.043227123314986945f,   0.18005852542697706f,   -0.01189380260636742f,
  0.004576831097445304f,   -0.6048901308891125f,   0.286583357377517f,
  -0.06457396319997336f,   -0.5060002115960874f,   0.19848771627821676f,
  0.6046578667047658f,     0.13493707024373566f,   -0.2409986784434769f,
  -0.737202026110414f,     -0.6652741416132018f,   -0.6584458036829758f,
  0.19808725170940103f,    -1.4209868734143771f,   0.8650045101093223f,
  -0.21256215741443774f,   -0.3911425983810454f,   -0.16262703141282833f,
  0.2459053509378397f,     0.3839550212811508f,    -0.693288332878958f,
  -1.2622562913226547f,    -0.9555633789898065f,   0.3144723666670019f,
  -0.10266315345043288f,   -0.17014732207647937f,  0.5140152043945266f,
  -0.21843430605210729f,   0.3734684005046484f,    0.57525866969559f,
  0.3043202010796958f,     0.05553890536211248f,   0.5241239300908951f,
  -0.6254999441826485f,    -0.25960002802770826f,  0.28832985172959114f,
  0.4688274920851538f,     -0.057272958745368294f, -0.11391337471944686f,
  0.2646445604162071f,     -0.04764391483348618f,  0.3466439027273576f,
  0.5281777246347874f,     -1.0724722613957178f,   -0.764127406553578f,
  0.011163128947112648f,   0.5145071661656287f,    0.20238208549376782f,
  -0.35251297364202383f,   0.2038588711455077f,    0.12751442307569633f,
  0.4500093808142022f,     0.39788846069643186f,   0.4211706745089291f,
  -1.1708286198849105f,    0.25684977551093263f,   -0.2892423566970475f,
  -0.19530044688347126f,   -0.28470526347918085f,  -0.6137135153271428f,
  0.37535037231303287f,    -0.25235171822342406f,  -0.15307450255809255f,
  -0.21014813245051184f,   0.4274443330353344f,    -0.3270561528663336f,
  0.06897203011244725f,    -0.008980024466041226f, -0.14611159545961425f,
  -0.6571479495271149f,    -0.5812958111093771f,   0.014665037581711825f,
  0.30542817641439174f,    -0.9458527467584633f,   0.3617132208081235f,
  0.08515936466277674f,    0.22173981933557063f,   1.0420592420134371f,
  -0.3638615661248618f,    -0.7175961076965657f,   1.0107683394935403f,
  0.07582491995464877f,    0.0950574385327548f,    0.541298720296621f,
  -0.241441094108876f,     0.3301615498845166f,    -0.4588126001019974f,
  -0.31404714978837034f,   0.0049411155237349316f, -0.23669071552511994f,
  0.013812217651643074f,   0.31685311083398554f,   -0.49170688572390503f,
  0.40702628512000866f,    0.6082439023757433f,    -0.23110109668016982f,
  0.26389838443839225f,    0.12492159511721533f,   0.4282885708655271f,
  0.11839026082789404f,    -0.3862329746049996f,   -0.07467342087522362f,
  0.14804286078159776f,    0.5878069790461051f,    -0.32386754899121184f,
  0.27495772584236094f,    0.00914814150229023f,   -0.5351001555372246f,
  0.9478402999789105f,     -0.5253271376396952f,   -1.6253831133280425f,
  -0.24645914666718508f,   0.5982177314383713f,    0.0004610493366763119f,
  0.5376023424967156f,     -0.23575796558238338f,  -0.27535921156473364f,
  0.4480770220472538f,     0.5600991989535775f,    -0.9535440979592832f,
  -0.6115457007021776f,    -0.4233131382372567f,   -0.21468587887787402f,
  -0.03526148503340868f,   0.1647837116382338f,    0.021647426840047095f,
  0.08937338850747147f,    -0.5861102119564412f,   0.13197006063550193f,
  -0.6570466282554486f,    -0.44537416280306247f,  0.18978723099724537f,
  0.46537849688964866f,    -0.656376534376146f,    -0.30906568112108934f,
  0.6946229994255031f,     0.16318174563449236f,   -0.7639503814773753f,
  -0.3038258419634802f,    -0.6848844699660713f,   -0.38728727726188944f,
  0.27848323056492985f,    0.2579344548188813f,    -0.599763447694403f,
  -0.659379311934257f,     0.30597170305214066f,   0.655485791647124f,
  1.8324850058092583f,     -0.5390719340304116f,   0.018825280659525673f,
  0.6164782062438019f,     -0.8377982284590774f,   0.6804790331012177f,
  0.08495102107923932f,    0.3072878008132708f,    0.42505717820367866f,
  0.3354635654615873f,     0.4198888134456804f,    0.25841691528817645f,
  0.06111574907482018f,    -0.10566790253289421f,  -0.49209148600999036f,
  -0.09224683735367177f,   -0.847445092520944f,    0.64205840590857f,
  -0.17028259616110214f,   0.8289141052292652f,    -0.03834982646552258f,
  0.6766938517653145f,     -0.31986388036364855f,  0.019732953857358824f,
  0.16058427057817148f,    0.7013466605844403f,    0.264393613891814f,
  -0.2797355101815928f,    0.06850554294913339f,   -0.39315882823797815f,
  -0.0953246042568699f,    0.01349530723993498f,   -0.3197809784515234f,
  -0.18771450546245613f,   0.5419579141635492f,    1.2702989699219844f,
  0.5647818352457133f,     0.901135693347822f,     0.15476141274340882f,
  0.2623893314556646f,     -0.5093234325120867f,   0.30771184045249095f,
  0.0693691842847828f,     0.5058420638121959f,    -0.011939440709863268f,
  -0.5821550661905641f,    0.44977856761324836f,   -0.6563776961511778f,
  0.04980817021274279f,    0.11480138228287544f,   0.4658596495718446f,
  -0.07954383757123654f,   -0.06180472264017714f,  -0.5172489083154826f,
  0.37465542854290557f,    -0.5942633926584282f,   -0.9010371430641076f,
  0.3000870322079192f,     -0.13889699934179037f,  -0.2710883842357664f,
  -0.008751645512785266f,  0.06446529278635277f,   -0.06854187603440645f,
  0.20007439167961896f,    0.01717720657664002f,   0.05377546150585597f,
  0.06412754508317396f,    0.3908277099470697f,    -0.9319245628421089f,
  -0.9392138906937186f,    -0.8301130206225407f,   1.3375614768892918f,
  -0.15995030500033824f,   -0.3250998687597872f,   -0.17070302552373914f,
  0.044812775684687466f,   -0.21154460454985077f,  -0.73328900779818f,
  -0.37852559528572466f,   -0.42867757335516893f,  -0.05814473561173453f,
  0.23121067441620963f,    0.16215431953077578f,   -0.08986522289234687f,
  0.6805392034254348f,     0.6707823948576512f,    -0.20276166265624848f,
  -0.04098891579550064f,   -0.9170592638568654f,   0.9948568557434118f,
  0.4472666043503121f,     -0.9084048398467587f,   -0.17617520942400897f,
  0.34726142846644525f,    0.06910055351406756f,   0.41467425079676423f,
  0.10179761545695253f,    0.14764265661831355f,   -0.08067192692866353f,
  -0.12086922064923905f,   0.10405842413003119f,   -0.0985462472955266f,
  -0.6171220140149161f,    -0.6166462792346061f,   -0.42117419453136845f,
  0.4060841147598026f,     -0.9219573442161788f,   0.76503359357381f,
  0.48504134449807373f,    -0.8058118136298187f,   -1.2288942200896693f,
  -0.5177677212950218f,    -1.3154878434466213f,   0.33461493595527064f,
  -0.09441475555257772f,   0.20800639999756565f,   0.4135650866744621f,
  0.6870862636397225f,     0.5163579332234771f,    0.27029960647269796f,
  -0.8026382500366631f,    -0.704526733497234f,    -0.28406858382585953f,
  -0.14795713376171168f,   0.13585602638693914f,   0.44165438656416806f,
  -0.20307576621935083f,   -0.7853397186553703f,   0.03250762000174984f,
  -0.2271123847271938f,    -0.017448087595411606f, -0.6626866543756721f,
  0.30128249322324113f,    0.22757812399786506f,   0.21216334366684364f,
  -0.31989510080058886f,   -0.06084247241629155f,  -0.05704073817352534f,
  -0.0810092526819177f,    0.3623576155733468f,    -0.4874143805780872f,
  0.5320163094466054f,     -0.5480247427688724f,   -2.1593778360619287f,
  0.781646341932113f,      0.7513850371917526f,    -0.2455339125968135f,
  0.7889998886194605f,     0.09275116748737945f,   -0.02177078892427582f,
  0.5591546789119676f,     0.6659575490996098f,    0.522208392888276f,
  -0.6381262050452989f,    0.15464132516608745f,   -0.5758830491977872f,
  0.225158325677126f,      -0.15930074600248972f,  -0.009067740440094651f,
  0.00026848653225216104f, -0.13359279619298683f,  -0.49202430471506126f,
  -0.3506458657328356f,    0.3355722954615457f,    0.044533310703469935f,
  -0.2499240905016165f,    -1.5002343506825515f,   0.24123326342978854f,
  -0.142431130924032f,     0.266420100750069f,     0.15137069104296097f,
  0.5951792814545654f,     0.2288823235820385f,    0.06382336673698723f,
  -0.4030611689616134f,    -0.050129910957026985f, -0.30791247471928984f,
  -0.15352945366098802f,   0.1925220362396761f,    -2.076459554813289f,
  -0.10975227814452224f,   -1.046218816261336f,    0.2937223233538219f,
  -0.25813446906456167f,   -1.0078090948363532f,   -0.05957432730584287f,
  0.3850984888875068f,     0.6371596180632926f,    0.5823538545371458f,
  -0.3383642977241862f,    0.21555106798066712f,   -0.6484089251488196f,
  0.01634081923720203f,    -0.09407007815988637f,  -0.32165211216031603f,
  -0.0016597017933395702f, -0.49828186555491744f,  -0.21272572717624352f,
  0.6841113281369715f,     0.8468991648017512f,    0.6089614483975936f,
  0.3923110639074302f,     -0.11563286844465587f,  0.31783826024635314f,
  -0.31193813384081004f,   0.2803161176020711f,    0.20573058469758304f,
  0.2007785665658699f,     0.0014364190873967372f, -0.4471730874822566f,
  -0.3262672008061948f,    -0.19347791419284271f,  -0.2789154072016318f,
  -0.3313101649746327f,    0.8026124052349832f,    -1.128778806984052f,
  -1.1497249458342853f,    -0.8192050814961691f,   -0.410449427647335f,
  -0.10980147285869503f,   -0.0850241704631867f,   0.30045803042034724f,
  -0.07004929558984967f,   0.142154383225231f,     -0.46835839605515633f,
  0.3109406330989859f,     0.1741128461788511f,    0.23069660117944568f,
  -0.025008836235948396f,  0.10498567498425747f,   -0.6016527823115226f,
  -0.41938416187451194f,   0.7466530041155591f,    0.4469008329993184f,
  -0.04088503373663818f,   -0.29221216747489753f,  -0.44119259393685617f,
  0.08481466936833372f,    0.38629229876363386f,   0.3865232660183785f,
  -0.17744364798693876f,   0.267274775154248f,     0.016602516524994507f,
  0.4727924098777306f,     0.31362836783911735f,   0.02308761185059651f,
  0.07486935580747045f,    0.019319454797887214f,  0.4973122092076846f,
  0.12338135728210697f,    0.6648179034338046f,    -0.06988556215616035f,
  -0.2672818018408321f,    -0.923099926725469f,    -0.26424411511882073f,
  0.7977915861172828f,     0.27304441004501906f,   -0.051547025736160844f,
  -0.2053980190789705f,    -0.4499658863881286f,   0.008062141189036474f,
  -0.4645979686372261f,    -0.2252201028167051f,   -0.2583849819105238f,
  0.058499729573894266f,   0.4375582913819299f,    -0.6236658323204238f,
  0.4525396616349515f,     0.10080068658482014f,   -0.20819816341686287f,
  0.20240318656056222f,    -0.4415041463001237f,   -0.523500020210097f,
  0.7965156069935538f,     -0.06937487632616092f,  0.21132677092281804f,
  0.0512336455602351f,     -0.006570519829079101f, -0.031868113167579495f,
  0.09202648380584402f,    -0.8425088053109301f,   0.47659363572048746f,
  -0.2816742535848274f,    0.03391584898441126f,   0.34770591067062456f,
  0.4559296207857676f,     -0.1910005675374502f,   0.5274762894390257f,
  -0.15410332519765602f,   0.5477991874460607f,    1.1853330691512192f,
  0.007894696719666512f,   -0.6382078695417334f,   0.12505550150458966f,
  0.13043638912625477f,    -0.047167022919886836f, 0.566307929114783f,
  0.371950927859268f,      0.22476004734498964f,   0.2997843778864471f,
  -0.2542159609775499f,    0.013468499450113433f,  -0.3124276686884707f,
  0.121597966600314f,      0.8651860939881819f,    -1.1033742430169826f,
  0.2129539689766167f,     -0.01016554379991355f,  0.4810828360315586f,
  -0.5004121510114541f,    -1.2094077715672138f,   0.04972726059815349f,
  -0.7609498174544446f,    -0.5216349226471473f,   0.6044771149629555f,
  -0.3705070460398332f,    -0.17602165363041108f,  -0.2715231245409323f,
  -0.5179028073657489f,    -0.46939503916686853f,  -0.2285266385483055f,
  0.010857914613029724f,   0.8202481217837501f,    0.2396266946770317f,
  0.275192036825095f,      -0.43414546974179896f,  0.7562289731367645f,
  -0.8473364131764858f,    -0.38700082672230235f,  -0.9503051859965824f,
  0.8697283527076216f,     0.668050178515641f,     0.29030207602516267f,
  0.5046754081352337f,     0.31378152072459425f,   0.2833939211296032f,
  0.17029857702082574f,    -0.05721207671931441f,  -0.22623950247958727f,
  0.6874061604873772f,     -0.47805518279786025f,  0.1408701025715888f,
  0.9509829309282795f,     0.20000975168632895f,   0.2116536664351385f,
  0.28047195219089294f,    0.06324412492870168f,   -0.04013732472236935f,
  -0.2559468040308771f,    0.4533928570656484f,    0.3368658420980192f,
  -0.6003776915930565f,    -0.9897359779216414f,   0.0568602248961561f,
  0.44816750631030106f,    0.6496740868655104f,    0.44530524058805543f,
  -0.5482552604162428f,    -0.5914393532016522f,   0.14769861780612392f,
  1.1906380466545288f,     0.8063231111731489f,    0.12645565908948364f,
  -0.05211783530685366f,   -0.8097306049458584f,   -0.4977454943570522f,
  0.19670949433079796f,    -0.04127839776754934f,  0.523029662735419f,
  0.20669398226510582f,    -0.030978349223136404f, 0.05525202621311804f,
  0.02856742039773872f,    -0.20219049086207383f,  0.36437617880205436f,
  0.1242043961020308f,     0.04256111715910536f,   -0.11324932055011924f,
  -0.1492214428219381f,    0.03547797733976407f,   0.33042008168848386f,
  -0.12668282038432185f,   0.06401568911633812f,   -0.24007735618197168f,
  -0.14341496053054925f,   0.20470416704588018f,   0.023878583600999485f,
  -0.7141159906846968f,    -0.7223093814443469f,   -0.07660959201732083f,
  -0.3575634052638457f,    -0.0937703292130397f,   0.07548017465334879f,
  -1.2409864719756276f,    -0.8359914678848464f,   -1.0744583837193986f
};

const float av1_mv_prec_nn_bias_layer_0_hdres[] = {
  -2.1459036660845032f,  -0.06947429332324007f, -0.59744340612618f,
  0.6303720015938886f,   -0.45379210589918884f, 0.9006678741263815f,
  -0.27341847928218777f, 0.34108657710299733f,  -0.7037588308150556f,
  -0.539351987050044f,   -0.6570469176866429f,  -0.2818150275517366f,
  0.23840951595023502f,  -0.8832781296607646f,  -0.04188314062688037f,
  -0.9989906368312812f,  0.09196800143987453f,  -0.2532204386631474f,
  0.30799225642907313f,  -1.67271008990648f,    -1.2248110115686928f,
  -0.5931482348318449f,  -1.6193177486615757f,  1.1582185649185703f,
  0.1671193192212707f,   -0.5550176001977494f,  0.34449866011697117f,
  0.28056854555707755f,  -0.1279669104476244f,  0.6047559302180543f,
  -0.13499936414021746f, 0.1294160686729409f
};

const float av1_mv_prec_nn_weights_layer_1_hdres[] = {
  -1.0424686857945393f,  -0.7160854132634914f, -0.8094744471686969f,
  0.5716427660047937f,   -0.5150221153500198f, 0.6522365733675259f,
  -0.560981861052336f,   -0.6614208308811275f, 0.48241692628275806f,
  -0.5527008908785247f,  0.8994043006527274f,  -0.6927372726499162f,
  -0.4235665466014867f,  -1.1484850527728512f, -0.4235073749630957f,
  1.166501052933957f,    1.0754662546638378f,  -0.7954993295995759f,
  -0.3530084343304813f,  -2.861895457363536f,  0.9812854275690882f,
  1.0693721694496248f,   -1.0514113941636647f, 0.24057610427687015f,
  -0.22663579131760275f, -0.2779516152416836f, -0.7001519816463523f,
  0.3197510988074162f,   0.9473571798214656f,  -0.46947140333986714f,
  -0.4989401936720813f,  0.536974805736279f
};

const float av1_mv_prec_nn_bias_layer_1_hdres[] = { 0.8165730300309115f };

static const NN_CONFIG av1_mv_prec_dnn_config_hdres = {
  NUM_DNN_FEATURES,
  NUM_LOGITS,
  NUM_DNN_LAYERS,
  { MV_PREC_LAYER_SIZE_0 },
  {
      av1_mv_prec_nn_weights_layer_0_hdres,
      av1_mv_prec_nn_weights_layer_1_hdres,
  },
  {
      av1_mv_prec_nn_bias_layer_0_hdres,
      av1_mv_prec_nn_bias_layer_1_hdres,
  },
};

#undef NUM_DNN_LAYERS_
#undef NUM_DNN_FEATURES_
#undef NUM_LAYER_0_UNITS_
#undef NUM_LOGITS_

#ifdef __cplusplus
}  // extern "C"
#endif

#endif  // AOM_AV1_ENCODER_MISC_MODEL_WEIGHTS_H_
