
#define NUM_HIDDEN_LAYERS_128 1
#define NUM_FEATURES_128 6
#define NUM_LAYER_0_UNITS_128 64
#define NUM_LOGITS_128 1

static const float vp_logits_bias_128[] = { 0.611045f };

static const float vp_layer_0_kernel_128[] = {
  -1.32663f,   0.223f,       0.116919f,   0.730366f,    0.0271451f,
  -0.197892f,  0.0990525f,   -0.294783f,  4.33224f,     4.20699f,
  3.5929f,     3.93435f,     -0.0152211f, -0.227433f,   4.01078f,
  1.09702f,    3.90414f,     4.4328f,     0.521763f,    -0.708566f,
  -7.41709f,   -6.29209f,    3.14675f,    -6.57555f,    0.0262864f,
  -0.227393f,  5.21238f,     1.19569f,    4.52282f,     1.62554f,
  -0.18316f,   -0.0164045f,  -4.06084f,   -5.87352f,    3.06667f,
  0.89011f,    -0.0502736f,  -0.16885f,   0.00606543f,  -0.180394f,
  -0.0196215f, 0.097426f,    0.328508f,   -0.377114f,   -12.1972f,
  3.26848f,    -7.76704f,    1.2729f,     -0.285054f,   -0.234745f,
  -0.0769012f, 0.232483f,    0.0543981f,  -0.0128583f,  -0.116872f,
  -0.0500302f, 0.0748494f,   0.153187f,   -0.170412f,   -0.0180458f,
  -0.108995f,  -0.153451f,   0.219399f,   -0.287597f,   0.240412f,
  -0.288249f,  -0.0277024f,  0.0917666f,  -0.498882f,   -6.94398f,
  -3.42094f,   2.48107f,     -0.0809621f, -0.0661293f,  0.0391085f,
  0.106644f,   0.107947f,    -0.0364213f, -0.0983344f,  -0.264678f,
  0.150419f,   0.0861722f,   0.103255f,   0.210291f,    0.00302416f,
  0.369337f,   -1.41712f,    -4.05822f,   -3.56636f,    -0.974776f,
  -0.116939f,  -0.280743f,   0.196002f,   0.868819f,    0.61289f,
  -0.458725f,  -0.72091f,    0.257771f,   -0.513498f,   -4.27748f,
  2.50371f,    1.71026f,     -0.251377f,  0.381411f,    1.91897f,
  -5.0439f,    -2.66877f,    -1.15245f,   -0.0237367f,  -0.135966f,
  0.258104f,   0.136898f,    0.257293f,   0.106173f,    -0.506999f,
  0.373848f,   -3.77442f,    -1.25545f,   -0.718078f,   -3.672f,
  0.0188925f,  -0.00665539f, -19.973f,    1.35065f,     -4.49627f,
  2.08046f,    -0.943493f,   0.307114f,   -2.14023f,    -1.51706f,
  0.21129f,    -0.553814f,   -0.20514f,   0.00547626f,  0.0204564f,
  -0.018303f,  0.07323f,     0.0637714f,  1.06648f,     -0.656256f,
  -2.08575f,   1.13406f,     -1.06964f,   -0.948104f,   -0.0361407f,
  0.00164635f, 3.89705f,     -6.39822f,   0.905316f,    -3.21362f,
  -0.105016f,  -0.0633306f,  -0.281407f,  0.143207f,    -0.203278f,
  0.089317f,   0.115868f,    -0.311205f,  -0.314278f,   0.453597f,
  0.195507f,   -0.239958f,   0.0672893f,  -0.308972f,   3.17846f,
  -5.02599f,   3.32154f,     -3.24417f,   0.0269673f,   -0.271408f,
  0.663418f,   -1.56233f,    -1.06903f,   0.721322f,    0.692477f,
  -0.51733f,   2.07846f,     -1.138f,     -1.80241f,    -0.454697f,
  -0.29101f,   0.325304f,    -3.34395f,   1.92333f,     2.28978f,
  -1.9095f,    -0.23732f,    -0.0570278f, -0.00598893f, -0.100157f,
  0.0501257f,  -0.208779f,   0.849628f,   -0.560555f,   -3.08155f,
  0.633143f,   0.50205f,     -2.52047f,   0.0833651f,   -0.0744651f,
  -7.08172f,   0.877008f,    2.80383f,    -1.81197f,    0.0650402f,
  -0.278094f,  0.0486392f,   -0.284088f,  -0.266073f,   0.164255f,
  -0.54595f,   0.20056f,     1.92785f,    3.8138f,      0.560791f,
  0.901352f,   -0.00451178f, 0.00195908f, -3.53527f,    -3.72981f,
  -3.68567f,   -3.56765f,    -0.210826f,  0.511891f,    -3.06828f,
  -3.89831f,   -0.513215f,   -4.63142f,   0.0377635f,   -0.226493f,
  0.163827f,   -0.0492409f,  -0.161637f,  -0.0639064f,  0.0446971f,
  0.376851f,   -0.73426f,    -0.946805f,  0.255409f,    -0.324176f,
  -2.44523f,   0.298622f,    0.280087f,   -0.793156f,   0.947596f,
  0.19389f,    -0.281069f,   -0.267159f,  -0.190753f,   0.241904f,
  -0.042639f,  0.187637f,    -0.23513f,   0.53295f,     -5.14124f,
  -3.03504f,   -4.06317f,    -2.65043f,   -3.32981f,    0.443955f,
  1.06701f,    -1.17223f,    -1.5242f,    0.0196825f,   -0.0742912f,
  -0.0132299f, 0.0417763f,   -0.0961796f, -0.108122f,   0.127244f,
  -0.531358f,  0.270498f,    2.03512f,    2.66878f,     -2.98315f,
  -2.74164f,   -0.919782f,   0.29475f,    -0.860285f,   -2.68728f,
  1.10243f,    -2.689f,      -0.143436f,  -0.242458f,   0.0935477f,
  -0.187164f,  -0.179778f,   -0.247747f,  0.344956f,    0.587277f,
  3.19789f,    1.59107f,     0.677361f,   1.89051f,     -0.0908427f,
  -0.0242186f, -4.56113f,    5.26802f,    -0.706235f,   0.0756295f,
  -0.0413029f, 0.259504f,    -4.07394f,   1.47989f,     -2.959f,
  -5.90654f,   -0.101706f,   0.0671471f,  -5.62681f,    1.78714f,
  -9.87917f,   3.30769f,     0.219604f,   0.310038f,    0.968422f,
  -3.63927f,   -4.26705f,    -4.46996f,   -0.144191f,   0.00704627f,
  -0.131241f,  -0.0466832f,  -0.0163786f, -0.274338f,   -0.0410556f,
  0.0341516f,  -0.0678613f,  -2.44842f,   -7.39222f,    2.0686f,
  -0.251988f,  -0.25747f,    0.0326295f,  -0.162405f,   -0.111661f,
  -0.192958f,  0.0693186f,   -0.12659f,   -2.68836f,    1.53819f,
  0.989372f,   5.39105f,     0.221713f,   -0.387498f,   3.68312f,
  3.33114f,    3.9319f,      4.13953f,    -0.0855194f,  -0.111324f,
  -0.385682f,  -2.6091f,     -14.8253f,   -0.295082f,   -0.102709f,
  -0.0171995f, 0.147158f,    0.101893f,   -0.00726518f, -0.26142f,
  0.0170302f,  -0.0587693f,  -0.226497f,  0.145967f,    0.0395919f,
  0.253397f,   -0.236973f,   0.304434f,   2.51894f,     -0.0268348f,
  -1.29265f,   2.41712f,     -0.17502f,   -0.00918795f, 0.0792314f,
  0.216539f,   0.226553f,    0.0144646f,  -0.314497f,   0.398073f,
  -0.18218f,   -3.15992f,    -4.43154f,   0.925145f
};

static const float vp_layer_0_bias_128[] = {
  1.98042f,    -0.878057f,  -0.634458f, 1.80016f,  -0.469412f,  1.45643f,
  0.0f,        0.162471f,   0.0f,       0.0f,      0.0f,        1.17969f,
  0.0f,        0.0f,        -2.92156f,  3.85184f,  -1.57607f,   -2.24808f,
  0.0f,        0.187813f,   -0.721217f, 2.07728f,  -0.0749411f, 0.139892f,
  1.33561f,    0.0f,        0.142608f,  0.438496f, 3.96617f,    1.4632f,
  -2.82946f,   0.0f,        0.257096f,  1.72311f,  0.0f,        -2.20784f,
  3.49214f,    -1.73781f,   0.0f,       -4.0997f,  0.96095f,    0.0f,
  -1.25066f,   0.694592f,   0.0f,       -1.66402f, 0.150265f,   0.0f,
  -1.39043f,   -0.0364598f, 0.21742f,   -1.45866f, -0.881231f,  -0.0376366f,
  1.7795f,     0.0f,        -0.943595f, 0.119895f, 2.52299f,    0.0f,
  -0.0054041f, -2.94371f,   -0.028435f, -2.14473f
};

static const float vp_logits_kernel_128[] = {
  0.612953f,   -3.95594f,  -1.82944f,   5.58664f,    -2.13736f,  -0.841953f,
  0.159294f,   -5.22981f,  -0.0265641f, -0.0719624f, -0.190657f, 1.36072f,
  -0.242618f,  -0.203097f, 2.26438f,    2.69239f,    1.21065f,   -1.86364f,
  -0.0811064f, 0.0924551f, 6.59288f,    0.376413f,   -0.138554f, 2.01137f,
  2.1408f,     0.156507f,  0.236495f,   -5.28871f,   2.99905f,   -0.904585f,
  -2.24668f,   0.218719f,  -3.02896f,   1.64866f,    0.133082f,  -0.73375f,
  -11.6009f,   2.15462f,   -0.17893f,   -2.48587f,   5.34094f,   -0.0961728f,
  3.4153f,     -4.28691f,  -0.0416103f, 1.33087f,    -0.566514f, 0.174952f,
  -0.720424f,  -1.39977f,  2.03781f,    -2.87024f,   0.86541f,   -0.166898f,
  1.49949f,    -0.07692f,  -1.50098f,   -1.03001f,   -4.73489f,  0.250876f,
  0.201074f,   -0.713822f, -0.0831286f, -0.979198f
};

static const NN_CONFIG vp_nn_config_128 = {
  NUM_FEATURES_128,
  NUM_LOGITS_128,
  NUM_HIDDEN_LAYERS_128,
  {
      NUM_LAYER_0_UNITS_128,
  },
  {
      vp_layer_0_kernel_128,
      vp_logits_kernel_128,
  },
  {
      vp_layer_0_bias_128,
      vp_logits_bias_128,
  },
};

#define NUM_HIDDEN_LAYERS_64 1
#define NUM_FEATURES_64 6
#define NUM_LAYER_0_UNITS_64 64
#define NUM_LOGITS_64 1

static const float vp_logits_bias_64[] = { -0.81616f };

static const float vp_layer_0_kernel_64[] = {
  0.0352395f,   0.466938f,    -6.78302f,    -4.56801f,    -4.53981f,
  -5.7791f,     0.255348f,    -0.197447f,   2.08242f,     -8.05073f,
  -11.9635f,    0.0817563f,   -0.925586f,   0.227785f,    -0.302147f,
  -0.661683f,   -0.28263f,    -0.0741818f,  0.0736943f,   -0.106201f,
  -14.3537f,    -12.2176f,    1.91714f,     -8.89863f,    -0.0279012f,
  0.15957f,     -1.13018f,    -58.2968f,    -0.759739f,   -0.0134703f,
  -0.0640115f,  -0.148226f,   -0.0470708f,  -0.289046f,   -0.0726788f,
  0.162225f,    0.210421f,    -0.00337422f, -0.99712f,    -0.90493f,
  -1.10202f,    -1.02974f,    0.103182f,    0.0566354f,   -0.622603f,
  -0.24786f,    -0.368569f,   -0.613671f,   0.0791732f,   -0.664874f,
  3.0416f,      -0.365521f,   3.08469f,     -4.16222f,    -0.0736697f,
  -0.24262f,    0.134991f,    -0.151082f,   0.0879919f,   0.223716f,
  -0.0355952f,  0.0150329f,   5.97818f,     -6.18874f,    3.2411f,
  -5.82351f,    -0.0682944f,  0.108097f,    -9.3643f,     -3.88579f,
  4.59934f,     -1.05634f,    0.226625f,    -0.36534f,    -3.24943f,
  2.9851f,      0.356682f,    -7.92436f,    -1.08762f,    0.109289f,
  -0.642607f,   -0.5771f,     -0.696411f,   -0.603075f,   -0.010011f,
  -0.0881621f,  -0.073687f,   0.0993552f,   -0.180736f,   0.0428371f,
  -0.00533014f, 0.0804083f,   -0.319818f,   -0.137837f,   -0.178977f,
  -0.257716f,   -0.216725f,   -0.075473f,   0.167984f,    -0.00120923f,
  0.185136f,    0.0270108f,   -0.694755f,   0.0964093f,   0.701444f,
  1.14165f,     0.485751f,    0.409295f,    -0.176778f,   0.0119668f,
  0.320813f,    -1.85621f,    6.75194f,     -5.45097f,    -0.675536f,
  0.25987f,     -1.93619f,    -2.14782f,    -1.25884f,    -1.35677f,
  0.12293f,     -0.389064f,   -0.854672f,   -0.627746f,   -3.01243f,
  -2.17106f,    0.122337f,    0.0269773f,   -0.419093f,   -0.200717f,
  -0.308417f,   -0.224342f,   0.161645f,    -0.623537f,   2.90644f,
  0.340436f,    1.28494f,     1.89109f,     0.00228214f,  -0.122939f,
  0.0178923f,   -0.267379f,   -0.09759f,    -0.321908f,   0.0128104f,
  -0.57395f,    -7.08992f,    2.29855f,     -1.32012f,    1.96562f,
  0.467078f,    -1.10351f,    3.01862f,     -2.31958f,    -6.24339f,
  0.380668f,    -0.120061f,   -0.518565f,   2.56065f,     -1.76324f,
  3.43193f,     3.94816f,     0.00916575f,  0.045529f,    -0.133234f,
  0.129175f,    -0.579192f,   -0.00772919f, 0.469322f,    -0.471511f,
  1.38223f,     4.11594f,     3.23864f,     7.98499f,     -0.00481905f,
  0.0759119f,   -0.452334f,   -0.152159f,   -0.21052f,    -0.482962f,
  0.471647f,    -0.57984f,    5.73168f,     -1.18015f,    6.28303f,
  2.71136f,     -0.118f,      -0.033037f,   -0.137994f,   0.0867091f,
  -0.0488486f,  -0.140324f,   -0.102056f,   -0.208544f,   0.245663f,
  -0.307464f,   0.150861f,    0.0972947f,   -0.774653f,   -0.103146f,
  3.02325f,     2.87301f,     3.09814f,     3.33669f,     0.0736061f,
  -0.460304f,   -4.08236f,    3.47361f,     -3.1359f,     4.18641f,
  -0.260026f,   -0.19194f,    -0.225782f,   -0.136664f,   -0.193816f,
  0.0316507f,   0.303853f,    -0.613539f,   7.28611f,     4.14499f,
  2.62749f,     2.8208f,      -0.195933f,   0.127159f,    -90.6142f,
  0.696193f,    -0.824798f,   0.436628f,    0.00511728f,  -0.0704628f,
  -4.29783f,    3.33066f,     -3.06247f,    -6.46316f,    -0.0384204f,
  -0.457765f,   2.09737f,     -0.602015f,   3.32542f,     -2.22187f,
  -0.0477986f,  -0.0348819f,  0.130514f,    0.0652937f,   -0.0555858f,
  0.070984f,    0.373155f,    0.278838f,    -0.443251f,   -5.93756f,
  -9.94251f,    1.06852f,     0.244607f,    -0.407001f,   4.88805f,
  4.96511f,     5.28724f,     4.43838f,     -0.642659f,   0.457999f,
  -1.92365f,    -5.6678f,     -0.364836f,   4.55038f,     -0.170936f,
  0.00456693f,  -0.00979328f, -0.151676f,   0.00045495f,  0.0839625f,
  -0.587426f,   -0.201448f,   -6.189f,      0.780329f,    0.0441559f,
  0.931457f,    -0.280278f,   -0.0943f,     0.0506247f,   -0.284705f,
  -0.287528f,   0.147979f,    -0.803934f,   0.283275f,    -0.780598f,
  -0.891618f,   -0.508606f,   -0.41544f,    -0.453384f,   0.117878f,
  -2.386f,      -2.01438f,    -1.65912f,    -1.95338f,    -0.1378f,
  -0.146598f,   0.0436063f,   -0.223024f,   -0.0553583f,  0.165798f,
  -0.0258595f,  -0.0907751f,  0.129774f,    0.0724385f,   0.0747209f,
  0.0787133f,   -0.018843f,   -0.0470398f,  0.148663f,    0.022563f,
  0.180489f,    -0.181513f,   0.202261f,    0.000217922f, -0.685726f,
  -0.496135f,   -0.445501f,   -0.761969f,   -0.141746f,   0.189442f,
  -1.09001f,    -4.21663f,    -8.70685f,    4.75006f,     -0.422471f,
  -0.106978f,   4.65603f,     4.76134f,     4.48008f,     4.11717f,
  0.686764f,    -0.67304f,    3.46805f,     -4.5196f,     1.14454f,
  1.77811f,     -0.106275f,   -0.00757538f, -0.269728f,   0.143893f,
  -0.0471696f,  0.00310642f,  -0.130643f,   -0.163434f,   -0.232567f,
  0.0184588f,   0.236604f,    -0.264273f,   0.110759f,    -0.437369f,
  -0.301002f,   -0.635663f,   -0.271722f,   0.0408593f,   -0.184508f,
  -0.661067f,   -0.939165f,   -7.65875f,    4.05073f,     1.13322f,
  -0.014068f,   -0.00196428f, -4.22401f,    -4.19968f,    -4.16517f,
  -4.16271f,    -0.139617f,   -0.217557f,   -0.222468f,   0.263572f,
  -0.00547826f, 0.0822021f,   0.482382f,    -0.748818f,   -0.785755f,
  2.94673f,     3.70621f,     -0.196068f,   1.12636f,     -0.36943f,
  -2.44998f,    -2.38798f,    -2.16464f,    -1.86664f
};

static const float vp_layer_0_bias_64[] = {
  -0.370165f, 1.95686f,   2.83814f,    1.62882f,    -0.45785f,   0.0f,
  -1.99833f,  -1.6234f,   3.21177f,    -0.0598771f, 0.667055f,   1.51741f,
  2.90461f,   2.43096f,   0.0f,        -1.2857f,    -0.0347485f, -2.16902f,
  -0.618468f, 2.59185f,   4.83101f,    -1.31419f,   2.73168f,    -0.049043f,
  3.25403f,   5.80251f,   2.51628f,    -1.14198f,   -0.190924f,  -1.58489f,
  1.43969f,   0.0f,       -0.0250863f, 1.88056f,    2.17605f,    0.0f,
  1.45271f,   -0.274143f, 3.23913f,    2.26616f,    -0.0499438f, -1.85973f,
  -1.62225f,  -2.81898f,  -0.0709593f, 2.35352f,    0.0f,        2.43636f,
  3.46131f,   0.0f,       -0.096241f,  -0.0371956f, -1.81313f,   1.08746f,
  0.115759f,  3.34126f,   -0.0496382f, 0.0f,        -0.617259f,  2.56912f,
  4.09684f,   0.0f,       3.89253f,    -0.0976422f
};

static const float vp_logits_kernel_64[] = {
  1.71826f,   -0.951754f, 0.314312f,  -0.912982f, -1.69161f,   -0.190304f,
  0.744052f,  0.969767f,  2.37816f,   0.202739f,  0.874155f,   0.562148f,
  -1.02974f,  1.13496f,   -0.109136f, 0.575856f,  0.225661f,   -0.844897f,
  -0.797721f, 0.309681f,  1.84545f,   0.61028f,   -2.45605f,   -0.189321f,
  2.34774f,   0.790812f,  1.36367f,   0.126542f,  -0.892157f,  0.985861f,
  -0.752214f, -0.074303f, 0.278301f,  0.405564f,  -0.697135f,  0.12332f,
  -0.982057f, -2.2366f,   0.548949f,  -1.98235f,  0.00894897f, 0.420666f,
  -2.48227f,  -0.544673f, -0.23429f,  -1.34903f,  -0.0792006f, 0.352543f,
  0.299311f,  0.232118f,  0.0653077f, 0.0871608f, 1.74413f,    0.699613f,
  -0.744163f, 0.424912f,  -0.207757f, 0.10896f,   0.0767927f,  1.47816f,
  -5.21075f,  0.155869f,  0.763999f,  -0.518706f
};

static const NN_CONFIG vp_nn_config_64 = {
  NUM_FEATURES_64,
  NUM_LOGITS_64,
  NUM_HIDDEN_LAYERS_64,
  {
      NUM_LAYER_0_UNITS_64,
  },
  {
      vp_layer_0_kernel_64,
      vp_logits_kernel_64,
  },
  {
      vp_layer_0_bias_64,
      vp_logits_bias_64,
  },
};

#define NUM_HIDDEN_LAYERS_8 1
#define NUM_FEATURES_8 6
#define NUM_LAYER_0_UNITS_8 64
#define NUM_LOGITS_8 1

static const float vp_logits_bias_8[] = { -0.702483f };

static const float vp_layer_0_kernel_8[] = {
  0.268184f,    -0.116446f,  -0.21115f,    -0.0533273f, -0.276109f,
  -0.206863f,   0.161293f,   0.17845f,     -0.322717f,  -0.880713f,
  0.0998494f,   -0.351948f,  -0.0115549f,  -0.134679f,  1.20456f,
  1.18207f,     1.33054f,    1.28459f,     0.252854f,   -0.165818f,
  0.458455f,    0.612261f,   0.49474f,     0.537229f,   -0.221901f,
  -0.209055f,   0.126135f,   -0.114135f,   -0.0116186f, 0.0650454f,
  -0.492484f,   0.23703f,    0.790478f,    0.508591f,   -0.658452f,
  -0.0659589f,  0.0336229f,  -0.117267f,   -0.0147144f, 0.0625904f,
  -0.214147f,   -0.274519f,  -0.219676f,   0.11373f,    -0.515542f,
  -0.118362f,   -0.58705f,   -0.34674f,    0.0214659f,  -0.0304323f,
  0.0476871f,   0.329905f,   0.00762404f,  -0.0758123f, 0.224099f,
  0.0357025f,   -0.398834f,  0.283368f,    -2.65222f,   1.61655f,
  -0.426187f,   0.19465f,    0.0406501f,   0.103541f,   -0.14503f,
  0.0224268f,   -0.6898f,    0.247755f,    1.07245f,    0.446606f,
  -0.501046f,   0.106124f,   0.149673f,    -0.112936f,  0.299421f,
  -0.0804156f,  0.0547719f,  -0.0163507f,  -0.224679f,  -0.212669f,
  -0.285838f,   -0.260473f,  -0.0975452f,  -0.186778f,  -0.275918f,
  0.144473f,    -0.417962f,  0.214199f,    -0.472457f,  -0.423259f,
  0.251625f,    -0.13363f,   -0.240512f,   0.0343219f,  -0.150326f,
  -0.115686f,   0.069999f,   0.000767938f, -1.88664f,   1.90756f,
  0.956679f,    -1.29435f,   -0.239678f,   0.0998227f,  -0.534915f,
  0.379352f,    0.0314371f,  -0.269244f,   0.36711f,    -0.1084f,
  -0.484381f,   -0.331381f,  -0.442715f,   -0.457295f,  -0.157524f,
  0.0702727f,   0.0364587f,  -0.2086f,     -0.0244022f, -0.094281f,
  0.324402f,    -0.103877f,  -0.453591f,   1.11176f,    -0.48385f,
  -0.541642f,   -0.415383f,  0.187007f,    -0.0929565f, -0.0719674f,
  -0.149472f,   -0.194761f,  0.0156251f,   -0.0468187f, 0.534312f,
  0.586735f,    -0.692408f,  -0.641171f,   0.00411127f, -0.285639f,
  0.0682015f,   0.12938f,    0.120433f,    -0.311773f,  0.620947f,
  -0.108126f,   -0.284999f,  -0.525081f,   -0.403491f,  -0.501297f,
  -0.0663225f,  -0.207507f,  0.251032f,    0.040607f,   -0.100726f,
  -0.0107773f,  -0.796218f,  0.0409205f,   -0.136749f,  0.451324f,
  -0.0311854f,  -0.391301f,  -0.236978f,   -0.150365f,  -0.017697f,
  0.22528f,     -0.208438f,  -0.233909f,   0.196831f,   -0.0579558f,
  -0.137555f,   -0.467248f,  -0.339844f,   -0.15143f,   -0.372271f,
  0.118783f,    0.0398908f,  0.237539f,    -0.291051f,  -0.271464f,
  -0.187539f,   -0.243697f,  -0.0244209f,  0.118701f,   -0.181406f,
  -0.176543f,   -0.29847f,   0.0062677f,   -0.0621667f, 0.0230793f,
  -0.111003f,   0.0618141f,  -0.25154f,    -0.243877f,  -0.229377f,
  -0.211717f,   0.248409f,   0.135834f,    0.280006f,   -0.0947745f,
  -0.262693f,   -0.169065f,  -0.24901f,    -0.207325f,  0.104272f,
  -0.00955869f, -0.105202f,  -0.664887f,   0.0323894f,  -0.183192f,
  -0.138058f,   -0.14373f,   -0.17877f,    0.110879f,   -0.0776395f,
  -0.120817f,   0.0322672f,  -0.297583f,   -0.0309613f, -0.316272f,
  -0.364575f,   0.0965342f,  0.202219f,    -0.106835f,  -0.449907f,
  -0.462886f,   -0.49644f,   -0.499665f,   0.272288f,   -0.0927438f,
  -0.252884f,   -0.565111f,  -0.315313f,   -0.318911f,  -0.269043f,
  -0.225007f,   0.0813879f,  -0.168661f,   -0.246407f,  -0.015586f,
  -0.274979f,   -0.0581485f, -0.285481f,   0.122441f,   -0.0389898f,
  -0.0494669f,  0.125764f,   -0.212022f,   0.214542f,   -0.00642092f,
  0.12993f,     0.129509f,   -1.10896f,    -0.0499632f, 0.522263f,
  0.462654f,    0.400647f,   0.336605f,    0.0837398f,  -0.0687381f,
  0.29998f,     0.50641f,    0.171282f,    0.107245f,   0.21917f,
  0.0791017f,   0.84289f,    0.646015f,    -0.866679f,  -1.21825f,
  -0.352535f,   0.108845f,   -0.0747348f,  -0.105628f,  -0.0814234f,
  -0.141051f,   0.362225f,   -0.328086f,   0.683992f,   0.623398f,
  0.562913f,    0.494286f,   -0.190384f,   -0.257493f,  0.236731f,
  -0.011485f,   0.244431f,   0.011668f,    0.329499f,   -0.239129f,
  -0.293983f,   -0.676368f,  -0.373159f,   -0.442863f,  0.0112842f,
  -0.130343f,   -0.220603f,  -0.0656751f,  0.178241f,   -0.101779f,
  -0.04945f,    0.0275831f,  -0.51405f,    0.014323f,   -0.727418f,
  -0.539518f,   -0.375701f,  0.197974f,    0.158984f,   0.524241f,
  0.267807f,    0.468715f,   -0.324651f,   0.133725f,   -0.124998f,
  0.366881f,    -0.468701f,  -0.123471f,   0.0492976f,  -0.204199f,
  -0.255449f,   -0.232403f,  0.0996342f,   -0.392742f,  0.284683f,
  -0.130722f,   -0.293959f,  -0.267144f,   -0.333537f,  -0.36522f,
  -0.0811363f,  -0.0566797f, 0.00386444f,  -0.189223f,  -0.277264f,
  0.136906f,    0.156276f,   -0.102391f,   -0.378397f,  -0.338729f,
  -0.373642f,   -0.383478f,  0.289403f,    0.106586f,   -0.600986f,
  -0.318702f,   -0.619648f,  -0.660867f,   0.00807291f, -0.183462f,
  -0.00117459f, -0.331076f,  0.133134f,    0.0436645f,  -0.210541f,
  0.0987036f,   -0.190498f,  -0.168011f,   -0.168732f,  -0.156712f,
  -0.0933647f,  -0.122553f,  0.0894863f,   0.0719043f,  -0.123252f,
  0.0303777f,   0.0393787f,  -0.0273111f,  -0.328045f,  -0.195004f,
  -0.343696f,   -0.395077f,  -0.141815f,   -0.28423f,   -0.15321f,
  0.25501f,     -0.0964531f, 0.0140919f,   -0.389266f,  -0.0127173f,
  -0.0917563f,  0.0474288f,  -0.0974693f,  -0.198461f
};

static const float vp_layer_0_bias_8[] = {
  0.00734148f, -1.54859f,    0.403595f,  -0.442709f, 0.0f,        -0.467119f,
  -0.105567f,  0.566006f,    0.708129f,  -0.773783f, 0.697483f,   -0.274951f,
  -0.846989f,  0.0f,         0.558433f,  -0.229813f, -0.257727f,  0.596584f,
  -0.356901f,  -0.901389f,   0.602914f,  0.70395f,   0.763613f,   -0.0573704f,
  -1.71245f,   -0.0338145f,  -0.586734f, 0.0f,       -1.23937f,   0.592639f,
  0.0f,        -0.00757599f, 0.0f,       -0.189625f, -0.886615f,  0.0f,
  -0.0760751f, 0.963024f,    -1.62789f,  0.0f,       0.0f,        0.930166f,
  1.49117f,    0.691758f,    -0.980646f, 0.675747f,  0.577152f,   -0.0509577f,
  -1.42112f,   -0.0387342f,  0.463057f,  0.729685f,  0.569766f,   -0.120126f,
  0.150332f,   0.0f,         0.554633f,  0.299397f,  -0.0531454f, 0.499531f,
  0.0f,        0.674698f,    0.0f,       0.545414f
};

static const float vp_logits_kernel_8[] = {
  -0.868327f, 2.0326f,     -2.08106f,   -1.90247f,  -0.0794246f, 0.258031f,
  0.168682f,  -0.193846f,  -0.300131f,  1.04704f,   -0.348865f,  0.297586f,
  0.424346f,  -0.157217f,  -0.197796f,  -1.05565f,  1.4338f,     -0.189498f,
  -1.05392f,  0.290881f,   -0.503501f,  -0.221005f, -0.434172f,  0.204659f,
  1.78259f,   0.104711f,   0.205314f,   -0.284384f, 1.06268f,    -0.156644f,
  0.0963695f, -0.164409f,  -0.294322f,  -1.86061f,  0.149701f,   0.293213f,
  0.0676402f, -1.99126f,   1.99474f,    0.117106f,  -0.0938557f, -3.3451f,
  2.37943f,   -0.580444f,  1.11039f,    -0.189953f, -1.77496f,   0.00754398f,
  1.3282f,    0.0208852f,  -0.0403146f, 0.83758f,   -0.188638f,  0.101282f,
  -1.0202f,   0.00286183f, -0.454229f,  -1.25872f,  0.24831f,    -0.361398f,
  0.11852f,   -0.199235f,  -0.225618f,  0.425637f
};

static const NN_CONFIG vp_nn_config_8 = {
  NUM_FEATURES_8,
  NUM_LOGITS_8,
  NUM_HIDDEN_LAYERS_8,
  {
      NUM_LAYER_0_UNITS_8,
  },
  {
      vp_layer_0_kernel_8,
      vp_logits_kernel_8,
  },
  {
      vp_layer_0_bias_8,
      vp_logits_bias_8,
  },
};

#define NUM_HIDDEN_LAYERS_16 1
#define NUM_FEATURES_16 6
#define NUM_LAYER_0_UNITS_16 64
#define NUM_LOGITS_16 1

static const float vp_logits_bias_16[] = { -0.519766f };

static const float vp_layer_0_kernel_16[] = {
  -0.112513f,   0.0235382f,   -0.441128f,   0.189745f,    -0.186281f,
  0.353466f,    0.0896412f,   0.226037f,    0.311882f,    -0.696875f,
  -0.583946f,   -0.297032f,   -0.476902f,   0.246285f,    0.22349f,
  0.269489f,    0.146889f,    0.231137f,    0.0193038f,   0.110419f,
  -2.96262f,    0.00997635f,  -2.35102f,    0.0373944f,   0.0360694f,
  -0.127693f,   -0.341582f,   -0.320078f,   -0.0208832f,  0.132474f,
  0.0110108f,   0.27273f,     -1.24117f,    -1.39927f,    -1.38679f,
  -1.31209f,    -0.346078f,   0.169365f,    0.344701f,    0.0751055f,
  0.0498826f,   0.319516f,    -0.0358157f,  -0.209716f,   -0.118895f,
  -0.00466052f, -0.222974f,   0.104238f,    -0.0212176f,  0.0372188f,
  0.28316f,     -2.78279f,    0.143405f,    -3.46141f,    0.160698f,
  -0.0848157f,  -0.12358f,    -0.250139f,   -0.0240053f,  -0.27762f,
  0.382487f,    -0.208033f,   -1.26903f,    -0.848499f,   -0.912315f,
  -1.1144f,     0.139235f,    0.0624459f,   0.122624f,    -0.083334f,
  -0.18481f,    0.00920567f,  0.0995478f,   -0.0357081f,  -0.405672f,
  0.102419f,    -0.07514f,    -0.316254f,   0.0870977f,   -0.00588476f,
  -0.667968f,   0.0754467f,   0.0560958f,   -0.727089f,   -0.0852451f,
  -0.0586792f,  0.206881f,    -0.13506f,    0.252245f,    -0.29921f,
  0.132059f,    0.206194f,    0.0587919f,   -0.638126f,   -0.390237f,
  0.0886205f,   0.0153234f,   -0.135317f,   0.106126f,    -0.174446f,
  -0.04536f,    -0.210721f,   0.00654027f,  -0.0663176f,  -0.0991168f,
  -0.0924735f,  0.177358f,    0.140738f,    0.015741f,    -0.220611f,
  0.114267f,    0.145134f,    0.0489927f,   -0.260996f,   -0.0466876f,
  -0.104024f,   -0.0127483f,  -0.250744f,   0.199334f,    -0.166977f,
  0.449358f,    -0.247796f,   -0.734112f,   -0.621238f,   -0.614881f,
  -0.717956f,   -0.34228f,    0.169148f,    -0.00134197f, 0.369789f,
  0.244845f,    -0.132677f,   -0.178274f,   -0.275638f,   -0.102097f,
  -0.110743f,   0.201033f,    -0.157361f,   0.354132f,    -0.209309f,
  -0.0881061f,  -0.0268674f,  -0.100982f,   -0.141805f,   0.312464f,
  -0.23583f,    0.409226f,    0.358467f,    0.374907f,    0.36755f,
  0.800543f,    0.106889f,    -0.951814f,   -0.992348f,   -1.01484f,
  -0.923311f,   -0.418047f,   0.204921f,    -0.0384776f,  -0.544814f,
  -0.326401f,   -0.422219f,   -0.3899f,     0.210482f,    0.144371f,
  -0.014867f,   -0.107617f,   0.0707913f,   0.276819f,    -0.0371509f,
  0.127431f,    0.0937587f,   0.0676431f,   0.110485f,    -0.428694f,
  0.142808f,    0.792452f,    0.829256f,    0.777377f,    0.769223f,
  -0.152621f,   -0.0479049f,  0.0620823f,   -0.163556f,   -0.173055f,
  0.235819f,    -0.160244f,   -0.128873f,   -0.031705f,   -0.18365f,
  0.284067f,    -0.197231f,   0.022752f,    -0.294321f,   -0.298757f,
  0.188623f,    -0.362821f,   0.0482234f,   0.0461021f,   0.0704511f,
  0.163038f,    -0.0589484f,  -1.89141f,    1.78482f,     0.133691f,
  0.134346f,    -1.24218f,    0.153893f,    0.0815742f,   -1.20635f,
  -0.435143f,   -0.00262602f, 0.35957f,     0.451673f,    0.501798f,
  0.350452f,    -0.0807777f,  -0.163688f,   -0.217f,      -0.0561854f,
  -0.0537001f,  0.228162f,    0.105852f,    -0.040102f,   -0.14079f,
  -0.279416f,   -0.272913f,   0.137217f,    0.283077f,    -0.14105f,
  -0.1048f,     -0.0705699f,  -0.139907f,   -0.0991197f,  -0.346607f,
  0.20196f,     0.600423f,    0.1443f,      0.150768f,    0.456837f,
  0.190501f,    -0.242945f,   0.228159f,    0.219537f,    0.177674f,
  0.161007f,    -0.045863f,   -0.116504f,   0.109997f,    -0.212986f,
  -0.122926f,   0.140717f,    -0.0668414f,  0.235214f,    0.00423034f,
  -0.202871f,   0.283176f,    -0.12598f,    -0.428147f,   0.132021f,
  0.122635f,    0.128223f,    0.17892f,     0.0643404f,   -0.463765f,
  0.00510766f,  0.193705f,    0.181309f,    0.217843f,    0.19201f,
  0.346146f,    -0.108036f,   -0.203996f,   -0.251716f,   -0.232733f,
  -0.195788f,   0.474813f,    -0.219227f,   0.0944458f,   0.0093523f,
  0.0675865f,   0.142997f,    -0.202451f,   -0.0842183f,  0.199688f,
  0.174236f,    -0.0463638f,  -0.045863f,   0.0391212f,   0.0907963f,
  -1.90577f,    -1.81112f,    -1.7709f,     -1.90347f,    0.0506797f,
  -0.14751f,    -0.288877f,   -0.319955f,   -0.23151f,    -0.426036f,
  -0.538704f,   0.0578916f,   0.545653f,    0.508645f,    0.543159f,
  0.569613f,    -0.287221f,   0.105862f,    -0.101274f,   0.0188665f,
  0.00894297f,  -0.136766f,   -0.710667f,   0.259181f,    0.0566206f,
  0.255016f,    0.21453f,     0.0236692f,   -0.151496f,   0.230576f,
  0.413072f,    0.0829179f,   -0.00717227f, 0.507114f,    -0.230726f,
  -0.0664552f,  -0.137634f,   -0.20096f,    0.00962868f,  -0.0663452f,
  -0.67512f,    0.0174148f,   -0.566072f,   -0.540127f,   -0.622606f,
  -0.689034f,   0.429063f,    0.0711176f,   0.116826f,    -0.0581752f,
  -0.124075f,   0.142253f,    -0.0418037f,  0.190333f,    -0.0686879f,
  -0.26232f,    -0.155446f,   -0.0076012f,  0.0517838f,   0.0504511f,
  1.78149f,     -2.12745f,    -0.0665008f,  0.152054f,    -0.0820477f,
  0.242631f,    -0.0848341f,  -0.421094f,   -0.376442f,   -0.0904786f,
  -0.224171f,   0.290075f,    -0.049725f,   0.039921f,    -0.599501f,
  0.351767f,    -0.57656f,    -0.0293485f,  -0.23802f,    -0.243862f,
  -0.225127f,   -0.131596f,   -0.379225f,   0.134264f,    0.268655f,
  0.37447f,     0.329182f,    0.194552f,    0.149381f,    -0.0926307f,
  -0.786424f,   -0.761211f,   -0.76517f,    -0.797628f
};

static const float vp_layer_0_bias_16[] = {
  -0.631023f, 0.32213f,   0.109437f,   -1.00185f,  -0.0968374f, -1.09207f,
  0.671658f,  0.0f,       -0.160038f,  -0.701437f, -1.18733f,   0.894117f,
  -0.65416f,  -0.713678f, -0.0151143f, 0.382703f,  -0.038683f,  -0.0786679f,
  -0.127749f, 0.0f,       -1.58556f,   -0.253956f, 0.0f,        -0.204925f,
  -0.187028f, -1.12356f,  0.223512f,   0.540771f,  -1.38989f,   0.153609f,
  0.0f,       0.0f,       -0.0723505f, -0.948885f, -1.2874f,    0.708943f,
  0.0f,       -0.725901f, -1.44877f,   0.541117f,  1.27476f,    0.0f,
  -0.576369f, 0.866272f,  0.916228f,   0.0353215f, 0.0912416f,  0.0f,
  0.569052f,  1.28206f,   1.37101f,    0.69776f,   0.226494f,   0.0687988f,
  0.0f,       0.100095f,  0.636602f,   0.336053f,  -0.699535f,  0.364191f,
  -0.663438f, 0.495019f,  0.689615f,   1.21294f
};

static const float vp_logits_kernel_16[] = {
  0.298934f,  -0.202033f, 0.488195f,  -2.3857f,   0.168952f,  2.56877f,
  -0.394569f, 0.257819f,  -2.01955f,  0.35085f,   1.68837f,   -0.820392f,
  0.228585f,  0.777557f,  0.0583776f, -0.269072f, 0.0984163f, 0.266156f,
  0.0584183f, 0.108476f,  2.2503f,    -0.204345f, 0.101702f,  -1.81479f,
  -1.70262f,  2.7668f,    -0.069879f, -0.158706f, -6.15661f,  -1.88635f,
  -0.206362f, 0.223385f,  0.15439f,   1.25168f,   1.39917f,   0.768313f,
  0.132517f,  0.256767f,  1.4122f,    -0.319432f, -3.66553f,  -0.0303889f,
  -0.348389f, 1.20494f,   0.553979f,  -1.97251f,  -1.50136f,  -0.00164649f,
  -3.63007f,  -7.11953f,  1.81898f,   0.610318f,  1.04171f,   -0.438195f,
  -0.190907f, -0.171811f, -1.35602f,  -0.174534f, 1.2359f,    -0.237205f,
  -0.193872f, -0.23947f,  0.931228f,  -3.2179f
};

static const NN_CONFIG vp_nn_config_16 = {
  NUM_FEATURES_16,
  NUM_LOGITS_16,
  NUM_HIDDEN_LAYERS_16,
  {
      NUM_LAYER_0_UNITS_16,
  },
  {
      vp_layer_0_kernel_16,
      vp_logits_kernel_16,
  },
  {
      vp_layer_0_bias_16,
      vp_logits_bias_16,
  },
};

#define NUM_HIDDEN_LAYERS_32 1
#define NUM_FEATURES_32 6
#define NUM_LAYER_0_UNITS_32 64
#define NUM_LOGITS_32 1

static const float vp_logits_bias_32[] = { -1.0294f };

static const float vp_layer_0_kernel_32[] = {
  0.0155168f,    0.289032f,   -0.976321f,   -1.4313f,     -1.653f,
  -1.26937f,     -0.223946f,  -0.0965906f,  -1.65413f,    1.26892f,
  -1.65654f,     1.57681f,    -0.50359f,    0.362638f,    -1.48529f,
  0.505888f,     -2.15161f,   -0.257196f,   -0.140554f,   -0.0144225f,
  0.142937f,     -0.189568f,  -0.148655f,   -0.159655f,   -0.135198f,
  -0.244671f,    -0.216143f,  -0.198958f,   0.233477f,    0.220574f,
  0.00880524f,   0.00235326f, -2.17184f,    2.28085f,     2.2939f,
  -2.28998f,     -0.555345f,  0.184002f,    0.0942331f,   0.290908f,
  0.216904f,     0.11398f,    -0.0808614f,  -0.0605289f,  0.226257f,
  1.55301f,      1.60649f,    0.324665f,    0.327982f,    -0.22977f,
  -1.03315f,     -0.206523f,  -1.53398f,    -0.182245f,   -0.146249f,
  0.0283296f,    0.368284f,   0.350951f,    0.0811951f,   -0.294938f,
  0.238867f,     -0.126359f,  -0.519559f,   -0.460377f,   -0.483502f,
  -0.323653f,    -0.324269f,  0.0793219f,   0.282399f,    0.355128f,
  0.286544f,     0.184358f,   0.207561f,    -0.160947f,   -3.88245f,
  0.873736f,     0.323916f,   -2.82984f,    0.516438f,    -7.86447f,
  0.886764f,     0.637741f,   0.642775f,    1.16737f,     -0.44535f,
  -0.038427f,    -0.0320476f, 0.0139219f,   -0.0670011f,  -0.0662035f,
  0.480089f,     -0.193913f,  -0.0467092f,  0.351362f,    0.425517f,
  -0.00844206f,  0.0328809f,  -0.245429f,   0.453923f,    1.99748f,
  2.09759f,      0.269183f,   -0.529032f,   -0.0137484f,  0.679599f,
  0.687105f,     0.841702f,   0.00843826f,  -0.177963f,   -0.177425f,
  -0.0606944f,   -0.260011f,  -0.138996f,   0.174006f,    -0.00892681f,
  -0.205644f,    -0.102049f,  -0.100619f,   0.0330479f,   -0.0843417f,
  0.355907f,     -0.393745f,  -2.85506f,    0.954622f,    0.880116f,
  0.677226f,     0.0462031f,  0.0174442f,   -2.47659f,    1.74129f,
  -3.14445f,     1.91948f,    -0.763897f,   0.227415f,    -0.266079f,
  -0.255787f,    -0.369155f,  -0.0356162f,  -0.237657f,   -0.0916081f,
  0.536333f,     0.683239f,   0.415686f,    0.640951f,    -0.379504f,
  0.213531f,     -0.277194f,  -0.381717f,   -0.362241f,   -0.310544f,
  -0.275225f,    0.0399046f,  -0.12895f,    1.81919f,     1.01655f,
  1.14851f,      -0.0489187f, -0.0548747f,  -0.105675f,   -0.0751257f,
  -0.0374534f,   0.104393f,   -0.217206f,   -0.21332f,    -0.0624465f,
  -0.133786f,    -0.17947f,   0.0681926f,   0.110948f,    -0.264961f,
  1.65898f,      1.05108f,    1.0198f,      0.833446f,    0.622214f,
  -0.0876876f,   -0.769966f,  -0.501964f,   -0.510793f,   -0.729101f,
  -0.150852f,    0.233062f,   -3.39322f,    -0.913101f,   -1.49117f,
  -1.31401f,     -0.460296f,  -0.0185811f,  0.554417f,    0.659272f,
  0.429026f,     0.401815f,   -0.171269f,   -0.192279f,   0.119812f,
  0.09102f,      0.103143f,   0.0902528f,   -0.0675071f,  -0.125084f,
  0.218201f,     0.0161514f,  -0.087413f,   -0.083124f,   -0.247141f,
  -0.141927f,    0.0618204f,  0.0767348f,   -0.0253827f,  0.0960347f,
  -0.104445f,    -0.146077f,  0.0294799f,   -0.0769644f,  -0.0742372f,
  -0.0853917f,   0.00686315f, -0.180082f,   -0.154973f,   0.123803f,
  -0.166741f,    -0.134594f,  -0.25942f,    -0.0748654f,  -0.0233877f,
  0.0578264f,    0.111708f,   -0.254694f,   -0.0196666f,  -0.111795f,
  -0.218455f,    -0.221671f,  0.105108f,    0.261558f,    -0.00117765f,
  -0.0365323f,   -1.61998f,   -1.6434f,     -1.61604f,    -1.61916f,
  -0.875743f,    -0.03048f,   0.620677f,    0.832783f,    0.677582f,
  0.744115f,     -0.180194f,  0.00474375f,  -4.89482f,    -11.5929f,
  1.40019f,      1.33667f,    -0.240901f,   0.141087f,    -0.656106f,
  -0.649158f,    -0.682125f,  -0.576354f,   -0.205612f,   -0.162496f,
  -0.0716227f,   0.0352553f,  -0.129681f,   -0.0663795f,  0.556086f,
  0.22952f,      -1.95266f,   -2.35147f,    -2.12343f,    -2.1587f,
  -0.481936f,    0.178578f,   -0.0610642f,  0.315765f,    0.0637926f,
  -0.0273169f,   -0.243574f,  -0.102063f,   0.0762189f,   -0.0433159f,
  0.00711483f,   0.23377f,    -0.134286f,   0.0184057f,   0.609672f,
  0.585319f,     -16.2053f,   -20.631f,     0.0596481f,   0.0243939f,
  -0.234001f,    -7.70691f,   -0.189823f,   -7.51146f,    -0.171012f,
  -0.000795603f, 0.0613022f,  -0.00137517f, -0.0631011f,  -0.194012f,
  -0.192109f,    -0.0169925f, 0.402641f,    0.334749f,    -10.9161f,
  -11.6506f,     -0.238466f,  -0.105364f,   0.117605f,    0.164164f,
  0.0680545f,    0.0346898f,  -0.588176f,   0.136682f,    1.63255f,
  1.56496f,      1.69425f,    1.66886f,     -0.241872f,   0.126367f,
  1.634f,        1.85883f,    1.93499f,     1.58044f,     -0.367652f,
  0.154285f,     0.0633487f,  -0.0292334f,  -0.0934187f,  -0.0562553f,
  -0.150488f,    0.0315364f,  0.023213f,    -0.144642f,   0.108752f,
  0.118631f,     0.332159f,   -0.350319f,   1.56317f,     2.21669f,
  2.04253f,      1.75806f,    -0.143752f,   0.0172429f,   0.172211f,
  0.190718f,     0.336618f,   0.185761f,    -0.00261077f, -0.227797f,
  -0.0401559f,   0.0337422f,  0.191237f,    -0.0758939f,  0.434155f,
  -0.475478f,    1.10773f,    1.52766f,     1.01652f,     -2.61613f,
  0.492549f,     -0.192411f,  -0.590605f,   -0.257274f,   -0.467966f,
  -0.42227f,     0.149543f,   0.0448057f,   -4.82943f,    -1.30074f,
  -3.63477f,     -0.424417f,  -0.286112f,   0.0964843f,   0.719902f,
  0.99664f,      1.047f,      0.713981f,    -0.0119359f,  0.0410953f,
  -0.136909f,    0.0442736f,  -0.0463127f,  0.0800761f
};

static const float vp_layer_0_bias_32[] = {
  -0.810436f,  0.856886f,  -1.12111f,   -0.0260511f, 0.0f,        -0.0381234f,
  0.820843f,   0.624538f,  1.94382f,    -0.689935f,  -1.44285f,   1.20615f,
  0.655473f,   0.811132f,  1.22145f,    -0.964722f,  1.09746f,    -0.639009f,
  0.0f,        0.0f,       2.06317f,    0.0936236f,  0.607511f,   -0.100992f,
  0.263129f,   0.59304f,   0.0f,        0.0f,        0.930761f,   -0.208196f,
  0.113872f,   -0.425363f, -0.0391757f, 0.0f,        0.0f,        0.0f,
  -0.0403844f, 0.0f,       0.0f,        1.93862f,    2.5183f,     -0.743643f,
  0.865763f,   0.0f,       -1.42972f,   0.990892f,   0.0f,        -0.245614f,
  0.147018f,   0.0f,       -0.186129f,  -0.0129553f, -0.15512f,   0.213265f,
  0.696716f,   -0.699557f, 0.316076f,   -0.689795f,  -0.0263384f, 2.24532f,
  -0.556261f,  -0.195627f, 1.1955f,     -0.757469f
};

static const float vp_logits_kernel_32[] = {
  0.302412f,  -1.09493f,    -0.951773f, -0.0593371f, 0.145216f,  1.14325f,
  0.927489f,  -0.705661f,   -1.69263f,  -0.169508f,  1.44853f,   0.619035f,
  -1.4709f,   2.44823f,     0.980179f,  -2.23975f,   -1.23088f,  -0.426274f,
  0.178247f,  0.181858f,    1.99195f,   0.990645f,   1.11599f,   -3.24936f,
  0.202737f,  -0.104691f,   -0.219508f, 0.266284f,   -1.52685f,  -1.36024f,
  -0.220888f, -0.0347892f,  -0.514736f, 0.272805f,   -0.187632f, 0.0120654f,
  0.207506f,  0.171926f,    -0.127902f, -5.04632f,   1.17723f,   -4.45014f,
  0.600073f,  -0.276074f,   2.00148f,   0.533453f,   -0.160468f, -6.51117f,
  -1.17805f,  0.000127345f, -6.55583f,  0.144691f,   -0.6547f,   -0.898786f,
  0.405591f,  0.00207036f,  -2.95419f,  -0.161745f,  0.101233f,  1.7791f,
  -1.08395f,  -0.88532f,    -0.747791f, 0.111076f
};

static const NN_CONFIG vp_nn_config_32 = {
  NUM_FEATURES_32,
  NUM_LOGITS_32,
  NUM_HIDDEN_LAYERS_32,
  {
      NUM_LAYER_0_UNITS_32,
  },
  {
      vp_layer_0_kernel_32,
      vp_logits_kernel_32,
  },
  {
      vp_layer_0_bias_32,
      vp_logits_bias_32,
  },
};
