/*
 * Copyright (c) 2016, Alliance for Open Media. All rights reserved
 *
 * This source code is subject to the terms of the BSD 2 Clause License and
 * the Alliance for Open Media Patent License 1.0. If the BSD 2 Clause License
 * was not distributed with this source code in the LICENSE file, you can
 * obtain it at www.aomedia.org/license/software. If the Alliance for Open
 * Media Patent License 1.0 was not distributed with this source code in the
 * PATENTS file, you can obtain it at www.aomedia.org/license/patent.
 */

#include <assert.h>
#include <math.h>

#include "./aom_dsp_rtcd.h"
#include "./av1_rtcd.h"

#include "aom_dsp/aom_dsp_common.h"
#include "aom_dsp/blend.h"
#include "aom_mem/aom_mem.h"
#include "aom_ports/mem.h"
#include "aom_ports/system_state.h"

#include "av1/common/common.h"
#include "av1/common/common_data.h"
#include "av1/common/entropy.h"
#include "av1/common/entropymode.h"
#include "av1/common/idct.h"
#include "av1/common/mvref_common.h"
#include "av1/common/obmc.h"
#include "av1/common/pred_common.h"
#include "av1/common/quant_common.h"
#include "av1/common/reconinter.h"
#include "av1/common/reconintra.h"
#include "av1/common/scan.h"
#include "av1/common/seg_common.h"
#if CONFIG_LV_MAP
#include "av1/common/txb_common.h"
#endif
#if CONFIG_WARPED_MOTION
#include "av1/common/warped_motion.h"
#endif  // CONFIG_WARPED_MOTION

#include "av1/encoder/aq_variance.h"
#include "av1/encoder/av1_quantize.h"
#include "av1/encoder/cost.h"
#include "av1/encoder/encodemb.h"
#include "av1/encoder/encodemv.h"
#include "av1/encoder/encoder.h"
#if CONFIG_LV_MAP
#include "av1/encoder/encodetxb.h"
#endif
#include "av1/encoder/hybrid_fwd_txfm.h"
#include "av1/encoder/mcomp.h"
#include "av1/encoder/palette.h"
#include "av1/encoder/ratectrl.h"
#include "av1/encoder/rd.h"
#include "av1/encoder/rdopt.h"
#include "av1/encoder/tokenize.h"
#if CONFIG_PVQ
#include "av1/encoder/pvq_encoder.h"
#include "av1/common/pvq.h"
#endif  // CONFIG_PVQ
#if CONFIG_DUAL_FILTER
#define DUAL_FILTER_SET_SIZE (SWITCHABLE_FILTERS * SWITCHABLE_FILTERS)
#if USE_EXTRA_FILTER
static const int filter_sets[DUAL_FILTER_SET_SIZE][2] = {
  { 0, 0 }, { 0, 1 }, { 0, 2 }, { 0, 3 }, { 1, 0 }, { 1, 1 },
  { 1, 2 }, { 1, 3 }, { 2, 0 }, { 2, 1 }, { 2, 2 }, { 2, 3 },
  { 3, 0 }, { 3, 1 }, { 3, 2 }, { 3, 3 },
};
#else   // USE_EXTRA_FILTER
static const int filter_sets[DUAL_FILTER_SET_SIZE][2] = {
  { 0, 0 }, { 0, 1 }, { 0, 2 }, { 1, 0 }, { 1, 1 },
  { 1, 2 }, { 2, 0 }, { 2, 1 }, { 2, 2 },
};
#endif  // USE_EXTRA_FILTER
#endif  // CONFIG_DUAL_FILTER

#if CONFIG_EXT_REFS

#define LAST_FRAME_MODE_MASK                                          \
  ((1 << INTRA_FRAME) | (1 << LAST2_FRAME) | (1 << LAST3_FRAME) |     \
   (1 << GOLDEN_FRAME) | (1 << BWDREF_FRAME) | (1 << ALTREF2_FRAME) | \
   (1 << ALTREF_FRAME))
#define LAST2_FRAME_MODE_MASK                                         \
  ((1 << INTRA_FRAME) | (1 << LAST_FRAME) | (1 << LAST3_FRAME) |      \
   (1 << GOLDEN_FRAME) | (1 << BWDREF_FRAME) | (1 << ALTREF2_FRAME) | \
   (1 << ALTREF_FRAME))
#define LAST3_FRAME_MODE_MASK                                         \
  ((1 << INTRA_FRAME) | (1 << LAST_FRAME) | (1 << LAST2_FRAME) |      \
   (1 << GOLDEN_FRAME) | (1 << BWDREF_FRAME) | (1 << ALTREF2_FRAME) | \
   (1 << ALTREF_FRAME))
#define GOLDEN_FRAME_MODE_MASK                                       \
  ((1 << INTRA_FRAME) | (1 << LAST_FRAME) | (1 << LAST2_FRAME) |     \
   (1 << LAST3_FRAME) | (1 << BWDREF_FRAME) | (1 << ALTREF2_FRAME) | \
   (1 << ALTREF_FRAME))
#define BWDREF_FRAME_MODE_MASK                                       \
  ((1 << INTRA_FRAME) | (1 << LAST_FRAME) | (1 << LAST2_FRAME) |     \
   (1 << LAST3_FRAME) | (1 << GOLDEN_FRAME) | (1 << ALTREF2_FRAME) | \
   (1 << ALTREF_FRAME))
#define ALTREF2_FRAME_MODE_MASK                                     \
  ((1 << INTRA_FRAME) | (1 << LAST_FRAME) | (1 << LAST2_FRAME) |    \
   (1 << LAST3_FRAME) | (1 << GOLDEN_FRAME) | (1 << BWDREF_FRAME) | \
   (1 << ALTREF_FRAME))
#define ALTREF_FRAME_MODE_MASK                                      \
  ((1 << INTRA_FRAME) | (1 << LAST_FRAME) | (1 << LAST2_FRAME) |    \
   (1 << LAST3_FRAME) | (1 << GOLDEN_FRAME) | (1 << BWDREF_FRAME) | \
   (1 << ALTREF2_FRAME))

#else  // !CONFIG_EXT_REFS

#define LAST_FRAME_MODE_MASK \
  ((1 << GOLDEN_FRAME) | (1 << ALTREF_FRAME) | (1 << INTRA_FRAME))
#define GOLDEN_FRAME_MODE_MASK \
  ((1 << LAST_FRAME) | (1 << ALTREF_FRAME) | (1 << INTRA_FRAME))
#define ALTREF_FRAME_MODE_MASK \
  ((1 << LAST_FRAME) | (1 << GOLDEN_FRAME) | (1 << INTRA_FRAME))

#endif  // CONFIG_EXT_REFS

#if CONFIG_EXT_REFS
#if CONFIG_EXT_COMP_REFS
#define SECOND_REF_FRAME_MASK                                         \
  ((1 << ALTREF_FRAME) | (1 << ALTREF2_FRAME) | (1 << BWDREF_FRAME) | \
   (1 << GOLDEN_FRAME) | (1 << LAST2_FRAME) | 0x01)
#else  // !CONFIG_EXT_COMP_REFS
#define SECOND_REF_FRAME_MASK \
  ((1 << ALTREF_FRAME) | (1 << ALTREF2_FRAME) | (1 << BWDREF_FRAME) | 0x01)
#endif  // CONFIG_EXT_COMP_REFS
#else   // !CONFIG_EXT_REFS
#define SECOND_REF_FRAME_MASK ((1 << ALTREF_FRAME) | 0x01)
#endif  // CONFIG_EXT_REFS

#define MIN_EARLY_TERM_INDEX 3
#define NEW_MV_DISCOUNT_FACTOR 8

#if CONFIG_EXT_INTRA
#define ANGLE_SKIP_THRESH 10
#define FILTER_FAST_SEARCH 1
#endif  // CONFIG_EXT_INTRA

// Setting this to 1 will disable trellis optimization within the
// transform search. Trellis optimization will still be applied
// in the final encode.
#ifndef DISABLE_TRELLISQ_SEARCH
#define DISABLE_TRELLISQ_SEARCH 0
#endif

static const double ADST_FLIP_SVM[8] = {
  /* vertical */
  -6.6623, -2.8062, -3.2531, 3.1671,
  /* horizontal */
  -7.7051, -3.2234, -3.6193, 3.4533
};

  static const int prune_2D_num_hidden_units_hor[9] = {
  16, 16, 16, 16, 16, 32, 32, 32, 32
  };
  static const float* prune_2D_learned_weights_hor[9] = {
  /* BLOCK_4X4 */
  (float[]){-0.45425f,-0.02187f,0.02211f,0.17020f,-0.20495f,0.12140f,-0.04145f,0.00874f,0.23506f,0.25578f,0.11758f,0.12580f,0.25141f,0.17859f,0.22627f,-0.05958f,-0.04662f,-0.08072f,0.00122f,-0.02718f,-0.29715f,0.14299f,-0.14781f,0.09839f,0.05093f,-0.05537f,0.01334f,-0.11570f,0.10764f,0.06399f,0.07999f,-0.12033f,-0.15237f,0.12135f,-0.07719f,0.02819f,0.04895f,0.13914f,0.03771f,0.12677f,-0.91987f,-0.32106f,-0.10570f,0.01068f,0.03487f,0.14888f,-0.23917f,-0.17202f,0.14658f,0.00006f,-0.00746f,-0.07518f,-0.42307f,0.43162f,-0.72271f,0.00273f,0.07731f,-0.03278f,0.06246f,-0.04750f,-0.43008f,0.22345f,-0.15710f,0.10243f,0.00753f,0.20690f,0.06456f,0.03731f,0.26873f,0.31853f,0.16969f,0.15910f,0.22659f,0.07108f,0.32685f,-0.14785f,0.14372f,0.17689f,0.30596f,0.16477f,-0.00129f,-0.00443f,0.16631f,0.25529f,0.00778f,-0.12833f,0.01031f,0.11507f,-0.02668f,0.07359f,0.51555f,0.18814f,-0.00460f,0.43318f,0.02349f,-0.39528f,-0.46094f,-0.10529f,0.24907f,0.04686f,0.11453f,-0.05349f,0.06990f,0.02308f,0.06830f,0.16117f,0.24870f,-0.09726f,0.05076f,0.24398f,-0.04599f,-0.32698f,0.36952f,-0.11573f,-0.12254f,-0.08047f,0.16785f,-0.18634f,0.05561f,-0.00287f,-0.08310f,-0.11762f,0.04137f,0.18287f,-0.01524f,0.18034f,0.07532f,0.11041f,0.15035f,0.23506f,-0.11238f,-0.23291f,0.19327f,0.39368f,0.03118f,-0.01475f,0.28159f,-0.02529f,-0.62981f,-0.06618f,-0.10742f,-0.63607f,-0.04210f,0.21753f,0.37062f,0.38773f,0.54144f,0.43784f},
  /* BLOCK_4X8 */
  (float[]){-0.23638f,0.10290f,-0.00941f,0.09565f,-0.16192f,0.12493f,0.04038f,-0.01333f,0.16921f,0.29907f,0.18095f,0.14899f,0.20575f,0.06309f,0.11283f,-0.06253f,-0.02466f,-0.00546f,0.05059f,-0.01769f,-0.31067f,0.07764f,-0.07136f,0.48855f,0.10892f,-0.18896f,-0.07243f,-0.06040f,0.10847f,-0.02139f,0.05476f,-0.09364f,-0.13698f,0.14792f,0.03902f,0.03778f,0.07389f,0.13583f,0.10880f,0.08743f,-0.65260f,-0.23248f,0.05011f,0.01899f,-0.23560f,0.75977f,-0.12981f,0.00501f,0.15081f,-0.11660f,-0.03917f,-0.04936f,-0.52592f,-0.26085f,-0.09741f,-0.11416f,0.02018f,-0.06511f,-0.00929f,-0.06619f,-0.30051f,0.30188f,0.03991f,0.15159f,0.22643f,0.16734f,0.09476f,0.03657f,0.21238f,-0.29895f,0.19019f,0.15062f,0.20741f,0.08933f,0.20453f,-0.10098f,0.20839f,0.24004f,0.25161f,0.01704f,-0.03013f,-0.04888f,-0.02102f,0.09747f,-0.03101f,-0.37973f,0.12842f,0.06478f,-0.06001f,0.07638f,0.42518f,0.29000f,0.09982f,-0.11856f,-0.00942f,-0.15421f,-0.05343f,-0.11620f,0.20862f,0.07063f,0.14568f,-0.20850f,0.08204f,0.06008f,0.01414f,0.11514f,-0.15647f,0.15080f,0.02471f,0.44078f,-0.03067f,-0.16868f,0.04187f,-0.06070f,-0.19734f,-0.13452f,0.11356f,0.08740f,0.10014f,-0.02476f,-0.02864f,-0.11307f,0.34415f,0.17584f,0.02218f,-0.38055f,0.03535f,-0.11491f,0.25359f,0.15699f,0.00409f,-0.11376f,0.15470f,0.30346f,0.02632f,-0.01283f,0.24812f,0.02649f,-0.47713f,-0.43221f,-0.07151f,-0.03248f,-0.02660f,0.21433f,0.40800f,0.34534f,0.51286f,0.37217f},
  /* BLOCK_8X4 */
  (float[]){-0.25729f,0.11369f,0.14901f,0.15397f,-0.19035f,0.21324f,0.15251f,0.01627f,0.28659f,0.31036f,0.16988f,0.18876f,0.20858f,0.14670f,0.11088f,-0.07113f,-0.00462f,-0.03382f,0.01426f,0.01720f,-0.60309f,-0.08378f,-0.06342f,0.45514f,0.09238f,-0.15811f,-0.15286f,-0.05008f,0.11725f,0.04558f,0.03019f,-0.13292f,-0.15303f,0.22360f,0.12543f,0.08138f,0.08971f,0.15583f,0.16274f,0.11039f,-0.08308f,-0.08100f,-0.06436f,-0.06927f,-0.14101f,0.94921f,0.35454f,-0.03364f,0.10798f,-0.12724f,-0.04606f,-0.11804f,-0.83479f,-0.41716f,0.09205f,0.04562f,0.04915f,-0.09133f,-0.07056f,-0.15097f,-0.43744f,0.36608f,0.15553f,0.19172f,0.26222f,0.19989f,0.07929f,0.11504f,0.22937f,-0.17574f,0.20066f,0.17285f,0.19853f,0.07796f,0.18988f,-0.27237f,0.16015f,0.27195f,0.21634f,0.00487f,-0.14073f,-0.00890f,0.00246f,0.14510f,0.00125f,-0.37291f,0.14490f,0.14225f,-0.04601f,0.02200f,-0.00064f,0.42699f,0.13815f,0.47340f,0.08155f,-0.16613f,0.00869f,-0.16128f,0.26377f,0.05627f,0.19490f,-0.57666f,0.11990f,0.02924f,0.02410f,0.16658f,-0.07550f,0.32923f,0.05635f,0.26176f,-0.04024f,-0.50797f,-0.02210f,-0.12241f,-0.25358f,-0.18377f,0.11663f,0.47338f,0.16676f,-0.01755f,-0.07232f,-0.19761f,0.16240f,0.16144f,0.04224f,0.03247f,0.10045f,0.15381f,0.33675f,0.27389f,0.00315f,-0.05927f,0.12998f,0.28818f,-0.02407f,0.00612f,0.31941f,0.05070f,0.06472f,-0.64460f,-0.07768f,-0.61375f,-0.06569f,0.24287f,0.43065f,0.39909f,0.64610f,0.37205f},
  /* BLOCK_8X8 */
  (float[]){-0.19499f,0.08064f,-0.01989f,0.11044f,-0.13441f,0.15579f,0.08647f,0.00425f,0.28212f,0.27106f,0.03701f,0.02476f,0.18004f,0.09913f,0.18858f,-0.04004f,0.01961f,-0.01223f,0.00419f,-0.02504f,-0.20281f,0.19341f,-0.04073f,0.15033f,0.03827f,-0.18321f,0.02190f,-0.03893f,0.09555f,-0.00006f,0.14273f,-0.08143f,-0.07355f,0.15981f,-0.00045f,0.02320f,0.10263f,0.12596f,0.10627f,0.03389f,-0.08926f,-0.07276f,0.00223f,0.01178f,-0.10612f,0.71171f,-0.11178f,-0.01514f,0.06838f,-0.10400f,0.06582f,-0.07982f,-0.70869f,-0.26612f,-0.09308f,-0.02727f,0.01359f,-0.08871f,0.03557f,-0.07700f,-0.14965f,0.27012f,0.07112f,0.14015f,0.18204f,0.18137f,0.07330f,0.15404f,0.24991f,0.25153f,0.18508f,0.21032f,0.18894f,0.08911f,0.19037f,-0.11344f,0.16543f,0.27245f,0.25137f,0.12873f,-0.08834f,-0.04567f,-0.01216f,0.16792f,-0.00181f,-0.16528f,0.11484f,0.13038f,-0.09823f,0.07627f,0.00885f,0.43008f,0.11269f,0.35431f,0.04801f,-0.08645f,0.01296f,-0.13025f,0.27530f,0.06322f,0.18249f,-0.15515f,0.06765f,0.03974f,0.05433f,0.16989f,-0.08388f,0.08609f,0.01803f,0.12273f,-0.04591f,-0.11298f,0.01921f,-0.06182f,-0.20081f,-0.18082f,0.10923f,0.00425f,0.09632f,-0.04791f,-0.02410f,-0.16375f,0.13171f,0.21129f,-0.00924f,0.07259f,0.09235f,-0.16596f,0.23286f,0.16128f,-0.00998f,-0.07964f,0.13377f,0.30212f,0.03224f,0.00319f,0.22690f,0.02759f,0.03549f,-0.51786f,-0.04300f,-0.48618f,-0.03864f,0.19058f,0.43102f,0.41186f,0.58671f,0.30133f},
  /* BLOCK_8X16 */
  (float[]){-0.07528f,0.00481f,0.14435f,0.30631f,-0.03266f,0.05473f,0.15668f,0.05524f,0.55617f,0.30194f,0.21454f,0.23422f,0.49804f,0.12643f,0.18896f,-0.65472f,0.04792f,0.00836f,0.01549f,0.00674f,-0.16684f,0.03388f,0.11939f,0.33727f,-0.02140f,-0.04051f,-0.09231f,-0.24838f,0.19899f,0.18777f,0.28831f,-0.25616f,0.00641f,0.07685f,0.08779f,0.10097f,0.32137f,0.18998f,0.26268f,0.08624f,-0.44000f,-0.36065f,0.18512f,-0.05905f,0.14926f,-0.08587f,-0.01190f,-0.88767f,0.09380f,0.00170f,-0.02037f,-0.25958f,-0.09067f,-0.01783f,-0.16652f,-0.11741f,-0.01269f,-0.01341f,-0.04945f,-0.07094f,0.07222f,0.14679f,0.30838f,0.34150f,0.24170f,0.18383f,0.04276f,0.29107f,0.20374f,0.25256f,0.32221f,0.10879f,0.14842f,0.06129f,0.16408f,0.64459f,0.30296f,-0.04295f,0.33553f,0.14323f,-0.20139f,0.07467f,-0.17047f,0.19832f,0.06300f,-0.20086f,0.31312f,0.33002f,-0.00164f,0.01796f,0.22575f,-0.61629f,0.26119f,-0.09984f,0.09745f,-0.16415f,-0.12658f,-0.11501f,0.41022f,-0.56126f,0.17095f,-0.23156f,0.13010f,0.14625f,0.04562f,0.18984f,0.30973f,0.24782f,0.09307f,0.13729f,0.01500f,-0.17629f,0.12656f,-0.05252f,-0.36979f,0.73009f,0.10780f,0.09984f,0.07592f,-0.13733f,0.03718f,-0.23429f,-0.00535f,-0.57244f,-0.05947f,-0.04256f,0.01542f,-0.17495f,0.28436f,0.09434f,0.01528f,-0.28211f,0.08049f,0.28670f,-0.09546f,-0.15832f,0.14846f,0.09187f,-0.48870f,0.59235f,-0.12469f,-0.07111f,-0.10927f,0.25113f,0.64401f,0.41215f,0.67169f,0.08551f},
  /* BLOCK_16X8 */
  (float[]){-0.04130f,-0.00206f,0.11051f,0.13988f,-0.05057f,-0.04221f,0.03520f,0.03464f,-0.01057f,0.06357f,-0.03604f,0.00416f,0.00788f,0.09730f,-0.03825f,0.01781f,0.32603f,0.05252f,0.16519f,0.07084f,0.04490f,0.20723f,-0.05754f,0.73521f,0.23399f,0.13728f,0.04452f,0.08900f,0.11973f,0.15575f,0.20590f,-0.21839f,-0.07859f,-0.00526f,-0.13157f,-0.04349f,-0.07876f,-0.04660f,-0.02921f,-0.06909f,0.03691f,-0.17439f,-0.11401f,-0.20714f,-0.18299f,-0.15601f,-0.08316f,-0.73038f,-0.16481f,-0.12051f,-0.03092f,-0.09331f,-0.04799f,0.03538f,0.06899f,0.35737f,0.08102f,0.14431f,-0.00986f,0.19854f,-0.00468f,0.03689f,0.04841f,-0.15292f,-0.15604f,0.04118f,-0.20125f,0.08536f,0.03622f,0.02472f,0.04930f,0.23011f,-0.00587f,0.08878f,-0.03646f,0.28104f,0.35715f,0.13402f,0.22548f,0.46259f,-0.35306f,-0.64118f,-0.09993f,0.08297f,-0.05848f,0.39225f,0.22381f,-0.11548f,0.54997f,0.12447f,0.27160f,0.27118f,0.20233f,0.22360f,0.33735f,-0.64879f,-0.42620f,-0.33693f,-0.33286f,-0.47183f,-0.40413f,-0.38844f,-0.42147f,-0.06180f,-0.06275f,-0.10804f,-0.41115f,-0.17390f,0.71538f,-0.16002f,-0.38841f,0.00481f,0.11353f,0.01273f,0.17147f,0.05119f,0.01228f,-0.00545f,-0.00606f,-0.27722f,0.01867f,0.09057f,0.06707f,0.02672f,0.12758f,0.10217f,0.18358f,0.32044f,0.22443f,0.16379f,0.16697f,0.25075f,0.13988f,0.14769f,0.37821f,-0.21267f,0.06735f,0.21362f,-0.83627f,-0.09181f,-0.13521f,-0.23719f,0.29711f,0.02332f,0.11543f,0.01472f,-0.21075f,0.16185f,0.18952f,-0.19233f,-0.02975f,0.13272f,0.12758f,-0.08325f,0.07407f,0.03518f,0.07143f,-0.01136f,-0.02700f,-0.20840f,-0.60620f,-0.00656f,-0.12027f,0.00688f,-0.02916f,-0.07084f,-0.07489f,0.14071f,0.21728f,0.16550f,0.13250f,0.13856f,0.10169f,0.23302f,0.23937f,-0.14237f,-0.03458f,-0.03144f,-0.08646f,0.05006f,0.04447f,-0.07852f,0.05185f,-0.03976f,0.31177f,0.03694f,0.08730f,0.13974f,0.04485f,0.18733f,0.02482f,-0.19639f,0.33932f,0.06850f,0.21194f,0.04559f,0.13262f,0.03383f,0.17277f,-0.39331f,0.03483f,0.10520f,0.03761f,0.34413f,0.41727f,0.15361f,0.21268f,0.47914f,0.02526f,-0.19707f,-0.13040f,-0.16143f,-0.10317f,-0.09804f,-0.11575f,-0.33002f,0.09739f,-0.15917f,-0.10195f,-0.30773f,-0.02045f,-0.01271f,-0.07565f,-0.02492f,-0.09776f,-0.04853f,-0.08445f,0.08835f,0.02324f,-0.06137f,0.10204f,0.04039f,0.00284f,-0.29055f,-0.06625f,-0.23170f,-0.02806f,0.24183f,0.12870f,-0.12160f,0.06081f,-0.47409f,-0.21127f,0.59054f,-0.12358f,-0.48926f,0.01185f,0.00511f,-0.28576f,-0.03328f,-0.10908f,-0.21383f,-0.14607f,-0.11122f,-0.10622f,-0.18250f,0.13129f,0.08461f,-0.76000f,0.11048f,0.20370f,0.73207f,0.18134f,0.13384f,0.15801f,0.06665f,0.03776f,0.33810f,0.35695f,0.07037f,0.30087f,0.11997f,0.06899f,0.09326f,-0.00963f,0.25074f,0.09054f,0.02484f,0.11291f,0.21587f,0.33213f,0.02897f,0.27932f,0.34623f,0.13206f,0.13649f,0.07748f,0.35827f,0.06986f,0.04441f,-0.37550f,0.22938f,0.06653f,-0.55412f,-0.21915f,0.15693f,-0.11921f,-0.21890f,0.11528f,-0.39055f,0.29896f,0.28264f,0.26346f,-0.06659f,0.20415f,0.18403f,-0.24490f,0.17286f,0.18848f,0.09982f,0.04369f,0.21902f,0.38530f,-0.14924f,-0.36041f,0.05692f,-0.00072f,0.29268f,0.26208f,0.09611f,0.07769f,0.00526f,0.63792f,0.17259f,0.14487f,-0.43777f,-0.15871f,0.11884f,-0.07283f,-0.14274f,0.15837f,-0.48022f,0.41190f,0.18590f,0.24817f,-0.10803f,0.32466f,0.09888f,-0.01147f,0.22204f,-0.24705f,0.22682f,0.02334f,0.20623f,0.35874f,-0.10636f,-0.25451f,0.10092f,-0.02222f,0.12477f,0.14050f,-0.03269f,-0.00139f,0.00723f,-0.32443f,-0.29390f,0.22970f,-0.47695f,0.18202f,-0.12585f,0.13839f,-0.29124f,0.02810f,0.81785f,-0.30215f,0.20113f,-0.08361f,-0.15081f,-0.40079f,0.17509f,-0.06156f,-0.02818f,0.25118f,-0.26782f,0.04190f,-0.20595f,-0.26014f,-0.32923f,-0.27641f,0.21858f,0.02326f,0.07517f,0.24032f,0.30890f,0.04682f,-0.03010f,-0.11938f,-0.04412f,0.03281f,0.72362f,0.14460f,0.05937f,0.24205f,0.38141f,-0.33578f,-0.09549f,-0.48919f,-0.45300f,-0.17689f,0.09021f,-0.11722f,-0.35530f,0.11740f,-0.06853f,-0.28444f,-0.17711f,0.10307f,-0.09766f,-0.16804f,0.35931f,0.65521f,-0.16848f,0.16418f,-0.16503f,-0.47731f,-0.18703f,0.54018f,0.48890f,0.67920f,0.08277f},
  /* BLOCK_16X16 */
  (float[]){-0.05059f,-0.01221f,0.10413f,0.11414f,-0.05670f,-0.03451f,0.04687f,0.18387f,-0.40121f,0.02244f,0.07410f,0.02464f,0.01892f,0.09057f,0.07125f,0.14049f,0.31043f,-0.00654f,0.10070f,0.05815f,0.10138f,0.24326f,-0.39287f,0.46638f,0.14073f,0.10901f,0.01000f,0.04187f,0.10228f,0.15360f,0.19938f,-0.22723f,-0.05026f,0.11850f,-0.17554f,-0.09746f,0.01671f,0.00628f,-0.01509f,0.12577f,-0.01220f,-0.07032f,-0.01529f,-0.08007f,-0.02711f,-0.02204f,-0.02266f,-1.08937f,-0.15097f,-0.11869f,0.17569f,-0.08173f,-0.11353f,0.05323f,0.12301f,0.48517f,0.05371f,0.10031f,-0.06222f,0.14904f,-0.03168f,0.04348f,-0.00173f,-0.11744f,-0.12138f,0.06206f,-0.08760f,0.07445f,-0.00572f,0.07131f,0.05274f,0.34429f,0.02991f,0.02077f,0.14852f,0.21548f,0.11816f,0.12521f,0.19705f,0.64742f,-0.56102f,-0.28060f,0.55149f,-0.30844f,-0.24200f,-0.13991f,-0.57774f,0.00038f,0.47012f,0.02584f,0.08102f,0.19179f,0.06456f,0.15229f,0.12461f,-0.51418f,0.01815f,0.01517f,0.03977f,0.00562f,-0.09830f,0.06450f,0.11385f,-0.27233f,-0.08272f,-0.13242f,-0.03362f,0.01460f,0.12888f,-0.14908f,-0.10155f,-0.20875f,0.04233f,-0.02261f,0.08444f,0.10112f,0.05249f,0.01916f,-0.00488f,-0.32673f,-0.10116f,0.04051f,0.03550f,-0.14998f,-0.06635f,0.04328f,0.08086f,-0.07170f,0.12257f,0.10570f,0.22487f,0.23936f,0.03973f,0.05609f,0.18738f,-0.15108f,0.01700f,-0.13514f,0.14046f,-0.02034f,-0.86914f,-0.11287f,0.47388f,0.00667f,0.17230f,0.05656f,0.00286f,0.05985f,0.08216f,-0.01337f,0.06142f,0.47971f,0.09245f,-0.05561f,-0.07102f,-0.05502f,0.13182f,-0.02714f,-0.12872f,-0.14678f,-0.32775f,-0.22168f,-0.14850f,-0.07655f,-0.12432f,-0.11662f,-0.01644f,0.40681f,0.23205f,0.17286f,0.04762f,0.05379f,-0.00256f,0.04242f,0.09208f,-0.08579f,-0.08874f,-0.07674f,-0.02980f,0.06849f,0.03930f,-0.03817f,0.04016f,-0.10543f,0.35541f,0.13095f,0.01005f,0.08793f,0.12202f,0.30552f,-0.06917f,-0.09082f,0.30162f,0.09883f,0.06140f,-0.02565f,0.19683f,0.07005f,0.09391f,-0.41863f,0.03968f,-0.01433f,0.26476f,0.29241f,0.16693f,0.17132f,0.17295f,0.66567f,-0.11483f,-0.19430f,-0.21333f,-0.14818f,-0.22457f,-0.15056f,-0.22989f,-0.35618f,-0.21208f,-0.74586f,-0.31789f,-0.11577f,0.07871f,0.47118f,0.03404f,0.00782f,-0.24354f,-0.10640f,-0.00153f,0.08694f,-0.01669f,-0.05274f,0.10461f,0.16647f,-0.06441f,-0.15852f,0.03298f,-0.11901f,0.04066f,0.14844f,-0.00663f,-0.22204f,-0.11614f,-0.55172f,-0.29730f,0.44648f,-0.20542f,-0.71696f,-0.23550f,-0.00089f,-0.20588f,0.04056f,-0.22397f,-0.19632f,0.00801f,-0.08095f,-0.07204f,-0.33121f,0.14751f,-0.00064f,-0.45387f,0.12890f,0.19994f,1.02603f,0.03334f,0.15132f,0.11873f,0.03088f,0.19377f,0.32661f,0.48236f,-0.16195f,0.49351f,-0.13449f,0.09672f,0.06065f,0.03421f,0.18087f,-0.15869f,0.06856f,0.18464f,0.01027f,0.35838f,0.02105f,0.39480f,0.09555f,0.11298f,0.26467f,0.20998f,0.51801f,0.04343f,0.03363f,-0.01496f,0.21332f,-0.04562f,-1.18484f,-0.21674f,0.13483f,-0.18267f,-0.38004f,0.22728f,-0.13231f,0.39911f,-0.05511f,0.53570f,0.00342f,0.26129f,0.18168f,-0.31861f,0.15398f,-0.12431f,0.04465f,0.16340f,0.04024f,0.40504f,-0.25504f,-0.28472f,0.16850f,0.09598f,0.27291f,0.25159f,0.35008f,0.06464f,-0.38682f,0.29979f,0.20021f,0.15190f,0.13244f,-0.10453f,0.09830f,0.00486f,0.10455f,0.15985f,-0.52011f,0.11508f,0.15765f,0.00728f,-0.04843f,0.13504f,0.23244f,0.15933f,0.16274f,-0.28008f,0.16220f,-0.08940f,0.24406f,0.22325f,0.06856f,-0.04193f,0.10209f,-0.15720f,0.08175f,0.23270f,-0.02492f,-0.06371f,0.03822f,-0.31483f,-0.19448f,0.22043f,-0.17388f,0.07865f,-0.06007f,0.18316f,-0.22689f,0.20434f,0.51375f,-0.15358f,-0.02449f,-0.07702f,-0.15316f,-0.27112f,0.15163f,-0.15382f,-0.03485f,0.25898f,-0.18593f,0.07720f,-0.06277f,-0.15079f,-0.21018f,-0.45905f,0.02462f,-0.02817f,0.06862f,0.20108f,0.28288f,0.10609f,-0.10906f,-0.10330f,-0.19046f,-0.10421f,0.93817f,0.37229f,-0.05905f,0.20320f,0.44413f,-0.53357f,0.16750f,-0.20666f,-0.11366f,-0.27741f,0.08538f,0.03186f,-0.55788f,0.15219f,-0.19550f,0.20493f,-0.09995f,0.00266f,-0.28148f,-0.39920f,0.46422f,0.75064f,-0.38307f,-0.02093f,-0.10661f,-0.67973f,-0.38319f,0.88092f,0.25113f,0.78774f,-0.02876f},
  /* BLOCK_16X32 */
  (float[]){0.02924f,0.01012f,0.10246f,0.09947f,-0.09553f,-0.01556f,0.05354f,0.13778f,-0.23618f,0.08234f,0.01311f,0.01132f,0.00890f,0.13831f,-0.03202f,0.03011f,0.24115f,0.00575f,-0.05730f,-0.10294f,-0.12933f,0.09816f,-0.24628f,0.64408f,0.25690f,0.12253f,0.00193f,0.05142f,0.07305f,0.14580f,0.11137f,-0.14278f,-0.03458f,0.03463f,-0.09787f,-0.00749f,-0.04448f,-0.03887f,0.02036f,0.09161f,0.03517f,-0.20575f,-0.09529f,-0.04004f,-0.14060f,-0.16077f,-0.02937f,-1.14115f,-0.16497f,-0.00538f,0.08019f,-0.09582f,0.01666f,0.13961f,0.15909f,0.43333f,0.11569f,0.10496f,-0.05866f,0.15267f,-0.06250f,0.04712f,-0.00030f,-0.13638f,-0.11073f,0.10330f,-0.14983f,0.03235f,0.04774f,0.11339f,0.07262f,0.36726f,0.16751f,0.17893f,0.01430f,0.06426f,0.21209f,0.30460f,0.16749f,0.61217f,-0.16891f,0.04399f,-0.00840f,-0.11373f,-0.14794f,0.00147f,-0.01776f,-0.03093f,0.45600f,-0.04501f,0.03750f,0.12093f,0.00347f,0.09262f,0.06209f,-0.85084f,0.08467f,-0.03450f,0.02880f,0.05684f,-0.12284f,0.01621f,0.10797f,-0.43955f,-0.08798f,-0.13062f,-0.03634f,0.00591f,0.13128f,-0.14843f,-0.10331f,-0.20094f,-0.08075f,-0.27657f,-0.03470f,0.11191f,0.06827f,0.04755f,0.11709f,-0.29863f,-0.10393f,0.03503f,0.03026f,-0.15506f,-0.07348f,0.04024f,0.08074f,-0.12162f,0.24957f,0.19173f,0.14223f,0.17008f,0.06982f,0.15604f,0.23955f,-0.14455f,-0.05238f,0.14027f,-0.29482f,-0.61473f,-0.42801f,0.09812f,-0.24818f,0.00556f,0.12515f,0.07000f,0.01847f,0.03008f,0.11104f,0.01634f,0.05620f,0.51329f,0.17960f,-0.12388f,0.02008f,0.02799f,0.03774f,-0.05156f,-0.07178f,-0.20091f,-0.27520f,-0.13727f,-0.12650f,0.10738f,-0.05538f,0.01118f,-0.01659f,0.18191f,0.23512f,0.16555f,0.08077f,0.06250f,-0.04359f,0.04549f,0.09186f,-0.13220f,0.00092f,-0.48432f,-0.47892f,-0.12713f,0.11434f,0.15982f,0.02678f,0.00145f,0.31580f,0.00064f,-0.01359f,0.20752f,0.24869f,0.46898f,-0.22738f,0.00092f,0.36610f,0.00139f,0.10550f,0.04018f,0.07149f,-0.03574f,0.06127f,-0.44910f,0.20694f,0.16385f,0.08967f,0.09601f,0.24183f,0.33711f,0.15424f,0.69536f,-0.10957f,-0.18544f,-0.12851f,-0.13106f,-0.18153f,-0.11809f,-0.20702f,-0.46663f,0.04140f,-0.16877f,-0.08196f,-0.15559f,0.07912f,-0.07599f,-0.00444f,-0.05104f,-0.15178f,-0.04219f,-0.08830f,0.04644f,0.04690f,-0.01198f,0.09881f,-0.03451f,0.01970f,-0.09388f,0.05741f,-0.11816f,0.01520f,0.09680f,-0.00091f,-0.16646f,-0.43150f,-0.09093f,-0.25940f,-0.30689f,-0.18985f,-0.24782f,-0.16041f,0.45703f,-0.19005f,-0.05245f,-0.13596f,-0.07807f,-0.04299f,-0.21340f,-0.04091f,-0.29699f,0.08507f,-0.00451f,-0.55996f,0.39053f,0.15167f,1.12583f,0.13245f,0.14711f,0.07027f,-0.01179f,0.44636f,0.70545f,0.47308f,-0.17643f,0.44377f,-0.19077f,-0.00525f,0.17307f,0.00340f,0.24180f,-0.01070f,0.10162f,0.09147f,-0.12399f,0.47367f,-0.03718f,0.46361f,0.58765f,0.13583f,0.31803f,-0.14017f,0.55003f,-0.06197f,0.16552f,-0.14683f,0.21819f,0.00874f,-0.87294f,-0.25928f,0.10636f,-0.12949f,-0.31034f,0.12584f,-0.30815f,0.36604f,-0.06905f,0.31149f,0.02121f,0.19902f,0.17203f,-0.35170f,0.12480f,-0.05383f,0.08402f,0.20881f,0.18435f,0.38532f,-0.26294f,-0.26114f,0.16398f,0.08031f,0.19456f,-0.21804f,0.33266f,0.07742f,-0.12347f,0.48924f,0.18107f,0.10320f,0.07769f,-0.13372f,0.11482f,-0.09327f,-0.04629f,0.00170f,-0.79016f,0.21017f,0.13562f,0.15930f,-0.04927f,0.23858f,0.09798f,-0.00892f,0.18775f,-0.20488f,0.20780f,0.10577f,0.29753f,0.33623f,-0.03296f,0.01380f,0.08336f,-0.09631f,0.08027f,-0.28963f,-0.00038f,-0.03186f,0.00902f,-0.02444f,-0.23790f,0.14220f,-0.68902f,0.06825f,-0.10232f,0.08656f,-0.28118f,0.20951f,0.95531f,-0.07062f,-0.05267f,0.08743f,-0.15425f,-0.23766f,0.17984f,-0.09463f,-0.04722f,0.10842f,-0.17805f,0.07543f,-0.05820f,-0.19683f,-0.28115f,-0.51224f,0.11541f,0.02804f,0.01810f,0.42155f,0.27134f,-0.02139f,-0.10214f,-0.29272f,-0.03878f,-0.06165f,1.15068f,0.33656f,-0.04502f,0.26624f,0.62244f,-0.18596f,0.07271f,-0.34852f,-0.09055f,-0.46133f,0.08197f,-0.16260f,-0.59615f,0.32458f,-0.18475f,0.09999f,-0.06293f,-0.52613f,-0.38524f,-0.35527f,0.57033f,0.92003f,-0.24072f,0.02168f,-0.13442f,0.12405f,-0.41359f,0.73907f,0.35455f,0.65793f,-0.21537f},
  /* BLOCK_32X16 */
  (float[]){-0.21243f,-0.09129f,0.12833f,0.15691f,-0.13037f,-0.16709f,-0.17248f,-0.12854f,0.04118f,0.00496f,0.09636f,0.07034f,-0.02565f,-0.01630f,0.01337f,0.32463f,-0.07268f,0.04842f,-0.03011f,-0.01964f,-0.06225f,0.00423f,-0.22221f,-0.10467f,-0.09596f,-0.04540f,0.13870f,0.17702f,0.02908f,0.05526f,0.03882f,0.06410f,-0.22638f,-0.24048f,-0.29473f,-0.21380f,-0.23101f,-0.27274f,-0.33542f,-0.32087f,-0.33769f,-0.06552f,0.02964f,0.16675f,0.14512f,0.06872f,0.33622f,-0.22239f,0.19945f,0.32267f,0.20325f,0.22724f,0.32970f,0.29811f,0.20702f,0.26067f,-0.05593f,-0.33712f,-0.28539f,-0.12817f,-0.19788f,-0.22063f,-0.44490f,0.00146f,-0.08909f,0.13390f,0.01955f,0.09843f,0.08215f,0.10665f,0.14128f,-0.00351f,0.03818f,-0.02137f,-0.05209f,0.08491f,0.08141f,0.04762f,0.18461f,0.85494f,-0.12182f,-0.14872f,-0.14511f,-0.16598f,-0.07604f,-0.18089f,0.26821f,-0.31042f,-0.25742f,-0.17783f,0.21544f,0.18629f,0.27931f,0.23560f,0.13874f,-0.04013f,0.02213f,-0.01365f,0.16181f,-0.05455f,-0.02040f,0.14530f,0.16542f,0.15103f,0.05469f,-0.00597f,-0.01065f,-0.18536f,-0.06783f,0.07369f,0.03776f,0.32719f,0.00928f,0.07305f,-0.04584f,0.15145f,-0.05865f,-0.00198f,-0.05048f,0.05378f,0.05502f,0.10188f,0.03311f,-0.06088f,0.06988f,-0.13892f,0.02651f,-0.24715f,-0.04038f,0.09215f,-0.09201f,0.07012f,0.08546f,0.21519f,0.19976f,0.10474f,0.04180f,-0.16711f,-0.02049f,0.08162f,0.03790f,-0.10923f,0.09566f,0.08272f,-0.04246f,-0.03365f,-0.02542f,0.04792f,0.09707f,0.08803f,-0.08044f,0.07884f,0.11032f,-0.01602f,0.15977f,-0.04615f,0.09712f,-0.04584f,-0.08618f,0.05829f,-0.10585f,0.11966f,0.04783f,-0.08450f,-0.05242f,0.17944f,0.12039f,0.05668f,0.08244f,-0.00115f,0.03540f,-0.02373f,-0.16503f,0.02281f,-0.12304f,-0.17368f,-0.26289f,-0.39053f,-0.31501f,-0.25671f,-0.23643f,-0.31484f,-0.24011f,-0.21614f,0.15638f,0.12739f,0.04815f,0.11465f,0.15073f,-0.02415f,0.12055f,0.36297f,0.12381f,-0.01911f,0.01983f,-0.03957f,-0.26266f,-0.18496f,-0.10474f,-0.17756f,0.14174f,0.02315f,0.05329f,0.07564f,-0.00773f,-0.03240f,0.06612f,-0.53244f,0.10586f,0.14111f,0.15432f,0.14831f,0.18436f,0.11296f,0.10189f,0.20408f,-0.16324f,-0.14247f,-0.04003f,-0.11429f,-0.02416f,0.06963f,-0.34913f,0.69604f,-0.52672f,-0.09917f,0.24794f,0.35058f,0.31988f,-0.06506f,-0.42735f,-0.58416f,0.05288f,-0.08984f,-0.05649f,-0.01715f,-0.04463f,-0.05395f,-0.12721f,0.01284f,0.02164f,-0.01602f,-0.00272f,0.01585f,0.08942f,-0.02646f,0.00236f,0.01446f,-0.21251f,-0.19297f,0.03583f,0.01404f,0.04014f,-0.08880f,-0.03235f,-0.64516f,-0.24347f,-0.05527f,0.10266f,0.14764f,0.05149f,-0.17284f,-0.13839f,-0.18830f,0.09044f,0.08548f,-0.00133f,0.08181f,0.09149f,-0.02489f,-0.16951f,-0.39211f,0.01599f,-0.03947f,0.02334f,-0.09394f,-0.09384f,-0.02634f,0.00533f,-0.17503f,0.01101f,-0.08003f,-0.09729f,-0.08689f,-0.07993f,-0.12267f,-0.01421f,-1.18962f,-0.09093f,0.02268f,0.03101f,0.07456f,0.12494f,0.00343f,-0.03151f,0.10580f,0.23802f,0.11799f,0.25462f,0.13486f,0.15882f,0.10599f,0.09765f,0.73700f,0.08530f,-0.06614f,0.04018f,-0.01349f,-0.01755f,-0.11787f,-0.14282f,0.02504f,0.02897f,0.12055f,0.04179f,0.13989f,0.16608f,0.05154f,0.08101f,0.22534f,0.25498f,0.14344f,0.08949f,0.25290f,-0.49638f,-0.57826f,-0.57898f,0.11963f,-0.00023f,-0.05260f,-0.05714f,0.05350f,-0.04607f,-0.03212f,0.03527f,0.00070f,-0.08691f,0.08989f,0.05939f,0.05777f,0.10860f,0.06474f,0.07137f,-0.06491f,0.07995f,0.07708f,0.07880f,0.13457f,0.06744f,-0.03750f,0.11847f,-0.05645f,-0.02239f,-0.03672f,0.00216f,0.12754f,0.08776f,-0.05451f,0.04042f,-0.01778f,0.01988f,0.14099f,-0.06632f,-0.06541f,0.00030f,-0.02900f,0.02354f,0.20702f,-0.05956f,-0.15147f,-0.08234f,0.02881f,-0.09939f,0.18813f,0.13847f,0.03922f,-0.31960f,-0.46764f,-0.58398f,-0.36029f,-0.09728f,0.03611f,0.20638f,-0.01055f,-0.08091f,-0.18321f,-0.05035f,-0.16203f,-0.01040f,-0.13879f,-0.06714f,-0.10946f,0.10150f,0.22719f,0.13340f,-0.29818f,-0.72169f,-0.35798f,0.36587f,-0.00827f,-0.12467f,-0.07014f,0.07685f,0.12314f,0.19477f,0.08644f,-0.16842f,-0.05990f,-0.16227f,-0.10024f,0.15957f,0.21363f,-0.04955f,0.03457f,-0.02751f,0.23578f,0.06513f,0.08901f,0.03133f,0.03018f,0.00096f,0.12307f,0.02139f,-0.16129f,-0.01427f,-0.02166f,-0.00746f,-0.05520f,-0.08564f,-0.01760f,0.03787f,0.05522f,0.17296f,-0.06404f,-0.05285f,-0.20241f,0.08094f,-0.00740f,0.05020f,0.15494f,-0.02757f,0.06854f,-0.07825f,-0.03571f,-0.01396f,0.07821f,-0.10808f,-0.51167f,0.04238f,-0.07687f,-0.06337f,0.04813f,-0.11587f,-0.17092f,-0.01721f,-0.03168f,-0.10150f,0.00927f,0.05300f,0.06690f,-0.12232f,0.03529f,0.20995f,0.21059f,0.08312f,-0.04891f,0.10323f,-0.11247f,0.02720f,0.06990f,-0.06019f,-0.00330f,0.01217f,-0.07046f,-0.05773f,-0.10161f,0.02252f,0.11407f,0.02217f,-0.18084f,0.06489f,-0.10040f,0.01058f,0.18384f,-0.01094f,0.06100f,0.11500f,0.05718f,-0.02445f,0.08771f,0.06988f,0.03038f,-0.13049f,0.13995f,0.13622f,0.36114f,-0.35552f,-0.38626f,-0.31908f,-0.34618f,-0.31590f,-0.30472f,-0.31523f,-0.33530f,0.07483f,0.22387f,0.25429f,0.23488f,0.17580f,0.05973f,0.35815f,0.14468f,0.14271f,0.09581f,0.10522f,0.12763f,0.05123f,0.10033f,0.09424f,0.26029f,0.14610f,0.12086f,0.24488f,-0.32454f,0.74702f,-0.58505f,0.05940f,0.45723f,0.42459f,1.12580f,0.00573f,0.14646f,0.05869f,0.17775f,0.08794f,0.10933f,0.08845f,-0.00642f,0.11178f,0.63340f,0.10993f,0.28172f,0.11650f,0.14658f,-0.12521f,-0.06025f,0.13834f,0.47011f,-0.42635f,0.41399f,-0.05740f,0.21001f,0.18312f,0.07038f,0.26736f,0.09820f,0.54431f,-0.14068f,0.36300f,-0.45284f,0.41810f,-1.28112f,-0.56774f,-0.28644f,0.28850f,0.11309f,-0.10399f,0.46051f,0.46043f,-0.01341f,0.07081f,0.49836f,-0.16433f,0.22430f,-0.27078f,0.38471f,0.17034f,0.17728f,0.38007f,-0.19091f,-0.01876f,-0.01418f,-0.19051f,0.01720f,-0.01320f,0.04809f,0.00347f,-0.72225f,0.28329f,0.45146f,-0.37459f,-0.13251f,0.23822f,-0.20361f,0.13349f,0.16755f,-0.30623f,0.09410f,-0.05540f,0.26395f,0.27496f,0.11837f,-0.05981f,0.06241f,-0.04398f,0.01865f,-0.11887f,-0.75758f,-0.17545f,-0.11024f,-0.50909f,-0.38237f,0.21615f,-0.12672f,0.15420f,-0.06669f,0.19982f,-0.06202f,0.10487f,0.51022f,-0.22174f,-0.52479f,0.37500f,0.33530f,-0.27304f,0.22516f,0.07112f,-0.08852f,0.27810f,0.08868f,0.00897f,-0.32410f,-0.31520f,-0.11175f,-0.00942f,0.01874f,-0.04459f,0.01701f,0.10671f,0.23276f,0.20968f,0.07388f,-0.20492f,-0.42791f,0.38985f,-0.40983f,0.06822f,-0.11011f,-0.08463f,-0.06973f,-0.34691f,-0.08570f,-0.30189f,0.13817f,-0.51741f,0.48652f,-0.16619f,0.83829f,0.25700f,0.18915f,-0.44844f,-0.04237f,0.15772f,-0.42531f,-0.49292f,0.08064f,0.10810f,-0.42463f,0.31372f,-0.05831f,0.24405f,-0.34379f,1.07683f,0.54327f,0.44030f,0.11994f},
  };
  static const int prune_2D_num_hidden_units_ver[9] = {
  16, 16, 16, 16, 32, 16, 32, 32, 32
  };
  static const float* prune_2D_learned_weights_ver[9] = {
  /* BLOCK_4X4 */
  (float[]){-0.45425f,-0.02187f,0.02211f,0.17020f,-0.20495f,0.12140f,-0.04145f,0.00874f,0.23506f,0.25578f,0.11758f,0.12580f,0.25141f,0.17859f,0.22627f,-0.05958f,-0.04662f,-0.08072f,0.00122f,-0.02718f,-0.29715f,0.14299f,-0.14781f,0.09839f,0.05093f,-0.05537f,0.01334f,-0.11570f,0.10764f,0.06399f,0.07999f,-0.12033f,-0.15237f,0.12135f,-0.07719f,0.02819f,0.04895f,0.13914f,0.03771f,0.12677f,-0.91987f,-0.32106f,-0.10570f,0.01068f,0.03487f,0.14888f,-0.23917f,-0.17202f,0.14658f,0.00006f,-0.00746f,-0.07518f,-0.42307f,0.43162f,-0.72271f,0.00273f,0.07731f,-0.03278f,0.06246f,-0.04750f,-0.43008f,0.22345f,-0.15710f,0.10243f,0.00753f,0.20690f,0.06456f,0.03731f,0.26873f,0.31853f,0.16969f,0.15910f,0.22659f,0.07108f,0.32685f,-0.14785f,0.14372f,0.17689f,0.30596f,0.16477f,-0.00129f,-0.00443f,0.16631f,0.25529f,0.00778f,-0.12833f,0.01031f,0.11507f,-0.02668f,0.07359f,0.51555f,0.18814f,-0.00460f,0.43318f,0.02349f,-0.39528f,-0.46094f,-0.10529f,0.24907f,0.04686f,0.11453f,-0.05349f,0.06990f,0.02308f,0.06830f,0.16117f,0.24870f,-0.09726f,0.05076f,0.24398f,-0.04599f,-0.32698f,0.36952f,-0.11573f,-0.12254f,-0.08047f,0.16785f,-0.18634f,0.05561f,-0.00287f,-0.08310f,-0.11762f,0.04137f,0.18287f,-0.01524f,0.18034f,0.07532f,0.11041f,0.15035f,0.23506f,-0.11238f,-0.23291f,0.19327f,0.39368f,0.03118f,-0.01475f,0.28159f,-0.02529f,-0.62981f,-0.06618f,-0.10742f,-0.63607f,-0.04210f,0.21753f,0.37062f,0.38773f,0.54144f,0.43784f},
  /* BLOCK_4X8 */
  (float[]){-0.24094f,0.06622f,0.14730f,0.14070f,-0.17578f,0.16593f,0.15497f,0.00532f,0.33693f,0.26056f,0.15991f,0.17156f,0.21682f,0.11954f,0.07423f,-0.08554f,-0.00155f,-0.03258f,0.01823f,0.00534f,-0.66740f,-0.07874f,-0.05858f,0.41851f,0.07435f,-0.12273f,-0.17259f,-0.04849f,0.11149f,0.04370f,0.01560f,-0.15435f,-0.12782f,0.17129f,0.14752f,0.06501f,0.11222f,0.12436f,0.11750f,0.08655f,-0.09078f,-0.05873f,-0.04109f,-0.06013f,0.01050f,0.93225f,0.51583f,-0.05053f,0.10790f,-0.10918f,-0.07278f,-0.10536f,-0.83058f,-0.48149f,0.09334f,0.03461f,0.02862f,-0.06960f,-0.06551f,-0.14493f,-0.19507f,0.34823f,0.28085f,0.19031f,0.23886f,0.19174f,0.07424f,0.12217f,0.23006f,-0.05077f,0.21515f,0.16919f,0.18805f,0.07494f,0.20295f,-0.34717f,0.18544f,0.28416f,0.23257f,0.19355f,-0.12966f,-0.02320f,0.02964f,0.12750f,0.00820f,-0.23543f,0.12776f,0.12315f,-0.03304f,0.03582f,-0.01928f,0.41034f,0.11686f,0.45065f,0.06324f,-0.10769f,0.02106f,-0.14255f,0.25949f,0.06065f,0.21169f,-0.47839f,0.11955f,0.03240f,0.04155f,0.16912f,-0.08304f,0.18159f,0.06773f,0.20436f,-0.04073f,-0.20099f,0.03496f,-0.08329f,-0.20597f,-0.18963f,0.11362f,0.33304f,0.12159f,-0.03664f,-0.02310f,-0.16842f,0.14799f,0.24882f,-0.01462f,0.04728f,0.07179f,-0.20611f,0.28016f,0.23121f,-0.03062f,-0.06318f,0.12765f,0.21426f,-0.00030f,0.01812f,0.28461f,0.02179f,0.06908f,-0.63032f,-0.05403f,-0.57362f,-0.04398f,0.29195f,0.43517f,0.40834f,0.65344f,0.32385f},
  /* BLOCK_8X4 */
  (float[]){-0.24237f,0.06390f,0.06612f,0.10360f,-0.15001f,0.12812f,0.10542f,-0.02277f,0.31937f,0.25900f,0.21966f,0.11001f,0.16664f,0.30404f,0.63929f,0.00106f,-0.03755f,-0.03569f,0.00755f,0.01000f,-0.24864f,0.04799f,-0.05095f,0.59002f,0.08022f,-0.17823f,-0.15136f,-0.11340f,0.15481f,0.02077f,0.00886f,-0.07138f,-0.12700f,0.14411f,0.09428f,0.03571f,0.14898f,0.12179f,0.11206f,0.06737f,-0.64006f,-0.27357f,-0.11965f,0.01869f,-0.25253f,0.70870f,-0.21867f,-0.00011f,0.14944f,-0.08412f,-0.11933f,-0.06760f,-0.34330f,-0.25388f,-0.24419f,-0.16776f,-0.00772f,-0.06876f,-0.05959f,-0.09035f,-0.28557f,0.33906f,0.14488f,0.09979f,0.24415f,0.16177f,0.06529f,-0.27859f,0.19910f,-0.39271f,0.16897f,0.15003f,0.19434f,0.06751f,0.25576f,-0.05764f,0.16038f,0.30148f,0.20484f,-0.00697f,-0.04207f,-0.00294f,0.04159f,0.33083f,-0.03472f,-0.32301f,0.14933f,0.06048f,0.00077f,0.04879f,0.42827f,0.30471f,0.07187f,-0.12968f,-0.00310f,-0.28211f,-0.04218f,-0.13785f,0.29750f,0.21640f,0.15566f,-0.19462f,0.03757f,0.06449f,0.03701f,0.15121f,0.01879f,0.16823f,0.02834f,0.35455f,-0.07360f,-0.20356f,0.03882f,-0.08021f,-0.32944f,0.14791f,0.11238f,0.06860f,0.17072f,-0.03388f,-0.05616f,-0.16430f,0.19125f,0.13819f,0.08214f,-0.40078f,0.07995f,-0.01780f,0.27677f,0.15610f,0.00079f,-0.51887f,0.16470f,0.27309f,-0.03946f,-0.03071f,0.25916f,0.02768f,-0.50760f,-0.40560f,-0.10608f,0.07570f,-0.04058f,0.20135f,0.39336f,0.30051f,0.54313f,0.34349f},
  /* BLOCK_8X8 */
  (float[]){-0.19499f,0.08064f,-0.01989f,0.11044f,-0.13441f,0.15579f,0.08647f,0.00425f,0.28212f,0.27106f,0.03701f,0.02476f,0.18004f,0.09913f,0.18858f,-0.04004f,0.01961f,-0.01223f,0.00419f,-0.02504f,-0.20281f,0.19341f,-0.04073f,0.15033f,0.03827f,-0.18321f,0.02190f,-0.03893f,0.09555f,-0.00006f,0.14273f,-0.08143f,-0.07355f,0.15981f,-0.00045f,0.02320f,0.10263f,0.12596f,0.10627f,0.03389f,-0.08926f,-0.07276f,0.00223f,0.01178f,-0.10612f,0.71171f,-0.11178f,-0.01514f,0.06838f,-0.10400f,0.06582f,-0.07982f,-0.70869f,-0.26612f,-0.09308f,-0.02727f,0.01359f,-0.08871f,0.03557f,-0.07700f,-0.14965f,0.27012f,0.07112f,0.14015f,0.18204f,0.18137f,0.07330f,0.15404f,0.24991f,0.25153f,0.18508f,0.21032f,0.18894f,0.08911f,0.19037f,-0.11344f,0.16543f,0.27245f,0.25137f,0.12873f,-0.08834f,-0.04567f,-0.01216f,0.16792f,-0.00181f,-0.16528f,0.11484f,0.13038f,-0.09823f,0.07627f,0.00885f,0.43008f,0.11269f,0.35431f,0.04801f,-0.08645f,0.01296f,-0.13025f,0.27530f,0.06322f,0.18249f,-0.15515f,0.06765f,0.03974f,0.05433f,0.16989f,-0.08388f,0.08609f,0.01803f,0.12273f,-0.04591f,-0.11298f,0.01921f,-0.06182f,-0.20081f,-0.18082f,0.10923f,0.00425f,0.09632f,-0.04791f,-0.02410f,-0.16375f,0.13171f,0.21129f,-0.00924f,0.07259f,0.09235f,-0.16596f,0.23286f,0.16128f,-0.00998f,-0.07964f,0.13377f,0.30212f,0.03224f,0.00319f,0.22690f,0.02759f,0.03549f,-0.51786f,-0.04300f,-0.48618f,-0.03864f,0.19058f,0.43102f,0.41186f,0.58671f,0.30133f},
  /* BLOCK_8X16 */
  (float[]){0.01505f,-0.04294f,0.12917f,0.11879f,-0.06723f,-0.01148f,0.03931f,0.00705f,0.01957f,0.13778f,0.04431f,0.10544f,0.09121f,0.14254f,0.05177f,-0.03783f,0.40303f,0.16311f,0.14140f,0.22492f,0.17700f,0.05895f,0.13410f,0.75680f,0.15892f,0.22501f,0.14123f,0.12464f,0.13836f,0.14566f,0.11790f,-0.17631f,-0.06631f,-0.07277f,-0.16933f,-0.18282f,-0.13366f,-0.05706f,-0.16615f,0.00894f,0.25849f,-0.11363f,-0.06718f,-0.06579f,-0.16006f,-0.04251f,-0.05984f,-0.82950f,-0.11578f,-0.23410f,0.02585f,-0.13491f,-0.05817f,0.05019f,0.03691f,0.32108f,0.07723f,0.16536f,0.04118f,0.18659f,-0.00345f,0.06738f,-0.00195f,-0.15162f,-0.18874f,-0.02352f,-0.15555f,-0.02244f,0.01985f,0.04304f,-0.10893f,0.24241f,0.09849f,-0.00430f,0.12846f,0.25872f,0.33940f,0.19248f,0.09327f,0.44986f,-0.69748f,-0.42544f,0.30631f,-0.36287f,-0.15113f,-0.19110f,-0.29995f,0.07389f,0.00933f,-0.11647f,-0.01499f,0.05458f,0.03974f,-0.05013f,-0.03831f,-0.16842f,-0.41889f,-0.36761f,-0.46497f,-0.44789f,-0.46309f,-0.42963f,-0.45313f,-0.07877f,-0.08383f,-0.11451f,-0.49371f,-0.16672f,0.59454f,-0.22509f,-0.57156f,0.00877f,0.38001f,0.25849f,0.30560f,0.25883f,0.20959f,0.29261f,0.28556f,-0.51938f,-0.06660f,0.10374f,0.13446f,0.05901f,0.17162f,0.11391f,0.17354f,0.22958f,0.22656f,0.25187f,0.27357f,0.24506f,0.23595f,0.41562f,0.35385f,-0.08948f,0.03710f,-0.45237f,-0.59229f,0.08285f,0.01309f,0.69017f,0.47960f,0.03362f,-0.30977f,-0.13584f,-0.09612f,0.06057f,0.11957f,-0.11232f,-0.06652f,0.36945f,0.20158f,-0.10351f,0.07658f,0.05730f,0.04253f,0.00573f,-0.07836f,-0.16210f,-0.11788f,-0.07358f,-0.09135f,0.18188f,-0.04610f,0.01362f,-0.05546f,0.09778f,0.16960f,0.17476f,0.12904f,0.04198f,0.00909f,0.04438f,0.05017f,-0.09893f,-0.07974f,-0.00113f,-0.06032f,0.04837f,0.05261f,-0.05645f,0.01710f,-0.04348f,0.30014f,-0.04353f,0.06863f,0.08199f,-0.03271f,0.14745f,-0.05331f,-0.13792f,0.33902f,0.13174f,0.23535f,0.10948f,0.12378f,0.03072f,0.16923f,-0.36202f,0.15971f,-0.01282f,0.21854f,0.37920f,0.43244f,0.21943f,0.17646f,0.42836f,0.20380f,-0.03419f,-0.03387f,-0.02352f,-0.05034f,-0.04018f,0.03788f,-0.57151f,0.19894f,-0.40532f,-0.17963f,-0.46333f,-0.28899f,-0.30080f,-0.16634f,-0.00773f,-0.13662f,-0.00500f,-0.01222f,0.09043f,0.03496f,-0.00637f,0.03900f,-0.01800f,0.03500f,-0.13469f,0.03520f,-0.12296f,-0.01120f,0.18494f,0.17367f,-0.27214f,0.06955f,-0.45155f,-0.08084f,0.74846f,-0.16606f,-0.51002f,0.06487f,0.00688f,-0.08327f,0.08369f,-0.16464f,-0.19980f,-0.14255f,-0.11023f,-0.06965f,-0.21077f,0.14541f,0.12441f,-0.80076f,0.15387f,0.24931f,0.73791f,0.27828f,0.14785f,0.18242f,0.15532f,0.20530f,-0.05834f,0.41532f,0.12572f,0.21433f,0.06011f,-0.02660f,-0.04613f,0.03519f,0.21393f,0.11363f,0.08218f,0.11978f,0.21567f,0.31794f,0.17418f,0.35227f,0.20729f,0.14168f,0.23734f,0.03824f,0.40696f,0.07120f,0.17410f,-0.43807f,0.24280f,0.02833f,-0.54470f,-0.23311f,0.18092f,-0.09897f,-0.17737f,0.21961f,0.06562f,0.33255f,0.28420f,-0.06153f,-0.02009f,0.22011f,0.23062f,-0.15571f,0.17171f,-0.05423f,0.11514f,0.05467f,0.09101f,0.37947f,-0.07507f,-0.21274f,0.25215f,0.03481f,0.22148f,0.28699f,0.18132f,0.11229f,0.04532f,0.49229f,0.15483f,0.00639f,-0.68724f,-0.11066f,0.10098f,-0.21086f,-0.18326f,-0.06279f,-0.03106f,0.45502f,0.30845f,-0.06132f,-0.08375f,0.28457f,0.09317f,-0.32532f,0.23881f,-0.04366f,0.11817f,-0.00155f,0.26654f,0.42848f,-0.07915f,-0.21700f,0.12040f,-0.06031f,0.27030f,0.22695f,0.10932f,0.00933f,-0.10293f,-0.37735f,-0.25682f,0.35304f,-0.23718f,0.23621f,-0.11918f,0.21075f,-0.20713f,0.24468f,0.05639f,-0.62879f,0.20781f,0.79686f,-0.16944f,-0.54022f,0.12258f,0.02743f,0.01426f,0.07979f,-0.16895f,0.03240f,-0.06663f,-0.25601f,-0.32535f,-0.15221f,0.22073f,0.04131f,-0.06152f,0.23437f,0.28591f,0.04556f,0.03559f,0.01725f,-0.08091f,-0.09600f,0.67724f,0.20278f,-0.03298f,0.09672f,0.32557f,-0.35727f,0.00889f,-0.22271f,-0.55838f,-0.55517f,0.12958f,-0.19041f,-0.35356f,0.18355f,-0.06306f,0.14295f,-0.12718f,0.07271f,-0.12678f,-0.13150f,0.39114f,0.49192f,-0.53434f,0.11234f,-0.00815f,-0.55071f,-0.16638f,0.52094f,0.62537f,0.75177f,0.09919f},
  /* BLOCK_16X8 */
  (float[]){-0.14078f,0.09152f,0.15572f,0.36549f,-0.10908f,0.18310f,0.09893f,0.03463f,0.31461f,0.14288f,0.27934f,0.31542f,0.06559f,0.65148f,0.42620f,-0.00633f,-0.00004f,-0.04735f,0.02872f,0.03688f,-0.18434f,0.24883f,0.09716f,0.39768f,0.08264f,-0.01145f,-0.10308f,-0.25402f,0.14106f,0.05298f,0.05223f,-0.26969f,-0.08172f,0.13593f,0.08195f,0.15372f,0.08405f,0.17261f,0.26157f,0.09799f,-0.72432f,-0.12326f,0.13636f,0.20213f,0.21105f,-0.09864f,-0.12037f,-0.78980f,0.07323f,-0.01394f,-0.00175f,-0.20862f,-0.05289f,-0.01750f,-0.17403f,-0.11489f,0.06092f,-0.02305f,-0.01951f,0.02034f,-0.06167f,0.36321f,0.25971f,0.36440f,0.27815f,0.16057f,0.04154f,-0.28368f,0.21889f,0.24072f,0.42528f,0.30404f,0.13596f,0.06235f,0.05223f,0.57182f,0.42562f,-0.03783f,0.46567f,0.11655f,-0.33330f,0.08719f,-0.08478f,0.42172f,0.03128f,-0.28271f,0.37112f,0.39099f,-0.03061f,0.05809f,0.35254f,-0.62599f,0.25417f,-0.11914f,0.05433f,-0.15950f,0.00336f,-0.12677f,0.21014f,0.31649f,0.20537f,-0.15432f,0.16100f,0.08119f,0.04478f,0.10042f,-0.26569f,-0.16176f,0.08458f,0.11641f,0.03998f,-0.21322f,0.04041f,-0.11610f,-0.23463f,0.16754f,0.09440f,0.02759f,0.11065f,-0.10419f,-0.00306f,-0.21442f,0.32017f,-0.09124f,-0.04657f,-0.05450f,0.03669f,-0.18707f,0.32058f,0.14570f,0.01428f,-0.76603f,0.05407f,0.39305f,-0.10754f,-0.09717f,0.20851f,0.10785f,-0.33794f,0.53592f,-0.12956f,-0.05647f,-0.10946f,0.33898f,0.68554f,0.50207f,0.73883f,0.08083f},
  /* BLOCK_16X16 */
  (float[]){-0.05059f,-0.01221f,0.10413f,0.11414f,-0.05670f,-0.03451f,0.04687f,0.18387f,-0.40121f,0.02244f,0.07410f,0.02464f,0.01892f,0.09057f,0.07125f,0.14049f,0.31043f,-0.00654f,0.10070f,0.05815f,0.10138f,0.24326f,-0.39287f,0.46638f,0.14073f,0.10901f,0.01000f,0.04187f,0.10228f,0.15360f,0.19938f,-0.22723f,-0.05026f,0.11850f,-0.17554f,-0.09746f,0.01671f,0.00628f,-0.01509f,0.12577f,-0.01220f,-0.07032f,-0.01529f,-0.08007f,-0.02711f,-0.02204f,-0.02266f,-1.08937f,-0.15097f,-0.11869f,0.17569f,-0.08173f,-0.11353f,0.05323f,0.12301f,0.48517f,0.05371f,0.10031f,-0.06222f,0.14904f,-0.03168f,0.04348f,-0.00173f,-0.11744f,-0.12138f,0.06206f,-0.08760f,0.07445f,-0.00572f,0.07131f,0.05274f,0.34429f,0.02991f,0.02077f,0.14852f,0.21548f,0.11816f,0.12521f,0.19705f,0.64742f,-0.56102f,-0.28060f,0.55149f,-0.30844f,-0.24200f,-0.13991f,-0.57774f,0.00038f,0.47012f,0.02584f,0.08102f,0.19179f,0.06456f,0.15229f,0.12461f,-0.51418f,0.01815f,0.01517f,0.03977f,0.00562f,-0.09830f,0.06450f,0.11385f,-0.27233f,-0.08272f,-0.13242f,-0.03362f,0.01460f,0.12888f,-0.14908f,-0.10155f,-0.20875f,0.04233f,-0.02261f,0.08444f,0.10112f,0.05249f,0.01916f,-0.00488f,-0.32673f,-0.10116f,0.04051f,0.03550f,-0.14998f,-0.06635f,0.04328f,0.08086f,-0.07170f,0.12257f,0.10570f,0.22487f,0.23936f,0.03973f,0.05609f,0.18738f,-0.15108f,0.01700f,-0.13514f,0.14046f,-0.02034f,-0.86914f,-0.11287f,0.47388f,0.00667f,0.17230f,0.05656f,0.00286f,0.05985f,0.08216f,-0.01337f,0.06142f,0.47971f,0.09245f,-0.05561f,-0.07102f,-0.05502f,0.13182f,-0.02714f,-0.12872f,-0.14678f,-0.32775f,-0.22168f,-0.14850f,-0.07655f,-0.12432f,-0.11662f,-0.01644f,0.40681f,0.23205f,0.17286f,0.04762f,0.05379f,-0.00256f,0.04242f,0.09208f,-0.08579f,-0.08874f,-0.07674f,-0.02980f,0.06849f,0.03930f,-0.03817f,0.04016f,-0.10543f,0.35541f,0.13095f,0.01005f,0.08793f,0.12202f,0.30552f,-0.06917f,-0.09082f,0.30162f,0.09883f,0.06140f,-0.02565f,0.19683f,0.07005f,0.09391f,-0.41863f,0.03968f,-0.01433f,0.26476f,0.29241f,0.16693f,0.17132f,0.17295f,0.66567f,-0.11483f,-0.19430f,-0.21333f,-0.14818f,-0.22457f,-0.15056f,-0.22989f,-0.35618f,-0.21208f,-0.74586f,-0.31789f,-0.11577f,0.07871f,0.47118f,0.03404f,0.00782f,-0.24354f,-0.10640f,-0.00153f,0.08694f,-0.01669f,-0.05274f,0.10461f,0.16647f,-0.06441f,-0.15852f,0.03298f,-0.11901f,0.04066f,0.14844f,-0.00663f,-0.22204f,-0.11614f,-0.55172f,-0.29730f,0.44648f,-0.20542f,-0.71696f,-0.23550f,-0.00089f,-0.20588f,0.04056f,-0.22397f,-0.19632f,0.00801f,-0.08095f,-0.07204f,-0.33121f,0.14751f,-0.00064f,-0.45387f,0.12890f,0.19994f,1.02603f,0.03334f,0.15132f,0.11873f,0.03088f,0.19377f,0.32661f,0.48236f,-0.16195f,0.49351f,-0.13449f,0.09672f,0.06065f,0.03421f,0.18087f,-0.15869f,0.06856f,0.18464f,0.01027f,0.35838f,0.02105f,0.39480f,0.09555f,0.11298f,0.26467f,0.20998f,0.51801f,0.04343f,0.03363f,-0.01496f,0.21332f,-0.04562f,-1.18484f,-0.21674f,0.13483f,-0.18267f,-0.38004f,0.22728f,-0.13231f,0.39911f,-0.05511f,0.53570f,0.00342f,0.26129f,0.18168f,-0.31861f,0.15398f,-0.12431f,0.04465f,0.16340f,0.04024f,0.40504f,-0.25504f,-0.28472f,0.16850f,0.09598f,0.27291f,0.25159f,0.35008f,0.06464f,-0.38682f,0.29979f,0.20021f,0.15190f,0.13244f,-0.10453f,0.09830f,0.00486f,0.10455f,0.15985f,-0.52011f,0.11508f,0.15765f,0.00728f,-0.04843f,0.13504f,0.23244f,0.15933f,0.16274f,-0.28008f,0.16220f,-0.08940f,0.24406f,0.22325f,0.06856f,-0.04193f,0.10209f,-0.15720f,0.08175f,0.23270f,-0.02492f,-0.06371f,0.03822f,-0.31483f,-0.19448f,0.22043f,-0.17388f,0.07865f,-0.06007f,0.18316f,-0.22689f,0.20434f,0.51375f,-0.15358f,-0.02449f,-0.07702f,-0.15316f,-0.27112f,0.15163f,-0.15382f,-0.03485f,0.25898f,-0.18593f,0.07720f,-0.06277f,-0.15079f,-0.21018f,-0.45905f,0.02462f,-0.02817f,0.06862f,0.20108f,0.28288f,0.10609f,-0.10906f,-0.10330f,-0.19046f,-0.10421f,0.93817f,0.37229f,-0.05905f,0.20320f,0.44413f,-0.53357f,0.16750f,-0.20666f,-0.11366f,-0.27741f,0.08538f,0.03186f,-0.55788f,0.15219f,-0.19550f,0.20493f,-0.09995f,0.00266f,-0.28148f,-0.39920f,0.46422f,0.75064f,-0.38307f,-0.02093f,-0.10661f,-0.67973f,-0.38319f,0.88092f,0.25113f,0.78774f,-0.02876f},
  /* BLOCK_16X32 */
  (float[]){-0.21618f,-0.24283f,0.10681f,0.34866f,-0.02151f,-0.15610f,-0.11303f,-0.05083f,0.07101f,0.09248f,0.01479f,-0.02429f,-0.04628f,-0.02889f,0.03006f,0.19472f,-0.10327f,0.00129f,-0.06432f,-0.02379f,-0.01525f,0.05153f,-0.17929f,-0.07487f,-0.13004f,-0.07288f,0.08621f,0.10988f,0.00958f,0.04938f,0.07035f,-0.09700f,0.04850f,0.03460f,-0.08039f,-0.06939f,-0.04833f,-0.06734f,-0.18439f,0.03372f,-0.14260f,0.05459f,-0.07063f,-0.01440f,0.09744f,-0.01293f,0.01123f,-0.17633f,0.20696f,0.24427f,0.14507f,0.26334f,0.21847f,0.27029f,0.22558f,0.23830f,-0.15430f,-0.48513f,-0.06381f,0.07756f,-0.15703f,-0.42632f,-0.41397f,0.14708f,-0.06777f,0.15573f,0.03563f,0.11750f,0.09190f,0.02368f,0.08200f,0.07948f,0.03860f,-0.14581f,-0.04652f,0.08607f,0.07770f,-0.05784f,0.19783f,0.72543f,-0.04371f,-0.89477f,-0.39365f,0.13422f,0.35427f,0.30547f,0.13481f,0.07609f,0.00298f,-0.06365f,0.05687f,-0.05837f,-0.00970f,-0.05247f,0.00563f,0.02166f,0.07150f,0.00733f,0.19919f,-0.11842f,-0.08641f,0.08608f,0.11460f,0.14649f,0.05407f,-0.04280f,0.02503f,-0.12663f,-0.04123f,0.02544f,0.01780f,0.26878f,0.20154f,0.34943f,0.24382f,0.37826f,0.12920f,0.14826f,0.11677f,0.26097f,0.16720f,0.11667f,-0.04859f,-0.16089f,-0.08845f,-0.30374f,-0.25401f,-0.17867f,0.02280f,0.20916f,-0.08199f,0.01067f,0.01834f,0.12463f,0.10770f,0.16909f,-0.02544f,-0.26262f,0.01044f,0.10493f,0.05196f,-0.19149f,0.04353f,0.02061f,-0.00988f,-0.10665f,-0.01420f,0.13266f,0.13326f,0.06908f,-0.07493f,0.09679f,0.12508f,0.08204f,0.12653f,-0.07357f,0.09321f,-0.07305f,-0.08784f,-0.00123f,0.00550f,0.14830f,0.01863f,-0.15552f,-0.15380f,0.12851f,0.11346f,-0.03649f,-0.03349f,-0.03138f,0.07958f,0.05857f,-0.08749f,0.02704f,-0.10157f,-0.12063f,-0.08568f,-0.08003f,0.00682f,-0.05103f,0.00490f,-0.06514f,-0.05884f,-0.08077f,0.17718f,-0.14933f,0.02508f,0.10257f,0.11493f,-0.08055f,0.12773f,0.65505f,0.13561f,-0.05387f,-0.10862f,-0.12151f,-0.30345f,-0.02100f,0.13689f,-0.11631f,0.07596f,0.02070f,0.04503f,0.07488f,0.00915f,0.00178f,0.04741f,-0.52730f,0.18339f,0.21987f,0.16267f,0.17159f,0.09940f,0.22964f,0.07698f,0.21296f,0.02764f,-0.17881f,-0.08313f,-0.06673f,0.04885f,0.02509f,-0.32592f,0.73773f,-0.34797f,-0.25619f,0.28532f,0.17877f,0.40052f,-0.06841f,-0.70014f,-0.54821f,-0.07355f,0.11843f,-0.03235f,-0.13158f,-0.11290f,-0.09159f,-0.11645f,0.00482f,-0.09934f,0.03676f,0.03315f,-0.14867f,-0.06104f,0.06136f,0.09992f,-0.02971f,-0.03455f,0.00461f,0.04237f,-0.12622f,-0.12703f,-0.02109f,-0.02992f,-0.20097f,-0.06040f,-0.15793f,0.08865f,0.43527f,0.15558f,-0.18394f,-0.05573f,-0.11617f,0.01914f,0.13858f,-0.04420f,-0.03401f,0.05992f,-0.01994f,-0.13521f,-0.25791f,0.04194f,-0.09366f,-0.12017f,-0.01891f,-0.10068f,-0.03343f,-0.09037f,-0.07923f,-0.06996f,-0.06594f,-0.06061f,-0.11429f,0.01031f,-0.11091f,-0.10360f,-1.08266f,-0.02723f,0.04416f,0.07228f,0.18153f,0.13698f,0.00664f,0.05234f,0.14607f,0.21630f,0.09894f,0.25481f,0.14587f,0.13882f,0.03800f,0.13317f,0.69137f,0.05711f,-0.06326f,0.00103f,0.07597f,0.05450f,-0.09533f,-0.10810f,0.07444f,0.02992f,0.06212f,0.05390f,0.11792f,0.13125f,0.04386f,0.13678f,0.22892f,0.20778f,-0.44330f,-0.17557f,0.66761f,-0.09103f,-0.86726f,-0.08784f,0.19038f,0.18530f,0.03055f,-0.10785f,0.01838f,-0.02941f,-0.06797f,-0.04772f,0.00302f,0.04245f,0.10097f,0.08562f,0.18078f,0.03860f,0.04749f,0.14106f,-0.03178f,0.00551f,0.08083f,0.12801f,0.19671f,0.08050f,-0.10586f,0.05846f,-0.04516f,-0.02416f,-0.12536f,-0.02213f,0.24043f,0.17729f,-0.09689f,0.01779f,0.00253f,0.05895f,0.14094f,-0.08492f,-0.13676f,-0.02978f,-0.05217f,0.08155f,0.25825f,-0.13703f,-0.09377f,-0.08962f,-0.12889f,-0.05088f,-0.01994f,-0.12739f,0.01248f,0.19399f,-0.45083f,-0.91256f,-0.40680f,0.33479f,0.15570f,-0.07685f,0.01056f,-0.12653f,-0.04283f,-0.08643f,-0.13450f,-0.10609f,-0.13722f,-0.09499f,-0.06845f,0.08505f,0.13218f,0.08264f,-0.39335f,-0.84611f,-0.38522f,0.46318f,-0.00541f,-0.09851f,-0.19760f,0.06741f,0.30497f,0.30241f,0.03286f,-0.19381f,0.07356f,-0.08884f,-0.03632f,0.07708f,0.05180f,-0.08945f,-0.03585f,-0.04728f,0.04252f,0.02974f,0.06783f,0.01425f,-0.03025f,0.02646f,0.12043f,-0.02840f,-0.10652f,0.00722f,-0.05165f,-0.02787f,-0.09658f,-0.10923f,-0.02042f,-0.00149f,-0.01103f,0.03091f,-0.16064f,-0.17004f,-0.25780f,-0.07958f,-0.17782f,-0.09526f,-0.00538f,-0.12288f,0.16848f,0.13211f,0.18609f,0.15305f,0.28718f,0.04243f,-0.41272f,-0.09366f,-0.19248f,-0.10200f,0.09826f,-0.05331f,-0.14640f,-0.00458f,0.00963f,-0.00653f,0.04222f,0.02956f,0.02262f,-0.09736f,0.03597f,0.18541f,0.01228f,0.12904f,-0.03928f,0.06786f,-0.14272f,0.02389f,0.01901f,-0.10595f,0.02034f,-0.00606f,-0.14920f,-0.04607f,-0.13369f,-0.01950f,0.05391f,0.04249f,-0.20623f,0.00778f,-0.08066f,0.03341f,0.25334f,-0.03257f,0.02742f,0.10637f,0.09204f,0.02359f,0.06410f,0.10056f,0.03802f,-0.15140f,0.12506f,0.09616f,0.26741f,-0.36045f,-0.27641f,-0.31043f,-0.33798f,-0.34603f,-0.35218f,-0.19985f,-0.37633f,-0.13309f,0.01548f,0.14843f,0.24347f,0.18459f,0.15485f,0.31864f,0.03448f,0.18942f,0.10016f,-0.12548f,0.02992f,0.12752f,0.02198f,0.12864f,0.15799f,0.18541f,0.11838f,0.26031f,-0.44073f,0.67215f,-0.62243f,0.08661f,-0.11185f,0.44147f,1.02407f,0.02486f,0.15311f,0.03814f,0.07543f,0.09941f,0.10817f,0.10423f,0.17058f,0.15847f,0.41617f,0.16764f,0.26035f,0.08030f,0.20128f,-0.13606f,0.12187f,0.07091f,0.23928f,-0.32494f,0.28464f,-0.02420f,0.53947f,0.26253f,0.08711f,0.21371f,-0.53545f,0.44972f,-0.20114f,0.44159f,0.02183f,0.21039f,-1.16826f,-0.50486f,-0.28819f,0.40994f,0.02718f,-0.15382f,0.42034f,0.39854f,0.10244f,0.07920f,0.26626f,-0.10074f,0.24882f,-0.29035f,0.59030f,0.21213f,0.08635f,0.14013f,0.33552f,-0.08671f,-0.31999f,-0.20617f,-0.31628f,0.06374f,0.08607f,0.00686f,-0.21987f,0.26660f,0.49595f,-0.32176f,-0.10969f,0.35644f,-0.25493f,0.03943f,0.10375f,-0.46207f,0.17738f,0.00720f,0.42020f,0.47158f,0.16586f,-0.10824f,0.28930f,0.08443f,-0.07816f,0.07570f,-0.59585f,-0.19431f,-0.00007f,-0.06319f,-0.74272f,0.29888f,0.24598f,0.14362f,0.01393f,0.25334f,-0.12076f,0.10021f,0.39571f,-0.06394f,-0.48422f,0.37166f,-0.15660f,-0.24311f,0.30651f,0.14065f,0.02917f,0.39777f,0.10136f,-0.13444f,-0.37149f,-0.42547f,-0.12638f,-0.02760f,-0.15244f,-0.03447f,0.04447f,0.03713f,-0.13041f,0.21966f,-0.08591f,-0.04223f,-0.38860f,0.25671f,-0.34458f,-0.01615f,-0.38766f,-0.01819f,0.02452f,-0.29676f,0.46403f,-0.29140f,0.24779f,-0.68758f,0.05270f,0.02373f,0.70212f,0.18440f,0.18412f,-0.63741f,-0.13320f,0.25122f,-0.57167f,-0.55647f,0.14251f,-0.00157f,-0.36851f,0.21480f,0.02839f,0.13816f,-0.44298f,1.07701f,0.46414f,0.50766f,0.35754f},
  /* BLOCK_32X16 */
  (float[]){-0.01115f,0.05171f,0.13435f,0.12270f,-0.10257f,-0.05530f,-0.00101f,0.23500f,-0.11076f,0.05571f,-0.02404f,-0.00704f,0.05831f,0.18669f,-0.07094f,0.02042f,0.27429f,0.14003f,0.01240f,-0.05720f,-0.10509f,-0.15584f,-0.43409f,0.20850f,0.19385f,0.08815f,0.01072f,0.08703f,0.11849f,0.19775f,0.02129f,-0.22852f,-0.04672f,0.12676f,-0.06718f,-0.01693f,-0.07253f,-0.12933f,-0.06072f,0.26405f,-0.31549f,-0.12299f,-0.20835f,-0.33636f,-0.21144f,-0.30091f,-0.12379f,-0.39126f,-0.11750f,-0.08392f,0.06947f,-0.13644f,-0.02098f,0.17291f,0.10178f,0.41871f,0.07520f,0.10502f,-0.04820f,0.17680f,-0.04105f,0.05867f,-0.05317f,-0.11939f,-0.08589f,0.06174f,-0.15433f,0.02495f,0.04561f,0.12512f,0.02294f,0.39500f,0.16780f,0.07873f,0.00748f,0.14408f,0.26254f,0.37531f,0.08286f,0.55586f,-0.17069f,0.08031f,-0.01850f,-0.17575f,-0.18391f,-0.03732f,-0.03957f,-0.11173f,0.18520f,-0.13758f,0.00732f,-0.09574f,-0.04301f,0.02909f,-0.02967f,-0.59020f,0.02825f,-0.05298f,0.04958f,0.03909f,-0.12262f,0.04170f,0.04600f,-0.38624f,-0.07893f,-0.12427f,-0.03689f,0.00947f,0.13739f,-0.14818f,-0.10410f,-0.25229f,0.05942f,0.00925f,0.11146f,0.08700f,0.00768f,-0.06813f,0.00830f,-0.22978f,-0.09080f,0.04770f,0.04181f,-0.14266f,-0.06082f,0.04809f,0.08749f,-0.09858f,0.17349f,0.19011f,0.17328f,0.18696f,0.07454f,0.12216f,0.07216f,-0.13457f,0.28373f,-0.16677f,-0.56956f,-0.53974f,0.13639f,0.44208f,-0.15697f,-0.00126f,0.14260f,0.11904f,0.02247f,0.09360f,0.08869f,-0.04617f,0.05602f,0.52537f,0.11780f,-0.08143f,0.03027f,0.03435f,0.04230f,-0.08436f,-0.14993f,-0.15547f,-0.67636f,-0.30548f,-0.10654f,0.07283f,-0.12114f,-0.13226f,-0.11522f,0.27097f,0.21956f,0.22788f,0.11190f,0.10667f,-0.04157f,0.01087f,0.03672f,-0.09491f,-0.09275f,-0.10608f,-0.09926f,0.00798f,0.08660f,-0.01444f,0.06709f,-0.07574f,0.30919f,-0.03080f,-0.02822f,0.29021f,0.46640f,0.49126f,-0.45481f,0.01950f,0.29042f,0.06926f,0.15351f,0.06326f,0.12018f,-0.02796f,-0.03323f,-0.34437f,0.15339f,0.07557f,0.10124f,0.17549f,0.33409f,0.42731f,0.08630f,0.68778f,0.07152f,-0.13028f,-0.01361f,-0.02777f,0.00255f,0.01095f,-0.04430f,-1.01659f,0.00340f,-0.16690f,-0.11652f,-0.22804f,0.04366f,-0.09758f,-0.04533f,-0.13009f,-0.14114f,-0.14635f,-0.10141f,0.02216f,0.04460f,0.05026f,0.11189f,-0.04041f,-0.09894f,-0.29398f,-0.06334f,-0.16265f,0.00069f,0.18984f,0.25051f,-0.52465f,0.04335f,-0.20285f,-0.06852f,0.16794f,-0.10775f,-0.04613f,0.01988f,0.22461f,-0.21355f,-0.02381f,-0.13678f,-0.15510f,-0.06523f,-0.22982f,-0.01316f,-0.28278f,0.11149f,0.05395f,-0.65911f,0.30683f,0.17444f,0.51967f,0.15252f,0.13070f,0.10079f,0.05924f,0.33743f,0.41359f,0.51241f,-0.15345f,0.50058f,-0.09968f,0.11013f,0.07441f,0.04478f,0.17889f,-0.07703f,0.10440f,0.15892f,-0.13315f,0.45839f,0.04290f,0.93992f,0.42998f,0.19827f,0.51772f,0.31994f,0.53953f,-0.09527f,0.16816f,0.11906f,0.26153f,-0.07928f,-0.33932f,-0.23489f,0.09914f,-0.15240f,-0.28374f,0.12795f,-0.35493f,0.43179f,-0.08749f,0.39600f,0.01128f,0.16056f,0.22155f,-0.45577f,0.15274f,0.20709f,0.01505f,0.16627f,0.22968f,0.38400f,-0.21096f,-1.18297f,0.19391f,0.12837f,0.31533f,-0.03210f,0.33202f,0.14466f,-0.02613f,0.38302f,0.11702f,0.15584f,0.41401f,-0.17903f,0.13790f,-0.08463f,-0.00141f,-0.03441f,-0.22626f,0.07464f,0.14356f,0.06814f,-0.05478f,0.16069f,0.08013f,0.12640f,0.20342f,-0.42004f,0.21054f,-0.13838f,0.24146f,0.27197f,-0.01634f,-0.49571f,-0.02539f,-0.17161f,0.58062f,0.03995f,-0.05584f,0.00722f,-0.02323f,-0.09974f,-0.26798f,0.22912f,-0.81788f,0.10459f,-0.09951f,0.14236f,-0.28605f,0.23316f,0.00097f,-0.07541f,-0.05352f,-0.02265f,-0.16204f,-0.26334f,0.21842f,-0.07983f,-0.04176f,0.47628f,-0.17907f,0.07429f,0.03827f,-0.17426f,-0.26529f,0.30880f,0.15184f,0.00514f,-0.16990f,0.05851f,0.28450f,-0.05110f,0.03872f,-0.33648f,0.00777f,-0.11255f,0.57467f,0.32453f,-0.00862f,0.23885f,0.60339f,-0.22179f,0.72696f,-0.32886f,-0.08634f,-0.41935f,0.08824f,-0.03304f,-0.67366f,0.25755f,-0.07012f,-0.37512f,-0.11468f,-0.04887f,-0.68379f,-0.28826f,0.55870f,1.09095f,-0.13033f,0.03643f,-0.56877f,-0.03638f,-0.42047f,0.77969f,0.28732f,0.70966f,-0.10409f},
  };


typedef struct {
  PREDICTION_MODE mode;
  MV_REFERENCE_FRAME ref_frame[2];
} MODE_DEFINITION;

typedef struct { MV_REFERENCE_FRAME ref_frame[2]; } REF_DEFINITION;

struct rdcost_block_args {
  const AV1_COMP *cpi;
  MACROBLOCK *x;
  ENTROPY_CONTEXT t_above[2 * MAX_MIB_SIZE];
  ENTROPY_CONTEXT t_left[2 * MAX_MIB_SIZE];
  RD_STATS rd_stats;
  int64_t this_rd;
  int64_t best_rd;
  int exit_early;
  int use_fast_coef_costing;
};

#define LAST_NEW_MV_INDEX 6
static const MODE_DEFINITION av1_mode_order[MAX_MODES] = {
  { NEARESTMV, { LAST_FRAME, NONE_FRAME } },
#if CONFIG_EXT_REFS
  { NEARESTMV, { LAST2_FRAME, NONE_FRAME } },
  { NEARESTMV, { LAST3_FRAME, NONE_FRAME } },
  { NEARESTMV, { BWDREF_FRAME, NONE_FRAME } },
  { NEARESTMV, { ALTREF2_FRAME, NONE_FRAME } },
#endif  // CONFIG_EXT_REFS
  { NEARESTMV, { ALTREF_FRAME, NONE_FRAME } },
  { NEARESTMV, { GOLDEN_FRAME, NONE_FRAME } },

  { DC_PRED, { INTRA_FRAME, NONE_FRAME } },

  { NEWMV, { LAST_FRAME, NONE_FRAME } },
#if CONFIG_EXT_REFS
  { NEWMV, { LAST2_FRAME, NONE_FRAME } },
  { NEWMV, { LAST3_FRAME, NONE_FRAME } },
  { NEWMV, { BWDREF_FRAME, NONE_FRAME } },
  { NEWMV, { ALTREF2_FRAME, NONE_FRAME } },
#endif  // CONFIG_EXT_REFS
  { NEWMV, { ALTREF_FRAME, NONE_FRAME } },
  { NEWMV, { GOLDEN_FRAME, NONE_FRAME } },

  { NEARMV, { LAST_FRAME, NONE_FRAME } },
#if CONFIG_EXT_REFS
  { NEARMV, { LAST2_FRAME, NONE_FRAME } },
  { NEARMV, { LAST3_FRAME, NONE_FRAME } },
  { NEARMV, { BWDREF_FRAME, NONE_FRAME } },
  { NEARMV, { ALTREF2_FRAME, NONE_FRAME } },
#endif  // CONFIG_EXT_REFS
  { NEARMV, { ALTREF_FRAME, NONE_FRAME } },
  { NEARMV, { GOLDEN_FRAME, NONE_FRAME } },

  { ZEROMV, { LAST_FRAME, NONE_FRAME } },
#if CONFIG_EXT_REFS
  { ZEROMV, { LAST2_FRAME, NONE_FRAME } },
  { ZEROMV, { LAST3_FRAME, NONE_FRAME } },
  { ZEROMV, { BWDREF_FRAME, NONE_FRAME } },
  { ZEROMV, { ALTREF2_FRAME, NONE_FRAME } },
#endif  // CONFIG_EXT_REFS
  { ZEROMV, { GOLDEN_FRAME, NONE_FRAME } },
  { ZEROMV, { ALTREF_FRAME, NONE_FRAME } },

// TODO(zoeliu): May need to reconsider the order on the modes to check

#if CONFIG_EXT_INTER

#if CONFIG_COMPOUND_SINGLEREF
  // Single ref comp mode
  { SR_NEAREST_NEARMV, { LAST_FRAME, NONE_FRAME } },
#if CONFIG_EXT_REFS
  { SR_NEAREST_NEARMV, { LAST2_FRAME, NONE_FRAME } },
  { SR_NEAREST_NEARMV, { LAST3_FRAME, NONE_FRAME } },
  { SR_NEAREST_NEARMV, { BWDREF_FRAME, NONE_FRAME } },
#endif  // CONFIG_EXT_REFS
  { SR_NEAREST_NEARMV, { GOLDEN_FRAME, NONE_FRAME } },
  { SR_NEAREST_NEARMV, { ALTREF_FRAME, NONE_FRAME } },

  /*
  { SR_NEAREST_NEWMV, { LAST_FRAME, NONE_FRAME } },
#if CONFIG_EXT_REFS
  { SR_NEAREST_NEWMV, { LAST2_FRAME, NONE_FRAME } },
  { SR_NEAREST_NEWMV, { LAST3_FRAME, NONE_FRAME } },
  { SR_NEAREST_NEWMV, { BWDREF_FRAME, NONE_FRAME } },
#endif  // CONFIG_EXT_REFS
  { SR_NEAREST_NEWMV, { GOLDEN_FRAME, NONE_FRAME } },
  { SR_NEAREST_NEWMV, { ALTREF_FRAME, NONE_FRAME } },*/

  { SR_NEAR_NEWMV, { LAST_FRAME, NONE_FRAME } },
#if CONFIG_EXT_REFS
  { SR_NEAR_NEWMV, { LAST2_FRAME, NONE_FRAME } },
  { SR_NEAR_NEWMV, { LAST3_FRAME, NONE_FRAME } },
  { SR_NEAR_NEWMV, { BWDREF_FRAME, NONE_FRAME } },
#endif  // CONFIG_EXT_REFS
  { SR_NEAR_NEWMV, { GOLDEN_FRAME, NONE_FRAME } },
  { SR_NEAR_NEWMV, { ALTREF_FRAME, NONE_FRAME } },

  { SR_ZERO_NEWMV, { LAST_FRAME, NONE_FRAME } },
#if CONFIG_EXT_REFS
  { SR_ZERO_NEWMV, { LAST2_FRAME, NONE_FRAME } },
  { SR_ZERO_NEWMV, { LAST3_FRAME, NONE_FRAME } },
  { SR_ZERO_NEWMV, { BWDREF_FRAME, NONE_FRAME } },
#endif  // CONFIG_EXT_REFS
  { SR_ZERO_NEWMV, { GOLDEN_FRAME, NONE_FRAME } },
  { SR_ZERO_NEWMV, { ALTREF_FRAME, NONE_FRAME } },

  { SR_NEW_NEWMV, { LAST_FRAME, NONE_FRAME } },
#if CONFIG_EXT_REFS
  { SR_NEW_NEWMV, { LAST2_FRAME, NONE_FRAME } },
  { SR_NEW_NEWMV, { LAST3_FRAME, NONE_FRAME } },
  { SR_NEW_NEWMV, { BWDREF_FRAME, NONE_FRAME } },
#endif  // CONFIG_EXT_REFS
  { SR_NEW_NEWMV, { GOLDEN_FRAME, NONE_FRAME } },
  { SR_NEW_NEWMV, { ALTREF_FRAME, NONE_FRAME } },
#endif  // CONFIG_COMPOUND_SINGLEREF

  { NEAREST_NEARESTMV, { LAST_FRAME, ALTREF_FRAME } },
#if CONFIG_EXT_REFS
  { NEAREST_NEARESTMV, { LAST2_FRAME, ALTREF_FRAME } },
  { NEAREST_NEARESTMV, { LAST3_FRAME, ALTREF_FRAME } },
#endif  // CONFIG_EXT_REFS
  { NEAREST_NEARESTMV, { GOLDEN_FRAME, ALTREF_FRAME } },
#if CONFIG_EXT_REFS
  { NEAREST_NEARESTMV, { LAST_FRAME, BWDREF_FRAME } },
  { NEAREST_NEARESTMV, { LAST2_FRAME, BWDREF_FRAME } },
  { NEAREST_NEARESTMV, { LAST3_FRAME, BWDREF_FRAME } },
  { NEAREST_NEARESTMV, { GOLDEN_FRAME, BWDREF_FRAME } },
  { NEAREST_NEARESTMV, { LAST_FRAME, ALTREF2_FRAME } },
  { NEAREST_NEARESTMV, { LAST2_FRAME, ALTREF2_FRAME } },
  { NEAREST_NEARESTMV, { LAST3_FRAME, ALTREF2_FRAME } },
  { NEAREST_NEARESTMV, { GOLDEN_FRAME, ALTREF2_FRAME } },

#if CONFIG_EXT_COMP_REFS
  { NEAREST_NEARESTMV, { LAST_FRAME, LAST2_FRAME } },
  { NEAREST_NEARESTMV, { LAST_FRAME, LAST3_FRAME } },
  { NEAREST_NEARESTMV, { LAST_FRAME, GOLDEN_FRAME } },
  { NEAREST_NEARESTMV, { BWDREF_FRAME, ALTREF_FRAME } },
#endif  // CONFIG_EXT_COMP_REFS
#endif  // CONFIG_EXT_REFS

#else  // CONFIG_EXT_INTER

  { NEARESTMV, { LAST_FRAME, ALTREF_FRAME } },
#if CONFIG_EXT_REFS
  { NEARESTMV, { LAST2_FRAME, ALTREF_FRAME } },
  { NEARESTMV, { LAST3_FRAME, ALTREF_FRAME } },
#endif  // CONFIG_EXT_REFS
  { NEARESTMV, { GOLDEN_FRAME, ALTREF_FRAME } },
#if CONFIG_EXT_REFS
  { NEARESTMV, { LAST_FRAME, BWDREF_FRAME } },
  { NEARESTMV, { LAST2_FRAME, BWDREF_FRAME } },
  { NEARESTMV, { LAST3_FRAME, BWDREF_FRAME } },
  { NEARESTMV, { GOLDEN_FRAME, BWDREF_FRAME } },
  { NEARESTMV, { LAST_FRAME, ALTREF2_FRAME } },
  { NEARESTMV, { LAST2_FRAME, ALTREF2_FRAME } },
  { NEARESTMV, { LAST3_FRAME, ALTREF2_FRAME } },
  { NEARESTMV, { GOLDEN_FRAME, ALTREF2_FRAME } },

#if CONFIG_EXT_COMP_REFS
  { NEARESTMV, { LAST_FRAME, LAST2_FRAME } },
  { NEARESTMV, { LAST_FRAME, LAST3_FRAME } },
  { NEARESTMV, { LAST_FRAME, GOLDEN_FRAME } },
  { NEARESTMV, { BWDREF_FRAME, ALTREF_FRAME } },
#endif  // CONFIG_EXT_COMP_REFS
#endif  // CONFIG_EXT_REFS
#endif  // CONFIG_EXT_INTER

  { TM_PRED, { INTRA_FRAME, NONE_FRAME } },

  { SMOOTH_PRED, { INTRA_FRAME, NONE_FRAME } },
#if CONFIG_SMOOTH_HV
  { SMOOTH_V_PRED, { INTRA_FRAME, NONE_FRAME } },
  { SMOOTH_H_PRED, { INTRA_FRAME, NONE_FRAME } },
#endif  // CONFIG_SMOOTH_HV

#if CONFIG_EXT_INTER
  { NEAR_NEARMV, { LAST_FRAME, ALTREF_FRAME } },
  { NEW_NEARESTMV, { LAST_FRAME, ALTREF_FRAME } },
  { NEAREST_NEWMV, { LAST_FRAME, ALTREF_FRAME } },
  { NEW_NEARMV, { LAST_FRAME, ALTREF_FRAME } },
  { NEAR_NEWMV, { LAST_FRAME, ALTREF_FRAME } },
  { NEW_NEWMV, { LAST_FRAME, ALTREF_FRAME } },
  { ZERO_ZEROMV, { LAST_FRAME, ALTREF_FRAME } },

#if CONFIG_EXT_REFS
  { NEAR_NEARMV, { LAST2_FRAME, ALTREF_FRAME } },
  { NEW_NEARESTMV, { LAST2_FRAME, ALTREF_FRAME } },
  { NEAREST_NEWMV, { LAST2_FRAME, ALTREF_FRAME } },
  { NEW_NEARMV, { LAST2_FRAME, ALTREF_FRAME } },
  { NEAR_NEWMV, { LAST2_FRAME, ALTREF_FRAME } },
  { NEW_NEWMV, { LAST2_FRAME, ALTREF_FRAME } },
  { ZERO_ZEROMV, { LAST2_FRAME, ALTREF_FRAME } },

  { NEAR_NEARMV, { LAST3_FRAME, ALTREF_FRAME } },
  { NEW_NEARESTMV, { LAST3_FRAME, ALTREF_FRAME } },
  { NEAREST_NEWMV, { LAST3_FRAME, ALTREF_FRAME } },
  { NEW_NEARMV, { LAST3_FRAME, ALTREF_FRAME } },
  { NEAR_NEWMV, { LAST3_FRAME, ALTREF_FRAME } },
  { NEW_NEWMV, { LAST3_FRAME, ALTREF_FRAME } },
  { ZERO_ZEROMV, { LAST3_FRAME, ALTREF_FRAME } },
#endif  // CONFIG_EXT_REFS

  { NEAR_NEARMV, { GOLDEN_FRAME, ALTREF_FRAME } },
  { NEW_NEARESTMV, { GOLDEN_FRAME, ALTREF_FRAME } },
  { NEAREST_NEWMV, { GOLDEN_FRAME, ALTREF_FRAME } },
  { NEW_NEARMV, { GOLDEN_FRAME, ALTREF_FRAME } },
  { NEAR_NEWMV, { GOLDEN_FRAME, ALTREF_FRAME } },
  { NEW_NEWMV, { GOLDEN_FRAME, ALTREF_FRAME } },
  { ZERO_ZEROMV, { GOLDEN_FRAME, ALTREF_FRAME } },

#if CONFIG_EXT_REFS
  { NEAR_NEARMV, { LAST_FRAME, BWDREF_FRAME } },
  { NEW_NEARESTMV, { LAST_FRAME, BWDREF_FRAME } },
  { NEAREST_NEWMV, { LAST_FRAME, BWDREF_FRAME } },
  { NEW_NEARMV, { LAST_FRAME, BWDREF_FRAME } },
  { NEAR_NEWMV, { LAST_FRAME, BWDREF_FRAME } },
  { NEW_NEWMV, { LAST_FRAME, BWDREF_FRAME } },
  { ZERO_ZEROMV, { LAST_FRAME, BWDREF_FRAME } },

  { NEAR_NEARMV, { LAST2_FRAME, BWDREF_FRAME } },
  { NEW_NEARESTMV, { LAST2_FRAME, BWDREF_FRAME } },
  { NEAREST_NEWMV, { LAST2_FRAME, BWDREF_FRAME } },
  { NEW_NEARMV, { LAST2_FRAME, BWDREF_FRAME } },
  { NEAR_NEWMV, { LAST2_FRAME, BWDREF_FRAME } },
  { NEW_NEWMV, { LAST2_FRAME, BWDREF_FRAME } },
  { ZERO_ZEROMV, { LAST2_FRAME, BWDREF_FRAME } },

  { NEAR_NEARMV, { LAST3_FRAME, BWDREF_FRAME } },
  { NEW_NEARESTMV, { LAST3_FRAME, BWDREF_FRAME } },
  { NEAREST_NEWMV, { LAST3_FRAME, BWDREF_FRAME } },
  { NEW_NEARMV, { LAST3_FRAME, BWDREF_FRAME } },
  { NEAR_NEWMV, { LAST3_FRAME, BWDREF_FRAME } },
  { NEW_NEWMV, { LAST3_FRAME, BWDREF_FRAME } },
  { ZERO_ZEROMV, { LAST3_FRAME, BWDREF_FRAME } },

  { NEAR_NEARMV, { GOLDEN_FRAME, BWDREF_FRAME } },
  { NEW_NEARESTMV, { GOLDEN_FRAME, BWDREF_FRAME } },
  { NEAREST_NEWMV, { GOLDEN_FRAME, BWDREF_FRAME } },
  { NEW_NEARMV, { GOLDEN_FRAME, BWDREF_FRAME } },
  { NEAR_NEWMV, { GOLDEN_FRAME, BWDREF_FRAME } },
  { NEW_NEWMV, { GOLDEN_FRAME, BWDREF_FRAME } },
  { ZERO_ZEROMV, { GOLDEN_FRAME, BWDREF_FRAME } },

  { NEAR_NEARMV, { LAST_FRAME, ALTREF2_FRAME } },
  { NEW_NEARESTMV, { LAST_FRAME, ALTREF2_FRAME } },
  { NEAREST_NEWMV, { LAST_FRAME, ALTREF2_FRAME } },
  { NEW_NEARMV, { LAST_FRAME, ALTREF2_FRAME } },
  { NEAR_NEWMV, { LAST_FRAME, ALTREF2_FRAME } },
  { NEW_NEWMV, { LAST_FRAME, ALTREF2_FRAME } },
  { ZERO_ZEROMV, { LAST_FRAME, ALTREF2_FRAME } },

  { NEAR_NEARMV, { LAST2_FRAME, ALTREF2_FRAME } },
  { NEW_NEARESTMV, { LAST2_FRAME, ALTREF2_FRAME } },
  { NEAREST_NEWMV, { LAST2_FRAME, ALTREF2_FRAME } },
  { NEW_NEARMV, { LAST2_FRAME, ALTREF2_FRAME } },
  { NEAR_NEWMV, { LAST2_FRAME, ALTREF2_FRAME } },
  { NEW_NEWMV, { LAST2_FRAME, ALTREF2_FRAME } },
  { ZERO_ZEROMV, { LAST2_FRAME, ALTREF2_FRAME } },

  { NEAR_NEARMV, { LAST3_FRAME, ALTREF2_FRAME } },
  { NEW_NEARESTMV, { LAST3_FRAME, ALTREF2_FRAME } },
  { NEAREST_NEWMV, { LAST3_FRAME, ALTREF2_FRAME } },
  { NEW_NEARMV, { LAST3_FRAME, ALTREF2_FRAME } },
  { NEAR_NEWMV, { LAST3_FRAME, ALTREF2_FRAME } },
  { NEW_NEWMV, { LAST3_FRAME, ALTREF2_FRAME } },
  { ZERO_ZEROMV, { LAST3_FRAME, ALTREF2_FRAME } },

  { NEAR_NEARMV, { GOLDEN_FRAME, ALTREF2_FRAME } },
  { NEW_NEARESTMV, { GOLDEN_FRAME, ALTREF2_FRAME } },
  { NEAREST_NEWMV, { GOLDEN_FRAME, ALTREF2_FRAME } },
  { NEW_NEARMV, { GOLDEN_FRAME, ALTREF2_FRAME } },
  { NEAR_NEWMV, { GOLDEN_FRAME, ALTREF2_FRAME } },
  { NEW_NEWMV, { GOLDEN_FRAME, ALTREF2_FRAME } },
  { ZERO_ZEROMV, { GOLDEN_FRAME, ALTREF2_FRAME } },

#if CONFIG_EXT_COMP_REFS
  { NEAR_NEARMV, { LAST_FRAME, LAST2_FRAME } },
  { NEW_NEARESTMV, { LAST_FRAME, LAST2_FRAME } },
  { NEAREST_NEWMV, { LAST_FRAME, LAST2_FRAME } },
  { NEW_NEARMV, { LAST_FRAME, LAST2_FRAME } },
  { NEAR_NEWMV, { LAST_FRAME, LAST2_FRAME } },
  { NEW_NEWMV, { LAST_FRAME, LAST2_FRAME } },
  { ZERO_ZEROMV, { LAST_FRAME, LAST2_FRAME } },

  { NEAR_NEARMV, { LAST_FRAME, LAST3_FRAME } },
  { NEW_NEARESTMV, { LAST_FRAME, LAST3_FRAME } },
  { NEAREST_NEWMV, { LAST_FRAME, LAST3_FRAME } },
  { NEW_NEARMV, { LAST_FRAME, LAST3_FRAME } },
  { NEAR_NEWMV, { LAST_FRAME, LAST3_FRAME } },
  { NEW_NEWMV, { LAST_FRAME, LAST3_FRAME } },
  { ZERO_ZEROMV, { LAST_FRAME, LAST3_FRAME } },

  { NEAR_NEARMV, { LAST_FRAME, GOLDEN_FRAME } },
  { NEW_NEARESTMV, { LAST_FRAME, GOLDEN_FRAME } },
  { NEAREST_NEWMV, { LAST_FRAME, GOLDEN_FRAME } },
  { NEW_NEARMV, { LAST_FRAME, GOLDEN_FRAME } },
  { NEAR_NEWMV, { LAST_FRAME, GOLDEN_FRAME } },
  { NEW_NEWMV, { LAST_FRAME, GOLDEN_FRAME } },
  { ZERO_ZEROMV, { LAST_FRAME, GOLDEN_FRAME } },

  { NEAR_NEARMV, { BWDREF_FRAME, ALTREF_FRAME } },
  { NEW_NEARESTMV, { BWDREF_FRAME, ALTREF_FRAME } },
  { NEAREST_NEWMV, { BWDREF_FRAME, ALTREF_FRAME } },
  { NEW_NEARMV, { BWDREF_FRAME, ALTREF_FRAME } },
  { NEAR_NEWMV, { BWDREF_FRAME, ALTREF_FRAME } },
  { NEW_NEWMV, { BWDREF_FRAME, ALTREF_FRAME } },
  { ZERO_ZEROMV, { BWDREF_FRAME, ALTREF_FRAME } },
#endif  // CONFIG_EXT_COMP_REFS
#endif  // CONFIG_EXT_REFS

#else  // !CONFIG_EXT_INTER

  { NEARMV, { LAST_FRAME, ALTREF_FRAME } },
  { NEWMV, { LAST_FRAME, ALTREF_FRAME } },
#if CONFIG_EXT_REFS
  { NEARMV, { LAST2_FRAME, ALTREF_FRAME } },
  { NEWMV, { LAST2_FRAME, ALTREF_FRAME } },
  { NEARMV, { LAST3_FRAME, ALTREF_FRAME } },
  { NEWMV, { LAST3_FRAME, ALTREF_FRAME } },
#endif  // CONFIG_EXT_REFS
  { NEARMV, { GOLDEN_FRAME, ALTREF_FRAME } },
  { NEWMV, { GOLDEN_FRAME, ALTREF_FRAME } },

#if CONFIG_EXT_REFS
  { NEARMV, { LAST_FRAME, BWDREF_FRAME } },
  { NEWMV, { LAST_FRAME, BWDREF_FRAME } },
  { NEARMV, { LAST2_FRAME, BWDREF_FRAME } },
  { NEWMV, { LAST2_FRAME, BWDREF_FRAME } },
  { NEARMV, { LAST3_FRAME, BWDREF_FRAME } },
  { NEWMV, { LAST3_FRAME, BWDREF_FRAME } },
  { NEARMV, { GOLDEN_FRAME, BWDREF_FRAME } },
  { NEWMV, { GOLDEN_FRAME, BWDREF_FRAME } },

  { NEARMV, { LAST_FRAME, ALTREF2_FRAME } },
  { NEWMV, { LAST_FRAME, ALTREF2_FRAME } },
  { NEARMV, { LAST2_FRAME, ALTREF2_FRAME } },
  { NEWMV, { LAST2_FRAME, ALTREF2_FRAME } },
  { NEARMV, { LAST3_FRAME, ALTREF2_FRAME } },
  { NEWMV, { LAST3_FRAME, ALTREF2_FRAME } },
  { NEARMV, { GOLDEN_FRAME, ALTREF2_FRAME } },
  { NEWMV, { GOLDEN_FRAME, ALTREF2_FRAME } },

#if CONFIG_EXT_COMP_REFS
  { NEARMV, { LAST_FRAME, LAST2_FRAME } },
  { NEWMV, { LAST_FRAME, LAST2_FRAME } },
  { NEARMV, { LAST_FRAME, LAST3_FRAME } },
  { NEWMV, { LAST_FRAME, LAST3_FRAME } },
  { NEARMV, { LAST_FRAME, GOLDEN_FRAME } },
  { NEWMV, { LAST_FRAME, GOLDEN_FRAME } },
  { NEARMV, { BWDREF_FRAME, ALTREF_FRAME } },
  { NEWMV, { BWDREF_FRAME, ALTREF_FRAME } },
#endif  // CONFIG_EXT_COMP_REFS
#endif  // CONFIG_EXT_REFS

  { ZEROMV, { LAST_FRAME, ALTREF_FRAME } },
#if CONFIG_EXT_REFS
  { ZEROMV, { LAST2_FRAME, ALTREF_FRAME } },
  { ZEROMV, { LAST3_FRAME, ALTREF_FRAME } },
#endif  // CONFIG_EXT_REFS
  { ZEROMV, { GOLDEN_FRAME, ALTREF_FRAME } },

#if CONFIG_EXT_REFS
  { ZEROMV, { LAST_FRAME, BWDREF_FRAME } },
  { ZEROMV, { LAST2_FRAME, BWDREF_FRAME } },
  { ZEROMV, { LAST3_FRAME, BWDREF_FRAME } },
  { ZEROMV, { GOLDEN_FRAME, BWDREF_FRAME } },

  { ZEROMV, { LAST_FRAME, ALTREF2_FRAME } },
  { ZEROMV, { LAST2_FRAME, ALTREF2_FRAME } },
  { ZEROMV, { LAST3_FRAME, ALTREF2_FRAME } },
  { ZEROMV, { GOLDEN_FRAME, ALTREF2_FRAME } },

#if CONFIG_EXT_COMP_REFS
  { ZEROMV, { LAST_FRAME, LAST2_FRAME } },
  { ZEROMV, { LAST_FRAME, LAST3_FRAME } },
  { ZEROMV, { LAST_FRAME, GOLDEN_FRAME } },
  { ZEROMV, { BWDREF_FRAME, ALTREF_FRAME } },
#endif  // CONFIG_EXT_COMP_REFS
#endif  // CONFIG_EXT_REFS

#endif  // CONFIG_EXT_INTER

  { H_PRED, { INTRA_FRAME, NONE_FRAME } },
  { V_PRED, { INTRA_FRAME, NONE_FRAME } },
  { D135_PRED, { INTRA_FRAME, NONE_FRAME } },
  { D207_PRED, { INTRA_FRAME, NONE_FRAME } },
  { D153_PRED, { INTRA_FRAME, NONE_FRAME } },
  { D63_PRED, { INTRA_FRAME, NONE_FRAME } },
  { D117_PRED, { INTRA_FRAME, NONE_FRAME } },
  { D45_PRED, { INTRA_FRAME, NONE_FRAME } },

#if CONFIG_EXT_INTER
  { ZEROMV, { LAST_FRAME, INTRA_FRAME } },
  { NEARESTMV, { LAST_FRAME, INTRA_FRAME } },
  { NEARMV, { LAST_FRAME, INTRA_FRAME } },
  { NEWMV, { LAST_FRAME, INTRA_FRAME } },

#if CONFIG_EXT_REFS
  { ZEROMV, { LAST2_FRAME, INTRA_FRAME } },
  { NEARESTMV, { LAST2_FRAME, INTRA_FRAME } },
  { NEARMV, { LAST2_FRAME, INTRA_FRAME } },
  { NEWMV, { LAST2_FRAME, INTRA_FRAME } },

  { ZEROMV, { LAST3_FRAME, INTRA_FRAME } },
  { NEARESTMV, { LAST3_FRAME, INTRA_FRAME } },
  { NEARMV, { LAST3_FRAME, INTRA_FRAME } },
  { NEWMV, { LAST3_FRAME, INTRA_FRAME } },
#endif  // CONFIG_EXT_REFS

  { ZEROMV, { GOLDEN_FRAME, INTRA_FRAME } },
  { NEARESTMV, { GOLDEN_FRAME, INTRA_FRAME } },
  { NEARMV, { GOLDEN_FRAME, INTRA_FRAME } },
  { NEWMV, { GOLDEN_FRAME, INTRA_FRAME } },

#if CONFIG_EXT_REFS
  { ZEROMV, { BWDREF_FRAME, INTRA_FRAME } },
  { NEARESTMV, { BWDREF_FRAME, INTRA_FRAME } },
  { NEARMV, { BWDREF_FRAME, INTRA_FRAME } },
  { NEWMV, { BWDREF_FRAME, INTRA_FRAME } },

  { ZEROMV, { ALTREF2_FRAME, INTRA_FRAME } },
  { NEARESTMV, { ALTREF2_FRAME, INTRA_FRAME } },
  { NEARMV, { ALTREF2_FRAME, INTRA_FRAME } },
  { NEWMV, { ALTREF2_FRAME, INTRA_FRAME } },
#endif  // CONFIG_EXT_REFS

  { ZEROMV, { ALTREF_FRAME, INTRA_FRAME } },
  { NEARESTMV, { ALTREF_FRAME, INTRA_FRAME } },
  { NEARMV, { ALTREF_FRAME, INTRA_FRAME } },
  { NEWMV, { ALTREF_FRAME, INTRA_FRAME } },
#endif  // CONFIG_EXT_INTER
};

static const PREDICTION_MODE intra_rd_search_mode_order[INTRA_MODES] = {
  DC_PRED,       H_PRED,        V_PRED,    SMOOTH_PRED, TM_PRED,
#if CONFIG_SMOOTH_HV
  SMOOTH_V_PRED, SMOOTH_H_PRED,
#endif  // CONFIG_SMOOTH_HV
  D135_PRED,     D207_PRED,     D153_PRED, D63_PRED,    D117_PRED, D45_PRED,
};

#if CONFIG_CFL
static const UV_PREDICTION_MODE uv_rd_search_mode_order[UV_INTRA_MODES] = {
  UV_DC_PRED,       UV_CFL_PRED,      UV_H_PRED,
  UV_V_PRED,        UV_SMOOTH_PRED,   UV_TM_PRED,
#if CONFIG_SMOOTH_HV
  UV_SMOOTH_V_PRED, UV_SMOOTH_H_PRED,
#endif  // CONFIG_SMOOTH_HV
  UV_D135_PRED,     UV_D207_PRED,     UV_D153_PRED,
  UV_D63_PRED,      UV_D117_PRED,     UV_D45_PRED,
};
#else
#define uv_rd_search_mode_order intra_rd_search_mode_order
#endif  // CONFIG_CFL

static INLINE int write_uniform_cost(int n, int v) {
  const int l = get_unsigned_bits(n);
  const int m = (1 << l) - n;
  if (l == 0) return 0;
  if (v < m)
    return (l - 1) * av1_cost_bit(128, 0);
  else
    return l * av1_cost_bit(128, 0);
}

// constants for prune 1 and prune 2 decision boundaries
#define FAST_EXT_TX_CORR_MID 0.0
#define FAST_EXT_TX_EDST_MID 0.1
#define FAST_EXT_TX_CORR_MARGIN 0.5
#define FAST_EXT_TX_EDST_MARGIN 0.3

#if CONFIG_DIST_8X8
static uint64_t cdef_dist_8x8_16bit(uint16_t *dst, int dstride, uint16_t *src,
                                    int sstride, int coeff_shift) {
  uint64_t svar = 0;
  uint64_t dvar = 0;
  uint64_t sum_s = 0;
  uint64_t sum_d = 0;
  uint64_t sum_s2 = 0;
  uint64_t sum_d2 = 0;
  uint64_t sum_sd = 0;
  uint64_t dist = 0;

  int i, j;
  for (i = 0; i < 8; i++) {
    for (j = 0; j < 8; j++) {
      sum_s += src[i * sstride + j];
      sum_d += dst[i * dstride + j];
      sum_s2 += src[i * sstride + j] * src[i * sstride + j];
      sum_d2 += dst[i * dstride + j] * dst[i * dstride + j];
      sum_sd += src[i * sstride + j] * dst[i * dstride + j];
    }
  }
  /* Compute the variance -- the calculation cannot go negative. */
  svar = sum_s2 - ((sum_s * sum_s + 32) >> 6);
  dvar = sum_d2 - ((sum_d * sum_d + 32) >> 6);

  // Tuning of jm's original dering distortion metric used in CDEF tool,
  // suggested by jm
  const uint64_t a = 4;
  const uint64_t b = 2;
  const uint64_t c1 = (400 * a << 2 * coeff_shift);
  const uint64_t c2 = (b * 20000 * a * a << 4 * coeff_shift);

  dist =
      (uint64_t)floor(.5 +
                      (sum_d2 + sum_s2 - 2 * sum_sd) * .5 * (svar + dvar + c1) /
                          (sqrt(svar * (double)dvar + c2)));

  // Calibrate dist to have similar rate for the same QP with MSE only
  // distortion (as in master branch)
  dist = (uint64_t)((float)dist * 0.75);

  return dist;
}

static int od_compute_var_4x4(uint16_t *x, int stride) {
  int sum;
  int s2;
  int i;
  sum = 0;
  s2 = 0;
  for (i = 0; i < 4; i++) {
    int j;
    for (j = 0; j < 4; j++) {
      int t;

      t = x[i * stride + j];
      sum += t;
      s2 += t * t;
    }
  }

  return (s2 - (sum * sum >> 4)) >> 4;
}

/* OD_DIST_LP_MID controls the frequency weighting filter used for computing
   the distortion. For a value X, the filter is [1 X 1]/(X + 2) and
   is applied both horizontally and vertically. For X=5, the filter is
   a good approximation for the OD_QM8_Q4_HVS quantization matrix. */
#define OD_DIST_LP_MID (5)
#define OD_DIST_LP_NORM (OD_DIST_LP_MID + 2)

static double od_compute_dist_8x8(int use_activity_masking, uint16_t *x,
                                  uint16_t *y, od_coeff *e_lp, int stride) {
  double sum;
  int min_var;
  double mean_var;
  double var_stat;
  double activity;
  double calibration;
  int i;
  int j;
  double vardist;

  vardist = 0;

#if 1
  min_var = INT_MAX;
  mean_var = 0;
  for (i = 0; i < 3; i++) {
    for (j = 0; j < 3; j++) {
      int varx;
      int vary;
      varx = od_compute_var_4x4(x + 2 * i * stride + 2 * j, stride);
      vary = od_compute_var_4x4(y + 2 * i * stride + 2 * j, stride);
      min_var = OD_MINI(min_var, varx);
      mean_var += 1. / (1 + varx);
      /* The cast to (double) is to avoid an overflow before the sqrt.*/
      vardist += varx - 2 * sqrt(varx * (double)vary) + vary;
    }
  }
  /* We use a different variance statistic depending on whether activity
     masking is used, since the harmonic mean appeared slightly worse with
     masking off. The calibration constant just ensures that we preserve the
     rate compared to activity=1. */
  if (use_activity_masking) {
    calibration = 1.95;
    var_stat = 9. / mean_var;
  } else {
    calibration = 1.62;
    var_stat = min_var;
  }
  /* 1.62 is a calibration constant, 0.25 is a noise floor and 1/6 is the
     activity masking constant. */
  activity = calibration * pow(.25 + var_stat, -1. / 6);
#else
  activity = 1;
#endif  // 1
  sum = 0;
  for (i = 0; i < 8; i++) {
    for (j = 0; j < 8; j++)
      sum += e_lp[i * stride + j] * (double)e_lp[i * stride + j];
  }
  /* Normalize the filter to unit DC response. */
  sum *= 1. / (OD_DIST_LP_NORM * OD_DIST_LP_NORM * OD_DIST_LP_NORM *
               OD_DIST_LP_NORM);
  return activity * activity * (sum + vardist);
}

// Note : Inputs x and y are in a pixel domain
static double od_compute_dist_common(int activity_masking, uint16_t *x,
                                     uint16_t *y, int bsize_w, int bsize_h,
                                     int qindex, od_coeff *tmp,
                                     od_coeff *e_lp) {
  int i, j;
  double sum = 0;
  const int mid = OD_DIST_LP_MID;

  for (j = 0; j < bsize_w; j++) {
    e_lp[j] = mid * tmp[j] + 2 * tmp[bsize_w + j];
    e_lp[(bsize_h - 1) * bsize_w + j] = mid * tmp[(bsize_h - 1) * bsize_w + j] +
                                        2 * tmp[(bsize_h - 2) * bsize_w + j];
  }
  for (i = 1; i < bsize_h - 1; i++) {
    for (j = 0; j < bsize_w; j++) {
      e_lp[i * bsize_w + j] = mid * tmp[i * bsize_w + j] +
                              tmp[(i - 1) * bsize_w + j] +
                              tmp[(i + 1) * bsize_w + j];
    }
  }
  for (i = 0; i < bsize_h; i += 8) {
    for (j = 0; j < bsize_w; j += 8) {
      sum += od_compute_dist_8x8(activity_masking, &x[i * bsize_w + j],
                                 &y[i * bsize_w + j], &e_lp[i * bsize_w + j],
                                 bsize_w);
    }
  }
  /* Scale according to linear regression against SSE, for 8x8 blocks. */
  if (activity_masking) {
    sum *= 2.2 + (1.7 - 2.2) * (qindex - 99) / (210 - 99) +
           (qindex < 99 ? 2.5 * (qindex - 99) / 99 * (qindex - 99) / 99 : 0);
  } else {
    sum *= qindex >= 128
               ? 1.4 + (0.9 - 1.4) * (qindex - 128) / (209 - 128)
               : qindex <= 43 ? 1.5 + (2.0 - 1.5) * (qindex - 43) / (16 - 43)
                              : 1.5 + (1.4 - 1.5) * (qindex - 43) / (128 - 43);
  }

  return sum;
}

static double od_compute_dist(uint16_t *x, uint16_t *y, int bsize_w,
                              int bsize_h, int qindex) {
  int i;
  double sum;
  sum = 0;

  assert(bsize_w >= 8 && bsize_h >= 8);

#if CONFIG_PVQ
  int activity_masking = 1;
#else
  int activity_masking = 0;
#endif
  {
    int j;
    DECLARE_ALIGNED(16, od_coeff, e[MAX_TX_SQUARE]);
    DECLARE_ALIGNED(16, od_coeff, tmp[MAX_TX_SQUARE]);
    DECLARE_ALIGNED(16, od_coeff, e_lp[MAX_TX_SQUARE]);
    int mid = OD_DIST_LP_MID;
    for (i = 0; i < bsize_h; i++) {
      for (j = 0; j < bsize_w; j++) {
        e[i * bsize_w + j] = x[i * bsize_w + j] - y[i * bsize_w + j];
      }
    }
    for (i = 0; i < bsize_h; i++) {
      tmp[i * bsize_w] = mid * e[i * bsize_w] + 2 * e[i * bsize_w + 1];
      tmp[i * bsize_w + bsize_w - 1] =
          mid * e[i * bsize_w + bsize_w - 1] + 2 * e[i * bsize_w + bsize_w - 2];
      for (j = 1; j < bsize_w - 1; j++) {
        tmp[i * bsize_w + j] = mid * e[i * bsize_w + j] +
                               e[i * bsize_w + j - 1] + e[i * bsize_w + j + 1];
      }
    }
    sum = od_compute_dist_common(activity_masking, x, y, bsize_w, bsize_h,
                                 qindex, tmp, e_lp);
  }
  return sum;
}

static double od_compute_dist_diff(uint16_t *x, int16_t *e, int bsize_w,
                                   int bsize_h, int qindex) {
  int i;
  double sum;
  sum = 0;

  assert(bsize_w >= 8 && bsize_h >= 8);

#if CONFIG_PVQ
  int activity_masking = 1;
#else
  int activity_masking = 0;
#endif
  {
    int j;
    DECLARE_ALIGNED(16, uint16_t, y[MAX_TX_SQUARE]);
    DECLARE_ALIGNED(16, od_coeff, tmp[MAX_TX_SQUARE]);
    DECLARE_ALIGNED(16, od_coeff, e_lp[MAX_TX_SQUARE]);
    int mid = OD_DIST_LP_MID;
    for (i = 0; i < bsize_h; i++) {
      for (j = 0; j < bsize_w; j++) {
        y[i * bsize_w + j] = x[i * bsize_w + j] - e[i * bsize_w + j];
      }
    }
    for (i = 0; i < bsize_h; i++) {
      tmp[i * bsize_w] = mid * e[i * bsize_w] + 2 * e[i * bsize_w + 1];
      tmp[i * bsize_w + bsize_w - 1] =
          mid * e[i * bsize_w + bsize_w - 1] + 2 * e[i * bsize_w + bsize_w - 2];
      for (j = 1; j < bsize_w - 1; j++) {
        tmp[i * bsize_w + j] = mid * e[i * bsize_w + j] +
                               e[i * bsize_w + j - 1] + e[i * bsize_w + j + 1];
      }
    }
    sum = od_compute_dist_common(activity_masking, x, y, bsize_w, bsize_h,
                                 qindex, tmp, e_lp);
  }
  return sum;
}

int64_t av1_dist_8x8(const AV1_COMP *const cpi, const MACROBLOCK *x,
                     const uint8_t *src, int src_stride, const uint8_t *dst,
                     int dst_stride, const BLOCK_SIZE tx_bsize, int bsw,
                     int bsh, int visible_w, int visible_h, int qindex) {
  int64_t d = 0;
  int i, j;
  const MACROBLOCKD *xd = &x->e_mbd;

  DECLARE_ALIGNED(16, uint16_t, orig[MAX_TX_SQUARE]);
  DECLARE_ALIGNED(16, uint16_t, rec[MAX_TX_SQUARE]);

  if (x->tune_metric == AOM_TUNE_CDEF_DIST ||
      x->tune_metric == AOM_TUNE_DAALA_DIST) {
    assert((bsw & 0x07) == 0);
    assert((bsh & 0x07) == 0);

#if CONFIG_HIGHBITDEPTH
    if (xd->cur_buf->flags & YV12_FLAG_HIGHBITDEPTH) {
      for (j = 0; j < bsh; j++)
        for (i = 0; i < bsw; i++)
          orig[j * bsw + i] = CONVERT_TO_SHORTPTR(src)[j * src_stride + i];

      if ((bsw == visible_w) && (bsh == visible_h)) {
        for (j = 0; j < bsh; j++)
          for (i = 0; i < bsw; i++)
            rec[j * bsw + i] = CONVERT_TO_SHORTPTR(dst)[j * dst_stride + i];
      } else {
        for (j = 0; j < visible_h; j++)
          for (i = 0; i < visible_w; i++)
            rec[j * bsw + i] = CONVERT_TO_SHORTPTR(dst)[j * dst_stride + i];

        if (visible_w < bsw) {
          for (j = 0; j < bsh; j++)
            for (i = visible_w; i < bsw; i++)
              rec[j * bsw + i] = CONVERT_TO_SHORTPTR(src)[j * src_stride + i];
        }

        if (visible_h < bsh) {
          for (j = visible_h; j < bsh; j++)
            for (i = 0; i < bsw; i++)
              rec[j * bsw + i] = CONVERT_TO_SHORTPTR(src)[j * src_stride + i];
        }
      }
    } else {
#endif
      for (j = 0; j < bsh; j++)
        for (i = 0; i < bsw; i++) orig[j * bsw + i] = src[j * src_stride + i];

      if ((bsw == visible_w) && (bsh == visible_h)) {
        for (j = 0; j < bsh; j++)
          for (i = 0; i < bsw; i++) rec[j * bsw + i] = dst[j * dst_stride + i];
      } else {
        for (j = 0; j < visible_h; j++)
          for (i = 0; i < visible_w; i++)
            rec[j * bsw + i] = dst[j * dst_stride + i];

        if (visible_w < bsw) {
          for (j = 0; j < bsh; j++)
            for (i = visible_w; i < bsw; i++)
              rec[j * bsw + i] = src[j * src_stride + i];
        }

        if (visible_h < bsh) {
          for (j = visible_h; j < bsh; j++)
            for (i = 0; i < bsw; i++)
              rec[j * bsw + i] = src[j * src_stride + i];
        }
      }
#if CONFIG_HIGHBITDEPTH
    }
#endif  // CONFIG_HIGHBITDEPTH
  }

  if (x->tune_metric == AOM_TUNE_DAALA_DIST) {
    d = (int64_t)od_compute_dist(orig, rec, bsw, bsh, qindex);
  } else if (x->tune_metric == AOM_TUNE_CDEF_DIST) {
    int coeff_shift = AOMMAX(xd->bd - 8, 0);

    for (i = 0; i < bsh; i += 8) {
      for (j = 0; j < bsw; j += 8) {
        d += cdef_dist_8x8_16bit(&rec[i * bsw + j], bsw, &orig[i * bsw + j],
                                 bsw, coeff_shift);
      }
    }
#if CONFIG_HIGHBITDEPTH
    if (xd->cur_buf->flags & YV12_FLAG_HIGHBITDEPTH)
      d = ((uint64_t)d) >> 2 * coeff_shift;
#endif
  } else {
    // Otherwise, MSE by default
    unsigned sse;
    // TODO(Any): Use even faster function which does not calculate variance
    cpi->fn_ptr[tx_bsize].vf(src, src_stride, dst, dst_stride, &sse);
    d = sse;
  }

  return d;
}

static int64_t av1_dist_8x8_diff(const MACROBLOCK *x, const uint8_t *src,
                                 int src_stride, const int16_t *diff,
                                 int diff_stride, int bsw, int bsh,
                                 int visible_w, int visible_h, int qindex) {
  int64_t d = 0;
  int i, j;
  const MACROBLOCKD *xd = &x->e_mbd;

  DECLARE_ALIGNED(16, uint16_t, orig[MAX_TX_SQUARE]);
  DECLARE_ALIGNED(16, int16_t, diff16[MAX_TX_SQUARE]);

  if (x->tune_metric == AOM_TUNE_CDEF_DIST ||
      x->tune_metric == AOM_TUNE_DAALA_DIST) {
    assert((bsw & 0x07) == 0);
    assert((bsh & 0x07) == 0);

#if CONFIG_HIGHBITDEPTH
    if (xd->cur_buf->flags & YV12_FLAG_HIGHBITDEPTH) {
      for (j = 0; j < bsh; j++)
        for (i = 0; i < bsw; i++)
          orig[j * bsw + i] = CONVERT_TO_SHORTPTR(src)[j * src_stride + i];
    } else {
#endif
      for (j = 0; j < bsh; j++)
        for (i = 0; i < bsw; i++) orig[j * bsw + i] = src[j * src_stride + i];
#if CONFIG_HIGHBITDEPTH
    }
#endif  // CONFIG_HIGHBITDEPTH

    if ((bsw == visible_w) && (bsh == visible_h)) {
      for (j = 0; j < bsh; j++)
        for (i = 0; i < bsw; i++)
          diff16[j * bsw + i] = diff[j * diff_stride + i];
    } else {
      for (j = 0; j < visible_h; j++)
        for (i = 0; i < visible_w; i++)
          diff16[j * bsw + i] = diff[j * diff_stride + i];

      if (visible_w < bsw) {
        for (j = 0; j < bsh; j++)
          for (i = visible_w; i < bsw; i++) diff16[j * bsw + i] = 0;
      }

      if (visible_h < bsh) {
        for (j = visible_h; j < bsh; j++)
          for (i = 0; i < bsw; i++) diff16[j * bsw + i] = 0;
      }
    }
  }

  if (x->tune_metric == AOM_TUNE_DAALA_DIST) {
    d = (int64_t)od_compute_dist_diff(orig, diff16, bsw, bsh, qindex);
  } else if (x->tune_metric == AOM_TUNE_CDEF_DIST) {
    int coeff_shift = AOMMAX(xd->bd - 8, 0);
    DECLARE_ALIGNED(16, uint16_t, dst16[MAX_TX_SQUARE]);

    for (i = 0; i < bsh; i++) {
      for (j = 0; j < bsw; j++) {
        dst16[i * bsw + j] = orig[i * bsw + j] - diff16[i * bsw + j];
      }
    }

    for (i = 0; i < bsh; i += 8) {
      for (j = 0; j < bsw; j += 8) {
        d += cdef_dist_8x8_16bit(&dst16[i * bsw + j], bsw, &orig[i * bsw + j],
                                 bsw, coeff_shift);
      }
    }
    // Don't scale 'd' for HBD since it will be done by caller side for diff
    // input
  } else {
    // Otherwise, MSE by default
    d = aom_sum_squares_2d_i16(diff, diff_stride, bsw, bsh);
  }

  return d;
}
#endif  // CONFIG_DIST_8X8

static void get_energy_distribution_fine(const AV1_COMP *cpi, BLOCK_SIZE bsize,
                                         const uint8_t *src, int src_stride,
                                         const uint8_t *dst, int dst_stride,
                                         double *hordist, double *verdist) {
  const int bw = block_size_wide[bsize];
  const int bh = block_size_high[bsize];
  unsigned int esq[16] = { 0, 0, 0, 0, 0, 0, 0, 0, 0, 0, 0, 0, 0, 0, 0, 0 };

  const int f_index = bsize - BLOCK_16X16;
  if (f_index < 0) {
    const int w_shift = bw == 8 ? 1 : 2;
    const int h_shift = bh == 8 ? 1 : 2;
#if CONFIG_HIGHBITDEPTH
    if (cpi->common.use_highbitdepth) {
      const uint16_t *src16 = CONVERT_TO_SHORTPTR(src);
      const uint16_t *dst16 = CONVERT_TO_SHORTPTR(dst);
      for (int i = 0; i < bh; ++i)
        for (int j = 0; j < bw; ++j) {
          const int index = (j >> w_shift) + ((i >> h_shift) << 2);
          esq[index] +=
              (src16[j + i * src_stride] - dst16[j + i * dst_stride]) *
              (src16[j + i * src_stride] - dst16[j + i * dst_stride]);
        }
    } else {
#endif  // CONFIG_HIGHBITDEPTH

      for (int i = 0; i < bh; ++i)
        for (int j = 0; j < bw; ++j) {
          const int index = (j >> w_shift) + ((i >> h_shift) << 2);
          esq[index] += (src[j + i * src_stride] - dst[j + i * dst_stride]) *
                        (src[j + i * src_stride] - dst[j + i * dst_stride]);
        }
#if CONFIG_HIGHBITDEPTH
    }
#endif  // CONFIG_HIGHBITDEPTH
  } else {
    cpi->fn_ptr[f_index].vf(src, src_stride, dst, dst_stride, &esq[0]);
    cpi->fn_ptr[f_index].vf(src + bw / 4, src_stride, dst + bw / 4, dst_stride,
                            &esq[1]);
    cpi->fn_ptr[f_index].vf(src + bw / 2, src_stride, dst + bw / 2, dst_stride,
                            &esq[2]);
    cpi->fn_ptr[f_index].vf(src + 3 * bw / 4, src_stride, dst + 3 * bw / 4,
                            dst_stride, &esq[3]);
    src += bh / 4 * src_stride;
    dst += bh / 4 * dst_stride;

    cpi->fn_ptr[f_index].vf(src, src_stride, dst, dst_stride, &esq[4]);
    cpi->fn_ptr[f_index].vf(src + bw / 4, src_stride, dst + bw / 4, dst_stride,
                            &esq[5]);
    cpi->fn_ptr[f_index].vf(src + bw / 2, src_stride, dst + bw / 2, dst_stride,
                            &esq[6]);
    cpi->fn_ptr[f_index].vf(src + 3 * bw / 4, src_stride, dst + 3 * bw / 4,
                            dst_stride, &esq[7]);
    src += bh / 4 * src_stride;
    dst += bh / 4 * dst_stride;

    cpi->fn_ptr[f_index].vf(src, src_stride, dst, dst_stride, &esq[8]);
    cpi->fn_ptr[f_index].vf(src + bw / 4, src_stride, dst + bw / 4, dst_stride,
                            &esq[9]);
    cpi->fn_ptr[f_index].vf(src + bw / 2, src_stride, dst + bw / 2, dst_stride,
                            &esq[10]);
    cpi->fn_ptr[f_index].vf(src + 3 * bw / 4, src_stride, dst + 3 * bw / 4,
                            dst_stride, &esq[11]);
    src += bh / 4 * src_stride;
    dst += bh / 4 * dst_stride;

    cpi->fn_ptr[f_index].vf(src, src_stride, dst, dst_stride, &esq[12]);
    cpi->fn_ptr[f_index].vf(src + bw / 4, src_stride, dst + bw / 4, dst_stride,
                            &esq[13]);
    cpi->fn_ptr[f_index].vf(src + bw / 2, src_stride, dst + bw / 2, dst_stride,
                            &esq[14]);
    cpi->fn_ptr[f_index].vf(src + 3 * bw / 4, src_stride, dst + 3 * bw / 4,
                            dst_stride, &esq[15]);
  }

  double total = (double)esq[0] + esq[1] + esq[2] + esq[3] + esq[4] + esq[5] +
                 esq[6] + esq[7] + esq[8] + esq[9] + esq[10] + esq[11] +
                 esq[12] + esq[13] + esq[14] + esq[15];
  if (total > 0) {
    const double e_recip = 1.0 / total;
    hordist[0] = ((double)esq[0] + esq[4] + esq[8] + esq[12]) * e_recip;
    hordist[1] = ((double)esq[1] + esq[5] + esq[9] + esq[13]) * e_recip;
    hordist[2] = ((double)esq[2] + esq[6] + esq[10] + esq[14]) * e_recip;
    verdist[0] = ((double)esq[0] + esq[1] + esq[2] + esq[3]) * e_recip;
    verdist[1] = ((double)esq[4] + esq[5] + esq[6] + esq[7]) * e_recip;
    verdist[2] = ((double)esq[8] + esq[9] + esq[10] + esq[11]) * e_recip;
  } else {
    hordist[0] = verdist[0] = 0.25;
    hordist[1] = verdist[1] = 0.25;
    hordist[2] = verdist[2] = 0.25;
  }
}

static int adst_vs_flipadst(const AV1_COMP *cpi, BLOCK_SIZE bsize,
                            const uint8_t *src, int src_stride,
                            const uint8_t *dst, int dst_stride) {
  int prune_bitmask = 0;
  double svm_proj_h = 0, svm_proj_v = 0;
  double hdist[3] = { 0, 0, 0 }, vdist[3] = { 0, 0, 0 };
  get_energy_distribution_fine(cpi, bsize, src, src_stride, dst, dst_stride,
                               hdist, vdist);

  svm_proj_v = vdist[0] * ADST_FLIP_SVM[0] + vdist[1] * ADST_FLIP_SVM[1] +
               vdist[2] * ADST_FLIP_SVM[2] + ADST_FLIP_SVM[3];
  svm_proj_h = hdist[0] * ADST_FLIP_SVM[4] + hdist[1] * ADST_FLIP_SVM[5] +
               hdist[2] * ADST_FLIP_SVM[6] + ADST_FLIP_SVM[7];
  if (svm_proj_v > FAST_EXT_TX_EDST_MID + FAST_EXT_TX_EDST_MARGIN)
    prune_bitmask |= 1 << FLIPADST_1D;
  else if (svm_proj_v < FAST_EXT_TX_EDST_MID - FAST_EXT_TX_EDST_MARGIN)
    prune_bitmask |= 1 << ADST_1D;

  if (svm_proj_h > FAST_EXT_TX_EDST_MID + FAST_EXT_TX_EDST_MARGIN)
    prune_bitmask |= 1 << (FLIPADST_1D + 8);
  else if (svm_proj_h < FAST_EXT_TX_EDST_MID - FAST_EXT_TX_EDST_MARGIN)
    prune_bitmask |= 1 << (ADST_1D + 8);

  return prune_bitmask;
}

#if CONFIG_EXT_TX
static void get_horver_correlation(const int16_t *diff, int stride, int w,
                                   int h, double *hcorr, double *vcorr) {
  // Returns hor/ver correlation coefficient
  const int num = (h - 1) * (w - 1);
  double num_r;
  int i, j;
  int64_t xy_sum = 0, xz_sum = 0;
  int64_t x_sum = 0, y_sum = 0, z_sum = 0;
  int64_t x2_sum = 0, y2_sum = 0, z2_sum = 0;
  double x_var_n, y_var_n, z_var_n, xy_var_n, xz_var_n;
  *hcorr = *vcorr = 1;

  assert(num > 0);
  num_r = 1.0 / num;
  for (i = 1; i < h; ++i) {
    for (j = 1; j < w; ++j) {
      const int16_t x = diff[i * stride + j];
      const int16_t y = diff[i * stride + j - 1];
      const int16_t z = diff[(i - 1) * stride + j];
      xy_sum += x * y;
      xz_sum += x * z;
      x_sum += x;
      y_sum += y;
      z_sum += z;
      x2_sum += x * x;
      y2_sum += y * y;
      z2_sum += z * z;
    }
  }
  x_var_n = x2_sum - (x_sum * x_sum) * num_r;
  y_var_n = y2_sum - (y_sum * y_sum) * num_r;
  z_var_n = z2_sum - (z_sum * z_sum) * num_r;
  xy_var_n = xy_sum - (x_sum * y_sum) * num_r;
  xz_var_n = xz_sum - (x_sum * z_sum) * num_r;
  if (x_var_n > 0 && y_var_n > 0) {
    *hcorr = xy_var_n / sqrt(x_var_n * y_var_n);
    *hcorr = *hcorr < 0 ? 0 : *hcorr;
  }
  if (x_var_n > 0 && z_var_n > 0) {
    *vcorr = xz_var_n / sqrt(x_var_n * z_var_n);
    *vcorr = *vcorr < 0 ? 0 : *vcorr;
  }
}

int dct_vs_idtx(const int16_t *diff, int stride, int w, int h) {
  double hcorr, vcorr;
  int prune_bitmask = 0;
  get_horver_correlation(diff, stride, w, h, &hcorr, &vcorr);

  if (vcorr > FAST_EXT_TX_CORR_MID + FAST_EXT_TX_CORR_MARGIN)
    prune_bitmask |= 1 << IDTX_1D;
  else if (vcorr < FAST_EXT_TX_CORR_MID - FAST_EXT_TX_CORR_MARGIN)
    prune_bitmask |= 1 << DCT_1D;

  if (hcorr > FAST_EXT_TX_CORR_MID + FAST_EXT_TX_CORR_MARGIN)
    prune_bitmask |= 1 << (IDTX_1D + 8);
  else if (hcorr < FAST_EXT_TX_CORR_MID - FAST_EXT_TX_CORR_MARGIN)
    prune_bitmask |= 1 << (DCT_1D + 8);
  return prune_bitmask;
}

// Performance drop: 0.5%, Speed improvement: 24%
static int prune_two_for_sby(const AV1_COMP *cpi, BLOCK_SIZE bsize,
                             MACROBLOCK *x, const MACROBLOCKD *xd,
                             int adst_flipadst, int dct_idtx) {
  int prune = 0;

  if (adst_flipadst) {
    const struct macroblock_plane *const p = &x->plane[0];
    const struct macroblockd_plane *const pd = &xd->plane[0];
    prune |= adst_vs_flipadst(cpi, bsize, p->src.buf, p->src.stride,
                              pd->dst.buf, pd->dst.stride);
  }
  if (dct_idtx) {
    av1_subtract_plane(x, bsize, 0);
    const struct macroblock_plane *const p = &x->plane[0];
    const int bw = 4 << (b_width_log2_lookup[bsize]);
    const int bh = 4 << (b_height_log2_lookup[bsize]);
    prune |= dct_vs_idtx(p->src_diff, bw, bw, bh);
  }

  return prune;
}
#endif  // CONFIG_EXT_TX

// Performance drop: 0.3%, Speed improvement: 5%
static int prune_one_for_sby(const AV1_COMP *cpi, BLOCK_SIZE bsize,
                             const MACROBLOCK *x, const MACROBLOCKD *xd) {
  const struct macroblock_plane *const p = &x->plane[0];
  const struct macroblockd_plane *const pd = &xd->plane[0];
  return adst_vs_flipadst(cpi, bsize, p->src.buf, p->src.stride, pd->dst.buf,
                          pd->dst.stride);
}

static void get_energy_distribution_finer(const int16_t *diff, int stride, int bw,
                                          int bh, float *hordist, float *verdist) {
  unsigned int esq[256];
  const int w_shift = bw == 4 ? 0 : 1;
  const int h_shift = bh == 4 ? 0 : 1;
  int esq_w = bw == 4 ? 4 : bw/2;
  int esq_h = bh == 4 ? 4 : bh/2;
  memset(esq, 0, esq_w*esq_h*sizeof(unsigned int));

  for (int i = 0; i < bh; i++)
    for (int j = 0; j < bw; j++) {
      const int index = (i >> h_shift) * esq_w + (j >> w_shift);
      esq[index] += diff[i*stride + j] * diff[i*stride + j];
    }

  float total = 0.0f;
  for (int i = 0; i < esq_w*esq_h; i++)
    total += esq[i];

  if (total > 0.0f) {
    const float e_recip = 1.0f / total;
    for (int j = 0; j < esq_w-1; j++)
    {
      hordist[j] = 0.0f;
      for (int i = 0; i < esq_h; i++)
        hordist[j] += (float)esq[i*esq_w+j];
      hordist[j] *= e_recip;
    }
    for (int i = 0; i < esq_h-1; i++)
    {
      verdist[i] = 0.0f;
      for (int j = 0; j < esq_w; j++)
        verdist[i] += (float)esq[i*esq_w+j];
      verdist[i] *= e_recip;
    }
  } else {
    for (int j = 0; j < esq_w-1; j++)
      hordist[j] = 1.0f/esq_w;
    for (int i = 0; i < esq_h-1; i++)
      verdist[i] = 1.0f/esq_h;
  }
}

void compute_1D_costs(float* features, int num_features, const float* fc1,
                      const float* b1, const float* fc2, const float* b2,
                      int num_hidden_units, float* dst_costs) {
  float hidden_layer[128];
  for(int i=0; i<num_hidden_units; i++)
  {
    const float* cur_coef = fc1 + i*num_features;
    hidden_layer[i] = 0.0f;
    for(int j=0; j<num_features; j++)
      hidden_layer[i] += cur_coef[j]*features[j];
    hidden_layer[i] = AOMMAX(hidden_layer[i] + b1[i], 0.0f);
  }
  for(int i=0; i<4; i++)
  {
    const float* cur_coef = fc2 + i*num_hidden_units;
    dst_costs[i] = 0.0f;
    for(int j=0; j<num_hidden_units; j++)
      dst_costs[i] += cur_coef[j]*hidden_layer[j];
    dst_costs[i] += b2[i];
  }
}

void sort_2D_transform_costs(float* costs, int* tx_types) {
  float tmp_score;
  int tmp_tx;
#define SWAP(idx1, idx2)             \
  if(costs[idx1]<costs[idx2]) {      \
    tmp_score = costs[idx1];         \
    costs[idx1] = costs[idx2];       \
    costs[idx2] = tmp_score;         \
    tmp_tx = tx_types[idx1];         \
    tx_types[idx1] = tx_types[idx2]; \
    tx_types[idx2] = tmp_tx;         \
  }
  // Optimal sorting network for N=16:
  SWAP(0, 1); SWAP(2, 3); SWAP(4, 5); SWAP(6, 7); SWAP(8, 9); SWAP(10, 11);
  SWAP(12, 13); SWAP(14, 15); SWAP(0, 2); SWAP(4, 6); SWAP(8, 10); SWAP(12, 14);
  SWAP(1, 3); SWAP(5, 7); SWAP(9, 11); SWAP(13, 15); SWAP(0, 4); SWAP(8, 12);
