/*
 * Copyright (c) 2016, Alliance for Open Media. All rights reserved
 *
 * This source code is subject to the terms of the BSD 2 Clause License and
 * the Alliance for Open Media Patent License 1.0. If the BSD 2 Clause License
 * was not distributed with this source code in the LICENSE file, you can
 * obtain it at www.aomedia.org/license/software. If the Alliance for Open
 * Media Patent License 1.0 was not distributed with this source code in the
 * PATENTS file, you can obtain it at www.aomedia.org/license/patent.
 */

#include "aom_mem/aom_mem.h"

#include "av1/common/reconinter.h"
#include "av1/common/scan.h"
#include "av1/common/onyxc_int.h"
#include "av1/common/seg_common.h"
#include "av1/common/txb_common.h"
//#include "av1/common/entropymode.h"

// Applies the ReLu activation to one fc layer
// output[i] = Max(input[i],0.0f)
static float *nn_relu(const float *input, FC_LAYER_EM *layer) {
  for (int i = 0; i < layer->num_outputs; ++i) {
    layer->output[i] = AOMMAX(input[i], 0.0f);
  }

  return layer->output;
}

// Applies the Sigmoid activation to one fc layer
// output[i] = 1/(1+exp(input[i]))
static float *nn_sigmoid(const float *input, FC_LAYER_EM *layer) {
  for (int i = 0; i < layer->num_outputs; ++i) {
    const float tmp = AOMMIN(AOMMAX(input[i], -10.0f), 10.0f);
    layer->output[i] = 1.0f / (1.0f + expf(-tmp));
  }

  return layer->output;
}

// Forward prediction in one fc layer, used in function av1_nn_predict_V2
static float *nn_fc_forward(const float *input, FC_LAYER_EM *layer) {
  const float *weights = layer->weights;
  const float *bias = layer->bias;
  assert(layer->num_outputs < NN_MAX_NODES_PER_LAYER);
  // fc
  for (int node = 0; node < layer->num_outputs; ++node) {
    float val = bias[node];
    for (int i = 0; i < layer->num_inputs; ++i) val += weights[i] * input[i];
    layer->output[node] = val;
    weights += layer->num_inputs;
  }

  // activation
  switch (layer->activation) {
    case ACTN_NONE: return layer->output;
    case ACTN_RELU: return nn_relu(layer->output, layer);
    case ACTN_SIGMOID: return nn_sigmoid(layer->output, layer);
    case ACTN_SOFTSIGN:
      assert(0 && "Softsign has not been supported in NN.");  // TO DO
      return NULL;
    default:
      assert(0 && "Unknown activation");  // Unknown activation
      return NULL;
  }
}

void av1_nn_predict_em(const float *feature, NN_CONFIG_EM *nn_config,
                       float *output) {
  const float *input_nodes = feature;
  const int num_layers = nn_config->num_hidden_layers;
  assert(num_layers <= NN_MAX_HIDDEN_LAYERS);
  // Copy the input feature to the buffer
  memcpy(nn_config->feature, feature,
         sizeof(*feature) * nn_config->layer[0].num_inputs);

  // Propagate the layers.
  for (int i = 0; i < num_layers; ++i) {
    input_nodes = nn_fc_forward(input_nodes, nn_config->layer + i);
    assert(nn_config->layer[i + 1].num_inputs ==
           nn_config->layer[i].num_outputs);
  }

  // Final layer
  input_nodes = nn_fc_forward(input_nodes, nn_config->layer + num_layers);
  assert(nn_config->layer[num_layers].num_outputs == nn_config->num_logits);
  // Copy the final layer output
  memcpy(output, input_nodes, sizeof(*input_nodes) * nn_config->num_logits);
}

/***************************Backprop for gradient******************************/
// Backprop for ReLU activation
static void nn_relu_back(float *dX_out, FC_LAYER_EM *layer) {
  const float *dY = layer->dY;
  for (int i = 0; i < layer->num_outputs; ++i)
    dX_out[i] = layer->output[i] > 0.0f ? dY[i] : 0.0f;
}

// Backprop for sigmoid activation
static void nn_sigmoid_back(float *dX_out, FC_LAYER_EM *layer) {
  const float *dY = layer->dY;
  for (int i = 0; i < layer->num_outputs; ++i)
    dX_out[i] =
        dY[i] * layer->output[i] * (1 - layer->output[i]);  // dX=dY*sigmoid(X)
}

// Backprop for softmax cross entropy loss
static void nn_softmax_cross_entropy_loss_back(float *dX_out,
                                               const float *logits,
                                               const int num_logits,
                                               const int label) {
  if (num_logits == 1) {
    // sigmoid
    assert(label < 2);  // label [0,1]
    dX_out[0] = 1.0f / (1.0f + expf(-logits[0])) - (float)label;
  } else {
    // softmax
    assert(num_logits > label);  // label [0,1,... num_logits-1]
    av1_nn_softmax_em(logits, dX_out, num_logits);
    dX_out[label] -= 1;
  }
}

// Backprop in one fc layer, used in function av1_nn_backprop
static void nn_fc_backward(const float *X, float *dX_out, FC_LAYER_EM *layer) {
  // backprop on activation
  float dY_fc[NN_MAX_NODES_PER_LAYER] = { 0 };  // dY for fc
  switch (layer->activation) {
    case ACTN_NONE:  // no activation, dY_fc <-- dY
      memcpy(dY_fc, layer->dY, sizeof(*(layer->dY)) * layer->num_outputs);
      break;
    case ACTN_RELU: nn_relu_back(dY_fc, layer); break;
    case ACTN_SIGMOID: nn_sigmoid_back(dY_fc, layer); break;
    case ACTN_SOFTSIGN:
      assert(0 && "Softsign has not been supported in NN.");  // TO DO
      break;
    default: assert(0 && "Unknown activation");  // Unknown activation
  }

  // backprop on fc
  // gradient of W, b
  float *dW = layer->dW;
  float *db = layer->db;
  for (int j = 0; j < layer->num_outputs; ++j) {
    for (int i = 0; i < layer->num_inputs; ++i) dW[i] += dY_fc[j] * X[i];
    db[j] += dY_fc[j];
    dW += layer->num_inputs;
  }

  // gradient of the input, i.e., the output of last layer
  if (dX_out) {
    for (int i = 0; i < layer->num_inputs; ++i) {
      float *w = layer->weights + i;
      float val = 0.0f;
      for (int j = 0; j < layer->num_outputs; ++j) {
        val += dY_fc[j] * w[j * layer->num_inputs];
      }
      dX_out[i] = val;
    }
  }
}

void av1_nn_backprop_em(NN_CONFIG_EM *nn_config, const int label) {
  const int num_layers = nn_config->num_hidden_layers;

  // loss layer
  switch (nn_config->loss) {
    case SOFTMAX_CROSS_ENTROPY_LOSS:
      nn_softmax_cross_entropy_loss_back(nn_config->layer[num_layers].dY,
                                         nn_config->logits,
                                         nn_config->num_logits, label);
      break;
  }

  // hidden fc layer
  FC_LAYER_EM *layer_ptr = nn_config->layer + num_layers;
  for (int i = 0; i < num_layers; ++i) {
    nn_fc_backward(layer_ptr[-1].output, layer_ptr[-1].dY, layer_ptr);
    layer_ptr -= 1;
  }

  nn_fc_backward(nn_config->feature, NULL,
                 layer_ptr);  // first layer (no dX for feature)
  ++nn_config->counter;       // increment the counter
}

void av1_nn_update_em(NN_CONFIG_EM *nn_config, float mu) {
  const int num_layers = nn_config->num_hidden_layers;

  // Update the weights
  mu /= nn_config->counter;
  for (int i = 0; i <= num_layers; ++i) {
    FC_LAYER_EM layer = nn_config->layer[i];
    for (int j = 0; j < layer.num_inputs * layer.num_outputs; ++j) {
      layer.weights[j] -= mu * layer.dW[j];
      layer.dW[j] = 0.f;
    }
    for (int j = 0; j < layer.num_outputs; ++j) {
      layer.bias[j] -= mu * layer.db[j];
      layer.db[j] = 0.f;
    }
  }
  nn_config->counter = 0;  // reset the counter after update
}

void av1_nn_softmax_em(const float *input, float *output, int n) {
  // Softmax function is invariant to adding the same constant
  // to all input values, so we subtract the maximum input to avoid
  // possible overflow.
  float max_inp = input[0];
  for (int i = 1; i < n; i++) max_inp = AOMMAX(max_inp, input[i]);
  float sum_out = 0.0f;
  for (int i = 0; i < n; i++) {
    // Clamp to range [-10.0, 0.0] to prevent FE_UNDERFLOW errors.
    const float normalized_input = AOMMAX(input[i] - max_inp, -10.0f);
    output[i] = (float)exp(normalized_input);
    sum_out += output[i];
  }
  for (int i = 0; i < n; i++) output[i] /= sum_out;
}

static const aom_cdf_prob
    default_kf_y_mode_cdf[KF_MODE_CONTEXTS][KF_MODE_CONTEXTS][CDF_SIZE(
        INTRA_MODES)] = {
      { { AOM_CDF13(15588, 17027, 19338, 20218, 20682, 21110, 21825, 23244,
                    24189, 28165, 29093, 30466) },
        { AOM_CDF13(12016, 18066, 19516, 20303, 20719, 21444, 21888, 23032,
                    24434, 28658, 30172, 31409) },
        { AOM_CDF13(10052, 10771, 22296, 22788, 23055, 23239, 24133, 25620,
                    26160, 29336, 29929, 31567) },
        { AOM_CDF13(14091, 15406, 16442, 18808, 19136, 19546, 19998, 22096,
                    24746, 29585, 30958, 32462) },
        { AOM_CDF13(12122, 13265, 15603, 16501, 18609, 20033, 22391, 25583,
                    26437, 30261, 31073, 32475) } },
      { { AOM_CDF13(10023, 19585, 20848, 21440, 21832, 22760, 23089, 24023,
                    25381, 29014, 30482, 31436) },
        { AOM_CDF13(5983, 24099, 24560, 24886, 25066, 25795, 25913, 26423,
                    27610, 29905, 31276, 31794) },
        { AOM_CDF13(7444, 12781, 20177, 20728, 21077, 21607, 22170, 23405,
                    24469, 27915, 29090, 30492) },
        { AOM_CDF13(8537, 14689, 15432, 17087, 17408, 18172, 18408, 19825,
                    24649, 29153, 31096, 32210) },
        { AOM_CDF13(7543, 14231, 15496, 16195, 17905, 20717, 21984, 24516,
                    26001, 29675, 30981, 31994) } },
      { { AOM_CDF13(12613, 13591, 21383, 22004, 22312, 22577, 23401, 25055,
                    25729, 29538, 30305, 32077) },
        { AOM_CDF13(9687, 13470, 18506, 19230, 19604, 20147, 20695, 22062,
                    23219, 27743, 29211, 30907) },
        { AOM_CDF13(6183, 6505, 26024, 26252, 26366, 26434, 27082, 28354, 28555,
                    30467, 30794, 32086) },
        { AOM_CDF13(10718, 11734, 14954, 17224, 17565, 17924, 18561, 21523,
                    23878, 28975, 30287, 32252) },
        { AOM_CDF13(9194, 9858, 16501, 17263, 18424, 19171, 21563, 25961, 26561,
                    30072, 30737, 32463) } },
      { { AOM_CDF13(12602, 14399, 15488, 18381, 18778, 19315, 19724, 21419,
                    25060, 29696, 30917, 32409) },
        { AOM_CDF13(8203, 13821, 14524, 17105, 17439, 18131, 18404, 19468,
                    25225, 29485, 31158, 32342) },
        { AOM_CDF13(8451, 9731, 15004, 17643, 18012, 18425, 19070, 21538, 24605,
                    29118, 30078, 32018) },
        { AOM_CDF13(7714, 9048, 9516, 16667, 16817, 16994, 17153, 18767, 26743,
                    30389, 31536, 32528) },
        { AOM_CDF13(8843, 10280, 11496, 15317, 16652, 17943, 19108, 22718,
                    25769, 29953, 30983, 32485) } },
      { { AOM_CDF13(12578, 13671, 15979, 16834, 19075, 20913, 22989, 25449,
                    26219, 30214, 31150, 32477) },
        { AOM_CDF13(9563, 13626, 15080, 15892, 17756, 20863, 22207, 24236,
                    25380, 29653, 31143, 32277) },
        { AOM_CDF13(8356, 8901, 17616, 18256, 19350, 20106, 22598, 25947, 26466,
                    29900, 30523, 32261) },
        { AOM_CDF13(10835, 11815, 13124, 16042, 17018, 18039, 18947, 22753,
                    24615, 29489, 30883, 32482) },
        { AOM_CDF13(7618, 8288, 9859, 10509, 15386, 18657, 22903, 28776, 29180,
                    31355, 31802, 32593) } }
    };

#if CONFIG_INTRA_ENTROPY
#if INTRA_MODEL == 0
static const float intra_mode_layer0_weights[54 * 16] = {
  -1.34472859f, -2.52086377f, -1.21907496f, -2.62442231f, -1.36456108f,
  -1.85076857f, -1.75697982f, -2.70074654f, -2.01186728f, -1.47276330f,
  -1.49210894f, -1.52696955f, -0.47444168f, 0.08867505f,  0.09964295f,
  1.26356518f,  0.01439609f,  -0.81688899f, -0.50793839f, -1.23898613f,
  -0.06767552f, -1.93357253f, -2.16731191f, -1.21160233f, -1.63814270f,
  -2.20185733f, -1.97344089f, -1.98948014f, -0.85417777f, -1.77182496f,
  1.12845099f,  -0.37248057f, 1.56314051f,  -0.99744338f, -0.42270893f,
  -1.00813162f, -1.27447009f, -1.39900613f, -1.27575421f, -1.28639388f,
  -0.47771707f, -0.97837448f, -1.43649125f, -1.93330860f, -1.12258101f,
  -1.65930676f, -1.65564024f, -1.69175899f, -1.06844699f, 0.11572217f,
  -1.39114916f, -1.32224143f, -1.26412702f, -1.08656287f, -0.73283285f,
  -0.51661754f, -3.07390547f, -1.81956255f, -2.49317861f, -2.34918404f,
  -3.11862493f, -3.84495616f, -1.97497737f, -1.74563420f, -1.39492238f,
  -1.82890868f, 1.05744183f,  0.27218592f,  -2.87983131f, 0.85960984f,
  -1.56861508f, -0.31561625f, -0.17744578f, -0.26456827f, -1.68759775f,
  -1.84392929f, -1.85461676f, -1.67833781f, -1.20882034f, -0.23726073f,
  -1.26488149f, -0.33092192f, -0.50538093f, -0.93326998f, 0.44742784f,
  0.13446647f,  -0.85056525f, -0.82760453f, -1.10008419f, -0.12455311f,
  -1.32504094f, -2.01124835f, -1.91583014f, -1.65612626f, -2.60822034f,
  -2.33542585f, -1.11933470f, -1.85556376f, -2.24145532f, -1.73677206f,
  -1.99684584f, -2.08142853f, -1.42412758f, 0.33718309f,  -0.78021812f,
  -0.15221675f, -1.59199429f, -0.86873209f, 0.65333110f,  0.01478232f,
  0.58083361f,  -1.41929781f, 0.07092807f,  -0.65887439f, -0.04127261f,
  -0.14167656f, -0.75929362f, 0.09406663f,  -0.10605180f, -0.63521659f,
  -1.25242639f, 0.07191706f,  -0.48803216f, -0.25908542f, -0.92937392f,
  -0.76943487f, 0.03202001f,  -0.68810582f, -0.04246534f, -0.55197316f,
  -0.70237046f, 0.21076342f,  -0.11062458f, -1.66637504f, -1.00620592f,
  0.12303604f,  -2.00321126f, -0.05222737f, 0.04923328f,  -0.01844162f,
  0.28145379f,  0.41233397f,  -0.79741007f, -0.29028648f, -0.33426377f,
  -0.06650374f, -0.29935929f, -0.34789035f, -1.42418647f, -0.43265161f,
  0.37286478f,  -0.99247521f, -1.03913200f, -0.12697119f, -0.10455442f,
  -1.46723247f, -0.43378970f, 0.38922939f,  -0.86732292f, -0.60063630f,
  -1.61712241f, -1.69657886f, -0.50130206f, 0.27482462f,  -1.00946200f,
  -0.57687825f, -1.45710349f, -1.39979291f, -1.35991192f, -1.24734640f,
  0.28397655f,  -0.62428916f, -0.30639529f, -0.35062689f, 0.90501994f,
  0.05572261f,  -1.71796548f, -0.10479453f, -1.35078228f, -0.82040793f,
  -0.07072417f, -0.48470831f, -0.54324561f, -0.43556020f, -0.57757121f,
  -1.40337694f, -1.25641024f, -0.79666072f, 0.11310165f,  -0.41256809f,
  -0.47851104f, -0.61234587f, -0.23643969f, 0.29792047f,  -0.00426866f,
  -0.47860229f, -0.36118966f, -0.38841838f, -0.79471290f, -0.72751516f,
  -0.56346869f, -0.76650256f, -1.30257404f, -0.60020411f, -0.71272135f,
  -0.53190637f, -0.23315226f, -0.41795951f, -0.98146957f, -0.52313983f,
  -0.26767144f, -0.12230621f, -0.94776309f, -0.49388161f, -1.13231790f,
  -0.92857045f, -0.15959336f, 0.09274069f,  -0.15788731f, -0.13210642f,
  0.04486415f,  0.04011234f,  -0.27483502f, 0.06583183f,  -0.29369175f,
  0.20024052f,  0.08689474f,  -0.04064971f, -0.15069926f, -0.13407582f,
  0.04207417f,  -0.03537172f, -0.29742697f, -0.25155050f, -0.10513961f,
  -0.29204109f, -0.32159388f, 0.11779372f,  -0.22457708f, -0.09925192f,
  -0.26645407f, 0.04704744f,  0.01768643f,  -0.01814654f, -0.20310701f,
  0.12903525f,  -0.19134848f, -0.06448050f, -0.18500680f, -0.29734027f,
  -0.08669252f, -0.37062702f, -0.20113024f, 0.12800379f,  0.06264347f,
  0.08655868f,  0.00908094f,  0.25891271f,  0.18672709f,  0.11581429f,
  0.07032672f,  0.02287451f,  0.15500040f,  -0.02873144f, -0.11420770f,
  -0.18702960f, -0.34368554f, -0.39120013f, -0.35553777f, -0.11240676f,
  -0.10775909f, -0.65055192f, 0.93594956f,  -0.21855909f, -0.42352524f,
  -0.49834925f, 0.83117419f,  0.95381016f,  -0.68361336f, -0.11449477f,
  -0.07919987f, 0.48166448f,  -0.40666535f, -0.05567671f, 1.06071782f,
  -0.13134158f, 0.69968396f,  -0.57594669f, 1.21608663f,  0.48539916f,
  2.88459325f,  1.36840796f,  0.70788932f,  0.85323232f,  1.91724324f,
  2.87114501f,  0.81162238f,  1.12722576f,  0.97668219f,  2.00730443f,
  0.98563862f,  0.01008784f,  1.02763236f,  -0.32438448f, 0.45445430f,
  -0.94083065f, -0.42566735f, -0.36321497f, -0.35512522f, -0.38461739f,
  -0.87594479f, -0.67664355f, -0.10917915f, -0.32443377f, -0.46119606f,
  -0.43985981f, -0.33999372f, -0.45838505f, -0.32620895f, -0.06729943f,
  -0.55522311f, -0.61993003f, 0.15844022f,  0.01986828f,  0.07252379f,
  0.13129555f,  -0.25044954f, -0.02207282f, 0.08911113f,  0.11216488f,
  -0.25219271f, 0.12284350f,  0.08695591f,  -0.15098892f, 0.09886478f,
  0.09947824f,  0.07349555f,  -0.01804564f, -0.29991126f, -0.08365519f,
  -0.40522352f, -0.33316395f, 0.15315408f,  -0.28754997f, 0.12707956f,
  0.04991391f,  -0.00448665f, 0.17044903f,  0.10012599f,  -0.03537137f,
  -0.27252764f, 0.06565844f,  -0.07328983f, -0.23592365f, -0.04750932f,
  -0.01009854f, -0.26819202f, -0.10041718f, -0.24925797f, -0.01470207f,
  0.02828817f,  -0.07055964f, 0.09243051f,  -0.21502468f, -0.05895968f,
  -0.15196623f, 0.19910243f,  0.12040682f,  -0.16529885f, 0.19040072f,
  -0.04791486f, 0.06809521f,  0.01571533f,  -0.06237814f, -0.20398186f,
  0.14470118f,  -0.19726026f, -0.28585020f, -0.77040279f, -1.47656918f,
  -0.73407972f, -1.07946002f, -1.52267420f, -1.96672571f, -1.25127006f,
  -1.84090972f, -1.24413979f, -0.77641112f, -0.98540813f, -0.88099372f,
  0.79214984f,  0.02849560f,  -0.29718027f, -1.08180916f, -0.45376605f,
  -1.06111443f, -0.58808219f, -1.38724327f, -1.08868885f, -1.45387828f,
  -1.71027756f, -0.94263488f, -1.43084431f, -1.37832665f, -1.42872727f,
  -0.86514193f, -1.37226248f, -1.57131779f, 0.78047705f,  0.26139262f,
  0.27424359f,  -1.30422628f, -1.13016510f, -1.23262525f, -1.33468628f,
  -1.36236286f, -0.94464678f, -1.53929138f, -1.45604563f, -1.85073888f,
  -1.59765244f, -1.70858347f, -0.67296207f, -1.26271939f, -0.60370177f,
  -1.30262315f, -1.12775874f, -0.02354132f, -1.17035508f, -0.55129266f,
  -1.66859019f, -2.20631456f, -0.50770915f, -0.22569266f, -0.49634519f,
  -0.56306195f, 0.32834321f,  -0.41368416f, -0.57404053f, -0.25020000f,
  -0.93529081f, -0.09142505f, 0.33000740f,  -0.96098888f, 0.73082972f,
  0.71344846f,  -0.76279825f, -0.39585066f, -0.26021990f, -0.70687115f,
  -0.55357850f, -0.58935547f, -0.13484390f, -0.03701411f, -0.52440238f,
  -0.61895049f, -0.12163462f, -0.25045338f, -0.77317226f, -0.46779951f,
  -0.00776350f, -0.11452179f, -0.30457970f, -0.18444744f, -0.38152173f,
  -0.95297587f, -0.44156343f, -0.74075842f, -0.54920059f, -0.41488054f,
  -0.31761304f, -0.32309172f, -0.50588894f, -0.63026828f, -0.58538473f,
  -0.00036020f, -0.03134747f, -0.51907688f, -0.16268441f, -0.10506085f,
  -0.16398014f, -0.00426275f, -0.95439047f, -1.23025608f, -1.11553502f,
  -1.27707827f, 0.39050993f,  2.50005984f,  -2.99278402f, 0.06877659f,
  -0.04218946f, 1.39806557f,  0.16986825f,  0.61968285f,  0.72079402f,
  0.20283747f,  1.25168574f,  0.18483375f,  0.64892983f,  0.07343536f,
  -0.73800641f, 0.69276959f,  -1.21999943f, 0.84037024f,  0.09805743f,
  1.15073121f,  -0.31673884f, -0.44945955f, 0.05527684f,  0.90682572f,
  0.00142069f,  0.84878099f,  -0.02930604f, 0.05016610f,  0.54580820f,
  0.04755240f,  0.04195848f,  0.06222834f,  -0.16874187f, 0.74343622f,
  -0.33239767f, 0.86847854f,  -0.17005683f, -0.19857587f, -0.05609570f,
  -0.31886089f, -0.43165037f, 0.12281280f,  -0.29247984f, -0.09137011f,
  -0.20411643f, -0.28819802f, -0.22714818f, -0.19604549f, -0.09604973f,
  0.05355265f,  -0.11364775f, -0.21920557f, -0.59000343f, 0.08609926f,
  0.19795598f,  -0.57443744f, -0.45028266f, -1.56952322f, -0.09173884f,
  -0.14701849f, 0.19308759f,  -1.14278781f, -1.34431505f, -1.21125805f,
  -0.98475969f, -0.64508533f, -0.83854079f, 0.12046282f,  0.68813384f,
  -0.65353161f, 0.16347751f,  -0.12711960f, -0.68575865f, -0.44496951f,
  -0.57436162f, -1.68765593f, -0.28022033f, -1.69762146f, 0.85090858f,
  -1.38507891f, -0.54518372f, -1.17894363f, -1.04924166f, -0.48039410f,
  -0.81639498f, 0.38145441f,  -0.53304338f, -1.06128860f, -1.31422007f,
  -1.50000072f, -0.45184904f, -1.08361661f, -0.04669328f, -1.25660741f,
  -0.36283621f, -0.54259694f, 0.46375713f,  -0.30610615f, -0.47751313f,
  -0.63315547f, -0.69658530f, -0.54776353f, -0.33925962f, 0.17146656f,
  -0.65777695f, -1.31738305f, -0.67088926f, -1.06627762f, 0.51427329f,
  -1.55594468f, -0.13527888f, -0.42415521f, -1.39122665f, -0.69910347f,
  -1.20098555f, -0.77979815f, -0.81679147f, -0.92310315f, 0.49405172f,
  -0.60847849f, -0.52412665f, -1.19899046f, -1.44216835f, 0.14354254f,
  -1.17344701f, -0.96788162f, -1.02055824f, 0.07554962f,  -0.45610791f,
  -0.30308682f, -0.58650035f, -0.74346405f, 1.06583011f,  -0.11827105f,
  -0.54066199f, -0.87915474f, -0.10246918f, -0.60115743f, -0.54705590f,
  -1.32689762f, -1.13265264f, -1.22430491f, -1.80739963f, -1.42482400f,
  -0.56749761f, 0.60556000f,  0.02873548f,  -1.43660271f, -0.60526472f,
  -0.63982242f, 0.91066074f,  -0.94624561f, -0.62588245f, -0.24445516f,
  -0.04893875f, -0.01936267f, -0.39006403f, 0.12945826f,  -1.42453527f,
  -1.37524915f, -1.32013714f, -1.20278358f, 0.09852993f,  -0.10315577f,
  -0.08065794f, -0.09477025f, -0.00994839f, 0.09520070f,  -0.11385962f,
  -0.08745061f, 0.13500404f,  0.12493370f,  -0.03029579f, 0.17121498f,
  0.03472127f,  -0.07964243f, -0.42111149f, -0.38417643f, -0.20200245f,
  -0.04138506f, -0.09231593f, -0.00623832f, -0.19416910f, 0.12600832f,
  0.00677175f,  0.00019933f,  -0.35941932f, -0.00968444f, -0.16422185f,
  -0.04422733f, 0.16918653f,  -0.19377936f, -0.13898984f, -0.01833220f,
  -0.23003057f, -0.17819738f, -0.23495907f, -0.42173252f, 0.15039498f,
  -0.13094299f, 0.03989442f,  0.03779310f,  0.13587461f,  -0.07663590f,
  -0.22060695f, -0.05867923f, -0.18538265f, -0.13845098f, -0.00619692f,
  0.09337087f,  -0.32394120f, 0.02457848f,  -0.06754370f, -0.02711296f,
  0.04042626f,  -0.43942660f, -0.34323353f, -2.62199759f, -1.83570397f,
  1.32944989f,  -2.31893587f, -2.53645182f, -2.29581738f, -1.89590538f,
  -0.95517159f, -0.88534534f, -1.56841207f, -1.47041833f, -0.62718809f,
  0.38274142f,  0.73662877f,  -2.71332860f, -1.25357664f, -1.87608600f,
  0.66963959f,  -2.05025673f, -0.76931864f, 0.59751183f,  -1.47793198f,
  -1.48561573f, -1.41216469f, -1.05765295f, -1.82081604f, -1.85063028f,
  -1.74727964f, -2.27852201f, -0.73292232f, -0.32425493f, -0.38929012f,
  0.53970754f,  -1.22150409f, -0.69838774f, 0.21952137f,  -0.12319843f,
  -1.53330731f, -1.93789661f, -0.64637381f, -1.61524105f, -1.90739310f,
  -0.91654372f, -1.10830879f, 0.46787357f,  -0.51012194f, -1.22085381f,
  -0.05654236f, 0.21787801f,  -0.55646527f, 1.39780521f,  -0.74258411f,
  -0.50562680f, 0.46137482f,  -0.05448716f, 0.15231071f,  -0.08809952f,
  2.17602825f,  1.89169562f,  1.82798219f,  0.95215809f,  -0.34643096f,
  0.32655281f,  0.23605751f,  0.30068356f,  -0.18062538f, 0.14345646f,
  0.29214799f,  0.42713737f,  0.09344426f,  -0.23960257f, 1.17050362f,
  0.72860104f,  0.78938472f,  0.81473225f,  2.75441122f,  2.30348206f,
  2.72746396f,  1.75676012f,  0.58874267f,  1.05647039f,  0.95530123f,
  0.95890605f,  0.32740340f,  0.07358588f,  0.18930131f,  0.39252734f,
  -0.28025979f, -0.56131339f, 0.42074800f,  0.34727103f,  0.30490822f,
  0.57652479f,  1.29716218f,  0.89765346f,  1.02037752f,  0.44451779f,
  0.52837878f,  0.36235559f,  0.41184092f,  0.39589584f,  0.10854597f,
  0.01850086f,  0.08339883f,  -0.05081591f, -0.89141017f, -0.73669440f,
  1.28527236f,  1.42225182f,  1.34489989f,  3.11832309f,  0.75093329f,
  1.23913252f,  1.19211543f,  2.27993894f,  3.18226814f,  1.54846823f,
  1.59163892f,  1.62699330f,  0.69762224f,  -0.15517147f, 0.34148592f,
  -0.60516596f, -1.15549850f, -0.58666396f, 0.07616396f,  0.35372719f,
  -0.30318081f, 1.57561040f,  -0.27259225f, 0.33609310f,  -0.28946120f,
  1.21591043f,  1.51279950f,  0.34000218f,  0.38103583f,  0.29577944f,
  -0.30051968f, -0.07983187f, -0.23869602f, -0.08715409f, -0.21966469f,
  -0.25293264f, -0.39588583f, -0.47554868f, -0.46863693f, -0.38215324f,
  -0.76202488f, -0.42015526f, -0.52921909f, -0.21264537f, -0.39798656f,
  -0.31514063f, -0.41444403f, -0.31378534f, -0.47528484f, -0.02176441f,
  -0.03218719f, 0.33739656f,  0.75564718f,  0.38218117f,
};
static const float intra_mode_layer0_bias[16] = {
  -1.27912414f, -1.19608593f, -0.19420378f, -0.5512073f,
  -0.24851941f, 0.14598425f,  -0.12179026f, -0.61660045f,
  -0.59693199f, 0.45176387f,  -0.93660569f, -1.32011855f,
  -0.17164111f, -1.5121603f,  0.00649928f,  0.70085567f,
};
static const float intra_mode_layer1_weights[16 * 13] = {
  -0.93713713f, -0.72247851f, -0.57512850f, 0.25330722f,  -0.16792443f,
  -0.04453408f, -0.19614846f, -0.17332828f, 0.37497330f,  -0.04715424f,
  0.20458439f,  -0.32846570f, -0.07908146f, -0.48761493f, -0.00628603f,
  0.18085866f,  -1.03973031f, 0.18358073f,  0.51951230f,  -1.01940572f,
  -0.28107375f, -0.46492559f, -0.06533878f, -0.87249565f, -0.73729581f,
  0.75019324f,  0.32965636f,  -1.48205268f, -0.21134375f, -0.66425467f,
  -0.25587815f, 0.11270741f,  0.36394933f,  -2.01219559f, -0.22701602f,
  -0.92664486f, -0.15063332f, 0.68020874f,  -0.37392810f, 0.52831149f,
  -0.68099320f, -0.26017034f, -0.10493826f, -1.36982584f, 0.14514697f,
  -0.53787994f, -0.35430169f, -0.26546684f, -1.69344330f, 0.24123858f,
  -0.09696062f, 0.06578072f,  0.18124302f,  -0.20791860f, 0.12546958f,
  0.25548944f,  -0.30488476f, -0.25027081f, -0.62171650f, -2.51156449f,
  0.18465972f,  0.07399452f,  0.06639875f,  0.94183534f,  0.14584824f,
  -1.20062542f, -0.17757705f, -0.41853166f, 0.10438190f,  -0.45131657f,
  -0.19204073f, 0.09671723f,  -1.48929286f, -0.19771142f, -0.40407184f,
  -0.79407156f, -0.22919254f, -0.17656256f, 0.93824017f,  0.18232445f,
  -0.61092955f, -1.55243027f, 0.14574085f,  -0.53518820f, 0.00405850f,
  -0.55287683f, -0.48774663f, -0.16461237f, -0.39927962f, 0.39758602f,
  -0.48605397f, -1.84833467f, -0.26481029f, 0.10532492f,  0.74041754f,
  0.38289744f,  -0.23137036f, -1.13673031f, -0.52030319f, 0.08406730f,
  -0.41513166f, 0.28486475f,  -0.16957380f, -0.41774458f, -0.56979561f,
  -0.26480979f, 0.25127643f,  -1.34483385f, 0.04228702f,  -0.67438042f,
  0.64320242f,  0.13082178f,  -0.02209013f, -1.35486436f, -0.13648897f,
  -0.46782866f, 0.07632390f,  0.38887799f,  0.32072407f,  -0.72559828f,
  -0.34066424f, 0.02193417f,  -0.21135806f, -1.96569884f, -0.26668221f,
  -0.22678584f, 0.25907233f,  0.60480303f,  -1.57528245f, -1.25249124f,
  -0.01317876f, -0.39135754f, 0.05933694f,  -0.53858119f, 0.07657004f,
  -0.55040556f, -0.59258777f, 0.09667098f,  0.24493609f,  -2.37706327f,
  0.01247345f,  -0.61311400f, -0.02524146f, 0.91138893f,  0.53101110f,
  -1.58692777f, 0.31170231f,  0.37289950f,  -0.15566790f, -0.07526463f,
  0.01785802f,  -0.19399203f, -0.16809368f, -0.03835212f, -0.75356859f,
  -1.97311914f, -0.09059076f, -0.07336730f, -0.02796648f, 0.31797427f,
  -1.21216309f, -1.25572038f, 0.21622021f,  -1.34141326f, 0.33663988f,
  -0.22825924f, 0.08230273f,  -0.12521884f, -0.66249084f, 0.21075700f,
  0.02396839f,  -0.65418690f, -0.18744481f, -0.00578189f, -0.10268576f,
  0.30815697f,  -0.34314498f, 0.21342035f,  0.17652756f,  0.41512224f,
  0.02563119f,  0.19544311f,  0.21324217f,  -0.97975236f, -0.71767676f,
  -0.19294858f, 0.48560980f,  -2.96616197f, -0.20263413f, -0.53824097f,
  -0.05149840f, 0.25091091f,  1.64678121f,  -0.04863302f, -0.75062311f,
  0.37260833f,  -0.41664913f, -0.31618685f, 0.33293751f,  0.14564076f,
  -1.67840254f, 0.01323134f,  0.58225554f,  -1.98118329f, -0.12075335f,
  0.13517460f,  -0.89205056f, -0.76957655f,
};
static const float intra_mode_layer1_bias[13] = {
  1.31302679f,  -0.3246313f,  0.05108973f,  -2.22623181f, -2.21044469f,
  -2.52802825f, -2.3516593f,  -2.23695111f, -1.82459486f, -0.04331255f,
  -1.1163044f,  -1.14004064f, 1.02122474f,
};
#elif INTRA_MODEL == 1
static const float intra_mode_layer0_weights[24 * 16] = {
  3.25421119f,  0.83241528f,  -0.34194693f, 1.06626964f,  1.70176160f,
  1.08237302f,  0.21909708f,  1.49587238f,  0.28995937f,  -1.81523871f,
  -0.83506685f, -1.28771019f, -2.80867767f, -2.59195185f, 1.04452908f,
  -1.55363846f, 0.14894012f,  0.39010122f,  0.60705024f,  0.61095548f,
  1.02606237f,  0.31847697f,  -0.31753951f, -0.17291339f, -1.75113940f,
  -3.08065701f, -0.44917801f, -4.10130072f, -2.24794054f, 0.06618322f,
  0.04589318f,  -1.94953263f, -1.25251997f, -2.06857109f, -3.25152636f,
  -2.43252254f, -1.28154850f, -0.15315209f, 0.85094565f,  -0.66256464f,
  -0.15999143f, 0.05830003f,  -0.22936732f, -0.98942024f, -0.27505162f,
  0.63055259f,  0.38244197f,  -0.39942655f, -1.32355118f, -3.43195891f,
  0.66692019f,  -3.97899914f, -2.45767784f, -0.66401720f, -1.06409740f,
  -0.96229470f, -1.34632933f, -1.67345822f, -0.00679390f, -1.52498519f,
  -0.21714428f, -0.09536602f, -0.31254593f, -0.53290969f, -1.61087966f,
  -1.97972298f, -0.34853858f, -1.99351835f, -0.26065490f, -0.33794600f,
  -0.51932037f, -0.95920062f, -0.23353997f, -0.08324266f, -0.68349385f,
  0.80656248f,  0.75443375f,  0.22604932f,  -0.30363911f, 0.26964378f,
  -0.25518602f, -0.56460977f, -0.26576823f, 0.29342613f,  0.21805587f,
  -0.36539561f, -1.06408000f, -0.39913115f, -0.19441223f, -0.28190216f,
  -0.26354057f, -0.48106682f, -0.51619059f, -0.42825261f, -0.35898715f,
  -0.23746753f, -0.69246769f, -0.32127795f, 0.04527389f,  0.07646767f,
  0.86208528f,  1.52357388f,  -0.31446928f, -1.58508742f, -1.00891662f,
  -1.12402534f, -0.06254670f, 0.69117188f,  2.25844765f,  2.18795919f,
  0.07083157f,  -1.16923010f, -1.51494741f, -0.22204661f, 0.21619561f,
  0.74370873f,  1.33262527f,  1.70802188f,  0.42497265f,  -0.56148291f,
  1.77942121f,  2.45370388f,  -0.08208816f, -1.68692493f, -2.30178666f,
  -1.25355852f, -0.25438401f, 0.33359438f,  0.88980800f,  1.58314943f,
  0.00402840f,  -0.59007388f, -0.50459176f, -0.19714071f, 0.09664732f,
  -0.39533046f, -0.13963586f, 0.03554891f,  0.05180809f,  -0.04829287f,
  0.10662482f,  0.17209661f,  0.13669175f,  -0.22618794f, -0.14867736f,
  0.29160652f,  0.85884947f,  -0.88982099f, -1.54587388f, -0.77862102f,
  -0.37374827f, -0.28783011f, 0.29075885f,  0.45095131f,  0.87517864f,
  -0.45451021f, -0.63363767f, -0.11917807f, -0.01956690f, 0.12327891f,
  0.01886181f,  -0.07804146f, 0.23229422f,  -0.01422363f, -0.10498187f,
  0.19954905f,  0.27580088f,  0.02445294f,  0.74356884f,  -0.36650881f,
  -0.48562115f, -0.63996500f, -0.06584426f, 0.64499289f,  0.39033177f,
  1.28353095f,  0.42623815f,  -0.46956891f, -0.55120420f, -1.54874647f,
  -1.19253325f, -0.09486591f, 0.47623089f,  1.07171428f,  0.04035379f,
  0.13441092f,  0.20077878f,  -0.17253096f, 0.04670176f,  0.53005749f,
  0.14769654f,  0.35389423f,  -0.50966781f, 0.85345072f,  0.81105536f,
  1.11541820f,  0.19641626f,  -0.55897945f, -0.88012040f, -0.97506863f,
  -0.61572558f, 0.44058543f,  0.53096402f,  1.41706944f,  1.19883788f,
  0.13136031f,  -1.16558778f, -0.74829876f, 0.16956183f,  0.14075102f,
  -0.01606538f, 0.49301273f,  0.30474845f,  -0.06741105f, -0.45839998f,
  0.00381321f,  -0.98547673f, -0.91761792f, -0.84759879f, -1.08656871f,
  -1.31743503f, -1.23888731f, 0.07737465f,  -0.98958433f, -0.44031405f,
  -0.15687080f, 0.31408367f,  -0.55273664f, -1.38787496f, -1.57434750f,
  0.08346355f,  -0.71427333f, -0.78247374f, -0.33268726f, -1.01756990f,
  -0.50164986f, -0.66022146f, -0.05005776f, -0.23442619f, -0.93997264f,
  -0.05905229f, -0.03731308f, -0.36776504f, -0.07967450f, -0.10948557f,
  -0.32955837f, 0.04276897f,  0.10008411f,  -0.29963335f, -0.51218283f,
  -0.14072908f, -0.52133745f, -0.36681116f, -0.14871947f, 0.03321882f,
  -0.04429314f, -0.60307360f, -0.11100763f, -0.38996693f, -0.57227498f,
  -0.43243694f, -0.15016703f, -0.39099315f, -0.17310677f, 0.50781864f,
  -0.10307688f, 0.21237759f,  0.98018909f,  0.63218993f,  0.24136724f,
  -0.25668883f, 0.54788917f,  0.99449408f,  0.62861180f,  0.73939747f,
  1.34054518f,  1.08930945f,  0.50279760f,  -0.09587779f, 0.79570293f,
  0.21639907f,  0.22355966f,  0.18365347f,  0.30124575f,  0.17422490f,
  -0.00095180f, -0.06037733f, 0.35840055f,  0.17369150f,  0.35852003f,
  -0.04580922f, 0.03481253f,  1.06932640f,  1.76674902f,  0.16657165f,
  -0.41489807f, -0.30910334f, -0.81129014f, -0.33103663f, 0.98906696f,
  2.49599242f,  1.59897745f,  -1.73723626f, -1.56911981f, -1.16977656f,
  -0.29015324f, -0.33488548f, -0.72977608f, 0.44539714f,  0.61964017f,
  0.00812741f,  -0.49303642f, -0.37104511f, -0.15975946f, -0.29068294f,
  0.17431180f,  -1.14951098f, -0.73643124f, 0.20176785f,  -0.47844148f,
  -0.69647211f, -0.20410083f, -0.04146540f, 0.34940478f,  -0.69478703f,
  -0.20168151f, -0.11569377f, -0.41936159f, -0.88762301f, -0.42022845f,
  -0.16972865f, -0.08620989f, -1.01715386f, -0.80652952f, -0.11056732f,
  -0.58517927f, -0.75228751f, -1.50805354f, 0.59454501f,  -0.84970361f,
  -1.54800105f, -1.15418899f, -0.66930723f, -0.16584654f, -0.75598997f,
  -1.31521833f, -0.06565727f, -0.95205116f, -0.75257790f, -0.54419488f,
  -0.20672868f, -0.00317522f, -0.60407227f, -0.76605761f, -0.22166237f,
  -0.59571117f, -0.28089228f, -0.80104572f, -0.41444075f, -0.22658449f,
  -0.93642777f, -0.13044715f, -0.31354961f, -0.01171641f, -0.39794129f,
  -2.45608497f, -0.15870455f, 0.04484084f,  0.94060278f,  0.63031036f,
  0.11562033f,  -2.87541676f, -5.26478291f, -5.25950575f, 0.75914472f,
  2.24783635f,  0.04764418f,  -0.13378850f, 0.25342330f,  0.24942495f,
  0.61018962f,  -0.38615897f, 0.32759959f,  -0.22135888f,
};
static const float intra_mode_layer0_bias[16] = {
  -0.81747979f, -0.42135012f, -0.79227108f, -0.82322061f,
  -0.1560079f,  0.03117871f,  0.49010596f,  0.13116579f,
  -0.54993922f, -0.7149772f,  -0.23662245f, 0.03821357f,
  -0.40952027f, -0.46162742f, -0.74024546f, -0.03166655f,
};
static const float intra_mode_layer1_weights[16 * 13] = {
  -0.42374155f, 0.04469313f,  0.27568659f,  0.24399059f,  0.44666657f,
  0.54714739f,  -0.05765932f, 0.97564876f,  -0.08219855f, -0.05308634f,
  -0.29883644f, 0.07887050f,  0.67924124f,  0.10922588f,  0.03000334f,
  -0.11508043f, -0.07508633f, -0.21689466f, -0.63507611f, 0.72922260f,
  0.49717811f,  0.49677527f,  1.27523613f,  -0.09392757f, 0.53843564f,
  -0.29074165f, -0.15928090f, 0.69556022f,  0.38707802f,  0.22757551f,
  0.02435612f,  0.26965711f,  -0.03389324f, 0.99883568f,  -0.40022510f,
  -1.07812798f, 0.11771070f,  0.13191527f,  -0.33853132f, 1.30803800f,
  -0.76541710f, 0.05068886f,  -0.15734182f, -1.50259686f, 1.01394260f,
  0.01844882f,  -0.16017148f, 0.00365675f,  -0.24295457f, -0.10837650f,
  -0.16442834f, 1.00503731f,  0.55746198f,  1.66833937f,  0.02790450f,
  1.58542454f,  -0.65815592f, 0.02907153f,  -0.22326998f, 1.44894159f,
  0.62588948f,  -0.39868730f, 0.19732240f,  0.28307000f,  -0.25391942f,
  -1.53303480f, -0.46522763f, 1.19928741f,  2.14147091f,  0.61497545f,
  -1.10417068f, 0.14178593f,  -0.06792924f, -0.78491366f, 0.06373447f,
  0.77991676f,  -0.64481199f, -0.49667436f, -0.57413274f, 0.62936550f,
  -0.06420507f, -0.76614314f, -2.04949498f, 1.96328628f,  1.27865183f,
  0.50700104f,  -0.53500682f, -0.35716763f, 0.96526140f,  -0.08792775f,
  0.13908722f,  1.22653162f,  -0.38924623f, -0.02473259f, -0.29565445f,
  0.87909335f,  -0.69016820f, -1.28030133f, 0.39411297f,  -0.23394127f,
  1.60523021f,  0.45932889f,  -0.66690910f, 1.63639104f,  -0.85252142f,
  -1.42000675f, -0.44120467f, -0.14705649f, -0.23317231f, -0.15399484f,
  -0.42765459f, -0.39513302f, -0.56129110f, -1.62720096f, -0.37345424f,
  0.22233449f,  0.35729158f,  0.68891120f,  -0.05479694f, 2.06022477f,
  -0.83371496f, 0.13597731f,  -0.59289378f, 0.55378741f,  0.88158697f,
  -0.18289325f, -0.09380151f, 0.85405302f,  -0.50186628f, -0.86051232f,
  -1.60094547f, 0.80944461f,  0.55609846f,  1.84033251f,  0.15552863f,
  0.50249040f,  0.23430762f,  0.07278537f,  -0.03785618f, 0.78152335f,
  0.48668283f,  -0.45564592f, -0.99100739f, 0.49889421f,  -0.52616268f,
  -0.14335151f, -1.44116461f, 0.42696729f,  0.44389191f,  0.77284449f,
  -0.11848417f, 1.02764523f,  -0.01070085f, -0.15349568f, 0.23139083f,
  0.22216496f,  0.59136367f,  -0.01235987f, -0.19279720f, 0.00734764f,
  -0.36865816f, 0.04657710f,  -0.66522646f, 0.63181424f,  0.43552345f,
  0.81595367f,  0.22135331f,  0.45675370f,  0.15368122f,  0.33907372f,
  -0.21098903f, 0.38545710f,  0.38918656f,  -0.09236888f, 0.03113179f,
  0.24959771f,  -0.51837540f, -0.42470467f, -0.80518049f, -0.06552513f,
  0.25294402f,  0.61048514f,  -0.25203300f, 1.53990638f,  -0.30499443f,
  -0.49513021f, -0.55948836f, -0.13484660f, 0.81041646f,  -0.07034243f,
  -0.17999026f, -0.21550696f, 0.54660398f,  0.87353003f,  0.42699662f,
  0.48015857f,  0.36120617f,  -0.19195901f, 0.94503778f,  0.12072270f,
  -0.04736423f, 0.01011357f,  0.20518620f,  -1.01894653f, 0.67051882f,
  -0.51721150f, 0.83390629f,  0.31698337f,
};
static const float intra_mode_layer1_bias[13] = {
  1.5879339f,   -1.31331193f, 1.76149082f,  -3.5566237f,  -1.46776271f,
  -1.81602716f, -0.97854549f, -1.72096097f, -2.21768355f, 0.14365752f,
  -1.13605404f, -0.56143326f, -0.10940339f,
};
#else
static const float intra_mode_layer0_weights[39 * 16] = {
  -0.03420388f, -0.94821602f, 0.40967217f,  -0.68707007f, 0.19685055f,
  -1.44809496f, 0.16993067f,  -1.09362614f, -0.63572735f, -0.93576127f,
  0.53807104f,  -0.78367585f, -0.08171961f, -0.78083897f, 0.38400361f,
  -1.36799395f, -0.19407733f, -0.50670791f, -0.19256738f, -0.27491611f,
  0.48871782f,  -0.00681124f, -0.26206774f, -0.56863642f, 0.02034944f,
  -1.38796592f, -2.10382104f, -1.57989109f, -1.28092158f, 0.15943158f,
  -1.37560248f, -1.64809549f, -0.77858770f, -1.76184821f, -1.88682628f,
  -2.14815545f, -1.75573528f, -1.43428123f, -1.68208051f, 0.07450057f,
  0.11349354f,  0.96347314f,  -0.22337542f, -0.30014658f, -0.10476019f,
  1.02532291f,  -0.60173738f, -0.25728434f, 0.01494637f,  0.81164306f,
  0.04542138f,  -0.04981900f, 0.00878198f,  1.65932691f,  -0.95881778f,
  0.39575621f,  0.46202791f,  0.71407425f,  0.55792505f,  0.32267103f,
  0.22886305f,  0.68991089f,  0.03536557f,  -0.40692264f, -0.64074981f,
  -0.16844213f, -1.01194310f, -1.29057860f, -0.47567576f, -0.80046761f,
  0.22135423f,  -1.33569038f, -1.31812894f, -0.52848399f, -0.48332617f,
  -0.54873073f, -0.58598614f, -0.76142597f, -0.34596503f, 0.01232850f,
  -0.32904428f, -0.00560970f, -0.09740334f, -0.36068186f, -0.08594337f,
  -0.30418932f, -0.11238758f, -0.53680623f, 0.00388666f,  -0.04322142f,
  -0.35478482f, -0.03197175f, -0.34636801f, 0.02910441f,  0.11041650f,
  -0.35023218f, -0.04486771f, -0.20159201f, -0.31627962f, 0.12465774f,
  -0.12361839f, -0.31016168f, -0.30892614f, -0.39058062f, -0.50977373f,
  -0.33660308f, -0.40366203f, -0.30053744f, -0.16522223f, 0.13798890f,
  -0.10035469f, -0.24627092f, -0.13326666f, -0.22300819f, -0.30672044f,
  -0.17218575f, -0.07288388f, 0.21464247f,  -0.36802083f, -0.15568425f,
  -0.18036689f, 0.23927526f,  0.63191378f,  -0.25832254f, 0.09663279f,
  -0.20920895f, -0.35659704f, -0.45531684f, -0.18877503f, 0.14278454f,
  -0.28612673f, -0.05778717f, -0.19445752f, -0.20827207f, -0.32731047f,
  -0.03507279f, 0.12470952f,  0.11883991f,  0.32613882f,  -0.54351473f,
  -0.09459019f, -0.22911066f, -0.06107094f, -0.37423363f, -0.08853226f,
  -0.50544024f, 0.03331013f,  -0.15239337f, -0.58682913f, -0.23374751f,
  -0.61187994f, -0.54814905f, -0.75210464f, -0.35148749f, -0.39152706f,
  -0.45413497f, -0.60944366f, -1.05608678f, -1.36306584f, 0.44046071f,
  0.05673887f,  -1.26391435f, -0.33712155f, -1.18465853f, -0.70291263f,
  -2.28586459f, -0.76932597f, -2.19943666f, -3.17812276f, -5.05900669f,
  0.93851775f,  0.13294569f,  -0.41810679f, -0.36521250f, -0.56162679f,
  -0.21545477f, 0.25123143f,  -0.64639741f, -0.92989534f, -1.05607474f,
  -1.27718282f, -0.59969056f, -1.55969715f, -1.42052293f, -1.41066349f,
  0.37086159f,  -1.03684390f, -1.26686108f, -0.70905679f, -0.56470650f,
  -1.51647234f, -1.26293159f, -1.16447175f, -0.84865701f, -1.40900111f,
  -0.45522836f, 0.60688549f,  1.42775893f,  0.65140241f,  -0.14927235f,
  -0.39708862f, -0.17683947f, -0.85320407f, -0.09954765f, 0.65475696f,
  1.22865200f,  0.84973526f,  0.28550896f,  -0.13406317f, -0.33230552f,
  -0.48985338f, 0.61849135f,  0.39488906f,  0.41526535f,  0.63521689f,
  0.35451588f,  0.13787732f,  0.58421439f,  0.38171718f,  0.04970472f,
  0.82654673f,  -0.23260330f, 0.01136373f,  -0.14242426f, 0.02022750f,
  0.41400215f,  -0.29410124f, -0.17636032f, -0.12234512f, -0.27262560f,
  -0.32950214f, -0.19123974f, -0.30546293f, -0.26479477f, 0.96458012f,
  -0.77412188f, -0.22494631f, 1.36818171f,  0.09369899f,  -1.56445622f,
  -0.79069525f, 0.77049130f,  0.72017729f,  -0.69528073f, -0.24258046f,
  1.32405698f,  0.66831887f,  -1.01952374f, -1.65099299f, 0.35622519f,
  -0.17361084f, 0.31428531f,  0.27559373f,  0.88145804f,  0.49982923f,
  -0.15019329f, -0.44323653f, 0.01632726f,  -0.00054942f, -0.05075112f,
  -0.17225912f, 0.28437343f,  0.69191152f,  0.69766605f,  0.62198085f,
  0.46965504f,  0.83962792f,  1.22449398f,  -0.53633511f, -0.56898451f,
  -0.64456618f, -0.55216730f, -0.36424541f, -0.39929041f, -0.44559032f,
  -1.84547603f, 0.19680989f,  0.63209218f,  0.81919736f,  -0.23364939f,
  0.51428950f,  -1.04330695f, -1.13519537f, -0.06586620f, -1.01717091f,
  0.10330193f,  -0.30590308f, -0.28279430f, 0.07978871f,  0.12019533f,
  0.14370076f,  -1.21621621f, -0.22788131f, 0.16807723f,  0.13793941f,
  -0.46076462f, 0.41839656f,  -0.66969073f, -1.03047597f, -0.70259237f,
  -0.26004753f, -0.50447792f, -0.12874405f, -0.95197481f, -0.48893523f,
  -0.34575820f, -0.20160618f, -1.04103017f, -1.21295130f, -0.89532691f,
  -0.92948979f, -1.02235234f, 1.57525527f,  2.21092939f,  -0.08236263f,
  -1.62188804f, -1.99004805f, -1.26340878f, -0.30148864f, 0.29084960f,
  1.20835710f,  1.62886000f,  0.19221814f,  -0.72326082f, -0.82699054f,
  -0.75614262f, 0.11932477f,  0.04003415f,  -0.05794472f, -0.05374486f,
  0.27391309f,  0.07786603f,  0.16307807f,  0.13891201f,  0.35258782f,
  -0.07743420f, 0.67794055f,  1.01750290f,  1.01231837f,  1.30217326f,
  0.59428304f,  -0.26788086f, -0.09557480f, 0.17169115f,  0.05641410f,
  -0.18491033f, -0.39345837f, -0.37281281f, -0.37361223f, -0.37160116f,
  -0.32749349f, 0.00547985f,  -1.63165855f, -0.16563159f, -1.20944095f,
  -0.03693509f, -0.70930952f, -0.74947000f, -0.13939989f, -0.76182801f,
  -3.34440851f, 0.80485255f,  -3.85863972f, -3.26312208f, -2.59412646f,
  -1.50145900f, -1.64612675f, -0.79155105f, -1.37585711f, -0.45689327f,
  -0.68291074f, 0.36633757f,  -0.03136931f, -0.44452468f, 0.38505185f,
  -0.54063427f, -1.89287436f, -0.98215973f, -0.68442208f, -0.88033760f,
  -0.13053659f, -1.76158285f, -0.23913708f, 0.23279160f,  -0.38527662f,
  -0.56991720f, -1.21864939f, -0.55127603f, -1.05335689f, -0.37165034f,
  0.29458171f,  -0.14709513f, -0.24876195f, -0.74492663f, 1.11143565f,
  -0.97158241f, 0.29628223f,  0.34944850f,  1.92128384f,  -2.19176722f,
  -0.99393439f, -6.07949209f, -7.21207952f, -6.45833778f, 1.34339166f,
  2.41313958f,  0.57598370f,  -0.12187935f, 0.94720918f,  -0.85474688f,
  1.24060941f,  0.14967287f,  0.53664595f,  -0.35124394f, -0.62557542f,
  -0.72326744f, -4.22342825f, -0.99731994f, -0.46281198f, 0.38942814f,
  0.27915004f,  -3.54210305f, -1.29597676f, 0.45219186f,  -1.12296367f,
  -1.11133242f, -1.44076455f, -0.82542992f, -1.02739656f, -0.59158695f,
  -0.67600667f, 0.11845116f,  -1.03050160f, -1.67775643f, -1.28019321f,
  0.07693018f,  -1.11193550f, -0.44501311f, -0.60454690f, 0.42838827f,
  -0.88433588f, -1.07825577f, -0.79621804f, 0.20065524f,  -0.95425028f,
  -0.76278603f, -0.37216988f, -0.48452601f, -0.11649756f, -0.44913924f,
  -0.30025733f, -0.17825779f, -0.75590014f, -0.56087363f, -0.32569349f,
  -0.17185660f, -0.83160377f, -1.13219202f, -0.90423650f, -0.31822217f,
  -0.22622620f, -1.53683031f, -0.89052302f, -1.04658461f, -0.83550990f,
  -0.51526129f, -0.83227116f, -1.22901821f, -0.24846435f, 0.39800420f,
  0.05486700f,  0.70654136f,  1.17684817f,  0.92174488f,  0.25918064f,
  -0.92181182f, -0.10080300f, -0.04342855f, 0.14965458f,  0.62105936f,
  1.12342429f,  1.32120800f,  0.62909830f,  -0.58514720f, -0.11118498f,
  0.04612074f,  0.08000223f,  0.43054211f,  0.56343162f,  0.54217708f,
  0.03046688f,  -0.65556353f, -0.42584679f, -0.00763282f, -0.09365041f,
  -0.09892643f, 0.51821721f,  -0.16029917f, 0.01030052f,  0.39012516f,
  -0.26287934f, 0.84383011f,  0.09589573f,  0.21199879f,  0.12801902f,
  0.38921919f,  0.57595009f,  0.20032433f,  -0.07034356f, 0.31799984f,
  -0.19326141f, -0.55256695f, 0.06413771f,  0.64178824f,  0.99488252f,
  0.72328609f,  -0.05129901f, 0.58428621f,  -0.23562825f, -1.74900961f,
  -0.68576753f, 0.81482291f,  1.72172642f,  0.39163184f,  0.29001984f,
  0.57423669f,  0.35548082f,  -0.17113949f, 0.25639915f,  0.47296962f,
  0.41363883f,  -1.03767526f, -0.37633932f, -0.65958166f, -1.00977945f,
  -0.72583294f, -0.23177817f, 0.09761488f,  0.37278813f,  -0.37523630f,
  0.23781231f,  0.22886708f,  0.27842915f,  0.25076661f,  0.26019332f,
  0.27573922f,  -1.44337714f, -0.23044708f, 1.00986910f,  -0.94605231f,
  0.78466260f,  -0.43735838f, -0.61322999f, 0.47489351f,  -1.95678484f,
  -1.77670789f, -0.54099679f, -1.98954272f, -1.75996721f, -3.24673820f,
  0.89086431f,  0.35853410f,  -0.76284868f, -0.37655625f, -1.44838715f,
  -0.67756015f, 0.10168321f,  0.02993029f,  -1.49491918f, -0.32822603f,
  -1.18805885f, -2.71581912f, -2.51615357f, -2.28883624f, -2.25800776f,
  -0.14047509f, -2.69619608f, -3.14914513f, -2.06219172f, -2.20410228f,
  -4.13575220f, -3.71255994f, -3.74404860f, -3.30849242f, -3.59745526f,
  -1.14066148f, -0.70122021f, -0.69026411f, 0.06779183f,  0.61840641f,
  -1.09048975f, -0.53375548f, -0.74798512f, -0.46925208f, -0.90623873f,
  -1.29129052f, -0.61948854f, 0.26262632f,  0.58131808f,  -1.08951664f,
  -0.42073166f, 0.08282056f,  -0.83140349f, -1.10864997f, -0.21075699f,
  0.44539449f,  -1.70023346f, -1.27443361f, -0.66119719f, -0.45567805f,
  -0.45406291f, -0.05354486f, -0.51075000f, -0.29488623f, -0.19886249f,
  -1.15417361f, -0.70283854f, -0.24146844f, -0.48335844f, -0.40048742f,
  -0.23420675f, 0.51292998f,  -0.47464842f, -0.48484594f,
};
static const float intra_mode_layer0_bias[16] = {
  -0.13177016f, 0.79026133f,  -0.35844243f, -0.26300445f,
  -0.6979062f,  0.68400019f,  0.29842371f,  -0.05378387f,
  0.18860725f,  -0.57475024f, 0.37127802f,  -0.31974623f,
  0.23420195f,  0.3435187f,   -0.73331374f, -0.74955708f,
};

static const float intra_mode_layer1_weights[16 * 13] = {
  0.46551925f,  -0.08901560f, 0.22057562f,  0.25543624f,  0.06810679f,
  0.11290114f,  0.16071551f,  0.10426638f,  -0.06500383f, 0.57941526f,
  -0.39631456f, 0.33052334f,  -0.16311835f, 0.10617322f,  -1.10366058f,
  -0.48143801f, -0.03656013f, -0.13290741f, 0.24423085f,  -0.38965571f,
  -1.46116829f, 1.31061411f,  0.34580877f,  -0.66207796f, 0.17227598f,
  -0.85871828f, -0.42115816f, 0.07548343f,  -0.12447409f, 0.30997139f,
  -0.75655621f, -0.24433015f, 0.13030408f,  0.45752564f,  -0.21415761f,
  -0.33977047f, -0.57668346f, -0.50150180f, -0.29403532f, 0.35102516f,
  -0.07991174f, -0.09603586f, -0.55400020f, 0.29034320f,  0.02025733f,
  0.65500432f,  -0.98584008f, -0.11783647f, 0.46849078f,  -0.45089081f,
  0.02514522f,  -0.02573839f, -0.90965402f, -0.15843461f, 0.69804686f,
  -0.00760543f, 0.82466835f,  -0.15490347f, -0.27144006f, -0.41461557f,
  -0.38209087f, 0.10448492f,  -0.77870554f, -0.34109142f, 0.12180608f,
  -0.51739585f, 0.15214671f,  0.18216138f,  -0.60293162f, 0.07863242f,
  0.23341142f,  0.23552197f,  -0.24962674f, 0.09630831f,  -0.16214885f,
  -0.95736039f, 0.98723376f,  -0.56259137f, -0.63168705f, -1.15824103f,
  -0.11198968f, -0.48225260f, -0.44605049f, -0.06404627f, -1.17989922f,
  0.71877307f,  0.80113125f,  -0.13292620f, -0.19398126f, -0.44929913f,
  -0.25038296f, -0.65488493f, 0.45194024f,  -0.25861922f, -0.84670752f,
  -0.09769706f, 0.13118848f,  -0.51836717f, -0.21462752f, -0.02333548f,
  -1.75826252f, -0.44508651f, -0.31514004f, 0.50745970f,  -0.31016439f,
  0.17869689f,  -0.57884532f, -0.66485071f, 0.60805583f,  0.24198355f,
  -1.07565486f, -0.01003525f, 0.28971702f,  -0.60639846f, -0.41248333f,
  0.15262894f,  -0.37199116f, -0.35022348f, 0.28946197f,  0.41152436f,
  0.07666059f,  0.23714916f,  -0.00249022f, -0.62162340f, -0.25508776f,
  0.98357940f,  -0.96351624f, -1.19809234f, -0.23205990f, -0.49616608f,
  -0.40853319f, 0.08299142f,  -2.11280966f, 0.47686058f,  0.24699792f,
  -0.25088254f, 0.98994201f,  -0.31690446f, -0.18695882f, -0.42353138f,
  -0.02178897f, -0.24786362f, -0.72855949f, -0.31671920f, 0.30770916f,
  -0.21182966f, 0.11305795f,  -0.49805292f, -0.47456124f, 0.11114141f,
  0.18700211f,  0.28652567f,  0.10557515f,  -0.40046850f, -0.49595836f,
  0.21208191f,  -0.17288822f, 0.14995119f,  -0.97175181f, -0.60418546f,
  0.08737515f,  -0.17623568f, -0.05522421f, 0.35846138f,  -0.14655459f,
  0.54770011f,  0.25756228f,  -0.09679443f, 0.22512916f,  -0.47952408f,
  -0.26725033f, -0.17282395f, -0.15974155f, 0.07696043f,  -0.77396536f,
  -0.90379065f, 0.17612988f,  -0.16098568f, 0.18754101f,  0.08787548f,
  -0.98179162f, -0.25316226f, 0.01782253f,  0.54779738f,  0.02693381f,
  -0.24543022f, -0.61251068f, -0.31402639f, -0.21069241f, 0.40707847f,
  -1.27510595f, -0.67979491f, 0.91559750f,  0.83426213f,  0.18929331f,
  0.83024657f,  1.32130206f,  0.66325706f,  -0.10323415f, -0.26893571f,
  -0.11743575f, 0.30544618f,  0.51819342f,  0.16571295f,  -0.48780698f,
  -0.16058028f, 0.40599430f,  -0.25810894f,
};

static const float intra_mode_layer1_bias[13] = {
  2.3043797f,   -1.76027834f, 0.67881256f,  -0.82173586f, -0.94971436f,
  -1.67242324f, 0.07546823f,  0.16665244f,  -1.35368752f, 0.96589732f,
  -0.87092787f, 0.33852971f,  -1.36344647f,
};

#endif  // INTRA_MODEL
#endif  // CONFIG_INTRA_ENTROPY

static const aom_cdf_prob default_angle_delta_cdf[DIRECTIONAL_MODES][CDF_SIZE(
    2 * MAX_ANGLE_DELTA + 1)] = {
  { AOM_CDF7(2180, 5032, 7567, 22776, 26989, 30217) },
  { AOM_CDF7(2301, 5608, 8801, 23487, 26974, 30330) },
  { AOM_CDF7(3780, 11018, 13699, 19354, 23083, 31286) },
  { AOM_CDF7(4581, 11226, 15147, 17138, 21834, 28397) },
  { AOM_CDF7(1737, 10927, 14509, 19588, 22745, 28823) },
  { AOM_CDF7(2664, 10176, 12485, 17650, 21600, 30495) },
  { AOM_CDF7(2240, 11096, 15453, 20341, 22561, 28917) },
  { AOM_CDF7(3605, 10428, 12459, 17676, 21244, 30655) }
};

static const aom_cdf_prob default_if_y_mode_cdf[BLOCK_SIZE_GROUPS][CDF_SIZE(
    INTRA_MODES)] = { { AOM_CDF13(22801, 23489, 24293, 24756, 25601, 26123,
                                  26606, 27418, 27945, 29228, 29685, 30349) },
                      { AOM_CDF13(18673, 19845, 22631, 23318, 23950, 24649,
                                  25527, 27364, 28152, 29701, 29984, 30852) },
                      { AOM_CDF13(19770, 20979, 23396, 23939, 24241, 24654,
                                  25136, 27073, 27830, 29360, 29730, 30659) },
                      { AOM_CDF13(20155, 21301, 22838, 23178, 23261, 23533,
                                  23703, 24804, 25352, 26575, 27016, 28049) } };

static const aom_cdf_prob
    default_uv_mode_cdf[CFL_ALLOWED_TYPES][INTRA_MODES][CDF_SIZE(
        UV_INTRA_MODES)] = {
      { { AOM_CDF13(22631, 24152, 25378, 25661, 25986, 26520, 27055, 27923,
                    28244, 30059, 30941, 31961) },
        { AOM_CDF13(9513, 26881, 26973, 27046, 27118, 27664, 27739, 27824,
                    28359, 29505, 29800, 31796) },
        { AOM_CDF13(9845, 9915, 28663, 28704, 28757, 28780, 29198, 29822, 29854,
                    30764, 31777, 32029) },
        { AOM_CDF13(13639, 13897, 14171, 25331, 25606, 25727, 25953, 27148,
                    28577, 30612, 31355, 32493) },
        { AOM_CDF13(9764, 9835, 9930, 9954, 25386, 27053, 27958, 28148, 28243,
                    31101, 31744, 32363) },
        { AOM_CDF13(11825, 13589, 13677, 13720, 15048, 29213, 29301, 29458,
                    29711, 31161, 31441, 32550) },
        { AOM_CDF13(14175, 14399, 16608, 16821, 17718, 17775, 28551, 30200,
                    30245, 31837, 32342, 32667) },
        { AOM_CDF13(12885, 13038, 14978, 15590, 15673, 15748, 16176, 29128,
                    29267, 30643, 31961, 32461) },
        { AOM_CDF13(12026, 13661, 13874, 15305, 15490, 15726, 15995, 16273,
                    28443, 30388, 30767, 32416) },
        { AOM_CDF13(19052, 19840, 20579, 20916, 21150, 21467, 21885, 22719,
                    23174, 28861, 30379, 32175) },
        { AOM_CDF13(18627, 19649, 20974, 21219, 21492, 21816, 22199, 23119,
                    23527, 27053, 31397, 32148) },
        { AOM_CDF13(17026, 19004, 19997, 20339, 20586, 21103, 21349, 21907,
                    22482, 25896, 26541, 31819) },
        { AOM_CDF13(12124, 13759, 14959, 14992, 15007, 15051, 15078, 15166,
                    15255, 15753, 16039, 16606) } },
      { { AOM_CDF14(10407, 11208, 12900, 13181, 13823, 14175, 14899, 15656,
                    15986, 20086, 20995, 22455, 24212) },
        { AOM_CDF14(4532, 19780, 20057, 20215, 20428, 21071, 21199, 21451,
                    22099, 24228, 24693, 27032, 29472) },
        { AOM_CDF14(5273, 5379, 20177, 20270, 20385, 20439, 20949, 21695, 21774,
                    23138, 24256, 24703, 26679) },
        { AOM_CDF14(6740, 7167, 7662, 14152, 14536, 14785, 15034, 16741, 18371,
                    21520, 22206, 23389, 24182) },
        { AOM_CDF14(4987, 5368, 5928, 6068, 19114, 20315, 21857, 22253, 22411,
                    24911, 25380, 26027, 26376) },
        { AOM_CDF14(5370, 6889, 7247, 7393, 9498, 21114, 21402, 21753, 21981,
                    24780, 25386, 26517, 27176) },
        { AOM_CDF14(4816, 4961, 7204, 7326, 8765, 8930, 20169, 20682, 20803,
                    23188, 23763, 24455, 24940) },
        { AOM_CDF14(6608, 6740, 8529, 9049, 9257, 9356, 9735, 18827, 19059,
                    22336, 23204, 23964, 24793) },
        { AOM_CDF14(5998, 7419, 7781, 8933, 9255, 9549, 9753, 10417, 18898,
                    22494, 23139, 24764, 25989) },
        { AOM_CDF14(10660, 11298, 12550, 12957, 13322, 13624, 14040, 15004,
                    15534, 20714, 21789, 23443, 24861) },
        { AOM_CDF14(10522, 11530, 12552, 12963, 13378, 13779, 14245, 15235,
                    15902, 20102, 22696, 23774, 25838) },
        { AOM_CDF14(10099, 10691, 12639, 13049, 13386, 13665, 14125, 15163,
                    15636, 19676, 20474, 23519, 25208) },
        { AOM_CDF14(3144, 5087, 7382, 7504, 7593, 7690, 7801, 8064, 8232, 9248,
                    9875, 10521, 29048) } }
    };

static const aom_cdf_prob default_partition_cdf[PARTITION_CONTEXTS][CDF_SIZE(
    EXT_PARTITION_TYPES)] = {
  { AOM_CDF4(19132, 25510, 30392) },
  { AOM_CDF4(13928, 19855, 28540) },
  { AOM_CDF4(12522, 23679, 28629) },
  { AOM_CDF4(9896, 18783, 25853) },
  { AOM_CDF10(15597, 20929, 24571, 26706, 27664, 28821, 29601, 30571, 31902) },
  { AOM_CDF10(7925, 11043, 16785, 22470, 23971, 25043, 26651, 28701, 29834) },
  { AOM_CDF10(5414, 13269, 15111, 20488, 22360, 24500, 25537, 26336, 32117) },
  { AOM_CDF10(2662, 6362, 8614, 20860, 23053, 24778, 26436, 27829, 31171) },
  { AOM_CDF10(18462, 20920, 23124, 27647, 28227, 29049, 29519, 30178, 31544) },
  { AOM_CDF10(7689, 9060, 12056, 24992, 25660, 26182, 26951, 28041, 29052) },
  { AOM_CDF10(6015, 9009, 10062, 24544, 25409, 26545, 27071, 27526, 32047) },
  { AOM_CDF10(1394, 2208, 2796, 28614, 29061, 29466, 29840, 30185, 31899) },
  { AOM_CDF10(20137, 21547, 23078, 29566, 29837, 30261, 30524, 30892, 31724) },
  { AOM_CDF10(6732, 7490, 9497, 27944, 28250, 28515, 28969, 29630, 30104) },
  { AOM_CDF10(5945, 7663, 8348, 28683, 29117, 29749, 30064, 30298, 32238) },
  { AOM_CDF10(870, 1212, 1487, 31198, 31394, 31574, 31743, 31881, 32332) },
  { AOM_CDF8(27899, 28219, 28529, 32484, 32539, 32619, 32639) },
  { AOM_CDF8(6607, 6990, 8268, 32060, 32219, 32338, 32371) },
  { AOM_CDF8(5429, 6676, 7122, 32027, 32227, 32531, 32582) },
  { AOM_CDF8(711, 966, 1172, 32448, 32538, 32617, 32664) },
};

#if CONFIG_MODE_DEP_TX
static const aom_cdf_prob default_intra_ext_tx_cdf
    [EXT_TX_SETS_INTRA][EXT_TX_SIZES][INTRA_MODES]
    [CDF_SIZE(TX_TYPES_NOMDTX)] = {
#else
static const aom_cdf_prob default_intra_ext_tx_cdf
    [EXT_TX_SETS_INTRA][EXT_TX_SIZES][INTRA_MODES][CDF_SIZE(TX_TYPES)] = {
#endif
      {
          {
              { 0 },
              { 0 },
              { 0 },
              { 0 },
              { 0 },
              { 0 },
              { 0 },
              { 0 },
              { 0 },
              { 0 },
              { 0 },
              { 0 },
              { 0 },
          },
          {
              { 0 },
              { 0 },
              { 0 },
              { 0 },
              { 0 },
              { 0 },
              { 0 },
              { 0 },
              { 0 },
              { 0 },
              { 0 },
              { 0 },
              { 0 },
          },
          {
              { 0 },
              { 0 },
              { 0 },
              { 0 },
              { 0 },
              { 0 },
              { 0 },
              { 0 },
              { 0 },
              { 0 },
              { 0 },
              { 0 },
              { 0 },
          },
          {
              { 0 },
              { 0 },
              { 0 },
              { 0 },
              { 0 },
              { 0 },
              { 0 },
              { 0 },
              { 0 },
              { 0 },
              { 0 },
              { 0 },
              { 0 },
          },
      },
      {
          {
              { AOM_CDF7(1535, 8035, 9461, 12751, 23467, 27825) },
              { AOM_CDF7(564, 3335, 9709, 10870, 18143, 28094) },
              { AOM_CDF7(672, 3247, 3676, 11982, 19415, 23127) },
              { AOM_CDF7(5279, 13885, 15487, 18044, 23527, 30252) },
              { AOM_CDF7(4423, 6074, 7985, 10416, 25693, 29298) },
              { AOM_CDF7(1486, 4241, 9460, 10662, 16456, 27694) },
              { AOM_CDF7(439, 2838, 3522, 6737, 18058, 23754) },
              { AOM_CDF7(1190, 4233, 4855, 11670, 20281, 24377) },
              { AOM_CDF7(1045, 4312, 8647, 10159, 18644, 29335) },
              { AOM_CDF7(202, 3734, 4747, 7298, 17127, 24016) },
              { AOM_CDF7(447, 4312, 6819, 8884, 16010, 23858) },
              { AOM_CDF7(277, 4369, 5255, 8905, 16465, 22271) },
              { AOM_CDF7(3409, 5436, 10599, 15599, 19687, 24040) },
          },
          {
              { AOM_CDF7(1870, 13742, 14530, 16498, 23770, 27698) },
              { AOM_CDF7(326, 8796, 14632, 15079, 19272, 27486) },
              { AOM_CDF7(484, 7576, 7712, 14443, 19159, 22591) },
              { AOM_CDF7(1126, 15340, 15895, 17023, 20896, 30279) },
              { AOM_CDF7(655, 4854, 5249, 5913, 22099, 27138) },
              { AOM_CDF7(1299, 6458, 8885, 9290, 14851, 25497) },
              { AOM_CDF7(311, 5295, 5552, 6885, 16107, 22672) },
              { AOM_CDF7(883, 8059, 8270, 11258, 17289, 21549) },
              { AOM_CDF7(741, 7580, 9318, 10345, 16688, 29046) },
              { AOM_CDF7(110, 7406, 7915, 9195, 16041, 23329) },
              { AOM_CDF7(363, 7974, 9357, 10673, 15629, 24474) },
              { AOM_CDF7(153, 7647, 8112, 9936, 15307, 19996) },
              { AOM_CDF7(3511, 6332, 11165, 15335, 19323, 23594) },
          },
          {
              { AOM_CDF7(4681, 9362, 14043, 18725, 23406, 28087) },
              { AOM_CDF7(4681, 9362, 14043, 18725, 23406, 28087) },
              { AOM_CDF7(4681, 9362, 14043, 18725, 23406, 28087) },
              { AOM_CDF7(4681, 9362, 14043, 18725, 23406, 28087) },
              { AOM_CDF7(4681, 9362, 14043, 18725, 23406, 28087) },
              { AOM_CDF7(4681, 9362, 14043, 18725, 23406, 28087) },
              { AOM_CDF7(4681, 9362, 14043, 18725, 23406, 28087) },
              { AOM_CDF7(4681, 9362, 14043, 18725, 23406, 28087) },
              { AOM_CDF7(4681, 9362, 14043, 18725, 23406, 28087) },
              { AOM_CDF7(4681, 9362, 14043, 18725, 23406, 28087) },
              { AOM_CDF7(4681, 9362, 14043, 18725, 23406, 28087) },
              { AOM_CDF7(4681, 9362, 14043, 18725, 23406, 28087) },
              { AOM_CDF7(4681, 9362, 14043, 18725, 23406, 28087) },
          },
          {
              { AOM_CDF7(4681, 9362, 14043, 18725, 23406, 28087) },
              { AOM_CDF7(4681, 9362, 14043, 18725, 23406, 28087) },
              { AOM_CDF7(4681, 9362, 14043, 18725, 23406, 28087) },
              { AOM_CDF7(4681, 9362, 14043, 18725, 23406, 28087) },
              { AOM_CDF7(4681, 9362, 14043, 18725, 23406, 28087) },
              { AOM_CDF7(4681, 9362, 14043, 18725, 23406, 28087) },
              { AOM_CDF7(4681, 9362, 14043, 18725, 23406, 28087) },
              { AOM_CDF7(4681, 9362, 14043, 18725, 23406, 28087) },
              { AOM_CDF7(4681, 9362, 14043, 18725, 23406, 28087) },
              { AOM_CDF7(4681, 9362, 14043, 18725, 23406, 28087) },
              { AOM_CDF7(4681, 9362, 14043, 18725, 23406, 28087) },
              { AOM_CDF7(4681, 9362, 14043, 18725, 23406, 28087) },
              { AOM_CDF7(4681, 9362, 14043, 18725, 23406, 28087) },
          },
      },
      {
          {
              { AOM_CDF5(6554, 13107, 19661, 26214) },
              { AOM_CDF5(6554, 13107, 19661, 26214) },
              { AOM_CDF5(6554, 13107, 19661, 26214) },
              { AOM_CDF5(6554, 13107, 19661, 26214) },
              { AOM_CDF5(6554, 13107, 19661, 26214) },
              { AOM_CDF5(6554, 13107, 19661, 26214) },
              { AOM_CDF5(6554, 13107, 19661, 26214) },
              { AOM_CDF5(6554, 13107, 19661, 26214) },
              { AOM_CDF5(6554, 13107, 19661, 26214) },
              { AOM_CDF5(6554, 13107, 19661, 26214) },
              { AOM_CDF5(6554, 13107, 19661, 26214) },
              { AOM_CDF5(6554, 13107, 19661, 26214) },
              { AOM_CDF5(6554, 13107, 19661, 26214) },
          },
          {
              { AOM_CDF5(6554, 13107, 19661, 26214) },
              { AOM_CDF5(6554, 13107, 19661, 26214) },
              { AOM_CDF5(6554, 13107, 19661, 26214) },
              { AOM_CDF5(6554, 13107, 19661, 26214) },
              { AOM_CDF5(6554, 13107, 19661, 26214) },
              { AOM_CDF5(6554, 13107, 19661, 26214) },
              { AOM_CDF5(6554, 13107, 19661, 26214) },
              { AOM_CDF5(6554, 13107, 19661, 26214) },
              { AOM_CDF5(6554, 13107, 19661, 26214) },
              { AOM_CDF5(6554, 13107, 19661, 26214) },
              { AOM_CDF5(6554, 13107, 19661, 26214) },
              { AOM_CDF5(6554, 13107, 19661, 26214) },
              { AOM_CDF5(6554, 13107, 19661, 26214) },
          },
          {
              { AOM_CDF5(1127, 12814, 22772, 27483) },
              { AOM_CDF5(145, 6761, 11980, 26667) },
              { AOM_CDF5(362, 5887, 11678, 16725) },
              { AOM_CDF5(385, 15213, 18587, 30693) },
              { AOM_CDF5(25, 2914, 23134, 27903) },
              { AOM_CDF5(60, 4470, 11749, 23991) },
              { AOM_CDF5(37, 3332, 14511, 21448) },
              { AOM_CDF5(157, 6320, 13036, 17439) },
              { AOM_CDF5(119, 6719, 12906, 29396) },
              { AOM_CDF5(47, 5537, 12576, 21499) },
              { AOM_CDF5(269, 6076, 11258, 23115) },
              { AOM_CDF5(83, 5615, 12001, 17228) },
              { AOM_CDF5(1968, 5556, 12023, 18547) },
          },
          {
              { AOM_CDF5(6554, 13107, 19661, 26214) },
              { AOM_CDF5(6554, 13107, 19661, 26214) },
              { AOM_CDF5(6554, 13107, 19661, 26214) },
              { AOM_CDF5(6554, 13107, 19661, 26214) },
              { AOM_CDF5(6554, 13107, 19661, 26214) },
              { AOM_CDF5(6554, 13107, 19661, 26214) },
              { AOM_CDF5(6554, 13107, 19661, 26214) },
              { AOM_CDF5(6554, 13107, 19661, 26214) },
              { AOM_CDF5(6554, 13107, 19661, 26214) },
              { AOM_CDF5(6554, 13107, 19661, 26214) },
              { AOM_CDF5(6554, 13107, 19661, 26214) },
              { AOM_CDF5(6554, 13107, 19661, 26214) },
              { AOM_CDF5(6554, 13107, 19661, 26214) },
          },
      },
    };

#if CONFIG_MODE_DEP_TX
static const aom_cdf_prob
    default_inter_ext_tx_cdf[EXT_TX_SETS_INTER][EXT_TX_SIZES][CDF_SIZE(
        TX_TYPES_NOMDTX)] = {
#else
static const aom_cdf_prob
    default_inter_ext_tx_cdf[EXT_TX_SETS_INTER][EXT_TX_SIZES][CDF_SIZE(
        TX_TYPES)] = {
#endif
      {
          { 0 },
          { 0 },
          { 0 },
          { 0 },
      },
      {
          { AOM_CDF16(4458, 5560, 7695, 9709, 13330, 14789, 17537, 20266, 21504,
                      22848, 23934, 25474, 27727, 28915, 30631) },
          { AOM_CDF16(1645, 2573, 4778, 5711, 7807, 8622, 10522, 15357, 17674,
                      20408, 22517, 25010, 27116, 28856, 30749) },
          { AOM_CDF16(2048, 4096, 6144, 8192, 10240, 12288, 14336, 16384, 18432,
                      20480, 22528, 24576, 26624, 28672, 30720) },
          { AOM_CDF16(2048, 4096, 6144, 8192, 10240, 12288, 14336, 16384, 18432,
                      20480, 22528, 24576, 26624, 28672, 30720) },
      },
      {
          { AOM_CDF12(2731, 5461, 8192, 10923, 13653, 16384, 19115, 21845,
                      24576, 27307, 30037) },
          { AOM_CDF12(2731, 5461, 8192, 10923, 13653, 16384, 19115, 21845,
                      24576, 27307, 30037) },
          { AOM_CDF12(770, 2421, 5225, 12907, 15819, 18927, 21561, 24089, 26595,
                      28526, 30529) },
          { AOM_CDF12(2731, 5461, 8192, 10923, 13653, 16384, 19115, 21845,
                      24576, 27307, 30037) },
      },
      {
          { AOM_CDF2(16384) },
          { AOM_CDF2(4167) },
          { AOM_CDF2(1998) },
          { AOM_CDF2(748) },
      },
    };

#if CONFIG_MODE_DEP_TX
#if USE_MDTX_INTER
static const aom_cdf_prob
    default_mdtx_type_inter_cdf[EXT_TX_SIZES][CDF_SIZE(MDTX_TYPES_INTER)] = {
      { AOM_CDF8(4096, 8192, 12288, 16384, 20480, 24576, 28672) },
      { AOM_CDF8(4096, 8192, 12288, 16384, 20480, 24576, 28672) },
      { AOM_CDF8(4096, 8192, 12288, 16384, 20480, 24576, 28672) },
      { AOM_CDF8(4096, 8192, 12288, 16384, 20480, 24576, 28672) },
    };

static const aom_cdf_prob default_use_mdtx_inter_cdf[EXT_TX_SIZES]
                                                    [CDF_SIZE(2)] = {
                                                      { AOM_CDF2(16384) },
                                                      { AOM_CDF2(16384) },
                                                      { AOM_CDF2(16384) },
                                                      { AOM_CDF2(16384) },
                                                    };
#endif  // USE_MDTX_INTER
#if USE_MDTX_INTRA
static const aom_cdf_prob
    default_mdtx_type_intra_cdf[EXT_TX_SIZES][INTRA_MODES]
                               [CDF_SIZE(MDTX_TYPES_INTRA)] = {
                                 {
                                     { AOM_CDF3(10923, 21845) },
                                     { AOM_CDF3(10923, 21845) },
                                     { AOM_CDF3(10923, 21845) },
                                     { AOM_CDF3(10923, 21845) },
                                     { AOM_CDF3(10923, 21845) },
                                     { AOM_CDF3(10923, 21845) },
                                     { AOM_CDF3(10923, 21845) },
                                     { AOM_CDF3(10923, 21845) },
                                     { AOM_CDF3(10923, 21845) },
                                     { AOM_CDF3(10923, 21845) },
                                     { AOM_CDF3(10923, 21845) },
                                     { AOM_CDF3(10923, 21845) },
                                     { AOM_CDF3(10923, 21845) },
                                 },
                                 {
                                     { AOM_CDF3(10923, 21845) },
                                     { AOM_CDF3(10923, 21845) },
                                     { AOM_CDF3(10923, 21845) },
                                     { AOM_CDF3(10923, 21845) },
                                     { AOM_CDF3(10923, 21845) },
                                     { AOM_CDF3(10923, 21845) },
                                     { AOM_CDF3(10923, 21845) },
                                     { AOM_CDF3(10923, 21845) },
                                     { AOM_CDF3(10923, 21845) },
                                     { AOM_CDF3(10923, 21845) },
                                     { AOM_CDF3(10923, 21845) },
                                     { AOM_CDF3(10923, 21845) },
                                     { AOM_CDF3(10923, 21845) },
                                 },
                                 {
                                     { AOM_CDF3(10923, 21845) },
                                     { AOM_CDF3(10923, 21845) },
                                     { AOM_CDF3(10923, 21845) },
                                     { AOM_CDF3(10923, 21845) },
                                     { AOM_CDF3(10923, 21845) },
                                     { AOM_CDF3(10923, 21845) },
                                     { AOM_CDF3(10923, 21845) },
                                     { AOM_CDF3(10923, 21845) },
                                     { AOM_CDF3(10923, 21845) },
                                     { AOM_CDF3(10923, 21845) },
                                     { AOM_CDF3(10923, 21845) },
                                     { AOM_CDF3(10923, 21845) },
                                     { AOM_CDF3(10923, 21845) },
                                 },
                                 {
                                     { AOM_CDF3(10923, 21845) },
                                     { AOM_CDF3(10923, 21845) },
                                     { AOM_CDF3(10923, 21845) },
                                     { AOM_CDF3(10923, 21845) },
                                     { AOM_CDF3(10923, 21845) },
                                     { AOM_CDF3(10923, 21845) },
                                     { AOM_CDF3(10923, 21845) },
                                     { AOM_CDF3(10923, 21845) },
                                     { AOM_CDF3(10923, 21845) },
                                     { AOM_CDF3(10923, 21845) },
                                     { AOM_CDF3(10923, 21845) },
                                     { AOM_CDF3(10923, 21845) },
                                     { AOM_CDF3(10923, 21845) },
                                 },
                               };

static const aom_cdf_prob default_use_mdtx_intra_cdf[EXT_TX_SIZES][INTRA_MODES]
                                                    [CDF_SIZE(2)] = {
                                                      {
                                                          { AOM_CDF2(16384) },
                                                          { AOM_CDF2(16384) },
                                                          { AOM_CDF2(16384) },
                                                          { AOM_CDF2(16384) },
                                                          { AOM_CDF2(16384) },
                                                          { AOM_CDF2(16384) },
                                                          { AOM_CDF2(16384) },
                                                          { AOM_CDF2(16384) },
                                                          { AOM_CDF2(16384) },
                                                          { AOM_CDF2(16384) },
                                                          { AOM_CDF2(16384) },
                                                          { AOM_CDF2(16384) },
                                                          { AOM_CDF2(16384) },
                                                      },
                                                      {
                                                          { AOM_CDF2(16384) },
                                                          { AOM_CDF2(16384) },
                                                          { AOM_CDF2(16384) },
                                                          { AOM_CDF2(16384) },
                                                          { AOM_CDF2(16384) },
                                                          { AOM_CDF2(16384) },
                                                          { AOM_CDF2(16384) },
                                                          { AOM_CDF2(16384) },
                                                          { AOM_CDF2(16384) },
                                                          { AOM_CDF2(16384) },
                                                          { AOM_CDF2(16384) },
                                                          { AOM_CDF2(16384) },
                                                          { AOM_CDF2(16384) },
                                                      },
                                                      {
                                                          { AOM_CDF2(16384) },
                                                          { AOM_CDF2(16384) },
                                                          { AOM_CDF2(16384) },
                                                          { AOM_CDF2(16384) },
                                                          { AOM_CDF2(16384) },
                                                          { AOM_CDF2(16384) },
                                                          { AOM_CDF2(16384) },
                                                          { AOM_CDF2(16384) },
                                                          { AOM_CDF2(16384) },
                                                          { AOM_CDF2(16384) },
                                                          { AOM_CDF2(16384) },
                                                          { AOM_CDF2(16384) },
                                                          { AOM_CDF2(16384) },
                                                      },
                                                      {
                                                          { AOM_CDF2(16384) },
                                                          { AOM_CDF2(16384) },
                                                          { AOM_CDF2(16384) },
                                                          { AOM_CDF2(16384) },
                                                          { AOM_CDF2(16384) },
                                                          { AOM_CDF2(16384) },
                                                          { AOM_CDF2(16384) },
                                                          { AOM_CDF2(16384) },
                                                          { AOM_CDF2(16384) },
                                                          { AOM_CDF2(16384) },
                                                          { AOM_CDF2(16384) },
                                                          { AOM_CDF2(16384) },
                                                          { AOM_CDF2(16384) },
                                                      }
                                                    };
#endif  // USE_MDTX_INTRA
#endif

static const aom_cdf_prob default_cfl_sign_cdf[CDF_SIZE(CFL_JOINT_SIGNS)] = {
  AOM_CDF8(1418, 2123, 13340, 18405, 26972, 28343, 32294)
};

static const aom_cdf_prob
    default_cfl_alpha_cdf[CFL_ALPHA_CONTEXTS][CDF_SIZE(CFL_ALPHABET_SIZE)] = {
      { AOM_CDF16(7637, 20719, 31401, 32481, 32657, 32688, 32692, 32696, 32700,
                  32704, 32708, 32712, 32716, 32720, 32724) },
      { AOM_CDF16(14365, 23603, 28135, 31168, 32167, 32395, 32487, 32573, 32620,
                  32647, 32668, 32672, 32676, 32680, 32684) },
      { AOM_CDF16(11532, 22380, 28445, 31360, 32349, 32523, 32584, 32649, 32673,
                  32677, 32681, 32685, 32689, 32693, 32697) },
      { AOM_CDF16(26990, 31402, 32282, 32571, 32692, 32696, 32700, 32704, 32708,
                  32712, 32716, 32720, 32724, 32728, 32732) },
      { AOM_CDF16(17248, 26058, 28904, 30608, 31305, 31877, 32126, 32321, 32394,
                  32464, 32516, 32560, 32576, 32593, 32622) },
      { AOM_CDF16(14738, 21678, 25779, 27901, 29024, 30302, 30980, 31843, 32144,
                  32413, 32520, 32594, 32622, 32656, 32660) }
    };

static const aom_cdf_prob
    default_switchable_interp_cdf[SWITCHABLE_FILTER_CONTEXTS][CDF_SIZE(
        SWITCHABLE_FILTERS)] = {
      { AOM_CDF3(31935, 32720) }, { AOM_CDF3(5568, 32719) },
      { AOM_CDF3(422, 2938) },    { AOM_CDF3(28244, 32608) },
      { AOM_CDF3(31206, 31953) }, { AOM_CDF3(4862, 32121) },
      { AOM_CDF3(770, 1152) },    { AOM_CDF3(20889, 25637) },
      { AOM_CDF3(31910, 32724) }, { AOM_CDF3(4120, 32712) },
      { AOM_CDF3(305, 2247) },    { AOM_CDF3(27403, 32636) },
      { AOM_CDF3(31022, 32009) }, { AOM_CDF3(2963, 32093) },
      { AOM_CDF3(601, 943) },     { AOM_CDF3(14969, 21398) }
    };

static const aom_cdf_prob default_newmv_cdf[NEWMV_MODE_CONTEXTS][CDF_SIZE(
    2)] = { { AOM_CDF2(24035) }, { AOM_CDF2(16630) }, { AOM_CDF2(15339) },
            { AOM_CDF2(8386) },  { AOM_CDF2(12222) }, { AOM_CDF2(4676) } };

static const aom_cdf_prob default_zeromv_cdf[GLOBALMV_MODE_CONTEXTS][CDF_SIZE(
    2)] = { { AOM_CDF2(2175) }, { AOM_CDF2(1054) } };

static const aom_cdf_prob default_refmv_cdf[REFMV_MODE_CONTEXTS][CDF_SIZE(
    2)] = { { AOM_CDF2(23974) }, { AOM_CDF2(24188) }, { AOM_CDF2(17848) },
            { AOM_CDF2(28622) }, { AOM_CDF2(24312) }, { AOM_CDF2(19923) } };

static const aom_cdf_prob default_drl_cdf[DRL_MODE_CONTEXTS][CDF_SIZE(2)] = {
  { AOM_CDF2(13104) }, { AOM_CDF2(24560) }, { AOM_CDF2(18945) }
};

static const aom_cdf_prob
    default_inter_compound_mode_cdf[INTER_MODE_CONTEXTS][CDF_SIZE(
        INTER_COMPOUND_MODES)] = {
      { AOM_CDF8(7760, 13823, 15808, 17641, 19156, 20666, 26891) },
      { AOM_CDF8(10730, 19452, 21145, 22749, 24039, 25131, 28724) },
      { AOM_CDF8(10664, 20221, 21588, 22906, 24295, 25387, 28436) },
      { AOM_CDF8(13298, 16984, 20471, 24182, 25067, 25736, 26422) },
      { AOM_CDF8(18904, 23325, 25242, 27432, 27898, 28258, 30758) },
      { AOM_CDF8(10725, 17454, 20124, 22820, 24195, 25168, 26046) },
      { AOM_CDF8(17125, 24273, 25814, 27492, 28214, 28704, 30592) },
      { AOM_CDF8(13046, 23214, 24505, 25942, 27435, 28442, 29330) }
    };

static const aom_cdf_prob default_interintra_cdf[BLOCK_SIZE_GROUPS][CDF_SIZE(
    2)] = { { AOM_CDF2(16384) },
            { AOM_CDF2(26887) },
            { AOM_CDF2(27597) },
            { AOM_CDF2(30237) } };

static const aom_cdf_prob
    default_interintra_mode_cdf[BLOCK_SIZE_GROUPS][CDF_SIZE(
        INTERINTRA_MODES)] = { { AOM_CDF4(8192, 16384, 24576) },
                               { AOM_CDF4(1875, 11082, 27332) },
                               { AOM_CDF4(2473, 9996, 26388) },
                               { AOM_CDF4(4238, 11537, 25926) } };

static const aom_cdf_prob
    default_wedge_interintra_cdf[BLOCK_SIZES_ALL][CDF_SIZE(2)] = {
      { AOM_CDF2(16384) }, { AOM_CDF2(16384) }, { AOM_CDF2(16384) },
      { AOM_CDF2(20036) }, { AOM_CDF2(24957) }, { AOM_CDF2(26704) },
      { AOM_CDF2(27530) }, { AOM_CDF2(29564) }, { AOM_CDF2(29444) },
      { AOM_CDF2(26872) }, { AOM_CDF2(16384) }, { AOM_CDF2(16384) },
      { AOM_CDF2(16384) }, { AOM_CDF2(16384) }, { AOM_CDF2(16384) },
      { AOM_CDF2(16384) }, { AOM_CDF2(16384) }, { AOM_CDF2(16384) },
      { AOM_CDF2(16384) }, { AOM_CDF2(16384) }, { AOM_CDF2(16384) },
      { AOM_CDF2(16384) },
#if CONFIG_FLEX_PARTITION
      { AOM_CDF2(16384) }, { AOM_CDF2(16384) }, { AOM_CDF2(16384) },
      { AOM_CDF2(16384) }, { AOM_CDF2(16384) }, { AOM_CDF2(16384) },
#endif  // CONFIG_FLEX_PARTITION
    };

static const aom_cdf_prob default_compound_type_cdf[BLOCK_SIZES_ALL][CDF_SIZE(
    MASKED_COMPOUND_TYPES)] = {
  { AOM_CDF2(16384) }, { AOM_CDF2(16384) }, { AOM_CDF2(16384) },
  { AOM_CDF2(23431) }, { AOM_CDF2(13171) }, { AOM_CDF2(11470) },
  { AOM_CDF2(9770) },  { AOM_CDF2(9100) },  { AOM_CDF2(8233) },
  { AOM_CDF2(6172) },  { AOM_CDF2(16384) }, { AOM_CDF2(16384) },
  { AOM_CDF2(16384) }, { AOM_CDF2(16384) }, { AOM_CDF2(16384) },
  { AOM_CDF2(16384) }, { AOM_CDF2(16384) }, { AOM_CDF2(16384) },
  { AOM_CDF2(11820) }, { AOM_CDF2(7701) },  { AOM_CDF2(16384) },
  { AOM_CDF2(16384) },
#if CONFIG_FLEX_PARTITION
  { AOM_CDF2(16384) }, { AOM_CDF2(16384) }, { AOM_CDF2(16384) },
  { AOM_CDF2(16384) }, { AOM_CDF2(16384) }, { AOM_CDF2(16384) },
#endif  // CONFIG_FLEX_PARTITION
};

static const aom_cdf_prob
    default_wedge_idx_cdf[BLOCK_SIZES_ALL][CDF_SIZE(16)] = {
      { AOM_CDF16(2048, 4096, 6144, 8192, 10240, 12288, 14336, 16384, 18432,
                  20480, 22528, 24576, 26624, 28672, 30720) },
      { AOM_CDF16(2048, 4096, 6144, 8192, 10240, 12288, 14336, 16384, 18432,
                  20480, 22528, 24576, 26624, 28672, 30720) },
      { AOM_CDF16(2048, 4096, 6144, 8192, 10240, 12288, 14336, 16384, 18432,
                  20480, 22528, 24576, 26624, 28672, 30720) },
      { AOM_CDF16(2438, 4440, 6599, 8663, 11005, 12874, 15751, 18094, 20359,
                  22362, 24127, 25702, 27752, 29450, 31171) },
      { AOM_CDF16(806, 3266, 6005, 6738, 7218, 7367, 7771, 14588, 16323, 17367,
                  18452, 19422, 22839, 26127, 29629) },
      { AOM_CDF16(2779, 3738, 4683, 7213, 7775, 8017, 8655, 14357, 17939, 21332,
                  24520, 27470, 29456, 30529, 31656) },
      { AOM_CDF16(1684, 3625, 5675, 7108, 9302, 11274, 14429, 17144, 19163,
                  20961, 22884, 24471, 26719, 28714, 30877) },
      { AOM_CDF16(1142, 3491, 6277, 7314, 8089, 8355, 9023, 13624, 15369, 16730,
                  18114, 19313, 22521, 26012, 29550) },
      { AOM_CDF16(2742, 4195, 5727, 8035, 8980, 9336, 10146, 14124, 17270,
                  20533, 23434, 25972, 27944, 29570, 31416) },
      { AOM_CDF16(1727, 3948, 6101, 7796, 9841, 12344, 15766, 18944, 20638,
                  22038, 23963, 25311, 26988, 28766, 31012) },
      { AOM_CDF16(2048, 4096, 6144, 8192, 10240, 12288, 14336, 16384, 18432,
                  20480, 22528, 24576, 26624, 28672, 30720) },
      { AOM_CDF16(2048, 4096, 6144, 8192, 10240, 12288, 14336, 16384, 18432,
                  20480, 22528, 24576, 26624, 28672, 30720) },
      { AOM_CDF16(2048, 4096, 6144, 8192, 10240, 12288, 14336, 16384, 18432,
                  20480, 22528, 24576, 26624, 28672, 30720) },
      { AOM_CDF16(2048, 4096, 6144, 8192, 10240, 12288, 14336, 16384, 18432,
                  20480, 22528, 24576, 26624, 28672, 30720) },
      { AOM_CDF16(2048, 4096, 6144, 8192, 10240, 12288, 14336, 16384, 18432,
                  20480, 22528, 24576, 26624, 28672, 30720) },
      { AOM_CDF16(2048, 4096, 6144, 8192, 10240, 12288, 14336, 16384, 18432,
                  20480, 22528, 24576, 26624, 28672, 30720) },
      { AOM_CDF16(2048, 4096, 6144, 8192, 10240, 12288, 14336, 16384, 18432,
                  20480, 22528, 24576, 26624, 28672, 30720) },
      { AOM_CDF16(2048, 4096, 6144, 8192, 10240, 12288, 14336, 16384, 18432,
                  20480, 22528, 24576, 26624, 28672, 30720) },
      { AOM_CDF16(154, 987, 1925, 2051, 2088, 2111, 2151, 23033, 23703, 24284,
                  24985, 25684, 27259, 28883, 30911) },
      { AOM_CDF16(1135, 1322, 1493, 2635, 2696, 2737, 2770, 21016, 22935, 25057,
                  27251, 29173, 30089, 30960, 31933) },
      { AOM_CDF16(2048, 4096, 6144, 8192, 10240, 12288, 14336, 16384, 18432,
                  20480, 22528, 24576, 26624, 28672, 30720) },
      { AOM_CDF16(2048, 4096, 6144, 8192, 10240, 12288, 14336, 16384, 18432,
                  20480, 22528, 24576, 26624, 28672, 30720) },
#if CONFIG_FLEX_PARTITION
      { AOM_CDF16(2048, 4096, 6144, 8192, 10240, 12288, 14336, 16384, 18432,
                  20480, 22528, 24576, 26624, 28672, 30720) },
      { AOM_CDF16(2048, 4096, 6144, 8192, 10240, 12288, 14336, 16384, 18432,
                  20480, 22528, 24576, 26624, 28672, 30720) },
      { AOM_CDF16(2048, 4096, 6144, 8192, 10240, 12288, 14336, 16384, 18432,
                  20480, 22528, 24576, 26624, 28672, 30720) },
      { AOM_CDF16(2048, 4096, 6144, 8192, 10240, 12288, 14336, 16384, 18432,
                  20480, 22528, 24576, 26624, 28672, 30720) },
      { AOM_CDF16(2048, 4096, 6144, 8192, 10240, 12288, 14336, 16384, 18432,
                  20480, 22528, 24576, 26624, 28672, 30720) },
      { AOM_CDF16(2048, 4096, 6144, 8192, 10240, 12288, 14336, 16384, 18432,
                  20480, 22528, 24576, 26624, 28672, 30720) },
#endif  // CONFIG_FLEX_PARTITION
    };

static const aom_cdf_prob
    default_motion_mode_cdf[BLOCK_SIZES_ALL][CDF_SIZE(MOTION_MODES)] = {
      { AOM_CDF3(10923, 21845) }, { AOM_CDF3(10923, 21845) },
      { AOM_CDF3(10923, 21845) }, { AOM_CDF3(7651, 24760) },
      { AOM_CDF3(4738, 24765) },  { AOM_CDF3(5391, 25528) },
      { AOM_CDF3(19419, 26810) }, { AOM_CDF3(5123, 23606) },
      { AOM_CDF3(11606, 24308) }, { AOM_CDF3(26260, 29116) },
      { AOM_CDF3(20360, 28062) }, { AOM_CDF3(21679, 26830) },
      { AOM_CDF3(29516, 30701) }, { AOM_CDF3(28898, 30397) },
      { AOM_CDF3(30878, 31335) }, { AOM_CDF3(32507, 32558) },
      { AOM_CDF3(10923, 21845) }, { AOM_CDF3(10923, 21845) },
      { AOM_CDF3(28799, 31390) }, { AOM_CDF3(26431, 30774) },
      { AOM_CDF3(28973, 31594) }, { AOM_CDF3(29742, 31203) },
#if CONFIG_FLEX_PARTITION
      { AOM_CDF3(16384, 24576) }, { AOM_CDF3(16384, 24576) },
      { AOM_CDF3(16384, 27000) }, { AOM_CDF3(16384, 27000) },
      { AOM_CDF3(16384, 27000) }, { AOM_CDF3(16384, 27000) },
#endif  // CONFIG_FLEX_PARTITION
    };

static const aom_cdf_prob default_obmc_cdf[BLOCK_SIZES_ALL][CDF_SIZE(2)] = {
  { AOM_CDF2(16384) }, { AOM_CDF2(16384) }, { AOM_CDF2(16384) },
  { AOM_CDF2(10437) }, { AOM_CDF2(9371) },  { AOM_CDF2(9301) },
  { AOM_CDF2(17432) }, { AOM_CDF2(14423) }, { AOM_CDF2(15142) },
  { AOM_CDF2(25817) }, { AOM_CDF2(22823) }, { AOM_CDF2(22083) },
  { AOM_CDF2(30128) }, { AOM_CDF2(31014) }, { AOM_CDF2(31560) },
  { AOM_CDF2(32638) }, { AOM_CDF2(16384) }, { AOM_CDF2(16384) },
  { AOM_CDF2(23664) }, { AOM_CDF2(20901) }, { AOM_CDF2(24008) },
  { AOM_CDF2(26879) },
#if CONFIG_FLEX_PARTITION
  { AOM_CDF2(24000) }, { AOM_CDF2(24000) }, { AOM_CDF2(24000) },
  { AOM_CDF2(24000) }, { AOM_CDF2(24000) }, { AOM_CDF2(24000) },
#endif  // CONFIG_FLEX_PARTITION
};

static const aom_cdf_prob default_intra_inter_cdf[INTRA_INTER_CONTEXTS]
                                                 [CDF_SIZE(2)] = {
                                                   { AOM_CDF2(806) },
                                                   { AOM_CDF2(16662) },
                                                   { AOM_CDF2(20186) },
                                                   { AOM_CDF2(26538) }
                                                 };

static const aom_cdf_prob default_comp_inter_cdf[COMP_INTER_CONTEXTS][CDF_SIZE(
    2)] = { { AOM_CDF2(26828) },
            { AOM_CDF2(24035) },
            { AOM_CDF2(12031) },
            { AOM_CDF2(10640) },
            { AOM_CDF2(2901) } };

static const aom_cdf_prob default_comp_ref_type_cdf[COMP_REF_TYPE_CONTEXTS]
                                                   [CDF_SIZE(2)] = {
                                                     { AOM_CDF2(1198) },
                                                     { AOM_CDF2(2070) },
                                                     { AOM_CDF2(9166) },
                                                     { AOM_CDF2(7499) },
                                                     { AOM_CDF2(22475) }
                                                   };

static const aom_cdf_prob
    default_uni_comp_ref_cdf[UNI_COMP_REF_CONTEXTS][UNIDIR_COMP_REFS -
                                                    1][CDF_SIZE(2)] = {
      { { AOM_CDF2(5284) }, { AOM_CDF2(3865) }, { AOM_CDF2(3128) } },
      { { AOM_CDF2(23152) }, { AOM_CDF2(14173) }, { AOM_CDF2(15270) } },
      { { AOM_CDF2(31774) }, { AOM_CDF2(25120) }, { AOM_CDF2(26710) } }
    };

static const aom_cdf_prob default_single_ref_cdf[REF_CONTEXTS][SINGLE_REFS - 1]
                                                [CDF_SIZE(2)] = {
                                                  { { AOM_CDF2(4897) },
                                                    { AOM_CDF2(1555) },
                                                    { AOM_CDF2(4236) },
                                                    { AOM_CDF2(8650) },
                                                    { AOM_CDF2(904) },
                                                    { AOM_CDF2(1444) } },
                                                  { { AOM_CDF2(16973) },
                                                    { AOM_CDF2(16751) },
                                                    { AOM_CDF2(19647) },
                                                    { AOM_CDF2(24773) },
                                                    { AOM_CDF2(11014) },
                                                    { AOM_CDF2(15087) } },
                                                  { { AOM_CDF2(29744) },
                                                    { AOM_CDF2(30279) },
                                                    { AOM_CDF2(31194) },
                                                    { AOM_CDF2(31895) },
                                                    { AOM_CDF2(26875) },
                                                    { AOM_CDF2(30304) } }
                                                };

static const aom_cdf_prob
    default_comp_ref_cdf[REF_CONTEXTS][FWD_REFS - 1][CDF_SIZE(2)] = {
      { { AOM_CDF2(4946) }, { AOM_CDF2(9468) }, { AOM_CDF2(1503) } },
      { { AOM_CDF2(19891) }, { AOM_CDF2(22441) }, { AOM_CDF2(15160) } },
      { { AOM_CDF2(30731) }, { AOM_CDF2(31059) }, { AOM_CDF2(27544) } }
    };

static const aom_cdf_prob
    default_comp_bwdref_cdf[REF_CONTEXTS][BWD_REFS - 1][CDF_SIZE(2)] = {
      { { AOM_CDF2(2235) }, { AOM_CDF2(1423) } },
      { { AOM_CDF2(17182) }, { AOM_CDF2(15175) } },
      { { AOM_CDF2(30606) }, { AOM_CDF2(30489) } }
    };

static const aom_cdf_prob
    default_palette_y_size_cdf[PALATTE_BSIZE_CTXS][CDF_SIZE(PALETTE_SIZES)] = {
      { AOM_CDF7(7952, 13000, 18149, 21478, 25527, 29241) },
      { AOM_CDF7(7139, 11421, 16195, 19544, 23666, 28073) },
      { AOM_CDF7(7788, 12741, 17325, 20500, 24315, 28530) },
      { AOM_CDF7(8271, 14064, 18246, 21564, 25071, 28533) },
      { AOM_CDF7(12725, 19180, 21863, 24839, 27535, 30120) },
      { AOM_CDF7(9711, 14888, 16923, 21052, 25661, 27875) },
      { AOM_CDF7(14940, 20797, 21678, 24186, 27033, 28999) }
    };

static const aom_cdf_prob
    default_palette_uv_size_cdf[PALATTE_BSIZE_CTXS][CDF_SIZE(PALETTE_SIZES)] = {
      { AOM_CDF7(8713, 19979, 27128, 29609, 31331, 32272) },
      { AOM_CDF7(5839, 15573, 23581, 26947, 29848, 31700) },
      { AOM_CDF7(4426, 11260, 17999, 21483, 25863, 29430) },
      { AOM_CDF7(3228, 9464, 14993, 18089, 22523, 27420) },
      { AOM_CDF7(3768, 8886, 13091, 17852, 22495, 27207) },
      { AOM_CDF7(2464, 8451, 12861, 21632, 25525, 28555) },
      { AOM_CDF7(1269, 5435, 10433, 18963, 21700, 25865) }
    };

static const aom_cdf_prob default_palette_y_mode_cdf
    [PALATTE_BSIZE_CTXS][PALETTE_Y_MODE_CONTEXTS][CDF_SIZE(2)] = {
      { { AOM_CDF2(31676) }, { AOM_CDF2(3419) }, { AOM_CDF2(1261) } },
      { { AOM_CDF2(31912) }, { AOM_CDF2(2859) }, { AOM_CDF2(980) } },
      { { AOM_CDF2(31823) }, { AOM_CDF2(3400) }, { AOM_CDF2(781) } },
      { { AOM_CDF2(32030) }, { AOM_CDF2(3561) }, { AOM_CDF2(904) } },
      { { AOM_CDF2(32309) }, { AOM_CDF2(7337) }, { AOM_CDF2(1462) } },
      { { AOM_CDF2(32265) }, { AOM_CDF2(4015) }, { AOM_CDF2(1521) } },
      { { AOM_CDF2(32450) }, { AOM_CDF2(7946) }, { AOM_CDF2(129) } }
    };

static const aom_cdf_prob
    default_palette_uv_mode_cdf[PALETTE_UV_MODE_CONTEXTS][CDF_SIZE(2)] = {
      { AOM_CDF2(32461) }, { AOM_CDF2(21488) }
    };

static const aom_cdf_prob default_palette_y_color_index_cdf
    [PALETTE_SIZES][PALETTE_COLOR_INDEX_CONTEXTS][CDF_SIZE(PALETTE_COLORS)] = {
      {
          { AOM_CDF2(28710) },
          { AOM_CDF2(16384) },
          { AOM_CDF2(10553) },
          { AOM_CDF2(27036) },
          { AOM_CDF2(31603) },
      },
      {
          { AOM_CDF3(27877, 30490) },
          { AOM_CDF3(11532, 25697) },
          { AOM_CDF3(6544, 30234) },
          { AOM_CDF3(23018, 28072) },
          { AOM_CDF3(31915, 32385) },
      },
      {
          { AOM_CDF4(25572, 28046, 30045) },
          { AOM_CDF4(9478, 21590, 27256) },
          { AOM_CDF4(7248, 26837, 29824) },
          { AOM_CDF4(19167, 24486, 28349) },
          { AOM_CDF4(31400, 31825, 32250) },
      },
      {
          { AOM_CDF5(24779, 26955, 28576, 30282) },
          { AOM_CDF5(8669, 20364, 24073, 28093) },
          { AOM_CDF5(4255, 27565, 29377, 31067) },
          { AOM_CDF5(19864, 23674, 26716, 29530) },
          { AOM_CDF5(31646, 31893, 32147, 32426) },
      },
      {
          { AOM_CDF6(23132, 25407, 26970, 28435, 30073) },
          { AOM_CDF6(7443, 17242, 20717, 24762, 27982) },
          { AOM_CDF6(6300, 24862, 26944, 28784, 30671) },
          { AOM_CDF6(18916, 22895, 25267, 27435, 29652) },
          { AOM_CDF6(31270, 31550, 31808, 32059, 32353) },
      },
      {
          { AOM_CDF7(23105, 25199, 26464, 27684, 28931, 30318) },
          { AOM_CDF7(6950, 15447, 18952, 22681, 25567, 28563) },
          { AOM_CDF7(7560, 23474, 25490, 27203, 28921, 30708) },
          { AOM_CDF7(18544, 22373, 24457, 26195, 28119, 30045) },
          { AOM_CDF7(31198, 31451, 31670, 31882, 32123, 32391) },
      },
      {
          { AOM_CDF8(21689, 23883, 25163, 26352, 27506, 28827, 30195) },
          { AOM_CDF8(6892, 15385, 17840, 21606, 24287, 26753, 29204) },
          { AOM_CDF8(5651, 23182, 25042, 26518, 27982, 29392, 30900) },
          { AOM_CDF8(19349, 22578, 24418, 25994, 27524, 29031, 30448) },
          { AOM_CDF8(31028, 31270, 31504, 31705, 31927, 32153, 32392) },
      },
    };

static const aom_cdf_prob default_palette_uv_color_index_cdf
    [PALETTE_SIZES][PALETTE_COLOR_INDEX_CONTEXTS][CDF_SIZE(PALETTE_COLORS)] = {
      {
          { AOM_CDF2(29089) },
          { AOM_CDF2(16384) },
          { AOM_CDF2(8713) },
          { AOM_CDF2(29257) },
          { AOM_CDF2(31610) },
      },
      {
          { AOM_CDF3(25257, 29145) },
          { AOM_CDF3(12287, 27293) },
          { AOM_CDF3(7033, 27960) },
          { AOM_CDF3(20145, 25405) },
          { AOM_CDF3(30608, 31639) },
      },
      {
          { AOM_CDF4(24210, 27175, 29903) },
          { AOM_CDF4(9888, 22386, 27214) },
          { AOM_CDF4(5901, 26053, 29293) },
          { AOM_CDF4(18318, 22152, 28333) },
          { AOM_CDF4(30459, 31136, 31926) },
      },
      {
          { AOM_CDF5(22980, 25479, 27781, 29986) },
          { AOM_CDF5(8413, 21408, 24859, 28874) },
          { AOM_CDF5(2257, 29449, 30594, 31598) },
          { AOM_CDF5(19189, 21202, 25915, 28620) },
          { AOM_CDF5(31844, 32044, 32281, 32518) },
      },
      {
          { AOM_CDF6(22217, 24567, 26637, 28683, 30548) },
          { AOM_CDF6(7307, 16406, 19636, 24632, 28424) },
          { AOM_CDF6(4441, 25064, 26879, 28942, 30919) },
          { AOM_CDF6(17210, 20528, 23319, 26750, 29582) },
          { AOM_CDF6(30674, 30953, 31396, 31735, 32207) },
      },
      {
          { AOM_CDF7(21239, 23168, 25044, 26962, 28705, 30506) },
          { AOM_CDF7(6545, 15012, 18004, 21817, 25503, 28701) },
          { AOM_CDF7(3448, 26295, 27437, 28704, 30126, 31442) },
          { AOM_CDF7(15889, 18323, 21704, 24698, 26976, 29690) },
          { AOM_CDF7(30988, 31204, 31479, 31734, 31983, 32325) },
      },
      {
          { AOM_CDF8(21442, 23288, 24758, 26246, 27649, 28980, 30563) },
          { AOM_CDF8(5863, 14933, 17552, 20668, 23683, 26411, 29273) },
          { AOM_CDF8(3415, 25810, 26877, 27990, 29223, 30394, 31618) },
          { AOM_CDF8(17965, 20084, 22232, 23974, 26274, 28402, 30390) },
          { AOM_CDF8(31190, 31329, 31516, 31679, 31825, 32026, 32322) },
      },
    };

static const aom_cdf_prob
    default_txfm_partition_cdf[TXFM_PARTITION_CONTEXTS][CDF_SIZE(2)] = {
      { AOM_CDF2(28581) }, { AOM_CDF2(23846) }, { AOM_CDF2(20847) },
      { AOM_CDF2(24315) }, { AOM_CDF2(18196) }, { AOM_CDF2(12133) },
      { AOM_CDF2(18791) }, { AOM_CDF2(10887) }, { AOM_CDF2(11005) },
      { AOM_CDF2(27179) }, { AOM_CDF2(20004) }, { AOM_CDF2(11281) },
      { AOM_CDF2(26549) }, { AOM_CDF2(19308) }, { AOM_CDF2(14224) },
      { AOM_CDF2(28015) }, { AOM_CDF2(21546) }, { AOM_CDF2(14400) },
      { AOM_CDF2(28165) }, { AOM_CDF2(22401) }, { AOM_CDF2(16088) }
    };

static const aom_cdf_prob default_skip_cdfs[SKIP_CONTEXTS][CDF_SIZE(2)] = {
  { AOM_CDF2(31671) }, { AOM_CDF2(16515) }, { AOM_CDF2(4576) }
};

static const aom_cdf_prob default_skip_mode_cdfs[SKIP_MODE_CONTEXTS][CDF_SIZE(
    2)] = { { AOM_CDF2(32621) }, { AOM_CDF2(20708) }, { AOM_CDF2(8127) } };

static const aom_cdf_prob
    default_compound_idx_cdfs[COMP_INDEX_CONTEXTS][CDF_SIZE(2)] = {
      { AOM_CDF2(18244) }, { AOM_CDF2(12865) }, { AOM_CDF2(7053) },
      { AOM_CDF2(13259) }, { AOM_CDF2(9334) },  { AOM_CDF2(4644) }
    };

static const aom_cdf_prob
    default_comp_group_idx_cdfs[COMP_GROUP_IDX_CONTEXTS][CDF_SIZE(2)] = {
      { AOM_CDF2(26607) }, { AOM_CDF2(22891) }, { AOM_CDF2(18840) },
      { AOM_CDF2(24594) }, { AOM_CDF2(19934) }, { AOM_CDF2(22674) }
    };

static const aom_cdf_prob default_intrabc_cdf[CDF_SIZE(2)] = { AOM_CDF2(
    30531) };

static const aom_cdf_prob default_filter_intra_mode_cdf[CDF_SIZE(
    FILTER_INTRA_MODES)] = { AOM_CDF5(8949, 12776, 17211, 29558) };

static const aom_cdf_prob
    default_filter_intra_cdfs[BLOCK_SIZES_ALL][CDF_SIZE(2)] = {
      { AOM_CDF2(4621) },  { AOM_CDF2(6743) },  { AOM_CDF2(5893) },
      { AOM_CDF2(7866) },  { AOM_CDF2(12551) }, { AOM_CDF2(9394) },
      { AOM_CDF2(12408) }, { AOM_CDF2(14301) }, { AOM_CDF2(12756) },
      { AOM_CDF2(22343) }, { AOM_CDF2(16384) }, { AOM_CDF2(16384) },
      { AOM_CDF2(16384) }, { AOM_CDF2(16384) }, { AOM_CDF2(16384) },
      { AOM_CDF2(16384) }, { AOM_CDF2(12770) }, { AOM_CDF2(10368) },
      { AOM_CDF2(20229) }, { AOM_CDF2(18101) }, { AOM_CDF2(16384) },
      { AOM_CDF2(16384) },
#if CONFIG_FLEX_PARTITION
      { AOM_CDF2(16384) }, { AOM_CDF2(16384) }, { AOM_CDF2(16384) },
      { AOM_CDF2(16384) }, { AOM_CDF2(16384) }, { AOM_CDF2(16384) },
#endif  // CONFIG_FLEX_PARTITION
    };

#if CONFIG_ADAPT_FILTER_INTRA
static const aom_cdf_prob default_adapt_filter_intra_mode_cdf[CDF_SIZE(
    USED_ADAPT_FILTER_INTRA_MODES)] =
#if USED_ADAPT_FILTER_INTRA_MODES == 3
    { AOM_CDF3(10922, 10922) };
#elif USED_ADAPT_FILTER_INTRA_MODES == 5
    { AOM_CDF5(6553, 13106, 19659, 26212) };
#elif USED_ADAPT_FILTER_INTRA_MODES == 7
    { AOM_CDF7(4681, 9362, 14043, 18724, 23405, 28086) };
#endif

static const aom_cdf_prob
    default_adapt_filter_intra_cdfs[BLOCK_SIZES_ALL][CDF_SIZE(2)] = {
      { AOM_CDF2(16384) }, { AOM_CDF2(16384) }, { AOM_CDF2(16384) },
      { AOM_CDF2(16384) }, { AOM_CDF2(16384) }, { AOM_CDF2(16384) },
      { AOM_CDF2(16384) }, { AOM_CDF2(16384) }, { AOM_CDF2(16384) },
      { AOM_CDF2(16384) }, { AOM_CDF2(16384) }, { AOM_CDF2(16384) },
      { AOM_CDF2(16384) }, { AOM_CDF2(16384) }, { AOM_CDF2(16384) },
      { AOM_CDF2(16384) }, { AOM_CDF2(16384) }, { AOM_CDF2(16384) },
      { AOM_CDF2(16384) }, { AOM_CDF2(16384) }, { AOM_CDF2(16384) },
      { AOM_CDF2(16384) },
#if CONFIG_FLEX_PARTITION
      { AOM_CDF2(16384) }, { AOM_CDF2(16384) }, { AOM_CDF2(16384) },
      { AOM_CDF2(16384) }, { AOM_CDF2(16384) }, { AOM_CDF2(16384) },
#endif  // CONFIG_FLEX_PARTITION
    };
#endif  // CONFIG_ADAPT_FILTER_INTRA

#if CONFIG_LOOP_RESTORE_CNN
static const aom_cdf_prob default_switchable_restore_cdf[CDF_SIZE(
    RESTORE_SWITCHABLE_TYPES)] = { AOM_CDF4(6000, 14000, 22500) };
#else
static const aom_cdf_prob default_switchable_restore_cdf[CDF_SIZE(
    RESTORE_SWITCHABLE_TYPES)] = { AOM_CDF3(9413, 22581) };
#endif  // CONFIG_LOOP_RESTORE_CNN

static const aom_cdf_prob default_wiener_restore_cdf[CDF_SIZE(2)] = { AOM_CDF2(
    11570) };

static const aom_cdf_prob default_sgrproj_restore_cdf[CDF_SIZE(2)] = { AOM_CDF2(
    16855) };

#if CONFIG_LOOP_RESTORE_CNN
static const aom_cdf_prob default_cnn_restore_cdf[CDF_SIZE(2)] = { AOM_CDF2(
    20000) };
#endif  // CONFIG_LOOP_RESTORE_CNN

static const aom_cdf_prob default_delta_q_cdf[CDF_SIZE(DELTA_Q_PROBS + 1)] = {
  AOM_CDF4(28160, 32120, 32677)
};

static const aom_cdf_prob default_delta_lf_multi_cdf[FRAME_LF_COUNT][CDF_SIZE(
    DELTA_LF_PROBS + 1)] = { { AOM_CDF4(28160, 32120, 32677) },
                             { AOM_CDF4(28160, 32120, 32677) },
