/*
 * Copyright (c) 2019, Alliance for Open Media. All rights reserved
 *
 * This source code is subject to the terms of the BSD 2 Clause License and
 * the Alliance for Open Media Patent License 1.0. If the BSD 2 Clause License
 * was not distributed with this source code in the LICENSE file, you can
 * obtain it at www.aomedia.org/license/software. If the Alliance for Open
 * Media Patent License 1.0 was not distributed with this source code in the
 * PATENTS file, you can obtain it at www.aomedia.org/license/patent.
 */

#ifndef AOM_AV1_FIVE_LAYER_CNN_MODEL_H_
#define AOM_AV1_FIVE_LAYER_CNN_MODEL_H_

#include "av1/common/cnn.h"

static const float weight_0[] = {
  -0.428569f, -0.024975f, 0.711794f,  -0.577329f, 0.09752f,   0.371489f,
  0.05081f,   0.422177f,  0.25673f,   0.605864f,  -0.196849f, 0.18812f,
  0.362887f,  0.303613f,  0.340019f,  0.188506f,  -0.059413f, -0.111705f,
  0.09344f,   -0.288611f, 0.561336f,  -0.350751f, 0.585149f,  0.686612f,
  0.705408f,  0.144835f,  0.035923f,  -0.404332f, -0.187794f, 0.008947f,
  -0.041598f, 0.071614f,  0.967987f,  -0.591916f, -0.741917f, 0.020392f,
  -0.2332f,   0.290049f,  -0.83206f,  0.557392f,  -0.440706f, 0.005963f,
  -0.285301f, -0.102615f, 0.63072f,   0.404038f,  -0.534801f, -0.022316f,
  -0.135112f, -0.834987f, -0.474656f, 0.526939f,  0.013773f,  -0.408148f,
  -0.383373f, 0.257296f,  -0.314225f, -0.671354f, 0.240547f,  -0.018676f,
  0.451732f,  -0.006821f, 0.543863f,  0.345663f,  -0.026078f, 0.153972f,
  -0.117036f, -0.701982f, -0.09311f,  0.579751f,  -1.023466f, -0.136083f,
  0.075646f,  -0.222983f, 0.827034f,  -0.947091f, -0.009226f, 0.21332f,
  -0.210429f, 0.1822f,    0.736438f,  -0.101574f, -0.686542f, 0.375256f,
  -0.579972f, -0.576538f, 1.075132f,  0.635484f,  -0.328397f, 0.778688f,
  -0.019288f, -0.526111f, 0.840618f,  -0.445135f, -0.054851f, -0.120725f,
  0.604691f,  0.406086f,  0.15422f,   0.310748f,  0.409692f,  -0.03285f,
  0.126516f,  -0.303732f, 0.079628f,  -0.601262f, -0.288228f, 0.104831f,
  0.005594f,  -0.790765f, 0.056157f,  0.027524f,  -0.077242f, -0.903475f,
  0.607289f,  1.06949f,   -0.542968f, -0.544222f, 0.210603f,  0.386116f,
  0.450834f,  0.484739f,  -0.602021f, -0.022633f, 0.216067f,  -0.016193f,
  -0.08302f,  -0.384367f, 0.096216f,  -0.021695f, -0.036421f, 0.594094f,
  0.457464f,  -0.657281f, -1.071616f, -0.123267f, -0.003635f, 0.316374f,
  0.08694f,   0.574393f,  0.665646f,  -0.083382f, -0.654128f, -0.155352f,
  0.096856f,  0.127437f,  0.788577f,  -0.840009f, 0.959636f,  -0.705578f,
  -0.185502f, -0.487834f, -0.301603f, -0.091988f, -0.144361f, 0.442563f,
  -0.962002f, -0.402657f, -0.657579f, -0.547473f, 0.040516f,  0.069489f,
  0.479634f,  -0.664939f, 0.071408f,  -0.370962f, -0.20998f,  -0.016228f,
  -0.106123f, -0.099349f, 0.744883f,  0.048649f,  0.247359f,  0.257258f,
  -0.514334f, -0.251349f, 0.148428f,  0.167161f,  0.929723f,  -0.890559f,
  -0.002642f, -0.471291f, -0.448087f, 0.133884f,  0.737557f,  -0.347533f,
  0.766069f,  -0.176157f, 0.439907f,  0.548166f,  -0.316234f, -0.0964f,
  0.029932f,  0.068281f,  -0.321404f, -0.190468f, -0.18767f,  0.265082f,
  -0.045078f, 0.669346f,  -0.309096f, 0.319179f,  0.471579f,  0.552063f,
  -0.327669f, -0.242413f, -0.625871f, -0.982615f, -0.32566f,  -0.61313f,
  0.161415f,  0.080238f,  -0.636542f, -0.584986f, 0.061612f,  0.318592f,
  -0.074549f, -0.362475f, 0.15594f,   0.289033f,  0.375063f,  0.195304f,
  0.360405f,  0.015464f,  0.335582f,  0.667801f,  0.188273f,  0.413089f,
  -0.761028f, 0.15764f,   0.361001f,  -0.002802f, -0.021403f, 0.165859f,
  -0.228476f, -0.437397f, 0.553817f,  -0.074628f, -0.944782f, -0.030475f,
  0.126081f,  -0.038141f, -0.343286f, 0.299997f,  -0.370884f, -0.122964f,
  0.389606f,  -0.575753f, 0.058333f,  -0.30669f,  0.104792f,  0.120867f,
  -0.25495f,  0.459615f,  0.466231f,  -0.558057f, -0.44945f,  -0.363007f,
  0.362535f,  0.138842f,  -0.719219f, -0.298136f, -0.180102f, -0.625871f,
  0.097162f,  0.807267f,  -0.301549f, 0.629352f,  -0.747749f, 0.260433f,
  0.093383f,  -0.081734f, 0.177369f,  -0.365681f, -0.056428f, -0.70997f,
  0.090344f,  0.259047f,  0.384571f,  -0.538857f, -0.187156f, 0.305922f,
  -0.37485f,  0.175097f,  -0.043267f, 0.431033f,  -0.926473f, -1.035763f,
  0.366904f,  -0.952445f, -0.034663f, -0.705217f, -0.588875f, -0.486614f,
  -0.431582f, -0.080943f, -0.263766f, 0.20921f,   0.791364f,  -0.434658f,
  -0.025988f, -0.261626f, -0.683912f, 0.046945f,  -0.053362f, -0.431366f,
  -0.935287f, -0.368152f, -0.283413f, 0.598143f,  0.463412f,  0.215977f,
  0.562104f,  0.650829f,  -0.170633f, -0.041248f, -0.528866f, -0.07871f,
  0.089878f,  0.597419f,  0.447696f,  -0.899565f, -0.026338f, 0.189139f,
  -0.104202f, -0.22234f,  0.279444f,  0.3516f,    0.235369f,  -0.838822f,
  -0.250245f, 0.442168f,  0.713162f,  -0.038435f, 0.589426f,  -0.33278f,
  -0.43039f,  0.698132f,  0.076737f,  -0.13823f,  -0.266702f, -0.283311f,
  0.013687f,  -0.393232f, -0.176777f, -0.255133f, -0.577634f, -0.016857f,
  -0.538602f, -0.027133f, -0.097839f, 0.359374f,  -0.102008f, 0.044867f,
  -0.261114f, -0.431624f, -0.779672f, 0.944984f,  0.265888f,  -0.601671f,
  0.872222f,  -0.421414f, -0.002852f, 0.232375f,  0.567115f,  -0.716008f,
  0.901128f,  -0.471517f, 0.358639f,  -0.720746f, 0.889869f,  0.082169f,
  0.750749f,  0.243957f,  -0.300392f, -0.079627f, 0.17766f,   -0.041075f,
  -0.128375f, 0.033552f,  -0.166826f, -0.09654f,  -0.129507f, -0.824888f,
  -0.301756f, -0.333622f, 1.017876f,  -0.821379f, -0.649749f, -0.33989f,
  0.641951f,  -0.532162f, -0.668271f, -0.5842f,   0.784695f,  1.060337f,
  1.059807f,  -0.414007f, -0.584312f, -0.498941f, -0.731069f, -0.104628f,
  -0.051377f, -0.319097f, -0.383725f, -0.868875f, 0.624682f,  0.082806f,
  -0.018427f, -0.023406f, -0.460677f, 0.895281f,  -0.502606f, 0.214036f,
  -0.642403f, -0.008812f, -0.836495f, 0.381278f,  0.049342f,  0.175861f,
  0.629819f,  0.285347f,  0.618194f,  -0.834321f, 0.62725f,   0.3382f,
  -1.067258f, 0.899589f,  0.376132f,  -0.263784f, -0.953349f, -0.615268f,
  -0.474239f, 0.551393f,  -0.927856f, -0.461271f, 0.48129f,   -0.665915f,
  -0.191507f, -0.437762f, -0.259763f, 0.668194f,  -0.003322f, 0.716025f,
  -0.046367f, -0.4005f,   -0.881846f, -0.446245f, 0.410275f,  0.599474f,
  -0.264681f, 0.429703f,  0.360452f,  -1.011625f, -0.047902f, -0.718163f,
  -0.545824f, 0.533664f,  0.647799f,  0.966202f,  0.363168f,  0.193784f,
  -0.874338f, 0.633451f,  -0.746965f, -0.735604f, -0.244536f, -1.024923f,
  -0.823186f, -0.913526f, 0.55672f,   0.068172f,  -0.477715f, -0.817129f,
  -0.227924f, -0.753378f, -0.102962f, -0.058526f, 0.340501f,  -0.529898f,
  -1.06438f,  0.554486f,  -0.611968f, 0.722263f,  -0.124967f, 0.201296f,
  -0.245856f, -0.626101f, 1.002137f,  0.092831f,  -0.805408f, -0.198101f,
  0.631727f,  -0.264279f, -0.031574f, 0.23025f,   0.503939f,  0.964571f,
  0.136218f,  -0.019305f, 0.246013f,  0.334163f,  0.686901f,  0.328948f,
  0.185506f,  -0.001487f, 0.267483f,  0.188045f,  -0.515993f, 0.791065f,
  -0.673693f, -0.056278f, 0.484324f,  -0.07719f,  -0.264959f, 0.523077f,
  0.507357f,  -0.342514f, -0.657255f, -0.706668f, -0.303163f, -0.630486f,
  -0.126508f, 0.053426f,  0.075484f,  -0.155228f, -0.328712f, 0.885068f,
  0.30831f,   0.624382f,  0.050148f,  0.16878f,   0.593776f,  0.207562f,
  -0.217772f, -0.114892f, -0.142328f, 0.877757f,  -0.871651f, -0.918468f,
  -0.55104f,  0.278252f,  0.256138f,  -0.406659f, -0.156933f, -0.400511f,
  0.37938f,   -0.756481f, 0.181223f,  0.083392f,  0.036857f,  -0.075133f,
  -0.037751f, -0.116148f, 0.134145f,  -0.406541f, -0.30183f,  0.641363f,
  0.217358f,  -0.064703f, 0.608553f,  0.856867f,  0.336068f,  -0.136785f,
  0.880852f,  0.696163f,  -0.986576f, -0.07546f,  1.035043f,  0.136229f,
  -0.179885f, -0.053014f, 0.472347f,  -0.679363f, -0.066654f, 0.269384f,
};

static const float bias_0[] = {
  -0.01095f,  0.000184f,  -0.002812f, 0.004926f,  0.000793f,  -0.008399f,
  0.003344f,  -0.000273f, 0.003674f,  -0.000422f, 0.000051f,  -0.003664f,
  -0.003527f, 0.000568f,  -0.000522f, 0.011405f,  0.004786f,  -0.002221f,
  -0.001124f, 0.005584f,  0.000994f,  0.012858f,  -0.005934f, -0.003806f,
  0.001357f,  0.004671f,  0.002914f,  0.00001f,   -0.005178f, 0.002004f,
  0.001135f,  0.001115f,  0.000893f,  0.003543f,  0.003212f,  -0.003655f,
  0.006387f,  0.006452f,  -0.006341f, 0.005618f,  0.003218f,  0.010058f,
  0.001076f,  -0.007964f, 0.003919f,  0.004881f,  -0.001199f, -0.000965f,
  -0.008547f, -0.005342f, 0.006928f,  0.006882f,  0.005851f,  0.005159f,
  -0.001962f, -0.003115f, 0.002892f,  0.005891f,  0.006628f,  0.007376f,
  0.006092f,  0.006045f,  0.012619f,  0.004502f,
};

static const float weight_1[] = {
  0.043456f,  0.099537f,  -0.025471f, 0.049664f,  -0.044318f, 0.033426f,
  -0.024792f, 0.023896f,  -0.079996f, -0.12227f,  0.033049f,  0.077375f,
  0.098304f,  -0.039037f, 0.082805f,  -0.037119f, -0.014533f, -0.000005f,
  -0.017965f, -0.092792f, 0.068034f,  -0.064341f, 0.044723f,  0.027058f,
  -0.082489f, -0.052088f, 0.094015f,  -0.020614f, 0.009587f,  -0.036141f,
  -0.102116f, 0.037419f,  -0.069201f, -0.099933f, -0.002683f, -0.00001f,
  0.119937f,  0.014119f,  -0.06547f,  0.004451f,  0.001535f,  -0.013334f,
  -0.000308f, 0.010764f,  0.007432f,  0.126425f,  0.019677f,  0.039764f,
  0.046847f,  0.040707f,  -0.110817f, -0.073291f, -0.00692f,  -0.010281f,
  0.024383f,  -0.091892f, -0.06301f,  0.064315f,  -0.025236f, -0.076753f,
  0.0681f,    -0.020146f, -0.034351f, -0.050809f, 0.092288f,  0.069435f,
  0.059788f,  0.063714f,  -0.094285f, 0.007539f,  0.082762f,  -0.112881f,
  0.10187f,   -0.088429f, -0.02878f,  -0.115965f, 0.00712f,   -0.031301f,
  -0.054266f, -0.084485f, 0.039552f,  -0.015788f, -0.066919f, -0.007574f,
  -0.06148f,  -0.032354f, 0.067659f,  0.027273f,  0.020721f,  -0.019726f,
  -0.047589f, -0.045949f, -0.023429f, 0.050438f,  0.057781f,  -0.080344f,
  -0.009283f, -0.055678f, -0.008187f, -0.084266f, 0.015943f,  -0.018615f,
  -0.050402f, -0.087875f, 0.018571f,  -0.00722f,  0.035806f,  0.042834f,
  -0.046408f, -0.072981f, 0.0472f,    0.11062f,   0.021259f,  -0.035942f,
  0.012402f,  -0.044645f, 0.072796f,  -0.02097f,  0.087152f,  -0.046777f,
  0.01351f,   0.068555f,  0.000787f,  -0.017609f, -0.006121f, 0.029026f,
  -0.018316f, 0.031379f,  0.010392f,  -0.036883f, -0.073361f, 0.0916f,
  -0.034877f, -0.016132f, 0.041025f,  -0.01157f,  0.031588f,  -0.093746f,
  -0.120128f, -0.11967f,  0.123648f,  -0.024031f, -0.073898f, 0.023005f,
  -0.071375f, 0.095484f,  0.107773f,  0.090021f,  -0.065876f, -0.018203f,
  0.020046f,  -0.038702f, -0.037312f, 0.01306f,   0.010117f,  0.096699f,
  -0.09176f,  0.045111f,  0.028247f,  0.010912f,  -0.103388f, -0.062756f,
  0.076833f,  0.03228f,   -0.117344f, -0.025343f, -0.0813f,   -0.125282f,
  -0.018378f, 0.038616f,  -0.094832f, 0.099351f,  0.009582f,  -0.083131f,
  0.00558f,   -0.021699f, 0.077792f,  0.0679f,    0.009747f,  -0.072872f,
  -0.055648f, 0.066151f,  0.054643f,  -0.054461f, -0.018796f, 0.09805f,
  0.049244f,  0.002378f,  0.056246f,  0.033128f,  0.037335f,  -0.055363f,
  -0.007864f, 0.043787f,  -0.018067f, 0.034504f,  0.121569f,  0.12108f,
  -0.068739f, -0.04239f,  0.054355f,  0.052436f,  -0.041957f, 0.031309f,
  -0.01862f,  -0.044052f, -0.015466f, 0.012923f,  -0.021413f, 0.019266f,
  0.005813f,  -0.03204f,  -0.097689f, 0.003804f,  0.027333f,  0.056374f,
  -0.005854f, -0.015636f, -0.06099f,  -0.051877f, -0.024812f, -0.039206f,
  0.128083f,  -0.004914f, 0.058635f,  0.038135f,  0.015579f,  -0.003828f,
  -0.094292f, 0.034169f,  0.007891f,  -0.101951f, 0.123135f,  -0.047214f,
  -0.031199f, 0.014171f,  -0.040092f, 0.10661f,   -0.010376f, 0.081382f,
  -0.076513f, -0.038554f, 0.004244f,  0.108042f,  -0.02992f,  0.034013f,
  0.003216f,  -0.08351f,  0.010077f,  0.057512f,  0.033291f,  0.030718f,
  0.034455f,  0.066682f,  0.087385f,  -0.03742f,  0.076662f,  -0.112177f,
  -0.063334f, 0.016563f,  0.00571f,   -0.032061f, 0.020977f,  -0.081093f,
  0.046682f,  0.101082f,  -0.047498f, -0.023678f, -0.05753f,  -0.000742f,
  -0.001938f, 0.086479f,  0.01631f,   -0.062751f, -0.008235f, -0.048332f,
  -0.043285f, -0.025359f, -0.003203f, -0.066259f, -0.082355f, -0.122193f,
  -0.055168f, 0.107589f,  0.071973f,  -0.032119f, -0.045183f, 0.009362f,
  0.004779f,  0.126717f,  0.044285f,  -0.058276f, 0.129156f,  0.057638f,
  0.090331f,  -0.043152f, 0.030864f,  -0.025105f, 0.006253f,  0.086553f,
  0.131623f,  -0.046025f, 0.012353f,  0.009845f,  -0.081852f, -0.013356f,
  -0.061274f, 0.046676f,  0.057568f,  0.068446f,  0.064595f,  -0.038348f,
  0.024208f,  -0.023399f, -0.123506f, 0.107687f,  0.026254f,  -0.06102f,
  -0.016283f, 0.010633f,  0.046708f,  -0.066252f, 0.109882f,  -0.025468f,
  0.052993f,  0.021314f,  -0.01402f,  -0.092674f, 0.003475f,  -0.032335f,
  0.109937f,  -0.000029f, -0.024341f, 0.051524f,  -0.027756f, 0.040891f,
  -0.034621f, -0.002913f, -0.014587f, 0.042764f,  -0.017384f, 0.119942f,
  -0.114409f, -0.032547f, -0.066686f, -0.038336f, 0.016785f,  -0.022036f,
  0.002644f,  0.034424f,  -0.080595f, -0.019449f, -0.03424f,  0.038795f,
  -0.001893f, -0.056811f, 0.032343f,  0.001108f,  -0.094237f, -0.04862f,
  -0.134119f, 0.009548f,  -0.034022f, 0.121912f,  0.03404f,   -0.090843f,
  -0.046133f, 0.108867f,  -0.049367f, -0.039043f, -0.061511f, -0.044098f,
  -0.097499f, 0.026664f,  -0.010202f, 0.126576f,  0.036144f,  0.054582f,
  0.003834f,  0.105898f,  -0.011138f, 0.067474f,  0.012812f,  0.057169f,
  0.009237f,  0.110984f,  0.067585f,  -0.036417f, -0.045958f, -0.006645f,
  -0.088311f, 0.110493f,  -0.028153f, -0.012922f, -0.020328f, -0.015849f,
  0.048436f,  0.019819f,  -0.002957f, -0.005449f, 0.081184f,  -0.02515f,
  -0.006024f, 0.125756f,  -0.069645f, 0.114811f,  0.051224f,  0.066598f,
  0.085847f,  0.110209f,  -0.045592f, 0.10847f,   0.085014f,  -0.096363f,
  -0.054911f, -0.012319f, 0.083645f,  0.132636f,  -0.051103f, -0.048581f,
  -0.032694f, -0.047387f, 0.009929f,  0.06813f,   0.101358f,  0.078981f,
  0.069538f,  -0.019994f, 0.08453f,   0.044802f,  -0.050872f, 0.059465f,
  0.004082f,  0.082261f,  0.047108f,  -0.109185f, -0.091294f, -0.006279f,
  -0.021753f, 0.004472f,  0.121539f,  0.023774f,  -0.02338f,  -0.058991f,
  0.076998f,  0.00831f,   0.012302f,  -0.007105f, 0.043705f,  -0.037068f,
  -0.041064f, 0.01593f,   0.009794f,  0.047241f,  -0.078949f, -0.022861f,
  -0.026906f, -0.084993f, 0.075034f,  0.040239f,  0.066911f,  0.107039f,
  0.022915f,  -0.041861f, 0.041222f,  -0.030208f, 0.097885f,  -0.024277f,
  0.012678f,  -0.116338f, 0.0069f,    0.098486f,  0.076924f,  0.015776f,
  0.011322f,  -0.010008f, 0.031085f,  -0.01496f,  -0.008411f, 0.011645f,
  -0.003147f, 0.056157f,  -0.072488f, 0.010529f,  -0.032572f, -0.020036f,
  0.056875f,  0.030727f,  -0.056955f, 0.013607f,  -0.013467f, 0.031445f,
  0.084014f,  0.091396f,  0.016271f,  0.061726f,  -0.049021f, -0.060679f,
  -0.000169f, -0.076924f, -0.065072f, -0.033437f, -0.073637f, -0.0481f,
  -0.0277f,   0.055057f,  0.08917f,   -0.016152f, -0.066071f, -0.058024f,
  0.122207f,  0.009682f,  -0.008926f, 0.029196f,  0.072449f,  0.042131f,
  0.071374f,  -0.109409f, -0.07554f,  0.006111f,  0.054457f,  -0.061411f,
  0.029647f,  -0.081027f, -0.060915f, 0.083227f,  -0.101324f, 0.080657f,
  0.002317f,  -0.07225f,  -0.032673f, -0.017276f, 0.027346f,  0.02082f,
  -0.097734f, -0.032696f, 0.038352f,  0.03993f,   0.028068f,  0.001206f,
  0.035126f,  0.056697f,  -0.046788f, 0.051283f,  -0.07306f,  -0.128638f,
  0.028466f,  0.046258f,  -0.048109f, 0.037488f,  -0.014469f, 0.03012f,
  -0.045952f, -0.016988f, -0.017435f, -0.009899f, -0.033286f, -0.076234f,
  0.000452f,  -0.005334f, -0.025296f, -0.0449f,   0.086184f,  -0.029421f,
  -0.063532f, -0.054136f, -0.007042f, -0.103028f, 0.105578f,  -0.031974f,
  -0.055764f, -0.035876f, -0.017078f, -0.041602f, -0.062186f, -0.104099f,
  -0.051351f, 0.03516f,   0.066945f,  -0.014321f, -0.007512f, -0.124359f,
  -0.023763f, 0.034821f,  0.048223f,  0.044719f,  -0.071575f, -0.004463f,
  0.064228f,  -0.104025f, 0.10433f,   -0.008116f, -0.098328f, -0.077029f,
  0.022931f,  -0.073797f, 0.097281f,  -0.068584f, 0.077057f,  -0.003555f,
  -0.011069f, 0.001706f,  0.07843f,   0.001198f,  -0.001829f, -0.018607f,
  -0.015443f, 0.006248f,  -0.009284f, -0.041961f, -0.091307f, -0.012488f,
  -0.029602f, -0.046289f, 0.121605f,  0.13294f,   0.066028f,  -0.034207f,
  0.051094f,  0.033412f,  -0.092894f, -0.124601f, 0.047618f,  0.076331f,
  -0.066878f, -0.022674f, 0.069025f,  -0.041792f, -0.055836f, 0.003524f,
  0.001515f,  -0.003411f, 0.005061f,  -0.045066f, -0.002948f, 0.071274f,
  -0.044377f, 0.062256f,  -0.002874f, 0.006538f,  -0.085453f, 0.07574f,
  -0.065444f, -0.039089f, -0.048138f, 0.041813f,  -0.000821f, -0.05872f,
  -0.016774f, 0.052909f,  0.098123f,  -0.02578f,  0.019271f,  0.032444f,
  0.069661f,  -0.090784f, 0.07061f,   -0.06182f,  -0.080177f, -0.046228f,
  0.025387f,  -0.048862f, 0.089693f,  0.019026f,  0.064095f,  -0.097787f,
  0.036665f,  0.025157f,  -0.041694f, 0.031926f,  -0.003344f, -0.000918f,
  0.01653f,   0.003154f,  0.061136f,  -0.047505f, -0.004991f, 0.092344f,
  -0.065743f, -0.007295f, -0.059019f, 0.023011f,  -0.043977f, -0.054811f,
  0.041328f,  -0.094909f, 0.07852f,   0.038934f,  0.003222f,  -0.015819f,
  -0.025188f, -0.12762f,  -0.019811f, -0.030114f, 0.028431f,  0.005277f,
  0.030107f,  0.003317f,  0.079381f,  -0.05587f,  -0.004919f, 0.031597f,
  -0.043256f, -0.081002f, -0.044786f, -0.032718f, 0.029129f,  0.096956f,
  0.00682f,   0.077632f,  -0.053188f, 0.113404f,  -0.076976f, 0.099246f,
  -0.012264f, -0.130371f, -0.104909f, 0.065872f,  0.032896f,  -0.026611f,
  0.095425f,  0.083768f,  0.075543f,  -0.086266f, 0.052417f,  -0.006688f,
  -0.039441f, 0.069325f,  0.126224f,  0.114849f,  0.098707f,  -0.047058f,
  -0.058957f, -0.083289f, -0.063673f, -0.01991f,  -0.078085f, -0.038412f,
  -0.008572f, -0.031062f, 0.125998f,  0.038291f,  0.1222f,    0.002215f,
  -0.055304f, -0.072802f, -0.068329f, 0.054621f,  -0.032014f, 0.044606f,
  0.081704f,  0.016652f,  -0.028747f, 0.00435f,   -0.044263f, -0.111992f,
  -0.01713f,  0.027614f,  -0.100884f, 0.036992f,  0.071398f,  0.031138f,
  0.048595f,  -0.032871f, 0.035438f,  -0.024163f, 0.022278f,  0.075512f,
  -0.054721f, -0.036162f, 0.100081f,  -0.075815f, 0.109573f,  0.06606f,
  0.0723f,    0.079393f,  0.094627f,  -0.072025f, -0.079304f, -0.0391f,
  -0.037068f, -0.025867f, -0.016372f, -0.021401f, 0.025758f,  0.001459f,
  0.066745f,  0.049465f,  -0.019644f, 0.046375f,  -0.080317f, -0.027424f,
  0.007116f,  -0.059446f, 0.021635f,  0.009628f,  -0.070825f, 0.073026f,
  0.025333f,  -0.029491f, -0.027911f, 0.09631f,   0.086483f,  0.01793f,
  0.095955f,  0.030301f,  -0.057298f, 0.044189f,  0.063579f,  0.050766f,
  -0.10521f,  -0.002698f, 0.002531f,  0.126708f,  0.134558f,  -0.03376f,
  0.019063f,  -0.034567f, -0.030686f, -0.005805f, -0.07747f,  -0.106165f,
  -0.044107f, 0.006271f,  0.030562f,  -0.060882f, -0.085706f, -0.064648f,
  0.056249f,  0.055947f,  -0.058039f, -0.009255f, 0.035708f,  0.079527f,
  -0.017965f, 0.065197f,  -0.022772f, -0.006056f, -0.129598f, 0.06622f,
  0.082368f,  0.026997f,  0.057971f,  0.025864f,  -0.040727f, -0.084872f,
  -0.024022f, 0.088785f,  -0.088283f, 0.083034f,  0.000322f,  -0.030447f,
  0.038831f,  0.065511f,  -0.072092f, 0.016471f,  0.081586f,  0.054189f,
  0.012805f,  0.04651f,   -0.07576f,  0.13253f,   -0.056502f, 0.055535f,
  0.072876f,  -0.063648f, 0.040379f,  0.090686f,  -0.118379f, -0.061345f,
  0.005409f,  -0.00614f,  -0.005185f, 0.044513f,  -0.052884f, 0.002097f,
  0.043072f,  -0.071179f, -0.002394f, -0.012247f, 0.014161f,  0.015766f,
  -0.043912f, 0.011431f,  -0.074703f, 0.073142f,  0.047319f,  -0.040411f,
  -0.030223f, -0.023753f, -0.029896f, 0.101294f,  -0.046213f, -0.043163f,
  0.025978f,  0.089887f,  -0.045593f, -0.093064f, -0.016606f, 0.012127f,
  0.043981f,  0.018081f,  -0.036102f, -0.052883f, -0.009251f, -0.028992f,
  -0.018755f, -0.013471f, -0.069816f, -0.039623f, -0.062215f, 0.037761f,
  -0.036985f, 0.067866f,  0.041065f,  0.077202f,  0.031469f,  -0.013915f,
  0.058899f,  -0.006002f, 0.099198f,  -0.076122f, -0.099479f, -0.070498f,
  0.085565f,  -0.104f,    0.034728f,  -0.009935f, -0.012349f, -0.020367f,
  0.073778f,  0.086473f,  0.09341f,   0.065146f,  0.008069f,  0.031145f,
  -0.061041f, -0.046534f, 0.054532f,  0.015035f,  -0.04396f,  0.04134f,
  -0.00277f,  0.079297f,  0.059042f,  0.02502f,   0.004963f,  0.024424f,
  0.034531f,  -0.056961f, -0.122259f, -0.072263f, 0.091777f,  -0.031858f,
  0.010378f,  0.06913f,   -0.018596f, -0.07691f,  -0.000779f, -0.068584f,
  0.031948f,  0.015003f,  -0.003796f, 0.004616f,  0.063418f,  0.043357f,
  0.111793f,  -0.016574f, -0.055071f, -0.037583f, -0.045886f, -0.010736f,
  -0.048108f, -0.030649f, 0.056404f,  -0.041824f, -0.035661f, -0.047731f,
  -0.101218f, -0.086989f, -0.007632f, 0.008721f,  0.011649f,  0.105648f,
  -0.084175f, 0.029943f,  0.082569f,  0.097597f,  -0.047447f, -0.028379f,
  -0.009048f, -0.067937f, -0.006342f, -0.056448f, -0.099008f, 0.044779f,
  -0.009296f, 0.032229f,  0.020108f,  0.030541f,  -0.012017f, 0.095744f,
  0.05355f,   -0.020769f, -0.013069f, -0.127476f, -0.064145f, 0.067089f,
  -0.040087f, -0.001916f, -0.127441f, 0.065798f,  0.108078f,  -0.022275f,
  0.001619f,  -0.068245f, 0.021872f,  0.04931f,   0.044954f,  -0.096854f,
  -0.019571f, -0.090483f, -0.029932f, 0.024309f,  -0.080263f, 0.074339f,
  0.060947f,  -0.012897f, 0.074574f,  -0.118985f, 0.023525f,  -0.059063f,
  -0.054516f, -0.055428f, -0.016772f, -0.073114f, -0.026992f, 0.128257f,
  -0.036927f, -0.087627f, -0.131956f, -0.070988f, -0.047949f, -0.110452f,
  0.114453f,  0.05612f,   -0.001262f, 0.006135f,  -0.057016f, -0.066102f,
  0.042532f,  -0.001387f, 0.086898f,  -0.075304f, 0.016933f,  0.058569f,
  0.066233f,  -0.038136f, -0.037118f, 0.064535f,  -0.06913f,  -0.091204f,
  0.017265f,  -0.018781f, 0.024837f,  0.022735f,  -0.055555f, 0.001492f,
  -0.017379f, -0.018651f, -0.036399f, 0.004856f,  0.009549f,  -0.012651f,
  -0.04738f,  0.044869f,  0.075228f,  -0.078216f, -0.047129f, -0.0113f,
  -0.009583f, 0.042907f,  -0.009598f, 0.027419f,  -0.108769f, -0.042228f,
  0.015624f,  -0.056208f, -0.028346f, 0.082183f,  0.123685f,  0.021646f,
  0.054524f,  0.134791f,  0.007781f,  -0.02211f,  -0.009938f, -0.093842f,
  0.02833f,   0.01872f,   0.02914f,   -0.005494f, -0.037376f, 0.106159f,
  0.077997f,  0.015269f,  -0.066145f, 0.029591f,  0.039574f,  0.009516f,
  -0.046518f, 0.073217f,  -0.097146f, 0.025248f,  0.036264f,  0.037716f,
  0.068456f,  -0.019129f, -0.010847f, 0.048494f,  -0.045595f, 0.052985f,
  -0.020494f, 0.000183f,  0.063348f,  -0.050234f, 0.049108f,  -0.11724f,
  0.008911f,  -0.049423f, -0.002405f, -0.029911f, 0.036727f,  -0.043585f,
  -0.098964f, -0.003361f, -0.040382f, -0.028145f, -0.037075f, -0.048867f,
  0.045382f,  -0.003112f, 0.006873f,  0.132746f,  0.011138f,  -0.036781f,
  -0.051147f, -0.090043f, -0.046426f, 0.098611f,  -0.009106f, -0.082626f,
  -0.030234f, -0.007117f, -0.035967f, 0.105883f,  0.129015f,  0.123444f,
  0.051188f,  0.040342f,  0.051965f,  -0.002977f, -0.105468f, -0.009601f,
  -0.05027f,  -0.098634f, -0.072195f, 0.018898f,  0.021418f,  0.033204f,
  -0.004357f, 0.03904f,   -0.074839f, 0.021923f,  -0.03945f,  -0.013148f,
  0.068111f,  -0.077297f, 0.090927f,  -0.002823f, -0.074223f, 0.099392f,
  -0.050149f, -0.027504f, 0.000227f,  -0.010685f, 0.071516f,  0.102622f,
  0.036927f,  0.010606f,  0.03776f,   0.048949f,  -0.024139f, -0.070983f,
  0.004552f,  0.034167f,  -0.052293f, -0.007145f, 0.016214f,  0.016385f,
  -0.049385f, 0.03413f,   0.067164f,  -0.025904f, 0.028789f,  0.040646f,
  -0.075992f, -0.037884f, -0.096933f, -0.108493f, 0.091421f,  -0.005657f,
  0.036423f,  0.03273f,   -0.008238f, 0.043402f,  0.09183f,   -0.052119f,
  -0.030748f, 0.130635f,  0.010192f,  0.022094f,  0.001471f,  -0.018073f,
  0.053123f,  0.013233f,  0.011888f,  0.073672f,  -0.019759f, 0.123282f,
  -0.113398f, -0.023307f, -0.04003f,  -0.00041f,  0.130295f,  -0.020704f,
  0.075433f,  0.042878f,  -0.015658f, 0.050799f,  0.000949f,  0.034678f,
  0.012965f,  0.087248f,  -0.028702f, -0.044239f, -0.049668f, -0.035715f,
  -0.044074f, 0.091163f,  0.042257f,  -0.016621f, 0.106057f,  0.016996f,
  -0.032528f, 0.002202f,  0.106431f,  -0.077046f, -0.094243f, -0.036535f,
  0.01875f,   -0.00582f,  0.005743f,  0.05895f,   -0.046707f, -0.023213f,
  -0.033306f, 0.003916f,  -0.039505f, -0.035365f, -0.070402f, -0.01036f,
  -0.034752f, 0.00039f,   0.117371f,  -0.073379f, -0.013191f, -0.039071f,
  0.01067f,   0.091371f,  0.027519f,  -0.129862f, -0.048027f, 0.096255f,
  -0.028581f, -0.031242f, 0.069311f,  -0.101976f, -0.097421f, -0.017908f,
  0.122918f,  0.036256f,  0.130889f,  -0.061643f, -0.016053f, 0.000427f,
  0.006731f,  -0.06286f,  0.097219f,  -0.060748f, -0.100596f, 0.04191f,
  -0.081673f, -0.001435f, 0.079845f,  -0.027527f, 0.022641f,  0.097691f,
  -0.076676f, -0.020824f, 0.039688f,  -0.033103f, 0.015062f,  -0.015773f,
  0.044204f,  -0.035047f, -0.025201f, 0.062584f,  0.054539f,  -0.102737f,
  0.027967f,  -0.045943f, -0.056078f, 0.004761f,  -0.046177f, 0.072353f,
  -0.049343f, -0.016776f, 0.12474f,   0.052816f,  -0.057408f, 0.015061f,
  0.07211f,   0.010836f,  0.033638f,  -0.016492f, -0.028883f, 0.009496f,
  0.133012f,  0.019359f,  -0.002783f, 0.068079f,  -0.013812f, -0.107036f,
  0.069701f,  0.099192f,  0.013087f,  -0.041737f, -0.01478f,  -0.033387f,
  0.104339f,  0.121524f,  0.121902f,  -0.079167f, -0.030916f, 0.046905f,
  -0.076835f, 0.080099f,  -0.011054f, 0.061579f,  0.011382f,  -0.007108f,
  -0.046247f, -0.09932f,  -0.032465f, -0.078126f, 0.031082f,  -0.07639f,
  -0.064932f, -0.094592f, 0.043502f,  -0.056878f, 0.025154f,  0.068353f,
  0.004888f,  -0.040294f, 0.085816f,  -0.061173f, 0.115943f,  0.004939f,
  -0.106168f, 0.062166f,  -0.016035f, 0.042041f,  0.048846f,  -0.061634f,
  0.090232f,  0.105473f,  -0.068819f, 0.045023f,  -0.076989f, -0.022242f,
  0.023986f,  0.02757f,   -0.021408f, -0.004738f, -0.005318f, 0.119639f,
  0.099408f,  -0.002934f, -0.078378f, 0.005337f,  -0.050856f, -0.083854f,
  0.05241f,   0.003873f,  0.051335f,  -0.01965f,  0.00877f,   0.030506f,
  0.004173f,  -0.127157f, 0.065466f,  0.041028f,  0.047278f,  -0.100339f,
  -0.085981f, -0.075449f, 0.13067f,   0.061938f,  0.105461f,  -0.082857f,
  -0.03528f,  0.045716f,  -0.034706f, -0.013648f, -0.109502f, 0.061849f,
  0.050762f,  0.021639f,  -0.06171f,  -0.091711f, -0.047341f, 0.014711f,
  0.04718f,   0.016819f,  -0.036868f, 0.025437f,  -0.019674f, 0.097153f,
  0.036292f,  0.104447f,  0.03307f,   0.01701f,   0.065338f,  0.000609f,
  -0.045734f, -0.015276f, -0.039474f, 0.074335f,  0.041497f,  0.094255f,
  0.02257f,   -0.053711f, -0.011965f, 0.050212f,  0.062237f,  0.011073f,
  0.114939f,  -0.047904f, 0.065944f,  -0.011019f, -0.00865f,  -0.062597f,
  0.061259f,  0.074581f,  0.027603f,  0.024574f,  -0.004847f, 0.059621f,
  0.030205f,  0.017747f,  0.028093f,  0.052442f,  -0.043688f, 0.01714f,
  0.032932f,  -0.043759f, 0.04254f,   -0.040523f, 0.011346f,  0.09792f,
  0.049946f,  -0.114262f, 0.029906f,  -0.010411f, -0.050656f, 0.046849f,
  0.004947f,  0.062497f,  -0.050814f, 0.079089f,  -0.047336f, 0.097637f,
  0.015495f,  0.05909f,   0.095532f,  0.001526f,  -0.01218f,  -0.064271f,
  0.046296f,  -0.055156f, -0.018298f, 0.126169f,  -0.034203f, 0.025743f,
  -0.024386f, -0.103961f, -0.115167f, -0.054658f, 0.064024f,  0.033697f,
  -0.089661f, 0.080348f,  -0.013663f, -0.053605f, 0.105623f,  0.092431f,
  0.033144f,  0.047689f,  0.032886f,  -0.012514f, 0.078035f,  0.042014f,
  -0.042464f, -0.066586f, 0.034905f,  0.050145f,  0.075629f,  -0.117573f,
  -0.093941f, 0.116714f,  0.048558f,  0.031837f,  0.127304f,  -0.050635f,
  0.006439f,  -0.049974f, -0.053757f, -0.003629f, -0.123297f, 0.035397f,
  0.070633f,  -0.093851f, 0.067785f,  0.086356f,  0.090519f,  -0.097528f,
  -0.042771f, 0.085802f,  -0.093282f, -0.093423f, -0.031099f, 0.023932f,
  -0.042473f, -0.021031f, -0.016772f, 0.038205f,  0.029098f,  0.041539f,
  0.004334f,  0.024214f,  0.017782f,  0.011831f,  0.012562f,  0.001851f,
  -0.072542f, 0.060396f,  -0.091218f, -0.03239f,  0.005487f,  0.054185f,
  0.099343f,  -0.093334f, 0.000106f,  -0.006759f, 0.014012f,  0.095314f,
  -0.049379f, 0.06733f,   0.010471f,  -0.035397f, 0.097075f,  0.046965f,
  -0.099183f, -0.041346f, 0.037391f,  0.091521f,  -0.063862f, -0.068634f,
  -0.032861f, 0.045278f,  0.013486f,  -0.001735f, -0.025875f, 0.048641f,
  -0.082826f, -0.057814f, 0.003166f,  -0.012146f, 0.006109f,  -0.006482f,
  -0.083326f, -0.030331f, -0.081827f, -0.060934f, -0.026122f, -0.02788f,
  -0.051974f, 0.065114f,  0.071254f,  0.12754f,   -0.02559f,  0.02496f,
  0.016739f,  0.022304f,  -0.049242f, -0.028908f, -0.018663f, 0.003969f,
  -0.020563f, 0.024064f,  -0.013644f, -0.049502f, 0.045827f,  0.044552f,
  -0.024083f, -0.02642f,  0.068503f,  -0.068409f, 0.128537f,  0.002093f,
  0.058189f,  -0.083911f, -0.00531f,  -0.00783f,  0.039305f,  -0.114761f,
  -0.024927f, 0.061034f,  0.007835f,  0.02325f,   0.048779f,  0.093129f,
  -0.078867f, 0.01964f,   0.106275f,  -0.031423f, -0.023422f, 0.045759f,
  0.02528f,   0.039448f,  -0.022856f, -0.05039f,  -0.006657f, 0.049277f,
  -0.036545f, 0.107403f,  -0.017733f, 0.013773f,  0.08597f,   -0.026737f,
  -0.009273f, -0.042125f, -0.008616f, 0.097288f,  0.032936f,  0.096768f,
  -0.010476f, 0.104904f,  0.034072f,  0.002017f,  -0.029166f, -0.024149f,
  0.038934f,  0.026953f,  0.01355f,   0.113458f,  0.040125f,  -0.057199f,
  -0.009697f, 0.06037f,   0.027568f,  0.066908f,  -0.059811f, -0.115071f,
  0.083192f,  -0.020501f, -0.015632f, -0.095725f, 0.02737f,   0.056821f,
  -0.047529f, 0.015856f,  -0.012146f, -0.038023f, 0.010181f,  -0.128146f,
  0.076782f,  0.076155f,  0.096079f,  0.052496f,  -0.03858f,  0.026761f,
  0.031636f,  -0.001532f, -0.076089f, 0.068399f,  0.026473f,  0.067348f,
  -0.01625f,  -0.020884f, -0.102919f, -0.03801f,  0.041836f,  -0.121802f,
  0.018679f,  0.015217f,  0.064789f,  0.028051f,  0.017446f,  -0.010318f,
  -0.021751f, 0.0281f,    0.003913f,  -0.128283f, -0.00805f,  -0.008596f,
  0.103773f,  0.013164f,  -0.014606f, -0.004849f, 0.046518f,  -0.034179f,
  0.086744f,  0.033914f,  -0.079979f, -0.10862f,  0.11936f,   -0.056974f,
  -0.078695f, -0.090295f, -0.057448f, 0.041578f,  0.09265f,   0.003731f,
  0.059291f,  0.048534f,  -0.049713f, -0.12785f,  0.017598f,  0.058765f,
  0.018391f,  -0.016987f, 0.090639f,  0.092258f,  -0.04855f,  -0.066712f,
  0.00838f,   -0.039282f, -0.005132f, 0.001297f,  0.03589f,   -0.035702f,
  0.105211f,  -0.030388f, -0.11057f,  0.11358f,   0.058911f,  -0.090679f,
  -0.0101f,   0.026359f,  -0.114273f, -0.045163f, 0.043734f,  -0.069205f,
  -0.012575f, -0.028425f, -0.034157f, -0.024414f, -0.032356f, 0.007075f,
  0.014112f,  -0.092008f, 0.04664f,   0.059231f,  0.027374f,  -0.042461f,
  0.070017f,  0.043569f,  0.065898f,  0.047027f,  -0.058616f, 0.048155f,
  -0.026888f, -0.050419f, 0.053813f,  -0.032801f, 0.035545f,  0.039019f,
  0.085f,     -0.030948f, 0.08211f,   -0.020621f, 0.043076f,  -0.005482f,
  0.028545f,  -0.027972f, -0.082194f, -0.074519f, 0.027628f,  -0.017322f,
  -0.021555f, -0.070541f, -0.024596f, 0.10623f,   -0.007552f, -0.077608f,
  -0.0581f,   -0.004069f, 0.098997f,  0.05685f,   0.061653f,  -0.028961f,
  0.11953f,   -0.075643f, -0.024908f, 0.065902f,  -0.024741f, -0.118096f,
  -0.088653f, -0.044528f, 0.003993f,  -0.01739f,  0.026648f,  -0.026368f,
  -0.013146f, -0.060822f, -0.005039f, -0.012282f, 0.063411f,  0.087514f,
  0.087861f,  0.020336f,  0.000725f,  -0.083823f, -0.005711f, -0.091518f,
  -0.037718f, -0.057891f, 0.019531f,  -0.028773f, 0.023403f,  0.048208f,
  -0.044915f, 0.008232f,  0.004317f,  -0.049879f, -0.077472f, -0.011139f,
  0.036488f,  -0.015439f, -0.050823f, 0.093472f,  0.037308f,  0.039908f,
  0.057146f,  0.043362f,  0.027229f,  0.092497f,  0.004314f,  -0.02707f,
  0.010501f,  -0.058356f, 0.133616f,  -0.052144f, 0.120217f,  0.090907f,
  0.013974f,  -0.08074f,  -0.044724f, -0.034754f, -0.040152f, -0.003053f,
  -0.021049f, 0.103568f,  0.1055f,    0.066772f,  0.006459f,  -0.009806f,
  0.013466f,  -0.060775f, 0.120865f,  -0.033116f, 0.02534f,   0.059158f,
  0.094812f,  -0.034125f, -0.055983f, 0.061866f,  0.015768f,  0.111118f,
  -0.019312f, 0.041686f,  0.010242f,  0.011838f,  -0.103653f, 0.019358f,
  -0.087641f, -0.048922f, -0.059971f, 0.038505f,  -0.035649f, -0.028373f,
  0.025185f,  0.068756f,  0.033841f,  0.033562f,  -0.009375f, -0.123212f,
  -0.000368f, -0.100079f, 0.012226f,  -0.059339f, -0.069498f, -0.036914f,
  0.081977f,  0.07264f,   -0.022142f, 0.10837f,   0.033544f,  0.059492f,
  0.083621f,  -0.021501f, 0.044109f,  0.052844f,  0.050046f,  0.117489f,
  -0.007489f, -0.055985f, -0.012713f, 0.009807f,  -0.052209f, 0.06779f,
  0.040883f,  -0.011722f, -0.025102f, 0.002402f,  -0.025646f, -0.026885f,
  -0.018538f, -0.046684f, 0.098497f,  0.010039f,  0.04904f,   -0.056474f,
  -0.018969f, 0.029545f,  -0.043848f, -0.029504f, -0.051949f, 0.042797f,
  0.092882f,  0.031092f,  0.00003f,   0.038882f,  -0.044746f, 0.087793f,
  -0.121982f, -0.017169f, -0.102869f, 0.054249f,  -0.131843f, -0.014413f,
  -0.117664f, 0.083145f,  -0.071415f, -0.092687f, -0.121214f, -0.000516f,
  0.065307f,  -0.111751f, 0.019236f,  -0.011968f, -0.034777f, -0.093635f,
  0.020494f,  -0.03763f,  0.083803f,  -0.027964f, 0.081605f,  0.073633f,
  -0.028837f, 0.030221f,  -0.025554f, -0.058911f, 0.048783f,  0.012525f,
  0.034398f,  -0.054898f, 0.002926f,  0.129758f,  -0.007717f, -0.086243f,
  -0.056024f, -0.009569f, -0.004694f, 0.014986f,  0.000094f,  -0.076688f,
  0.047923f,  -0.037325f, -0.088881f, 0.082521f,  0.034667f,  0.066637f,
  0.026784f,  0.059166f,  0.103302f,  0.019157f,  -0.008552f, 0.060929f,
  -0.061653f, -0.01521f,  -0.092575f, 0.054274f,  0.048923f,  -0.111205f,
  0.007561f,  0.019875f,  -0.028462f, 0.007724f,  -0.036402f, -0.011065f,
  0.030876f,  0.023813f,  0.022535f,  -0.105138f, -0.01446f,  0.096689f,
  -0.035076f, -0.06909f,  -0.036832f, 0.024396f,  -0.056789f, 0.088254f,
  -0.020375f, -0.016749f, 0.006986f,  0.08125f,   0.015726f,  0.060478f,
  0.093704f,  -0.009881f, 0.003932f,  0.020587f,  0.034487f,  -0.026441f,
  -0.040891f, 0.045809f,  0.031426f,  0.091042f,  0.036175f,  -0.002364f,
  -0.00088f,  -0.051656f, 0.1277f,    0.011356f,  0.096569f,  -0.006976f,
  -0.039464f, -0.051152f, -0.074704f, 0.029433f,  0.05324f,   -0.11865f,
  -0.026835f, 0.017731f,  -0.044525f, 0.035008f,  0.070921f,  -0.017638f,
  0.017636f,  0.023634f,  -0.006727f, -0.041183f, 0.104737f,  -0.0677f,
  0.071102f,  0.078838f,  0.017271f,  0.00957f,   -0.019051f, 0.128596f,
  0.049216f,  0.025066f,  -0.015674f, -0.106893f, -0.04178f,  -0.031493f,
  -0.039996f, -0.003805f, -0.098414f, 0.050944f,  0.004862f,  0.077088f,
  -0.004044f, -0.029424f, 0.029059f,  -0.009259f, -0.022259f, -0.090379f,
  -0.094446f, -0.002078f, 0.113903f,  0.003327f,  0.036977f,  -0.107998f,
  -0.007451f, -0.027616f, -0.051939f, -0.028476f, -0.090148f, -0.062272f,
  -0.03049f,  -0.022889f, 0.019618f,  0.014122f,  0.048891f,  -0.002022f,
  0.057136f,  0.011165f,  -0.014467f, -0.040851f, 0.009642f,  0.002345f,
  -0.027219f, -0.027158f, -0.062695f, -0.12817f,  -0.082335f, -0.080779f,
  0.025448f,  0.044817f,  0.119142f,  0.015431f,  0.087639f,  0.046199f,
  -0.096399f, 0.004982f,  0.007162f,  -0.036384f, 0.112043f,  0.075151f,
  0.044446f,  0.096709f,  0.037136f,  0.007338f,  0.011432f,  -0.092265f,
  0.054384f,  0.092939f,  0.023312f,  -0.036953f, -0.108492f, 0.042593f,
  0.003984f,  -0.043611f, 0.032694f,  -0.036376f, 0.075643f,  0.006236f,
  0.010978f,  0.122695f,  0.060048f,  -0.050153f, -0.046357f, -0.017425f,
  0.027039f,  0.02221f,   -0.059342f, -0.019616f, 0.010985f,  0.080777f,
  0.042774f,  -0.094192f, 0.034261f,  -0.053355f, 0.13296f,   -0.089817f,
  -0.068618f, 0.046015f,  -0.041929f, -0.050288f, -0.027192f, 0.087461f,
  0.012966f,  0.008026f,  0.018537f,  -0.108242f, -0.012092f, -0.039847f,
  0.086727f,  0.079118f,  -0.056235f, 0.048034f,  -0.003976f, -0.024302f,
  -0.020311f, 0.03846f,   -0.032557f, -0.018572f, 0.075223f,  -0.094465f,
  0.008376f,  0.008377f,  -0.029768f, -0.016394f, 0.004713f,  0.073373f,
  -0.080103f, 0.014839f,  0.064938f,  0.032527f,  0.10164f,   0.072643f,
  -0.035542f, -0.02055f,  -0.016494f, -0.051593f, -0.002625f, 0.01934f,
  0.016555f,  0.064184f,  0.061517f,  -0.089182f, -0.05454f,  0.013615f,
  -0.03809f,  0.040938f,  0.012159f,  -0.085098f, -0.030876f, -0.066699f,
  -0.039777f, 0.06816f,   -0.050129f, -0.097816f, 0.007005f,  -0.061162f,
  -0.090702f, -0.071701f, -0.062518f, 0.030144f,  0.046381f,  0.045959f,
  -0.010787f, -0.074158f, -0.014703f, -0.075115f, 0.031883f,  -0.076355f,
  -0.106054f, -0.0631f,   -0.009267f, -0.043832f, 0.065833f,  0.101522f,
  0.010005f,  -0.040025f, -0.02589f,  -0.004069f, -0.005445f, 0.046865f,
  0.046774f,  -0.012422f, -0.089587f, -0.028254f, 0.043103f,  0.063421f,
  -0.009265f, -0.012217f, 0.132413f,  -0.065385f, -0.05314f,  -0.101904f,
  -0.062004f, 0.036697f,  -0.101205f, 0.032251f,  0.041848f,  0.03391f,
  -0.056016f, 0.047263f,  -0.056234f, -0.069625f, -0.023616f, -0.013873f,
  0.03624f,   -0.068131f, 0.029862f,  -0.012894f, 0.024752f,  -0.001572f,
  -0.002895f, 0.020597f,  0.014603f,  0.05483f,   -0.011249f, -0.054496f,
  0.026779f,  0.051154f,  -0.089495f, 0.083054f,  0.060759f,  0.019584f,
  0.023554f,  0.072534f,  0.059722f,  -0.00074f,  0.019415f,  -0.036753f,
  -0.092958f, 0.006491f,  -0.080476f, 0.038342f,  0.019645f,  -0.013584f,
  -0.081399f, 0.092591f,  0.026527f,  -0.009783f, -0.026549f, -0.00978f,
  0.060381f,  -0.022628f, 0.060742f,  -0.021446f, 0.05876f,   0.103028f,
  0.128353f,  -0.0323f,   0.007632f,  -0.0584f,   -0.083491f, 0.059838f,
  -0.069974f, 0.02633f,   -0.070271f, -0.012549f, 0.010754f,  -0.046245f,
  0.086731f,  0.042619f,  -0.014297f, -0.062375f, -0.106169f, 0.089628f,
  0.016999f,  0.021273f,  0.119247f,  -0.037735f, 0.102119f,  -0.123625f,
  -0.000323f, 0.091939f,  0.030747f,  0.006108f,  0.034907f,  0.007577f,
  0.094116f,  -0.103427f, -0.055984f, 0.102618f,  0.047017f,  -0.001765f,
  0.035566f,  0.011287f,  -0.109406f, 0.043798f,  -0.095875f, 0.03831f,
  0.089484f,  0.039929f,  0.051354f,  -0.120856f, 0.031331f,  0.066675f,
  0.05964f,   -0.002001f, -0.1051f,   -0.0763f,   0.055894f,  0.024932f,
  0.055977f,  -0.008577f, 0.02985f,   -0.01336f,  -0.048996f, 0.075208f,
  -0.049424f, 0.126834f,  -0.057832f, 0.025329f,  -0.104631f, -0.039741f,
  0.01427f,   -0.037607f, 0.019902f,  -0.018687f, 0.032173f,  0.058583f,
  0.056814f,  -0.060723f, -0.008336f, 0.073794f,  0.006718f,  0.018353f,
  -0.133044f, -0.031261f, -0.05537f,  0.058278f,  0.016689f,  0.128616f,
  0.063131f,  -0.07203f,  0.128495f,  0.084497f,  0.026968f,  0.051276f,
  -0.052636f, -0.046606f, 0.064531f,  -0.02055f,  -0.000803f, -0.056804f,
  -0.013573f, -0.070837f, 0.015763f,  0.08056f,   0.123891f,  0.109728f,
  -0.00939f,  -0.071032f, -0.040759f, -0.040686f, -0.010464f, -0.023807f,
  0.082682f,  0.067341f,  0.029682f,  0.066962f,  -0.01983f,  0.099107f,
  -0.000717f, 0.046154f,  -0.082683f, -0.004457f, 0.071728f,  0.007352f,
  -0.04499f,  -0.001046f, 0.020999f,  -0.121692f, 0.104038f,  -0.003551f,
  -0.044248f, -0.059469f, -0.067138f, 0.045881f,  0.06517f,   0.063374f,
  -0.032937f, -0.046105f, 0.010085f,  0.073586f,  -0.051343f, 0.014858f,
  0.041632f,  0.032796f,  0.060308f,  0.051093f,  -0.026675f, 0.112123f,
  -0.029943f, 0.076764f,  -0.093707f, 0.009896f,  0.035779f,  0.051183f,
  -0.060041f, 0.041047f,  0.036179f,  0.034155f,  -0.023567f, 0.078181f,
  0.004897f,  -0.028383f, -0.062989f, 0.07073f,   0.028545f,  0.053486f,
  -0.030745f, 0.07864f,   -0.09377f,  -0.098497f, -0.077047f, -0.053412f,
  -0.003321f, -0.029588f, 0.009342f,  0.051519f,  0.012702f,  0.016158f,
  -0.044721f, 0.036279f,  -0.001515f, -0.064772f, -0.080578f, -0.033623f,
  -0.060972f, 0.024053f,  0.030939f,  0.020809f,  0.008463f,  -0.103584f,
  -0.036032f, -0.131185f, 0.04164f,   -0.066155f, -0.008828f, 0.086042f,
  -0.033322f, -0.057103f, -0.030701f, 0.004409f,  0.097529f,  -0.002957f,
  0.034848f,  -0.022705f, -0.070373f, 0.005456f,  0.023919f,  0.019177f,
  0.018349f,  -0.091123f, 0.055805f,  -0.001844f, -0.025647f, 0.122492f,
  -0.119746f, 0.083054f,  0.037867f,  0.016984f,  0.055081f,  0.052364f,
  -0.087693f, 0.120977f,  0.017939f,  -0.013692f, 0.051418f,  0.012063f,
  0.035069f,  0.064651f,  -0.035352f, -0.083023f, 0.082499f,  0.023388f,
  0.036079f,  0.015581f,  0.061838f,  -0.000951f, 0.117954f,  -0.007759f,
  0.095849f,  -0.031409f, 0.010985f,  -0.022475f, 0.015731f,  -0.073639f,
  -0.070796f, 0.040523f,  -0.064115f, 0.072756f,  -0.083916f, -0.047511f,
  0.019633f,  0.071984f,  -0.043411f, 0.069358f,  0.104329f,  -0.019125f,
  -0.068159f, -0.081984f, -0.008977f, 0.106632f,  -0.054591f, 0.044403f,
  0.024426f,  0.0221f,    -0.066289f, 0.047305f,  0.134598f,  0.1164f,
  0.022241f,  0.029553f,  0.008863f,  0.011383f,  0.028292f,  -0.111569f,
  -0.067822f, -0.024395f, 0.01588f,   -0.038964f, -0.00952f,  0.069012f,
  -0.056807f, 0.088863f,  -0.053713f, -0.033788f, -0.029328f, -0.08667f,
  -0.072517f, -0.006798f, 0.064315f,  -0.010159f, -0.060013f, -0.018905f,
  0.116468f,  0.022406f,  -0.056696f, -0.003532f, 0.058645f,  0.094866f,
  -0.004787f, 0.097621f,  0.035386f,  0.049206f,  -0.089418f, -0.02143f,
  -0.003426f, -0.083132f, 0.110126f,  -0.055038f, -0.040754f, 0.027801f,
  -0.03441f,  0.034914f,  0.010463f,  -0.114526f, 0.017909f,  -0.001944f,
  0.046677f,  0.032632f,  -0.100769f, -0.033788f, -0.009168f, 0.017729f,
  -0.024869f, -0.008967f, 0.021727f,  0.014305f,  0.065513f,  0.037501f,
  -0.041039f, 0.034434f,  0.095156f,  -0.018884f, -0.017469f, 0.024452f,
  0.008143f,  0.043442f,  -0.014672f, -0.001692f, 0.052343f,  -0.115708f,
  0.059678f,  0.030128f,  0.046059f,  -0.071633f, 0.048303f,  0.004812f,
  0.039f,     0.116303f,  0.010646f,  0.04931f,   0.011918f,  -0.045228f,
  -0.084075f, 0.001826f,  -0.043746f, -0.032964f, 0.013471f,  0.000765f,
  0.111792f,  -0.031147f, -0.005242f, 0.054092f,  0.071849f,  -0.036652f,
  0.004054f,  -0.04968f,  0.094889f,  -0.010045f, -0.072343f, -0.05044f,
  -0.007211f, -0.038453f, -0.066838f, 0.014971f,  -0.04948f,  0.08764f,
  0.090808f,  0.038541f,  0.002736f,  -0.04979f,  -0.085695f, 0.004943f,
  -0.061918f, -0.036402f, 0.083912f,  -0.097946f, 0.020601f,  0.040023f,
  -0.02064f,  -0.029907f, 0.041352f,  -0.066478f, 0.010192f,  0.045905f,
  -0.014052f, 0.096063f,  0.086748f,  -0.037684f, -0.120844f, -0.048161f,
  0.00765f,   0.081912f,  -0.027692f, -0.056687f, 0.104657f,  -0.013747f,
  -0.023798f, -0.013986f, -0.021062f, 0.017339f,  0.024617f,  0.060591f,
  0.073368f,  -0.050928f, 0.035149f,  -0.060088f, -0.068461f, -0.076659f,
  0.0256f,    -0.082279f, 0.101453f,  0.008694f,  -0.092817f, 0.024037f,
  -0.095005f, -0.012726f, 0.093771f,  -0.011046f, 0.00812f,   0.128559f,
  0.02199f,   0.033873f,  -0.043837f, -0.0362f,   -0.094036f, 0.01023f,
  -0.030208f, -0.09688f,  -0.012493f, 0.011016f,  0.014176f,  -0.005924f,
  0.120402f,  0.024843f,  -0.074089f, 0.056897f,  -0.040461f, -0.020129f,
  -0.068499f, 0.073957f,  0.037395f,  0.002765f,  -0.068053f, 0.066126f,
  0.016221f,  -0.056872f, -0.073041f, -0.013515f, 0.014257f,  -0.07543f,
  -0.024757f, 0.093193f,  -0.051122f, 0.11717f,   -0.016836f, 0.069645f,
  -0.032958f, 0.038255f,  0.093396f,  0.047743f,  0.047515f,  0.062687f,
  0.075554f,  -0.113839f, -0.072728f, 0.035596f,  0.016251f,  -0.112756f,
  0.048713f,  -0.02123f,  -0.01f,     -0.063554f, 0.005897f,  0.065924f,
  0.009121f,  0.09127f,   0.040502f,  0.114406f,  0.021501f,  0.022124f,
  -0.033479f, -0.122711f, -0.01878f,  -0.011451f, -0.098592f, -0.107626f,
  0.038668f,  0.084587f,  -0.094401f, 0.051237f,  0.0847f,    -0.003089f,
  -0.035955f, 0.047494f,  -0.004335f, 0.056674f,  0.080769f,  0.003606f,
  0.099757f,  -0.047886f, -0.015212f, -0.010907f, -0.055894f, 0.047815f,
  0.020912f,  -0.018402f, 0.049377f,  -0.010403f, 0.063469f,  -0.082276f,
  0.028186f,  0.020823f,  -0.007432f, 0.069564f,  0.079507f,  0.045769f,
  0.029084f,  0.037371f,  -0.015421f, -0.010501f, -0.031076f, -0.07369f,
  -0.085661f, -0.02526f,  -0.07432f,  -0.029497f, -0.055667f, 0.058263f,
  0.034467f,  0.010741f,  -0.021806f, -0.011274f, 0.029708f,  0.117088f,
  0.099352f,  0.064867f,  -0.020319f, 0.067797f,  -0.02068f,  0.008884f,
  0.104189f,  0.004462f,  -0.017251f, 0.028734f,  -0.004501f, 0.050233f,
  0.11938f,   -0.069106f, -0.066715f, 0.00202f,   0.021383f,  -0.050314f,
  -0.118852f, -0.0573f,   -0.052204f, 0.080773f,  -0.070668f, 0.099587f,
  -0.004557f, -0.079645f, -0.051149f, -0.07278f,  0.019066f,  -0.026352f,
  0.046856f,  0.025045f,  -0.079472f, -0.006615f, -0.001574f, 0.117421f,
  -0.067111f, -0.03562f,  0.014252f,  0.060166f,  0.044727f,  -0.015188f,
  -0.030681f, -0.013979f, 0.00186f,   -0.041306f, -0.090334f, 0.011288f,
  -0.094336f, 0.090538f,  0.055201f,  -0.013548f, 0.041093f,  0.014605f,
  -0.063663f, 0.01793f,   0.067392f,  0.118264f,  -0.019162f, 0.025818f,
  0.036851f,  -0.124347f, 0.057414f,  -0.015781f, 0.007461f,  -0.070347f,
  -0.132539f, 0.052466f,  -0.066311f, 0.067046f,  -0.013903f, -0.099454f,
  -0.067153f, 0.076508f,  0.005023f,  0.0191f,    -0.031042f, 0.027369f,
  0.049965f,  -0.119001f, 0.056316f,  0.004491f,  -0.032098f, -0.084372f,
  0.05699f,   -0.054904f, -0.012412f, -0.081473f, 0.031305f,  0.07512f,
  0.027985f,  0.014829f,  -0.048819f, 0.064986f,  -0.028115f, -0.026679f,
  -0.02255f,  -0.034446f, 0.036704f,  -0.054263f, -0.09811f,  -0.001378f,
  0.02112f,   0.039794f,  -0.009159f, -0.003593f, -0.081178f, 0.004533f,
  0.005648f,  -0.061267f, -0.048298f, -0.064982f, -0.008067f, 0.014673f,
  -0.056019f, 0.036204f,  0.007293f,  0.116942f,  -0.009993f, 0.066874f,
  -0.003491f, -0.056957f, 0.030936f,  0.029228f,  -0.070757f, 0.080279f,
  -0.031197f, -0.04348f,  -0.031387f, -0.12277f,  -0.092051f, 0.048326f,
  0.126664f,  -0.016077f, 0.04319f,   -0.064803f, 0.039743f,  -0.011561f,
  -0.066389f, -0.078756f, 0.128096f,  0.065025f,  0.005581f,  0.019184f,
  -0.015816f, 0.023622f,  -0.020648f, 0.046392f,  0.006552f,  -0.007922f,
  0.07033f,   -0.02718f,  0.039728f,  0.0047f,    -0.124655f, -0.063482f,
  -0.102896f, 0.074647f,  -0.010719f, -0.054757f, 0.070842f,  0.015694f,
  0.074306f,  -0.002099f, 0.024786f,  -0.014958f, 0.049993f,  0.052369f,
  -0.067375f, 0.071728f,  -0.010368f, -0.065494f, 0.005796f,  0.038502f,
  -0.096675f, 0.071861f,  -0.013027f, 0.017567f,  -0.119948f, 0.004528f,
  0.017652f,  0.043141f,  -0.006848f, 0.014001f,  0.099506f,  -0.046071f,
  -0.022226f, -0.070753f, 0.010247f,  -0.000352f, 0.034575f,  -0.093149f,
  0.016503f,  -0.015357f, -0.129307f, 0.073956f,  -0.062016f, -0.121125f,
  0.10248f,   -0.075631f, 0.083867f,  -0.032571f, 0.077474f,  0.051254f,
  0.040615f,  0.003737f,  -0.051588f, -0.06859f,  0.019231f,  -0.098012f,
  -0.0946f,   -0.121315f, -0.027868f, 0.062099f,  -0.016122f, -0.00249f,
  0.054555f,  -0.075061f, -0.067676f, 0.017768f,  0.036703f,  0.022544f,
  -0.098313f, -0.037561f, -0.014169f, 0.021417f,  0.033277f,  0.022572f,
  0.050809f,  0.059048f,  -0.052615f, 0.063479f,  -0.041056f, 0.034816f,
  0.094207f,  -0.073584f, -0.113511f, -0.003983f, 0.106348f,  -0.126937f,
  0.000656f,  -0.068994f, -0.089207f, -0.063487f, 0.038409f,  -0.035682f,
  0.06085f,   0.022077f,  0.015284f,  0.059955f,  -0.093679f, -0.094078f,
  -0.05991f,  -0.052547f, -0.014704f, 0.007278f,  -0.091219f, 0.042268f,
  0.035661f,  0.033734f,  -0.051335f, 0.063109f,  0.004558f,  -0.078481f,
  -0.061617f, 0.031083f,  0.119752f,  -0.007716f, 0.017331f,  -0.059519f,
  0.091018f,  0.041198f,  -0.016101f, -0.014f,    -0.040795f, -0.122345f,
  0.019465f,  -0.045712f, 0.072047f,  -0.049967f, 0.030215f,  0.022699f,
  0.023068f,  0.029544f,  0.058998f,  0.036254f,  -0.058688f, 0.062367f,
  0.012593f,  -0.016685f, -0.016037f, 0.020636f,  0.06364f,   0.07994f,
  -0.133608f, 0.043643f,  -0.021487f, -0.066809f, -0.009475f, -0.042063f,
  -0.06696f,  -0.046103f, -0.054986f, -0.042183f, 0.029953f,  -0.044233f,
  -0.06499f,  -0.061344f, -0.028555f, 0.116409f,  -0.017526f, -0.040786f,
  0.072349f,  0.019362f,  0.03459f,   -0.088326f, 0.072465f,  0.079811f,
  0.009394f,  0.055301f,  0.036638f,  0.052818f,  -0.109764f, -0.124038f,
  0.046801f,  0.067828f,  -0.108557f, 0.051865f,  -0.00103f,  0.028382f,
  0.116591f,  -0.015866f, -0.091706f, 0.046443f,  -0.06646f,  0.082438f,
  0.090775f,  -0.097219f, 0.048483f,  -0.057878f, -0.036273f, -0.069469f,
  -0.019639f, -0.063487f, 0.093848f,  -0.11403f,  0.068331f,  0.004526f,
  -0.018709f, 0.010088f,  -0.04083f,  0.055509f,  -0.020439f, 0.062378f,
  -0.038873f, 0.104593f,  -0.078821f, 0.030387f,  0.017367f,  -0.044412f,
  0.066996f,  -0.010863f, -0.048108f, 0.017567f,  0.030102f,  0.026259f,
  0.003737f,  -0.007652f, -0.061501f, 0.024491f,  0.008803f,  0.023094f,
  -0.086653f, -0.048348f, -0.001026f, -0.00265f,  -0.021243f, 0.036356f,
  0.076607f,  -0.107686f, -0.056896f, 0.052085f,  0.040751f,  0.028416f,
  0.062395f,  0.017084f,  0.10027f,   -0.006495f, 0.049711f,  0.062355f,
  -0.053169f, -0.078325f, 0.083533f,  -0.036038f, 0.00467f,   -0.048282f,
  -0.091635f, -0.026595f, -0.052041f, 0.023351f,  0.043961f,  0.056868f,
  0.032583f,  0.071649f,  0.006191f,  -0.061409f, -0.044484f, 0.084627f,
  0.071265f,  0.025097f,  -0.094212f, -0.031955f, 0.042587f,  0.011928f,
  0.070744f,  -0.124282f, -0.020753f, 0.029245f,  0.058587f,  0.011296f,
  0.055575f,  0.005008f,  0.058554f,  -0.055581f, -0.054034f, -0.039659f,
  0.016042f,  -0.010598f, -0.008429f, -0.12333f,  -0.096168f, 0.047456f,
  0.083423f,  0.00582f,   0.064116f,  0.101193f,  -0.067131f, 0.0335f,
  0.062775f,  -0.003735f, -0.005032f, 0.06182f,   -0.025918f, -0.088099f,
  -0.028799f, 0.022703f,  0.01119f,   0.055915f,  -0.105162f, 0.068494f,
  -0.037048f, 0.041883f,  0.012464f,  -0.045606f, -0.042317f, 0.131418f,
  0.125997f,  0.022383f,  -0.070896f, 0.069349f,  -0.01527f,  0.025769f,
  -0.029963f, -0.063198f, -0.101007f, 0.021008f,  -0.086378f, 0.052741f,
  -0.103684f, 0.124639f,  0.003563f,  -0.035399f, -0.049893f, 0.079392f,
  0.009019f,  0.029139f,  0.106f,     0.028138f,  -0.022508f, 0.030902f,
  0.055648f,  -0.001216f, 0.08089f,   0.040884f,  -0.072453f, -0.065827f,
  0.010301f,  -0.016383f, 0.067038f,  0.131293f,  -0.024931f, 0.015785f,
  0.016717f,  -0.007146f, -0.082451f, -0.011255f, -0.011921f, 0.06695f,
  -0.004694f, -0.02676f,  0.07131f,   0.046182f,  0.107896f,  -0.015006f,
  0.004021f,  -0.124237f, -0.033493f, -0.039929f, 0.066861f,  -0.056382f,
  0.016086f,  -0.0669f,   -0.051466f, -0.025112f, -0.086333f, -0.012899f,
  -0.10949f,  0.006605f,  0.036061f,  -0.037167f, 0.022462f,  -0.007261f,
  -0.029313f, 0.00823f,   0.020517f,  0.020467f,  -0.012676f, 0.083485f,
  -0.09018f,  0.064136f,  -0.114411f, -0.026867f, 0.067538f,  0.041693f,
  -0.01304f,  -0.026477f, 0.098848f,  -0.053306f, 0.031294f,  -0.050883f,
  -0.090876f, -0.029978f, 0.014308f,  -0.0286f,   -0.11532f,  -0.045498f,
  0.097131f,  -0.076498f, -0.000746f, 0.106462f,  0.02189f,   -0.053004f,
  -0.012933f, 0.109039f,  -0.0841f,   -0.132999f, -0.029335f, -0.002885f,
  0.107275f,  -0.065608f, 0.003954f,  0.079403f,  0.013053f,  -0.015792f,
  0.011508f,  -0.126017f, -0.108312f, -0.039727f, 0.059263f,  -0.049653f,
  -0.02063f,  -0.038751f, 0.051913f,  0.012282f,  -0.069616f, 0.070617f,
  -0.096369f, 0.066817f,  -0.037795f, 0.040106f,  0.128205f,  0.018524f,
  0.025255f,  0.011565f,  -0.014488f, -0.024102f, 0.009119f,  -0.093862f,
  0.00109f,   -0.001167f, -0.033117f, -0.031758f, -0.008924f, -0.003813f,
  0.032663f,  -0.001226f, -0.092259f, 0.071365f,  -0.062881f, -0.024938f,
  -0.035991f, 0.027231f,  0.002664f,  -0.009407f, -0.005946f, -0.012483f,
  -0.046454f, -0.13266f,  0.090825f,  -0.033401f, -0.002423f, 0.033635f,
  0.02585f,   -0.048891f, -0.03731f,  0.023235f,  -0.03417f,  -0.056393f,
  -0.061257f, -0.019543f, 0.095223f,  -0.0571f,   -0.001451f, -0.033707f,
  0.081931f,  -0.098465f, 0.083462f,  0.048223f,  0.048507f,  0.030829f,
  0.033713f,  0.011503f,  -0.018869f, 0.053905f,  -0.007086f, -0.050364f,
  -0.084371f, 0.078718f,  0.000164f,  0.023751f,  0.03209f,   -0.076002f,
  -0.035945f, -0.091838f, -0.051111f, 0.025113f,  0.01413f,   -0.049208f,
  0.012327f,  0.055405f,  -0.085352f, -0.134397f, -0.111318f, 0.071726f,
  0.002245f,  0.025531f,  -0.027673f, -0.057801f, -0.003245f, 0.017894f,
  0.018627f,  0.007792f,  0.038786f,  0.020523f,  0.011473f,  -0.104761f,
  -0.008776f, -0.047783f, -0.037019f, 0.040012f,  -0.007903f, 0.109919f,
  0.027475f,  0.012206f,  0.067753f,  0.018572f,  -0.064843f, -0.013799f,
  0.09786f,   -0.092482f, -0.014821f, -0.015973f, -0.111006f, -0.050512f,
  0.044614f,  0.113692f,  0.102353f,  -0.005283f, -0.08632f,  -0.032752f,
  -0.045686f, 0.0696f,    -0.086559f, 0.095278f,  -0.122221f, -0.004281f,
  0.034812f,  -0.032809f, 0.023466f,  -0.035327f, -0.05715f,  0.008594f,
  0.064047f,  0.048995f,  -0.006576f, -0.061325f, 0.000066f,  -0.02368f,
  -0.041861f, -0.009598f, -0.031234f, 0.034842f,  -0.024393f, -0.033697f,
  0.072627f,  0.072187f,  0.097043f,  -0.073979f, -0.106404f, -0.054327f,
  -0.108896f, -0.058753f, 0.013845f,  -0.091945f, 0.106237f,  -0.023812f,
  0.033677f,  0.031455f,  -0.095407f, -0.080769f, 0.131909f,  -0.025556f,
  0.016154f,  0.058269f,  0.021772f,  -0.008761f, 0.00765f,   -0.010646f,
  -0.065008f, -0.000549f, 0.058227f,  0.057007f,  0.006859f,  -0.005084f,
  0.082501f,  0.078247f,  0.005396f,  0.048285f,  -0.065891f, -0.119086f,
  -0.036808f, -0.0922f,   -0.013575f, -0.089382f, 0.033595f,  -0.080951f,
  -0.027811f, 0.111294f,  -0.016469f, 0.024629f,  0.021327f,  -0.025994f,
  -0.064259f, 0.128761f,  -0.063452f, 0.002789f,  0.006539f,  0.016207f,
  -0.073106f, -0.050733f, 0.048407f,  0.069192f,  -0.025579f, 0.020639f,
  0.081606f,  -0.095889f, -0.02674f,  0.014972f,  0.016652f,  0.03245f,
  -0.003294f, -0.044795f, 0.017923f,  0.002571f,  0.0088f,    0.031548f,
  -0.011395f, 0.085539f,  -0.006445f, -0.023325f, -0.04316f,  -0.018651f,
  0.005983f,  0.100499f,  -0.017491f, -0.046846f, 0.010563f,  -0.024882f,
  -0.041229f, 0.030936f,  0.071559f,  -0.005346f, -0.071448f, -0.060997f,
  0.069555f,  -0.008671f, 0.066375f,  0.068641f,  -0.072182f, 0.096504f,
  -0.036938f, 0.049581f,  0.123925f,  -0.043651f, 0.035036f,  0.045928f,
  -0.067509f, -0.103877f, 0.005934f,  -0.012302f, -0.00723f,  0.012283f,
  -0.016646f, 0.081179f,  -0.10667f,  -0.039459f, 0.052292f,  0.134483f,
  -0.093348f, 0.048409f,  0.070998f,  -0.0379f,   0.021678f,  0.026143f,
  0.030403f,  -0.090362f, -0.131999f, -0.025031f, 0.021096f,  -0.008141f,
  0.096111f,  0.059274f,  0.012953f,  0.064937f,  0.067787f,  -0.055547f,
  -0.035883f, 0.041179f,  0.078509f,  0.059982f,  0.014186f,  0.013641f,
  0.01833f,   -0.069446f, 0.002721f,  0.127146f,  0.011079f,  0.040845f,
  -0.069755f, 0.084179f,  0.046788f,  0.011346f,  -0.028278f, 0.022171f,
  -0.099922f, -0.010175f, 0.028362f,  0.003297f,  0.065105f,  -0.009504f,
  0.036784f,  -0.093505f, 0.018134f,  -0.024252f, 0.07644f,   0.077f,
  -0.00157f,  -0.099516f, 0.102953f,  -0.063563f, -0.021177f, -0.108882f,
  0.004654f,  -0.039727f, 0.061576f,  0.017055f,  0.081211f,  -0.03089f,
  0.082415f,  0.053977f,  -0.063563f, 0.011471f,  0.036119f,  -0.079981f,
  0.011904f,  0.064369f,  -0.072851f, 0.013015f,  -0.095025f, 0.086979f,
  0.012604f,  0.109412f,  -0.052044f, -0.013766f, -0.002288f, -0.03281f,
  -0.068154f, -0.017299f, 0.05401f,   -0.06985f,  -0.065849f, 0.012175f,
  -0.082686f, -0.032158f, -0.035155f, -0.084293f, 0.093339f,  0.112864f,
  0.081424f,  0.017379f,  -0.012618f, 0.029261f,  -0.015821f, -0.027666f,
  0.061391f,  0.02912f,   0.021371f,  -0.022519f, 0.022633f,  -0.057815f,
  0.059471f,  0.057968f,  0.080304f,  -0.058291f, -0.02645f,  -0.108177f,
  0.032352f,  0.047401f,  0.096515f,  -0.003079f, 0.040282f,  0.001511f,
  0.014809f,  0.076836f,  0.094297f,  -0.048123f, -0.074836f, -0.107192f,
  -0.018574f, 0.065846f,  -0.020178f, 0.096566f,  0.044603f,  -0.027316f,
  -0.044369f, 0.047755f,  0.128686f,  -0.130781f, -0.002254f, -0.007013f,
  -0.006071f, -0.044881f, -0.055739f, 0.044005f,  -0.060653f, 0.092417f,
  -0.058843f, 0.019193f,  -0.052382f, -0.01595f,  0.005148f,  -0.102177f,
  -0.021031f, -0.016656f, -0.014866f, 0.001343f,  0.054428f,  -0.012837f,
  0.071747f,  0.109695f,  -0.119481f, 0.000552f,  -0.030444f, 0.014948f,
  0.024489f,  0.035543f,  -0.049444f, -0.014476f, 0.106199f,  -0.052533f,
  -0.080755f, -0.015318f, -0.068483f, -0.023299f, -0.011321f, 0.07089f,
  -0.051082f, 0.040458f,  -0.064557f, -0.045982f, -0.045751f, -0.043513f,
  -0.106375f, 0.119197f,  -0.102948f, -0.044771f, 0.017653f,  0.039348f,
  0.08117f,   0.010203f,  0.050462f,  -0.006211f, 0.035275f,  0.066978f,
  0.047612f,  0.018001f,  0.026496f,  -0.012775f, -0.047785f, -0.035141f,
  0.053551f,  -0.030543f, -0.084764f, -0.051485f, -0.007896f, -0.003389f,
  0.09429f,   0.047776f,  0.044189f,  0.011688f,  -0.107347f, 0.085898f,
  0.042628f,  0.08475f,   -0.008389f, 0.051282f,  -0.065726f, 0.045504f,
  -0.076914f, 0.019983f,  -0.037086f, 0.03765f,   0.009554f,  -0.023319f,
  -0.006825f, -0.063136f, 0.098489f,  -0.031335f, 0.017583f,  -0.016986f,
  -0.105461f, 0.018289f,  -0.002653f, 0.090619f,  0.051265f,  -0.05707f,
  -0.109859f, 0.022469f,  -0.071456f, -0.053936f, 0.005836f,  -0.04895f,
  0.027039f,  -0.097678f, 0.016259f,  0.007433f,  0.044676f,  0.044537f,
  0.060555f,  0.084688f,  0.105299f,  0.009534f,  0.074656f,  0.031699f,
  -0.076031f, -0.014234f, -0.050335f, -0.046407f, 0.079419f,  -0.010575f,
  0.023946f,  0.02051f,   -0.034483f, -0.023884f, -0.011785f, -0.070698f,
  -0.070462f, -0.035132f, -0.002109f, -0.001931f, 0.001823f,  0.070219f,
  -0.01379f,  -0.030762f, 0.016285f,  -0.029129f, 0.053979f,  -0.003042f,
  -0.025301f, -0.010984f, -0.01211f,  0.105492f,  -0.071615f, -0.063986f,
  -0.100096f, 0.057526f,  -0.079853f, -0.100181f, -0.020474f, -0.042083f,
  -0.12603f,  -0.03349f,  -0.131773f, -0.043513f, -0.024789f, 0.021888f,
  -0.066884f, -0.023215f, 0.070011f,  0.01743f,   0.070526f,  0.126878f,
  0.070928f,  0.031966f,  0.047369f,  -0.002199f, -0.029598f, -0.065552f,
  0.039085f,  0.002013f,  0.035003f,  0.024854f,  0.092738f,  -0.086473f,
  0.023182f,  -0.034591f, 0.035617f,  -0.003548f, 0.033818f,  0.041807f,
  -0.047774f, -0.016656f, -0.063977f, 0.015408f,  0.006189f,  -0.099701f,
  0.042379f,  -0.09374f,  0.038102f,  0.0231f,    0.06106f,   0.003333f,
  -0.013496f, 0.038485f,  -0.018259f, -0.022621f, 0.035978f,  0.086353f,
  -0.026762f, -0.125094f, -0.053111f, 0.069099f,  -0.005912f, 0.042949f,
  -0.006784f, -0.002933f, 0.043926f,  -0.062121f, 0.112763f,  -0.008122f,
  0.013727f,  -0.042694f, 0.015634f,  0.00018f,   -0.019096f, -0.054942f,
  -0.05913f,  0.011063f,  0.019699f,  -0.03753f,  0.067728f,  -0.061674f,
  0.120519f,  0.058997f,  0.020935f,  -0.079495f, 0.084483f,  -0.018527f,
  -0.06442f,  0.058972f,  -0.03401f,  -0.034402f, 0.088248f,  -0.012563f,
  0.007741f,  0.02119f,   -0.120324f, -0.022485f, 0.056361f,  0.120247f,
  -0.004392f, -0.009561f, -0.076976f, -0.124488f, -0.000682f, 0.115125f,
  0.01237f,   0.031836f,  0.077182f,  0.07836f,   -0.081862f, -0.006493f,
  -0.01533f,  -0.037666f, -0.099392f, -0.020058f, 0.018481f,  0.0347f,
  0.089135f,  0.021641f,  0.052637f,  -0.015368f, 0.00964f,   -0.019425f,
  -0.014441f, 0.029673f,  0.076205f,  -0.00973f,  -0.000285f, 0.02009f,
  0.020678f,  0.010067f,  -0.064855f, -0.012382f, -0.022106f, -0.103053f,
  -0.088077f, -0.018805f, 0.012569f,  -0.011518f, -0.023651f, 0.017518f,
  -0.030137f, -0.03895f,  0.05529f,   0.113354f,  0.047537f,  -0.064498f,
  0.096789f,  -0.051752f, -0.025455f, -0.045515f, 0.013506f,  -0.019434f,
  0.073354f,  -0.049517f, 0.039954f,  0.011251f,  -0.083793f, -0.069445f,
  -0.052434f, -0.013718f, -0.019207f, -0.005451f, 0.067948f,  0.057714f,
  0.077777f,  0.102834f,  -0.008657f, 0.110256f,  -0.056749f, 0.029792f,
  0.003815f,  0.098165f,  -0.051056f, -0.088762f, 0.042565f,  0.039349f,
  0.100554f,  -0.013891f, 0.059854f,  0.038399f,  0.027961f,  0.031346f,
  -0.074825f, 0.052316f,  -0.034726f, -0.06109f,  0.003545f,  0.028755f,
  0.013195f,  -0.082729f, -0.052808f, -0.016691f, -0.08213f,  -0.077432f,
  -0.044483f, 0.010507f,  0.018542f,  -0.083918f, -0.015878f, 0.039136f,
  -0.003497f, 0.011866f,  0.016714f,  0.00449f,   0.023521f,  -0.058641f,
  -0.038689f, -0.054219f, 0.010676f,  -0.001567f, 0.080894f,  0.019403f,
  0.042628f,  -0.043087f, -0.041672f, -0.005555f, 0.07246f,   0.028876f,
  0.074371f,  -0.047791f, -0.030394f, -0.095149f, 0.038151f,  -0.012165f,
  -0.050064f, 0.030768f,  0.042998f,  -0.025702f, 0.090537f,  0.01404f,
  -0.076985f, 0.082896f,  -0.010045f, -0.034318f, 0.020327f,  0.045753f,
  -0.029313f, -0.037642f, 0.077344f,  0.006333f,  -0.042098f, 0.047599f,
  0.017504f,  -0.036407f, 0.079032f,  -0.090105f, -0.018278f, 0.019608f,
  0.047386f,  0.055264f,  -0.001448f, -0.043189f, -0.063774f, 0.008659f,
  -0.0248f,   -0.014585f, -0.005269f, -0.121205f, 0.06108f,   0.002686f,
  -0.063917f, 0.082816f,  -0.008913f, -0.006193f, -0.070887f, -0.071837f,
  -0.05296f,  -0.024003f, 0.097153f,  -0.066899f, 0.068468f,  0.016694f,
  -0.031818f, -0.005476f, 0.087147f,  -0.055382f, -0.010554f, -0.034161f,
  0.040749f,  0.102072f,  0.043422f,  0.053296f,  -0.063337f, -0.005077f,
  -0.024543f, 0.03375f,   -0.10407f,  -0.070219f, 0.003717f,  -0.09542f,
  0.095431f,  -0.033974f, 0.024796f,  -0.001809f, 0.028675f,  -0.10159f,
  0.048635f,  -0.026183f, 0.00644f,   -0.066688f, 0.019218f,  -0.031935f,
  0.040521f,  -0.085991f, 0.091192f,  -0.024473f, -0.033721f, -0.073011f,
  -0.024085f, 0.050344f,  -0.068803f, 0.070422f,  -0.060708f, 0.069191f,
  0.129174f,  -0.086407f, 0.013369f,  -0.006544f, -0.021638f, 0.067543f,
  0.00243f,   -0.001375f, 0.039848f,  0.079648f,  -0.096015f, 0.100215f,
  0.067008f,  -0.061994f, -0.025375f, 0.036241f,  -0.096509f, 0.125651f,
  0.037469f,  -0.028727f, -0.011224f, -0.015166f, 0.028193f,  -0.02887f,
  0.02128f,   -0.111798f, 0.077929f,  0.038419f,  0.049262f,  0.091524f,
  0.131104f,  -0.084774f, -0.029764f, -0.066057f, -0.050911f, 0.016034f,
  0.046122f,  -0.058368f, 0.007117f,  -0.024858f, -0.011782f, 0.015685f,
  0.065717f,  0.006465f,  0.030547f,  0.035728f,  0.063349f,  -0.013299f,
  0.016222f,  0.047558f,  -0.084751f, -0.073924f, -0.012457f, 0.000725f,
  -0.11704f,  -0.041511f, 0.044508f,  0.064921f,  0.024391f,  0.03809f,
  0.007688f,  0.021612f,  -0.026282f, -0.029294f, -0.101005f, 0.026147f,
  0.011293f,  0.012802f,  0.101854f,  -0.025481f, -0.031169f, -0.040005f,
  0.085528f,  -0.11043f,  0.061136f,  -0.035329f, -0.00538f,  -0.127823f,
  -0.000509f, 0.063205f,  -0.096482f, 0.061309f,  0.054954f,  -0.024938f,
  0.127575f,  -0.087292f, 0.002296f,  0.044841f,  -0.066269f, 0.050835f,
  -0.087209f, 0.056483f,  -0.090561f, -0.036808f, 0.078368f,  0.037885f,
  0.059124f,  0.120527f,  0.051855f,  -0.03334f,  -0.038597f, -0.028596f,
  -0.069865f, -0.019692f, -0.000141f, -0.03159f,  -0.054192f, 0.008f,
  -0.065993f, -0.005069f, -0.038215f, 0.105444f,  -0.10983f,  0.028928f,
  0.00174f,   0.066868f,  -0.010418f, -0.076119f, -0.008569f, -0.009669f,
  -0.005551f, 0.015993f,  0.004912f,  -0.011783f, 0.04172f,   0.08122f,
  -0.00684f,  0.039022f,  -0.127042f, -0.029374f, 0.037196f,  0.038689f,
  0.064944f,  -0.027508f, -0.088814f, 0.020224f,  -0.032497f, 0.057577f,
  0.003327f,  0.009669f,  -0.01776f,  0.106953f,  0.068123f,  0.124638f,
  -0.003591f, -0.014494f, 0.097297f,  -0.006389f, -0.083586f, 0.012212f,
  0.015186f,  0.005504f,  0.003105f,  -0.011518f, -0.036604f, 0.00778f,
  0.068601f,  -0.011688f, 0.107086f,  0.029047f,  -0.035788f, 0.022377f,
  0.036538f,  0.016002f,  0.102013f,  -0.036508f, 0.002804f,  -0.075088f,
  -0.031828f, 0.076201f,  -0.066259f, -0.019053f, 0.049485f,  0.013907f,
  -0.008414f, -0.043718f, -0.042806f, -0.040062f, 0.086102f,  -0.068392f,
  -0.056848f, -0.0593f,   0.013091f,  -0.030875f, -0.076163f, -0.085028f,
  -0.015625f, -0.01742f,  0.128651f,  0.085843f,  0.008873f,  -0.009555f,
  -0.027503f, 0.02644f,   0.033001f,  -0.011502f, 0.041186f,  -0.044682f,
  0.125841f,  -0.062256f, -0.032935f, 0.046381f,  0.08563f,   -0.000525f,
  0.09174f,   0.085649f,  0.09783f,   0.027743f,  -0.010246f, -0.120066f,
  -0.062922f, -0.038627f, 0.048222f,  -0.042023f, -0.019968f, -0.02802f,
  -0.065539f, 0.025651f,  0.094919f,  0.098387f,  -0.099982f, 0.045501f,
  0.062154f,  -0.039406f, -0.010977f, 0.018785f,  -0.121311f, 0.044553f,
  0.048921f,  -0.002562f, 0.081267f,  -0.005191f, -0.012223f, 0.017473f,
  0.032703f,  0.016808f,  -0.030912f, -0.00314f,  0.022135f,  0.056857f,
  0.034186f,  0.067493f,  0.073429f,  0.020702f,  0.005408f,  -0.079866f,
  -0.06802f,  0.021623f,  0.050291f,  0.058149f,  -0.034913f, 0.081472f,
  0.004465f,  0.024941f,  -0.066227f, -0.037071f, -0.010128f, -0.088781f,
  -0.041441f, 0.021701f,  -0.014061f, -0.033167f, 0.080099f,  -0.081964f,
  -0.000625f, -0.00826f,  -0.026523f, 0.078139f,  0.010227f,  0.019881f,
  -0.033785f, -0.025877f, 0.025458f,  -0.095074f, -0.035512f, 0.001632f,
  -0.08075f,  -0.012861f, -0.081926f, 0.049158f,  0.055253f,  -0.006972f,
  -0.009799f, 0.017627f,  -0.066132f, 0.052367f,  0.017135f,  -0.097896f,
  0.06942f,   0.034459f,  -0.013544f, 0.007225f,  0.041548f,  0.107222f,
  0.019364f,  -0.056114f, 0.018018f,  -0.077945f, 0.017347f,  0.006189f,
  0.114148f,  0.079495f,  -0.105184f, -0.039536f, -0.093177f, 0.004436f,
  0.034464f,  -0.036877f, 0.041969f,  -0.040332f, -0.056375f, 0.05675f,
  -0.068966f, 0.064681f,  -0.028169f, 0.052715f,  0.051293f,  0.070332f,
  -0.086687f, 0.013265f,  -0.001908f, 0.043623f,  -0.025989f, 0.004993f,
  -0.020929f, 0.016995f,  -0.061254f, -0.037064f, 0.095725f,  0.103027f,
  -0.111976f, 0.084162f,  -0.038341f, 0.067136f,  0.073827f,  0.032234f,
  -0.004206f, -0.078656f, -0.010961f, -0.052754f, -0.048166f, -0.044115f,
  -0.036208f, -0.003459f, -0.089068f, 0.06746f,   0.024565f,  0.029589f,
  -0.025842f, -0.022236f, -0.095085f, 0.029856f,  -0.049576f, -0.023596f,
  0.065974f,  -0.072443f, -0.050419f, -0.071884f, -0.069682f, 0.060144f,
  -0.021546f, 0.030545f,  0.044058f,  0.066521f,  -0.053152f, 0.007589f,
  -0.042358f, -0.025203f, 0.035273f,  0.049832f,  -0.069132f, 0.045049f,
  0.04169f,   -0.041878f, -0.049499f, 0.028346f,  0.039996f,  -0.093745f,
  0.007482f,  -0.025386f, 0.021632f,  0.001744f,  0.041083f,  0.009349f,
  -0.12864f,  0.038073f,  0.007512f,  -0.045985f, -0.07122f,  -0.092279f,
  -0.050869f, -0.063015f, -0.010359f, 0.088751f,  0.074731f,  -0.013641f,
  -0.049002f, -0.000582f, 0.063865f,  0.035407f,  -0.090817f, -0.081528f,
  0.04646f,   -0.01798f,  0.072819f,  -0.058474f, -0.069454f, 0.121405f,
  -0.076289f, 0.058068f,  0.000521f,  0.041843f,  -0.027681f, -0.010499f,
  -0.023729f, 0.102445f,  0.095313f,  -0.020005f, 0.06209f,   -0.023398f,
  0.09332f,   -0.02687f,  -0.061027f, 0.019497f,  -0.004088f, -0.033217f,
  -0.054044f, 0.011419f,  -0.033332f, -0.021792f, -0.058525f, -0.01752f,
  0.030287f,  0.037656f,  -0.011816f, -0.060026f, -0.049064f, -0.090991f,
  -0.017278f, 0.022039f,  0.035021f,  0.074891f,  -0.028525f, -0.028203f,
  0.036523f,  0.098144f,  -0.089512f, 0.00913f,   -0.001466f, 0.071447f,
  -0.018364f, 0.026614f,  -0.051486f, -0.005132f, -0.06782f,  0.070717f,
  -0.01383f,  0.003416f,  -0.103057f, -0.047723f, 0.06043f,   0.028667f,
  -0.047895f, 0.080771f,  -0.00663f,  0.01466f,   -0.052506f, 0.029443f,
  -0.040921f, 0.069402f,  0.004651f,  0.082854f,  -0.103399f, -0.060787f,
  -0.005082f, -0.021003f, -0.002409f, -0.023313f, -0.005239f, -0.111234f,
  -0.092862f, -0.052233f, -0.017184f, -0.08808f,  -0.000353f, 0.05912f,
  -0.031831f, 0.041303f,  0.088017f,  -0.022543f, -0.023601f, 0.02891f,
  -0.00366f,  -0.052059f, -0.02008f,  0.097451f,  -0.037136f, -0.13193f,
  -0.022654f, 0.024371f,  -0.030498f, -0.06606f,  -0.007924f, -0.030528f,
  0.054964f,  0.003672f,  -0.02189f,  0.027773f,  0.017085f,  -0.045695f,
  0.071796f,  -0.031068f, 0.019591f,  -0.006073f, -0.013306f, -0.035044f,
  0.053897f,  -0.090235f, 0.007434f,  -0.026263f, 0.042795f,  -0.062136f,
  -0.059007f, -0.058863f, 0.085231f,  0.019966f,  0.030851f,  -0.04432f,
  0.080428f,  0.011332f,  -0.041005f, -0.023547f, -0.049536f, 0.086459f,
  -0.003241f, -0.099915f, -0.026321f, -0.115383f, -0.083127f, 0.011935f,
  -0.014406f, 0.034176f,  0.116244f,  -0.013271f, 0.066139f,  0.019173f,
  0.08527f,   0.084888f,  -0.10197f,  -0.074377f, -0.046841f, -0.006118f,
  0.021169f,  0.022878f,  -0.068311f, 0.043773f,  -0.029478f, -0.03633f,
  0.028846f,  -0.005179f, 0.01471f,   -0.030562f, 0.079027f,  -0.088293f,
  -0.067489f, -0.041264f, -0.037891f, -0.032247f, 0.08895f,   -0.007379f,
  0.028271f,  0.008258f,  -0.009197f, 0.056363f,  0.039687f,  -0.012129f,
  0.031819f,  0.035859f,  -0.031227f, -0.036113f, -0.038616f, 0.047098f,
  0.056059f,  -0.009741f, -0.05587f,  -0.021548f, -0.084661f, -0.036898f,
  -0.106807f, -0.014041f, -0.082962f, -0.111406f, -0.094613f, 0.051465f,
  0.045217f,  0.023465f,  -0.033362f, 0.000497f,  0.034996f,  0.02272f,
  0.04066f,   0.08248f,   -0.058733f, -0.06847f,  -0.056728f, -0.03571f,
  -0.033427f, -0.132855f, 0.086053f,  -0.075662f, 0.028027f,  0.100849f,
  -0.022338f, -0.063957f, 0.067171f,  0.050015f,  0.002832f,  0.033795f,
  -0.00563f,  0.07443f,   0.0065f,    -0.074696f, 0.073647f,  -0.015288f,
  -0.024024f, -0.028716f, -0.101836f, 0.018152f,  -0.029297f, -0.050756f,
  -0.108579f, 0.118963f,  -0.042704f, 0.082294f,  -0.044107f, 0.062015f,
  0.008309f,  0.034037f,  0.022134f,  -0.092956f, 0.028319f,  -0.104365f,
  0.081086f,  0.012799f,  -0.033583f, 0.045756f,  -0.030722f, -0.061228f,
  0.10425f,   0.024647f,  -0.074421f, 0.072342f,  -0.067304f, 0.007496f,
  0.058719f,  0.014797f,  -0.013475f, -0.007012f, 0.074073f,  0.024766f,
  -0.084754f, 0.050816f,  0.041988f,  -0.027498f, 0.049658f,  -0.131448f,
  -0.00135f,  -0.098959f, -0.030764f, 0.10898f,   -0.031942f, -0.057374f,
  -0.029344f, -0.02492f,  -0.036656f, -0.019701f, 0.006073f,  0.052714f,
  0.065875f,  -0.040244f, 0.02562f,   -0.113847f, 0.019506f,  0.054476f,
  0.069467f,  -0.038815f, 0.0227f,    0.033909f,  0.026865f,  0.068106f,
  -0.043011f, -0.07636f,  0.017375f,  0.107879f,  -0.030362f, -0.073313f,
  0.031254f,  -0.054719f, -0.023733f, 0.105862f,  0.015101f,  0.036148f,
  0.013775f,  -0.00314f,  0.107206f,  0.020687f,  -0.086892f, 0.031408f,
  0.011466f,  -0.0165f,   0.02962f,   0.00729f,   -0.124317f, -0.09635f,
  -0.027854f, -0.019036f, -0.022111f, 0.053342f,  -0.017311f, -0.000536f,
  0.027035f,  0.005357f,  -0.045874f, -0.070877f, -0.022271f, 0.050161f,
  -0.016547f, 0.109631f,  0.067235f,  -0.032725f, -0.056188f, 0.110989f,
  -0.055543f, 0.078599f,  -0.006617f, 0.091013f,  0.01972f,   -0.035098f,
  0.019224f,  0.062717f,  -0.057214f, 0.06953f,   -0.088473f, -0.020778f,
  -0.079456f, 0.052891f,  -0.007035f, 0.004616f,  0.000409f,  0.054827f,
  0.05537f,   0.045501f,  -0.024089f, 0.021138f,  0.037144f,  0.010088f,
  0.006585f,  0.037858f,  -0.024011f, -0.026585f, 0.045406f,  -0.014053f,
  -0.066449f, -0.026922f, -0.072544f, -0.029565f, 0.113118f,  0.057356f,
  -0.069078f, 0.022259f,  -0.003158f, 0.035822f,  -0.061334f, -0.084856f,
  -0.045571f, 0.058011f,  -0.046458f, 0.091517f,  0.009392f,  0.046358f,
  0.071189f,  -0.033059f, 0.021747f,  -0.049351f, 0.005506f,  0.070312f,
  0.036315f,  -0.071973f, 0.052976f,  -0.08168f,  -0.048578f, -0.009257f,
  -0.010737f, 0.043931f,  -0.091258f, 0.069551f,  -0.055637f, -0.047257f,
  -0.04937f,  0.00582f,   0.020332f,  -0.083366f, 0.072927f,  -0.075223f,
  -0.07408f,  -0.105227f, 0.083126f,  -0.018441f, -0.016945f, 0.009114f,
  -0.113666f, 0.056605f,  -0.038648f, 0.019616f,  0.05567f,   0.034348f,
  0.022632f,  -0.04508f,  0.040262f,  0.029103f,  -0.033425f, -0.062471f,
  0.005871f,  0.015401f,  0.055738f,  0.083697f,  -0.132389f, 0.009464f,
  0.054363f,  0.055082f,  -0.02731f,  -0.044061f, 0.055945f,  -0.039792f,
  0.013181f,  0.057433f,  -0.000436f, -0.014827f, 0.103954f,  0.034553f,
  0.003838f,  0.09134f,   0.100375f,  0.027404f,  0.016063f,  0.053288f,
  0.028437f,  -0.063135f, -0.017811f, 0.07313f,   0.034406f,  0.010699f,
  -0.040793f, -0.020684f, 0.038575f,  -0.051333f, 0.034355f,  -0.004161f,
  -0.075432f, 0.029901f,  -0.035642f, 0.071262f,  0.061111f,  -0.066794f,
  0.06427f,   0.05279f,   -0.065142f, -0.034977f, 0.027995f,  -0.02267f,
  -0.121938f, 0.027212f,  -0.108103f, -0.01585f,  -0.029031f, -0.019838f,
  0.055985f,  0.045112f,  0.023275f,  0.11578f,   0.021812f,  0.12036f,
  0.07976f,   0.000799f,  0.096501f,  -0.041534f, 0.073223f,  0.007934f,
  -0.115081f, -0.034308f, -0.012357f, 0.067091f,  -0.079493f, -0.101802f,
  0.015254f,  -0.106113f, -0.010854f, -0.085658f, -0.01567f,  0.033662f,
  0.066186f,  -0.06796f,  -0.099054f, -0.009295f, -0.083717f, 0.079952f,
  -0.006697f, -0.113503f, -0.03369f,  0.047582f,  0.022123f,  -0.061903f,
  0.078381f,  0.006443f,  -0.020422f, -0.030228f, 0.049105f,  -0.10427f,
  0.06337f,   0.028056f,  -0.012514f, -0.006904f, 0.040814f,  0.001352f,
  0.051796f,  0.011264f,  -0.049816f, -0.042714f, -0.016983f, 0.035956f,
  -0.047382f, 0.005021f,  0.042875f,  0.001601f,  0.042544f,  0.089768f,
  0.018265f,  -0.024294f, 0.016987f,  0.041131f,  0.072118f,  0.039712f,
  -0.03738f,  0.055653f,  0.047959f,  0.066542f,  0.028096f,  -0.060111f,
  0.037107f,  0.001704f,  0.096807f,  0.033f,     -0.021665f, -0.069126f,
  -0.036456f, -0.040183f, 0.018015f,  0.068574f,  -0.028328f, -0.105395f,
  -0.00101f,  0.111287f,  0.028676f,  0.018314f,  -0.029487f, 0.077933f,
  0.031416f,  -0.029459f, 0.059343f,  0.031506f,  0.036952f,  -0.055303f,
  0.058536f,  0.073613f,  0.054867f,  -0.038408f, 0.036089f,  -0.043873f,
  0.110925f,  0.032131f,  0.06773f,   0.06314f,   -0.039623f, 0.044703f,
  0.018148f,  -0.032173f, -0.010294f, 0.098008f,  0.089812f,  0.01576f,
  0.098431f,  0.092507f,  0.11711f,   0.035663f,  0.03258f,   -0.080782f,
  -0.018513f, 0.104109f,  0.033947f,  0.045547f,  -0.054881f, 0.005385f,
  0.024975f,  -0.041242f, -0.113565f, 0.063233f,  -0.012435f, -0.038263f,
  0.022749f,  0.100973f,  -0.003076f, -0.07556f,  -0.00809f,  0.045698f,
  0.089959f,  -0.011027f, 0.010758f,  -0.051624f, 0.009125f,  0.06654f,
  0.089135f,  0.019406f,  -0.063092f, 0.006581f,  0.004374f,  0.077292f,
  -0.066957f, -0.031895f, 0.031969f,  0.062788f,  -0.118045f, -0.040737f,
  0.033208f,  0.011049f,  0.05646f,   -0.009721f, 0.053244f,  0.063497f,
  -0.042829f, 0.048769f,  0.100904f,  0.031081f,  0.034895f,  0.05624f,
  -0.097937f, -0.106627f, 0.03374f,   -0.001907f, -0.087045f, 0.09498f,
  -0.095639f, 0.019588f,  -0.043659f, -0.004827f, 0.012045f,  0.014868f,
  0.082189f,  -0.059087f, 0.063234f,  0.058346f,  -0.07677f,  0.005062f,
  -0.071204f, -0.046403f, 0.014122f,  -0.062721f, 0.031635f,  -0.053922f,
  0.047929f,  -0.021421f, 0.012396f,  0.036995f,  -0.096676f, -0.003916f,
  0.025895f,  -0.028838f, -0.017842f, 0.003851f,  -0.00156f,  -0.013819f,
  -0.03509f,  -0.025471f, -0.006868f, 0.070102f,  -0.051046f, -0.06056f,
  -0.086176f, 0.108451f,  -0.052125f, 0.013039f,  -0.070554f, -0.001817f,
  0.033962f,  -0.020009f, 0.070491f,  -0.014886f, -0.048692f, 0.02262f,
  -0.022072f, 0.087052f,  -0.045686f, -0.099605f, -0.046146f, 0.044521f,
  0.013788f,  -0.00596f,  -0.063128f, 0.021014f,  0.097596f,  -0.117059f,
  0.022483f,  -0.057318f, 0.029409f,  0.017762f,  -0.016238f, -0.022651f,
  0.002785f,  0.038004f,  -0.018918f, -0.100792f, 0.016231f,  0.002215f,
  -0.00793f,  -0.001759f, 0.02675f,   -0.062061f, -0.008626f, -0.042215f,
  0.073483f,  -0.02935f,  -0.055591f, 0.007993f,  0.022473f,  0.019088f,
  0.132424f,  -0.057811f, 0.053888f,  0.075496f,  0.016658f,  -0.090982f,
  0.120068f,  -0.082846f, -0.047291f, -0.07619f,  0.075427f,  -0.053527f,
  -0.066412f, -0.056796f, 0.061892f,  0.02054f,   0.103679f,  -0.022142f,
  -0.005787f, -0.120271f, -0.047749f, 0.024739f,  0.100284f,  0.092446f,
  -0.111794f, -0.047772f, 0.007982f,  -0.084325f, 0.015386f,  -0.0827f,
  0.03976f,   0.090747f,  -0.047501f, 0.118988f,  -0.078258f, -0.010562f,
  0.083607f,  0.053381f,  -0.085151f, -0.097454f, 0.03348f,   0.059186f,
  0.035111f,  -0.035019f, -0.122594f, 0.067927f,  -0.091765f, -0.002851f,
  0.009996f,  0.063691f,  -0.0139f,   0.08542f,   -0.091917f, 0.001107f,
  -0.024592f, 0.01233f,   0.13093f,   0.066499f,  -0.043563f, -0.006966f,
  0.040947f,  -0.002172f, 0.085578f,  -0.101105f, 0.08462f,   0.107706f,
  0.041878f,  -0.067062f, 0.005364f,  -0.099479f, -0.055022f, -0.062985f,
  0.001835f,  -0.01666f,  0.003983f,  0.018935f,  -0.104654f, -0.012775f,
  -0.04873f,  0.045437f,  0.015663f,  -0.082815f, -0.053268f, -0.013668f,
  -0.071299f, 0.079465f,  0.037135f,  0.018767f,  0.102107f,  0.044285f,
  -0.026577f, -0.036478f, -0.063334f, 0.055775f,  0.086958f,  0.012516f,
  -0.021309f, 0.025346f,  0.129471f,  -0.110962f, -0.04395f,  0.014527f,
  0.027381f,  -0.013006f, -0.013599f, 0.009352f,  -0.063685f, -0.00603f,
  0.071524f,  -0.003217f, -0.027508f, -0.020329f, 0.016657f,  0.027402f,
  -0.041436f, 0.057203f,  0.014949f,  -0.000158f, -0.0691f,   0.041252f,
  -0.047277f, -0.100944f, -0.025878f, -0.016694f, -0.111179f, 0.063835f,
  0.094022f,  0.056888f,  0.031783f,  -0.088482f, 0.041442f,  -0.000216f,
  0.081743f,  -0.015681f, 0.005552f,  0.03568f,   0.0185f,    -0.025091f,
  -0.066856f, -0.070755f, 0.08005f,   0.020006f,  0.082973f,  0.107319f,
  -0.09276f,  0.078086f,  0.07045f,   0.065467f,  -0.023232f, -0.007499f,
  0.026537f,  0.085249f,  -0.009141f, 0.012708f,  -0.045303f, 0.079666f,
  0.077182f,  0.005577f,  -0.030821f, 0.034205f,  -0.040874f, 0.001752f,
  0.023484f,  0.050752f,  -0.061329f, -0.012061f, 0.109635f,  0.108293f,
  0.005386f,  0.03945f,   -0.073212f, -0.024762f, 0.006715f,  -0.02586f,
  -0.042689f, -0.044529f, -0.039848f, 0.1166f,    -0.041534f, -0.021584f,
  0.02378f,   0.076108f,  0.023133f,  0.069308f,  0.045745f,  0.032472f,
  -0.001573f, -0.068829f, -0.082939f, 0.05263f,   -0.073052f, 0.007125f,
  -0.090618f, 0.039412f,  -0.093635f, -0.087778f, 0.112852f,  0.090264f,
  0.004388f,  -0.036366f, -0.098433f, -0.063153f, -0.008875f, 0.016646f,
  0.015211f,  0.084117f,  0.006115f,  0.020382f,  0.006916f,  -0.008061f,
  -0.123453f, 0.058381f,  -0.021723f, -0.063436f, -0.101235f, 0.069565f,
  -0.022702f, -0.117174f, -0.0433f,   -0.033956f, -0.0517f,   0.04461f,
  -0.074774f, 0.058932f,  -0.087141f, -0.026396f, -0.003901f, 0.007316f,
  -0.020304f, -0.004982f, -0.032538f, -0.092401f, -0.003092f, -0.044977f,
  0.036023f,  -0.041908f, 0.052692f,  -0.113979f, -0.038209f, 0.011008f,
  0.083893f,  -0.026154f, 0.030126f,  -0.002541f, 0.005489f,  -0.021881f,
  0.020717f,  -0.081394f, 0.100614f,  0.03038f,   0.004713f,  0.095455f,
  -0.104602f, 0.042886f,  0.105746f,  0.000184f,  -0.068758f, 0.02046f,
  -0.040124f, -0.015129f, -0.014566f, 0.017557f,  0.063913f,  0.024598f,
  0.089655f,  0.059313f,  -0.03835f,  -0.082772f, 0.000543f,  -0.096478f,
  -0.008093f, -0.045879f, -0.029409f, -0.077355f, 0.072305f,  -0.118351f,
  0.019525f,  -0.003941f, -0.00111f,  0.017214f,  -0.036184f, 0.065713f,
  0.063488f,  -0.116453f, 0.004274f,  -0.046587f, -0.080552f, -0.068112f,
  -0.001877f, 0.117139f,  0.039978f,  -0.047555f, -0.028617f, 0.026132f,
  -0.01865f,  -0.121563f, 0.020405f,  -0.066833f, -0.062652f, -0.077213f,
  0.080933f,  -0.059718f, 0.083756f,  -0.080969f, -0.001075f, 0.036296f,
  -0.055997f, -0.008318f, 0.051753f,  -0.008325f, -0.061727f, -0.122099f,
  -0.047048f, 0.085888f,  0.061353f,  0.029981f,  0.052003f,  -0.081771f,
  0.05488f,   -0.131238f, 0.050889f,  0.097836f,  -0.009454f, 0.08148f,
  -0.125154f, -0.004504f, -0.023024f, -0.011733f, 0.132237f,  -0.023599f,
  0.057389f,  -0.028534f, -0.035823f, 0.122593f,  0.067191f,  -0.026628f,
  0.021366f,  -0.093774f, 0.074165f,  0.026386f,  0.012799f,  0.044911f,
  -0.053279f, 0.016504f,  0.085024f,  0.087079f,  -0.03722f,  -0.011441f,
  -0.022949f, -0.054178f, 0.062689f,  -0.043964f, -0.005476f, -0.040646f,
  -0.033871f, -0.034939f, 0.014047f,  -0.023799f, 0.114112f,  -0.052235f,
  0.083017f,  -0.00612f,  -0.037748f, -0.02808f,  0.130668f,  0.027973f,
  0.022857f,  0.071191f,  -0.083131f, 0.046259f,  0.051745f,  0.126619f,
  0.019125f,  -0.012444f, -0.031638f, -0.079009f, -0.030237f, 0.051296f,
  -0.011612f, 0.047986f,  0.011279f,  0.002134f,  0.004301f,  0.047351f,
  -0.038047f, 0.093234f,  0.042052f,  -0.006566f, -0.002115f, -0.006306f,
  -0.002146f, -0.029118f, -0.028633f, 0.025053f,  0.037435f,  -0.000069f,
  0.083585f,  -0.010351f, 0.020938f,  -0.036951f, -0.040547f, -0.045308f,
  0.088291f,  -0.023524f, -0.031832f, -0.009879f, 0.004761f,  -0.058496f,
  0.120016f,  -0.019859f, 0.060916f,  0.020124f,  0.070242f,  -0.06033f,
  -0.113328f, -0.02271f,  0.005106f,  -0.000327f, 0.110787f,  0.12377f,
  -0.105316f, -0.016891f, -0.007872f, 0.023425f,  0.029268f,  -0.133831f,
  0.02268f,   0.02902f,   0.069646f,  -0.023122f, -0.029737f, -0.011646f,
  0.005889f,  -0.094372f, 0.098896f,  -0.090818f, 0.091536f,  -0.043203f,
  -0.067412f, -0.064871f, 0.002789f,  -0.003486f, -0.004784f, 0.030254f,
  0.054973f,  -0.020341f, 0.032481f,  -0.015858f, -0.0388f,   -0.067702f,
  -0.082429f, 0.056535f,  0.046088f,  -0.00904f,  0.034626f,  -0.015855f,
  0.007348f,  0.054817f,  -0.014191f, -0.026252f, 0.026885f,  0.118432f,
  0.092409f,  0.089512f,  0.059765f,  -0.020814f, -0.002408f, 0.081553f,
  -0.078754f, -0.007731f, 0.009369f,  -0.076871f, 0.035903f,  0.101399f,
  0.050244f,  -0.131919f, 0.047195f,  0.096f,     -0.062898f, 0.072516f,
  0.089013f,  -0.03974f,  -0.0848f,   0.05453f,   -0.056995f, -0.085815f,
  0.050282f,  0.033767f,  -0.035803f, -0.012278f, -0.058948f, -0.082488f,
  0.018763f,  -0.010183f, -0.077101f, -0.07806f,  -0.020956f, -0.111741f,
  -0.116677f, -0.048165f, 0.033177f,  0.071401f,  -0.106328f, 0.082572f,
  -0.025621f, -0.058013f, 0.040995f,  0.011403f,  -0.049914f, 0.054341f,
  0.057816f,  -0.006179f, 0.006186f,  0.003208f,  0.02143f,   -0.022359f,
  -0.060933f, -0.090647f, -0.033317f, 0.033049f,  0.038284f,  0.062155f,
  -0.090622f, 0.034087f,  0.027931f,  -0.000671f, 0.033178f,  -0.05243f,
  0.061427f,  -0.109751f, 0.021957f,  0.019497f,  0.050902f,  0.133449f,
  -0.120505f, -0.039798f, -0.065855f, -0.011043f, -0.016246f, -0.0251f,
  0.062722f,  0.074979f,  -0.009034f, 0.01527f,   -0.00955f,  0.060318f,
  -0.01875f,  -0.001348f, -0.053124f, 0.11748f,   -0.046337f, -0.004746f,
  -0.081952f, -0.095636f, -0.002832f, 0.033151f,  0.07281f,   -0.006344f,
  -0.04352f,  0.067715f,  -0.069439f, -0.003996f, 0.116105f,  0.03402f,
  0.062378f,  0.039498f,  0.022277f,  0.069668f,  -0.014484f, -0.077891f,
  -0.071178f, 0.114492f,  0.006914f,  0.033755f,  -0.092685f, -0.026271f,
  0.022113f,  0.08882f,   -0.053338f, 0.029387f,  0.052887f,  -0.119529f,
  -0.079681f, 0.017455f,  0.12162f,   0.124651f,  0.099825f,  -0.026801f,
  0.022155f,  -0.035166f, 0.020948f,  -0.110994f, 0.029693f,  0.021166f,
  -0.012956f, -0.065722f, -0.055921f, -0.000304f, -0.097033f, -0.064267f,
  -0.000244f, 0.015838f,  0.032257f,  0.132319f,  -0.023682f, -0.051725f,
  0.023187f,  -0.024347f, -0.021017f, 0.12486f,   0.018256f,  -0.015355f,
  0.029693f,  -0.05438f,  0.125229f,  -0.052065f, -0.056012f, -0.072965f,
  0.010951f,  -0.051175f, -0.070691f, -0.013844f, 0.008327f,  0.00892f,
  0.044769f,  0.043089f,  0.034439f,  0.05866f,   0.040952f,  0.04347f,
  0.032861f,  -0.013602f, 0.037935f,  -0.096229f, 0.027941f,  -0.063777f,
  0.064766f,  0.099416f,  -0.050605f, 0.027123f,  -0.011384f, 0.044109f,
  0.06145f,   0.034636f,  -0.014918f, 0.004652f,  -0.116719f, 0.092759f,
  0.056777f,  0.055122f,  0.127212f,  -0.028843f, 0.068539f,  -0.001349f,
  -0.089534f, -0.080152f, 0.048453f,  -0.06269f,  0.039706f,  0.004274f,
  -0.033385f, -0.028181f, -0.073555f, 0.057761f,  0.022213f,  -0.10444f,
  -0.060958f, -0.026492f, 0.036269f,  0.023217f,  -0.03115f,  -0.036208f,
  -0.074915f, -0.097567f, 0.071433f,  0.02614f,   -0.024372f, 0.122188f,
  -0.005859f, -0.106138f, -0.006431f, -0.039039f, 0.079012f,  -0.052431f,
  0.035478f,  0.087398f,  0.12452f,   0.030246f,  -0.012993f, -0.00125f,
  0.034083f,  -0.025847f, 0.035307f,  -0.110312f, 0.010096f,  -0.067539f,
  -0.008159f, 0.032023f,  -0.060964f, -0.033395f, -0.008277f, 0.030619f,
  -0.046038f, -0.016187f, -0.024297f, -0.013183f, -0.014808f, -0.005382f,
  0.130284f,  -0.115503f, 0.129833f,  0.048296f,  -0.02374f,  0.025109f,
  0.00059f,   0.019906f,  0.015056f,  0.002029f,  -0.05334f,  0.076823f,
  -0.032836f, -0.01568f,  -0.011232f, -0.06566f,  0.050867f,  -0.027127f,
  0.05038f,   -0.017012f, 0.103811f,  -0.066057f, 0.025413f,  -0.033137f,
  -0.065666f, 0.042353f,  0.022471f,  -0.103486f, 0.000209f,  -0.015607f,
  -0.044939f, 0.032977f,  -0.056373f, 0.029297f,  0.111643f,  -0.034882f,
  -0.007414f, 0.007432f,  0.02553f,   0.020562f,  0.003f,     0.039929f,
  -0.031369f, 0.042429f,  -0.064535f, -0.0672f,   0.107789f,  -0.075946f,
  -0.009969f, 0.036921f,  0.054906f,  0.087388f,  -0.104176f, 0.065948f,
  -0.079368f, -0.068387f, 0.059914f,  -0.005436f, -0.080185f, 0.036298f,
  0.066842f,  0.064418f,  0.076955f,  -0.021916f, 0.008976f,  -0.127254f,
  -0.050808f, 0.030283f,  -0.074179f, 0.020954f,  0.028411f,  0.022367f,
  0.076981f,  0.098499f,  0.124127f,  -0.025128f, -0.039981f, -0.00139f,
  -0.008679f, -0.058699f, 0.087826f,  -0.047742f, 0.107786f,  -0.010593f,
  -0.048232f, 0.042134f,  -0.056603f, -0.013788f, 0.024475f,  -0.032054f,
  0.061139f,  0.042936f,  0.074372f,  0.090612f,  0.003219f,  -0.08627f,
  0.120331f,  -0.071373f, 0.021266f,  0.044022f,  0.018438f,  0.047155f,
  0.052645f,  -0.035812f, 0.110824f,  -0.023344f, -0.079182f, 0.004526f,
  -0.101642f, 0.101818f,  -0.071922f, 0.102978f,  -0.016125f, 0.041596f,
  0.089978f,  0.019933f,  0.0034f,    -0.058719f, -0.028705f, 0.016154f,
  0.032274f,  0.0074f,    0.039847f,  -0.079065f, -0.097296f, 0.027109f,
  0.042701f,  0.086521f,  0.039848f,  0.021433f,  0.111001f,  -0.021924f,
  -0.025957f, -0.037738f, -0.012184f, -0.004875f, 0.036296f,  0.071681f,
  -0.048039f, -0.05739f,  0.025861f,  0.012735f,  0.109864f,  0.09547f,
  -0.045764f, 0.020238f,  0.073984f,  0.058262f,  -0.045865f, 0.002438f,
  0.035507f,  -0.101086f, 0.015252f,  -0.090366f, -0.007904f, 0.048304f,
  0.006424f,  -0.008348f, -0.015088f, 0.008329f,  0.090745f,  0.063802f,
  0.001532f,  0.011803f,  -0.095343f, -0.087552f, 0.054549f,  0.029677f,
  -0.053331f, 0.067161f,  -0.012055f, 0.021892f,  0.039614f,  -0.092029f,
  -0.013045f, 0.034352f,  0.034055f,  0.031826f,  0.01187f,   -0.006726f,
  0.102602f,  -0.027261f, 0.060855f,  0.042715f,  -0.054739f, -0.079184f,
  -0.015407f, -0.033763f, 0.047271f,  0.122657f,  -0.060147f, 0.056919f,
  0.026035f,  -0.020648f, -0.015687f, 0.017955f,  0.00578f,   0.046054f,
  -0.009657f, -0.001119f, -0.055458f, -0.09645f,  -0.033475f, -0.030629f,
  0.011431f,  0.006659f,  0.081971f,  0.02015f,   0.005978f,  -0.030356f,
  -0.130149f, 0.054799f,  -0.121147f, 0.021482f,  -0.051868f, 0.023861f,
  0.013353f,  -0.008034f, 0.056543f,  0.091082f,  -0.049931f, -0.032611f,
  0.057589f,  -0.023486f, 0.062679f,  -0.064908f, 0.0576f,    0.038556f,
  -0.003885f, -0.048223f, 0.015527f,  -0.054672f, 0.082827f,  -0.059196f,
  -0.046685f, 0.005201f,  -0.004935f, 0.086148f,  0.039273f,  -0.048845f,
  0.038196f,  0.041086f,  0.077796f,  -0.043531f, -0.031473f, -0.102121f,
  -0.049693f, 0.009065f,  0.089491f,  0.103251f,  0.036227f,  -0.023956f,
  -0.006017f, -0.088852f, 0.078654f,  -0.091583f, -0.004417f, -0.069251f,
  -0.010097f, 0.051066f,  -0.028038f, -0.025678f, 0.097038f,  0.026153f,
  0.01554f,   0.008124f,  0.021709f,  -0.048831f, -0.027658f, 0.06433f,
  0.009998f,  -0.005029f, -0.053849f, -0.018098f, 0.078093f,  -0.014894f,
  -0.017892f, -0.081512f, 0.052473f,  0.098413f,  0.040875f,  -0.024608f,
  0.012709f,  -0.069535f, 0.060386f,  -0.045202f, 0.036525f,  0.011359f,
  0.026677f,  -0.024272f, 0.008535f,  -0.022994f, 0.007965f,  -0.092745f,
  -0.023902f, -0.129408f, 0.015293f,  0.030687f,  -0.074323f, -0.002171f,
  0.130177f,  -0.108989f, -0.017372f, -0.058715f, 0.032414f,  0.108537f,
  0.008724f,  0.003507f,  0.009704f,  0.033915f,  -0.063993f, -0.03222f,
  -0.018347f, -0.021931f, 0.022358f,  -0.08838f,  -0.092483f, -0.10469f,
  -0.050153f, 0.090219f,  -0.004827f, -0.037009f, 0.059529f,  0.069309f,
  -0.057268f, -0.065849f, -0.077962f, 0.097354f,  0.003789f,  0.035533f,
  -0.038606f, -0.021356f, 0.00753f,   0.056336f,  0.027782f,  -0.029156f,
  -0.007893f, -0.021834f, -0.09872f,  0.0431f,    -0.010526f, 0.096434f,
  0.001102f,  -0.072195f, -0.121374f, 0.006282f,  -0.082986f, -0.01844f,
  0.041637f,  -0.005982f, -0.004047f, 0.053398f,  0.036332f,  -0.024217f,
  -0.012843f, 0.019877f,  -0.014042f, -0.030626f, 0.101567f,  0.005649f,
  -0.063867f, -0.011464f, 0.103497f,  -0.067014f, -0.075276f, 0.037176f,
  0.100788f,  0.127027f,  0.021361f,  -0.045459f, -0.040464f, 0.053056f,
  -0.056729f, -0.083948f, 0.070043f,  0.075106f,  0.067377f,  0.03014f,
  -0.114649f, -0.022899f, 0.100076f,  0.014526f,  -0.040851f, -0.061527f,
  0.01907f,   0.007588f,  -0.03936f,  0.074128f,  -0.044832f, 0.001394f,
  0.087468f,  0.054067f,  0.022933f,  0.034979f,  -0.09695f,  -0.074059f,
  -0.002007f, -0.090802f, 0.072753f,  -0.034712f, 0.097185f,  -0.056462f,
  -0.01956f,  0.006138f,  -0.067809f, -0.059662f, 0.032107f,  -0.047443f,
  -0.00827f,  0.058052f,  -0.096142f, 0.021904f,  -0.02247f,  -0.027297f,
  -0.028451f, 0.025409f,  0.034816f,  -0.045567f, 0.018251f,  0.032197f,
  -0.099039f, -0.006874f, -0.066817f, 0.018006f,  -0.004016f, 0.11726f,
  -0.06771f,  0.096063f,  -0.116902f, 0.123994f,  -0.046157f, 0.037975f,
  0.045908f,  -0.065379f, 0.01279f,   -0.017271f, -0.055433f, 0.027709f,
  -0.009517f, 0.079515f,  -0.045738f, 0.064666f,  0.049316f,  0.110256f,
  0.053731f,  -0.04268f,  -0.003871f, -0.062509f, -0.017504f, 0.04965f,
  -0.005268f, 0.107158f,  -0.025098f, -0.037984f, 0.069133f,  -0.041805f,
  -0.027077f, 0.021737f,  0.042092f,  -0.055394f, -0.081744f, -0.028131f,
  0.063546f,  0.067836f,  -0.042396f, -0.01557f,  -0.036435f, -0.06276f,
  0.044377f,  0.109778f,  -0.03372f,  0.075783f,  0.081161f,  -0.050806f,
  0.01165f,   -0.009144f, -0.035605f, 0.062528f,  -0.083156f, -0.115376f,
  -0.02642f,  -0.065388f, 0.038759f,  0.020695f,  -0.058329f, -0.023124f,
  -0.027864f, 0.015531f,  -0.090532f, -0.043449f, -0.015846f, -0.000494f,
  0.021817f,  -0.027362f, -0.015415f, 0.08348f,   0.123466f,  -0.026712f,
  -0.03638f,  -0.05538f,  0.017799f,  -0.132541f, -0.044678f, 0.076309f,
  0.002241f,  -0.013895f, -0.012337f, -0.04603f,  0.020615f,  0.001252f,
  0.091255f,  -0.020604f, 0.042909f,  -0.105882f, 0.013755f,  0.024054f,
  0.025527f,  0.027391f,  0.046835f,  0.010941f,  -0.028586f, -0.031768f,
  0.025396f,  0.030078f,  0.003043f,  -0.011999f, 0.031918f,  -0.0012f,
  0.042902f,  -0.041062f, 0.112388f,  -0.050473f, -0.045023f, 0.093853f,
  -0.019164f, 0.122674f,  -0.05956f,  -0.064966f, -0.090241f, 0.083623f,
  0.061275f,  0.040834f,  0.00171f,   0.056707f,  -0.068741f, 0.044452f,
  0.066556f,  -0.002309f, 0.134713f,  0.00681f,   0.020636f,  0.045258f,
  -0.099889f, 0.116217f,  -0.006214f, 0.048324f,  0.017046f,  0.007359f,
  -0.023291f, -0.035158f, 0.060727f,  0.040411f,  0.009047f,  0.051944f,
  0.0759f,    0.075363f,  0.051786f,  -0.030158f, 0.020714f,  0.074185f,
  0.024362f,  -0.039098f, -0.091302f, 0.092676f,  -0.066395f, -0.001808f,
  0.042986f,  -0.091509f, 0.020398f,  -0.051918f, 0.033201f,  0.01974f,
  -0.001547f, -0.000045f, 0.006874f,  0.027167f,  -0.065068f, -0.082232f,
  -0.000597f, -0.040989f, 0.030725f,  0.041653f,  -0.03165f,  -0.022016f,
  0.043025f,  -0.070628f, -0.100639f, 0.039808f,  0.034919f,  -0.048322f,
  -0.107498f, 0.018615f,  -0.078567f, 0.048147f,  0.024564f,  -0.037613f,
  -0.078595f, -0.03105f,  -0.098786f, -0.023495f, -0.084202f, -0.000527f,
  0.058015f,  -0.062916f, -0.006443f, -0.027018f, 0.093295f,  0.104872f,
  0.053976f,  -0.034249f, -0.020005f, 0.068828f,  0.088939f,  0.000696f,
  -0.083825f, -0.057464f, 0.102774f,  0.062164f,  -0.027703f, 0.016367f,
  -0.022235f, 0.092539f,  -0.011804f, -0.047142f, 0.036236f,  0.057719f,
  0.006239f,  -0.015402f, 0.051484f,  0.101955f,  0.051743f,  0.001174f,
  -0.000558f, 0.005591f,  -0.009508f, 0.077606f,  -0.109021f, -0.070909f,
  0.055293f,  0.029211f,  0.093501f,  -0.089327f, 0.000522f,  0.079754f,
  -0.05894f,  -0.034217f, 0.059948f,  0.030047f,  0.046949f,  0.031054f,
  -0.012082f, 0.074377f,  0.046336f,  -0.029372f, -0.021603f, 0.025293f,
  -0.02925f,  0.034388f,  0.047816f,  0.084719f,  -0.001487f, 0.039999f,
  -0.036013f, 0.045625f,  -0.094501f, 0.091441f,  -0.016607f, 0.023843f,
  -0.132001f, -0.037121f, -0.099689f, 0.033843f,  -0.0748f,   -0.041816f,
  -0.035506f, 0.017445f,  -0.077966f, -0.094233f, 0.03356f,   0.124995f,
  0.006696f,  -0.058553f, -0.055014f, -0.133445f, 0.055336f,  0.033355f,
  -0.058616f, -0.043533f, 0.103641f,  -0.097926f, -0.07902f,  0.087992f,
  0.030799f,  -0.098244f, 0.124544f,  -0.029207f, 0.014937f,  -0.000973f,
  0.027569f,  0.026332f,  0.115599f,  -0.045782f, 0.052064f,  -0.009491f,
  -0.030598f, -0.072099f, 0.090483f,  -0.078883f, -0.032959f, -0.032139f,
  0.008088f,  -0.077943f, -0.072904f, -0.050649f, -0.020482f, 0.130031f,
  0.035514f,  -0.09323f,  -0.00354f,  -0.058423f, -0.055072f, -0.092444f,
  -0.040772f, -0.063005f, 0.046695f,  -0.02978f,  -0.007134f, -0.045628f,
  0.025221f,  0.087191f,  -0.034229f, -0.024006f, -0.000269f, -0.08687f,
  -0.119475f, -0.057368f, -0.080697f, -0.049837f, 0.033062f,  -0.033091f,
  -0.091706f, -0.019498f, -0.077883f, 0.014706f,  -0.018041f, -0.020692f,
  -0.008932f, -0.113277f, -0.06934f,  0.097351f,  0.032997f,  0.073058f,
  0.053853f,  0.09649f,   -0.106332f, -0.031678f, -0.09693f,  0.071533f,
  0.052167f,  -0.116143f, 0.05675f,   0.013758f,  0.024525f,  -0.047253f,
  0.096999f,  -0.08941f,  0.01066f,   0.025038f,  0.040406f,  -0.002427f,
  -0.093027f, 0.051522f,  0.017809f,  -0.085928f, -0.098956f, 0.08439f,
  0.005954f,  -0.064428f, -0.064236f, 0.052396f,  0.044946f,  0.040889f,
  -0.100596f, 0.120306f,  0.043084f,  -0.02776f,  -0.031905f, 0.02161f,
  0.006484f,  0.043757f,  -0.047102f, 0.041567f,  0.010424f,  0.0816f,
  0.060138f,  -0.050828f, 0.026214f,  0.007398f,  -0.0229f,   0.074896f,
  0.00508f,   -0.010848f, 0.011713f,  0.01963f,   -0.069371f, -0.018611f,
  -0.019011f, -0.114216f, -0.001796f, -0.005996f, -0.046237f, 0.003215f,
  0.040444f,  0.010814f,  -0.048372f, -0.097185f, -0.010767f, -0.077682f,
  -0.017827f, 0.014043f,  0.067898f,  -0.098193f, -0.002163f, -0.03927f,
  0.052515f,  0.017485f,  0.018472f,  -0.03531f,  -0.097415f, -0.017127f,
  0.117379f,  0.001881f,  -0.041816f, -0.084139f, 0.046736f,  0.010207f,
  0.016682f,  -0.122195f, 0.027036f,  0.065555f,  0.067769f,  0.131359f,
  -0.082455f, 0.011751f,  -0.106921f, 0.01673f,   -0.076854f, 0.066381f,
  -0.008341f, 0.032223f,  0.087644f,  -0.049781f, 0.055344f,  -0.001309f,
  0.010031f,  -0.092928f, 0.001845f,  -0.073049f, 0.042903f,  0.011414f,
  0.063904f,  0.052411f,  -0.057083f, 0.000036f,  0.124519f,  -0.012246f,
  0.058707f,  -0.028247f, -0.12985f,  0.06485f,   0.049708f,  -0.019349f,
  0.053885f,  -0.074442f, -0.004635f, 0.027523f,  0.07553f,   -0.116574f,
  -0.096924f, 0.047407f,  0.104453f,  0.01878f,   0.002545f,  -0.06264f,
  0.005946f,  -0.05689f,  -0.010405f, 0.009251f,  0.012586f,  0.044613f,
  0.010252f,  -0.072084f, -0.011819f, 0.078232f,  0.041011f,  0.069417f,
  -0.013898f, -0.03263f,  -0.070923f, -0.012115f, 0.025302f,  -0.006251f,
  0.055279f,  0.039258f,  0.043389f,  -0.0008f,   -0.04575f,  -0.034488f,
  -0.031164f, -0.063256f, -0.035189f, -0.034833f, -0.022808f, 0.02501f,
  -0.065552f, 0.015482f,  -0.060579f, -0.023362f, -0.086417f, 0.054854f,
  0.046441f,  0.038271f,  0.08032f,   0.048178f,  -0.061317f, 0.003648f,
  0.067342f,  0.021979f,  -0.060943f, 0.025316f,  0.039505f,  0.089003f,
  -0.098032f, 0.045593f,  0.031545f,  -0.065551f, -0.017155f, 0.074813f,
  0.017267f,  0.107958f,  0.050421f,  -0.010661f, 0.109958f,  -0.101558f,
  -0.003262f, -0.03034f,  0.012565f,  0.110462f,  -0.024329f, -0.02558f,
  -0.069365f, -0.004966f, 0.066267f,  0.12267f,   0.086151f,  0.05032f,
  -0.056522f, -0.008523f, 0.024365f,  -0.102628f, -0.017164f, -0.061089f,
  0.019092f,  -0.029646f, 0.030305f,  -0.023666f, -0.084645f, 0.077812f,
  -0.008286f, -0.100685f, -0.02048f,  -0.115407f, 0.015004f,  0.08909f,
  -0.029433f, 0.068726f,  -0.026149f, 0.113734f,  0.08334f,   -0.089411f,
  0.067283f,  -0.082618f, -0.021528f, 0.023407f,  -0.027302f, -0.012748f,
  -0.068197f, 0.018905f,  0.053491f,  0.017009f,  -0.009113f, -0.112761f,
  0.050489f,  0.004743f,  0.007572f,  -0.00111f,  0.090407f,  -0.007034f,
  0.013942f,  -0.041672f, 0.042285f,  -0.052093f, -0.113109f, -0.07389f,
  0.073868f,  -0.039849f, 0.061874f,  0.038822f,  0.064732f,  0.103134f,
  -0.023919f, 0.096828f,  0.046157f,  0.024577f,  -0.102231f, 0.03417f,
  0.049038f,  0.054653f,  -0.026231f, -0.09215f,  0.038962f,  -0.035871f,
  0.040907f,  -0.034273f, 0.058188f,  0.090573f,  -0.064813f, 0.021817f,
  -0.083507f, 0.102122f,  0.077348f,  0.009367f,  0.003351f,  0.011163f,
  0.035681f,  -0.038599f, 0.009585f,  0.020817f,  -0.072682f, -0.033286f,
  0.017852f,  -0.095734f, -0.031327f, -0.110556f, -0.016796f, 0.061447f,
  -0.041817f, 0.066696f,  0.08382f,   -0.022852f, 0.043502f,  -0.016646f,
  -0.048021f, -0.023936f, -0.032062f, 0.069668f,  -0.066846f, 0.017354f,
  -0.059908f, -0.053776f, -0.096784f, -0.054552f, 0.010589f,  -0.012992f,
  0.055398f,  0.102352f,  -0.086254f, 0.058949f,  0.016582f,  0.091072f,
  0.130077f,  -0.013135f, 0.101826f,  0.065261f,  0.088782f,  -0.000115f,
  -0.050033f, 0.022461f,  -0.058249f, 0.050941f,  -0.08856f,  -0.07235f,
  0.009275f,  0.044678f,  -0.087803f, -0.069167f, -0.006915f, -0.01593f,
  -0.013435f, 0.03205f,   -0.00948f,  -0.044607f, 0.061002f,  -0.052269f,
  -0.04126f,  -0.071251f, -0.007297f, -0.040428f, 0.028429f,  -0.120202f,
  0.053841f,  0.021862f,  -0.016936f, 0.015565f,  -0.061486f, 0.086922f,
  -0.003732f, -0.022666f, 0.036639f,  0.053137f,  0.081308f,  -0.047064f,
  -0.060976f, -0.030754f, 0.013871f,  -0.01732f,  0.123209f,  0.112849f,
  -0.054327f, 0.116606f,  0.002509f,  -0.040782f, 0.038333f,  -0.025824f,
  -0.0792f,   0.022929f,  -0.118018f, 0.055076f,  0.04702f,   0.008572f,
  -0.014979f, -0.071353f, -0.020082f, -0.008421f, -0.029911f, 0.019924f,
  0.08353f,   0.09932f,   -0.016675f, -0.009566f, -0.033259f, 0.073865f,
  -0.029774f, 0.051687f,  -0.083995f, 0.007601f,  0.008063f,  -0.059924f,
  -0.025157f, -0.037714f, 0.030234f,  0.020199f,  0.076785f,  0.016585f,
  -0.016563f, 0.04996f,   0.038616f,  -0.095647f, -0.006443f, 0.099956f,
  0.056435f,  -0.017898f, 0.005317f,  0.043613f,  -0.038368f, 0.064861f,
  0.039905f,  0.043928f,  0.007751f,  0.087884f,  -0.003109f, -0.115193f,
  0.056681f,  -0.018448f, 0.022733f,  -0.055687f, -0.04747f,  -0.006428f,
  -0.057968f, -0.084894f, 0.062527f,  -0.014979f, 0.010942f,  0.090715f,
  -0.044628f, -0.02173f,  0.100918f,  -0.034031f, 0.007445f,  -0.05711f,
  -0.116915f, -0.003195f, 0.100258f,  -0.001021f, -0.050977f, 0.02748f,
  0.009356f,  -0.015378f, 0.02488f,   -0.016263f, -0.02389f,  0.010999f,
  -0.054101f, -0.036039f, -0.025735f, 0.020714f,  0.075735f,  -0.020737f,
  -0.042083f, 0.004097f,  0.057173f,  0.063776f,  -0.056444f, -0.009434f,
  -0.016533f, 0.088906f,  -0.036147f, -0.005368f, -0.065759f, -0.046886f,
  -0.000702f, 0.07322f,   -0.023717f, -0.094498f, 0.002317f,  0.04224f,
  -0.054919f, 0.010827f,  0.082373f,  0.000824f,  0.013019f,  -0.097719f,
  -0.10218f,  -0.135099f, -0.026574f, 0.065971f,  -0.012327f, -0.089997f,
  -0.064906f, 0.057234f,  0.100973f,  -0.035567f, -0.061542f, -0.062666f,
  -0.005956f, 0.023973f,  0.015106f,  0.010981f,  0.00521f,   0.047254f,
  0.096041f,  0.122655f,  -0.002089f, -0.001871f, 0.056292f,  0.080894f,
  -0.0823f,   -0.063336f, 0.09706f,   0.010185f,  0.006677f,  0.086122f,
  0.081969f,  0.065254f,  0.040802f,  0.070178f,  0.0219f,    0.047395f,
  -0.066646f, 0.025575f,  -0.052437f, -0.106755f, 0.090604f,  -0.069288f,
  -0.036586f, 0.007104f,  0.004358f,  0.052017f,  0.099546f,  -0.009949f,
  0.010488f,  0.057183f,  -0.013741f, -0.049754f, 0.019723f,  -0.061415f,
  -0.09673f,  -0.060773f, -0.004374f, 0.021028f,  -0.055631f, -0.091936f,
  -0.131674f, -0.112352f, -0.071645f, 0.052667f,  0.006815f,  -0.060935f,
  0.123823f,  0.071036f,  -0.127111f, 0.0145f,    -0.038412f, 0.075102f,
  -0.068338f, 0.018942f,  0.08885f,   0.066886f,  -0.018124f, -0.025131f,
  0.039766f,  0.004267f,  0.070803f,  -0.057009f, -0.006766f, -0.03193f,
  0.044591f,  -0.051906f, -0.022531f, -0.131347f, 0.07912f,   -0.056625f,
